0.12067,-0.0016869,-0.00086557,-0.0023331,0.0029896,0.00055233,-0.0010267,-0.0037236,0.00085091,0.0046362,-0.029568,-0.0027505,0.015884,-0.029027,0.033042,0.0024799,0.014647,0.0076526,0.0014954,0.0036965,-0.035063,0.0049709,0.012163,-0.0036346,0.0043018,0.0033103,-0.00020198,0.001519,-0.0038345,-0.0011721,-0.0013009,0.00096967,-3.8532e-06,0.0010648,0.0026399,0.0054109,-0.00051964,9.8471e-05,0.00058301,0.00086344,0.00025765,-0.001756,0.0028312,-0.00054883,0.00068907,-5.9826e-05,0.00058069,0.00075393,0.0037205,0.0006646,0.002045,0.0054571,0.00043606,0.013399,0.014624,-0.00055222,0.002036,-0.00035786,-0.00067622,-0.00062922,-6.8869e-05,0.00026349,-0.00042741,-9.0148e-05,0.077584,0.010975,0.00039042,-0.0040824,-0.0011698,0.0007347,-0.0001709,0.0036536,0.0021781,0.00026161,-0.0023544,-0.0041627,-0.022125,0.00020947,-0.002128,-0.0019247,3.9672e-05,0.0011389,-0.0004122,0.019545,0.0046904,-0.001362,0.001208,0.019627,0.010963,0.0062834,0.0056112,-0.0038314,-0.0011157,-0.0032707,-0.002266,-0.0043507,0.0079142,0.0019582,-0.0019456,0.01109,0.0043292,0.058251,0.0033761,-0.0002614,-0.015274,0.00088671,0.004035,-0.0012429,0.019167,0.026399,0.012635,0.0045934,0.0039753,0.0040392,0.00027066,0.001856,-0.0012738,0.0044291,0.0017329,0.00028962,-0.0041882,-0.0015009,-0.0047358,-0.00054317,-0.00091871,0.0015537,-0.00067861,0.002897,0.01837,-9.6175e-06,0.023003,-0.00087324,-0.039423,-0.0027689,-0.046492,-0.001461,-0.016023,-0.012283,7.6625e-05,0.043104,-0.00052129,-0.051294,0.052722,-0.017319,0.0057698,0.0035864,0.0035334,0.0040162,0.0010125,0.0011657,-0.00043392,0.0070265,-0.0059804,0.00029689,0.0031151,0.0055298,-0.013604,-0.0028228,-0.0091346,-0.0084367,-0.0016064,0.0020782,0.0020549,0.0079671,-0.0015024,0.0034332,-0.0025379,0.008822,-0.0019265,0.011591,0.0068975,0.011429,-0.00044034,-0.0037845,0.010397,0.0046534,-0.0063444,0.013522,0.037622,0.0041221,0.0044341,-0.00072317,0.0014865,-0.0033796,-0.0034558,-0.004074,0.0098454,-0.0012704,0.057161,0.0021644,-0.0047957,0.001441,0.0012778,0.075451,0.0082,-0.04742,-0.061517,0.00086428,0.0068941,0.0018507,0.0053758,-0.0033546,0.0029707,0.0019839,0.0010538,-0.029678,0.0037298,0.0062815,0.031327,0.016978,0.0022681,0.0055543,-0.00013992,0.047799,-0.0014792,-0.0047413,0.024434,0.0061092,0.0056621,0.028108,0.03038,0.0011801,0.0012117,-0.0047911,0.0029604,0.0075138,0.010092,0.052549,-0.039515,0.014827,0.092788,-0.0087259,0.001411,0.00074234,0.042775,0.0020358,-0.040651,-0.027508,-0.00067119,0.0016945,0.0022968,0.00333,0.0018794,0.001208,0.0020742,0.00041281,-0.005828,-0.00087091,0.057183,0.0059656,0.008915,0.0015455,0.051895,0.0038977,0.0056461,0.00060067,0.003396,0.0013942,0.0034728,0.0074017,0.00074816,0.0011291,0.032389,0.0033695,0.032879,0.0013406,-0.0073486,0.0025224,0.0027479,0.0018028,0.012775,0.0029944,0.0064525,0.0044228,0.015344,0.01356,0.0058782,0.001511,-0.0077111,-0.0017705,-0.012659,0.0046475,-0.0017936,0.0057176,0.0039445,0.00023387,-0.00035529,-0.013838,0.010332,-0.018392,-0.0096023,-0.0019738,0.016582,-0.0019578,0.01382,-0.010222,-0.0031528,-0.0084704,-0.0016147,-0.00012304,0.0019727,0.0040361,-0.00012202,0.012394,0.00031633,0.0021498,0.016785,0.0013596,0.001231,0.0039989,0.0012337,0.0064275,0.0024245,0.0014378,0.0025058,0.004062,0.00091281,0.004073,0.0021182,0.0040204,0.00213,0.0023717,0.0020477,0.01189,0.00039054,-0.0026338,-0.00049181,-0.0017604,-0.017099,-0.023146,0.021716,-0.00046368,-0.0016989,8.4203e-06,0.028353,0.019693,0.0027261,0.0071378,0.047428,0.044525,-0.018448,-0.016556,-0.0010178,0.015814,-0.0061837,-0.00099284,-0.0084733,0.0025889,0.0071114,-0.044934,0.0040712,-0.00064972,-0.00055892,0.0014994,0.0044753,-0.0014774,0.0013259,0.0030208,-0.0082034,-0.003619,-0.0096251,-0.006167,-0.0010657,2.1618e-06,0.0042001,0.00015948,0.0067498,-0.0015492,0.0018855,0.011813,0.0028088,0.017943,-0.0036516,0.0039386,-0.0029251,0.00090007,0.00071274,-0.0067908,0.0010052,0.0012413,-0.0019441,0.01116,0.0031083,0.0015604,0.01805,0.011249,0.009226,0.0016213,-0.0023541,0.00032247,0.0019797,0.0023482,0.0018462,-0.0024177,0.0013731,0.021416,-0.013123,0.013177,-0.0044868,0.02077,-0.013067,0.0033273,0.00018653,0.0026831,0.0003182,0.051591,-0.0077915,0.00060773,0.00055795,0.0014991,0.0014266,0.0030841,0.0046,0.030147,0.012745,-0.0014294,0.0034143,0.00041181,-0.014943,-0.0020058,-0.02154,0.0050022,-0.022728,0.00069921,0.0086744,0.00048937,0.0039878,0.0038963,-6.5536e-05,0.0022884,0.0054195,0.0018861,0.00086303,-0.0022297,0.0026541,-0.0093498,-0.0053884,-0.003741,-0.0015957,-0.0029176,0.00051454,0.0013499,0.003678,-0.0016602,0.0013468,0.0063368,0.00030048,-0.016601,-0.0035249,-0.03081,0.003352,-0.026097,-0.0036648,0.0073611,-0.0084682,-8.7955e-05,-0.00064793,-0.001258,0.0010427,0.057842,0.0012931,-0.010945,-0.00074129,0.0016187,-0.018369,0.0019236,-0.004649,-0.002255,0.0020235,-0.00040845,-0.0031612,-0.0075329,0.030956,0.014526,0.0061019,0.0060466,-0.00042536,-0.037965,-0.0095118,-0.028575,0.0017308,0.07345,-0.0044341,0.010421,-0.0087268,7.9941e-05,-0.0032487,-0.0030443,0.0036877,-0.0097641,0.0011751,-0.010172,-0.0051851,0.00042608,0.005958,-0.060258,-0.00062455,-0.0041646,-0.0011465,-0.0015466,-0.00079297,0.0024096,0.0035218,-0.0043931,-0.011292,0.0017042,0.0045153,0.0020126,-0.029761,0.0070986,-0.029388,0.002289,-0.025261,0.0016623,0.00050143,-0.00079822,0.0026438,0.00088395,0.00065785,0.0067167,-0.0011131,0.017586,0.019477,-0.004507,0.00083059,-0.033164,-0.020845,-0.031589,-0.0094964,-0.0036845,0.00053894,0.0011172,0.0011038,0.0017223,0.002529,0.0060946,0.018522,-0.0019044,-0.0034336,2.3475e-05,-0.028892,-0.00097754,-0.027645,0.0048823,-0.045729,0.0013048,0.0129,0.0057502,0.002366,0.0038433,0.0010787,0.0016729,0.010119,0.0014483,0.00029663,-0.0011765,0.0039897,-0.046856,-0.030189,0.051068,-0.049371,-0.00050559,-0.0033111,-0.0040905,-0.0039361,-0.00085194,0.0010945,0.005715,-0.0010083,-0.019084,0.004798,0.0034451,0.00090665,-0.054962,0.011363,-0.028116,0.001138,-0.0094753,0.0041259,0.0039792,0.0011263,0.0055573,0.0019145,0.0014126,0.0036875,0.011581,0.0059136,0.0093354,0.0027986,-0.0024623,-0.014602,-0.0040119,-0.011653,-0.0059955,-0.038833,-0.0024189,-0.0079303,0.00038845,-0.00026367,0.0031275,-0.00032006,0.0028225,-0.0021904,-0.0050464,-0.0023801,-0.0097176,-0.0003876,-0.048111,0.0073617,-0.033492,0.0027624,-0.023684,-0.0010776,0.0055737,0.0019025,0.0021399,0.0046561,-0.00038834,0.0017805,0.0049209,0.00073569,-0.00092945,-0.0024849,0.0025741,-0.00071337,-0.033567,0.037076,-0.014241,0.045866,-0.02063,0.00052674,0.0010082,0.00018587,0.0025529,0.0016466,0.0025193,0.0060941,-0.0011388,-0.000746,-0.011344,0.0093911,0.0084628,-0.0018872,0.011871,0.0028476,0.002228,0.00069815,0.0013801,0.0020616,0.0010737,0.002887,0.0044782,0.001911,0.030727,-0.002054,0.0055681,0.0047454,-0.0072237,0.00070465,0.0002047,0.00039894,-0.0011382,0.002552,-0.00078335,0.0023388,-0.0010424,-0.003387,0.00062356,-0.0018194,0.0082309,0.0015439,0.0066019,0.0055916,0.00062266,0.0026268,-0.01071,0.015809,-0.0029841,0.014149,-0.0056423,0.014372,0.0046491,0.0004281,0.0070938,0.0029314,0.01085,-0.0004974,0.0095876,0.0060053,-0.0069825,-0.010141,0.0022751,-0.0080738,-0.00032248,0.0042557,0.0026068,-0.0011813,0.00016595,0.0068251,0.0023983,0.006036,0.0022357,0.0099576,0.00048029,-0.00082522,-0.015879,0.0031263,0.0014513,0.02165,0.033985,-0.0040439,0.00034974,-0.0013989,0.0039696,-0.0034289,0.0014087,0.0028093,-0.0020564,0.0045645,-0.00062391,0.00505,0.0012043,0.0071062,0.0037327,0.0047554,-0.00055076,0.014332,0.0012923,0.0034468,0.0031666,-0.00013853,0.0016927,0.00062714,-0.00015053,-0.0011729,0.0019072,0.0028034,0.0035964,0.0011253,0.061484,0.0092171,0.0001532,-0.0038304,-0.0047827,0.00025149,-0.0018475,0.00096537,0.0016733,-0.023736,-0.027735,0.0025507,0.023579,0.00052659,-0.047186,0.0055455,0.011337,0.0014113,-0.02208,0.00045786,-0.00062607,-0.0013864,0.00069496,0.00041253,-0.00015658,0.0026529,-0.0039122,0.0080571,0.00075644,-0.002029,7.0058e-05,-0.0073337,-0.036518,-0.017976,-0.0068915,-0.014578,-0.0055699,-0.030176,-0.0050085,0.0049149,0.0072691,-0.0010252,-0.0001254,0.0018679,0.0047695,0.0016299,0.015361,0.0046113,-0.0095519,-0.012056,-0.00072041,-0.0073268,0.0013263,0.035656,-0.0037074,0.015514,0.0047772,-0.0078576,0.00045363,0.0062191,0.0037535,0.0052718,0.0021763,0.0019913,0.0029867,0.012254,0.0027218,0.02525,0.027208,0.0033244,-0.0049457,0.025654,-0.0040625,0.084479,0.017394,0.054638,0.0055861,-0.00017706,0.010579,0.0083756,-0.0021909,-0.00065602,-0.00041096,0.00021164,0.0043404,-0.0038546,0.00081263,0.0022029,-0.012002,-0.0022628,0.0042938,0.02359,0.0108,-0.00085375,0.0055791,0.0034083,0.00040331,-0.0088858,0.00025606,0.0044269,-0.00061318,0.0021828,-0.0050152,0.0015765,0.0020477,0.00082404,0.001559,-0.00072762,0.019891,0.0014876,-0.0015988,-0.0013732,-0.0061578,0.0042102,-0.0018363,0.014758,-0.0025341,0.011754,0.0035876,0.0044537,0.032451,-0.0013197,0.00085555,-0.0079307,-0.0033165,0.0070494,0.0012666,-0.00016435,0.0022489,-0.061089,-0.043154,-0.0023255,-0.0109,-0.0011548,0.0068595,-0.0063877,-0.00938,0.0036602,-0.010795,-0.0033133,0.00063777,0.0036511,0.0016277,0.0014732,-0.00012302,-0.0021469,-0.0058318,0.00068935,-0.0042307,0.023249,0.007054,-0.0079316,-0.0085941,0.013827,0.0034907,0.01778,-0.010418,0.0015666,-0.0061781,0.00086123,-0.0063759,-0.024363,-0.0052816,-0.011031,-3.5785e-05,0.00040325,-0.0022513,0.008383,-0.0012802,0.0041144,0.0067963,-0.021669,-0.031689,-0.013588,-0.002067,-0.00046251,-0.0072179,0.013139,0.0055686,0.0036266,-0.0033782,0.0035113,0.0058443,0.011852,0.0075366,0.019883,0.0065285,0.00099431,-0.0062085,0.0016474,-0.011011,-0.048411,0.030915,-0.005772,-0.0029599,-0.011043,0.0014184,-0.0079872,-0.0042811,-0.0077653,0.007208,0.0015621,-0.0040335,-0.026264,0.00022662,0.015899,-0.062613,-0.0010608,-0.0067969,-0.0029787,0.00019304,0.0038492,0.0029854,0.00075928,0.0045863,-0.019365,-0.0056974,-0.029504,-0.00066631,-0.010362,0.0060859,0.00048217,0.0079213,-0.024361,-0.00098839,-0.00025199,-0.0012494,0.001414,-0.0011383,-0.0019853,0.0011228,-0.00098722,0.0023395,0.0015857,-0.019764,-5.8653e-06,-0.0077212,-0.02399,-0.025665,-0.091923,-0.028297,-0.054866,-0.025298,-0.013162,0.0040028,-7.2435e-05,0.0082452,-0.0068646,0.060909,-0.010969,-0.010796,8.0744e-06,0.00088432,-0.0074347,0.00056025,0.019098,-2.3106e-05,0.0019354,-0.0034406,0.00055388,-0.018804,0.010719,0.00088115,0.0013888,0.01192,0.0048855,0.00075734,0.0016445,-0.00043581,0.00025131,-0.00036938,0.00076194,0.0027398,-4.1246e-05,0.0014564,0.0007936,-0.0017204,0.0028898,-0.016648,-0.0037949,0.0021621,0.0011103,0.0010029,0.0031361,0.00073764,0.00086375,0.0011843,0.028294,0.0081951,0.0057673,0.0035546,-0.015338,0.022943,-0.0010852,0.0032557,-0.001492,-0.0042222,-0.00048048,-0.0045951,-0.0038571,0.0012068,-0.00060328,0.0058261,-0.0054169,0.0010562,0.0067601,0.0068248,0.0011872,0.019433,0.0089225,0.0046851,0.0017951,-0.0046604,-0.0041852,0.0034144,0.013454,0.006911,0.017512,-0.005052,0.0043816,8.9928e-05,0.011531,0.0060269,-0.023223,0.0084792,-0.0015305,0.0023475,-0.0041691,0.0091991,0.0016157,0.0029844,0.00095882,0.010163,0.067495,0.0050787,0.0081831,0.0036396,0.0032285,0.0011404,0.0083489,0.0038833,-0.013566,-0.020039,0.0057428,-0.0012134,0.0078601,2.2633e-05,-0.002374,0.0084616,-0.0018332,-0.00054994,0.0047239,0.0046369,0.011145,-0.0013806,0.0076953,6.8661e-05,0.0010056,-0.00040105,-0.0037195,0.0052837,0.032553,0.0023067,0.025912,-0.01391,0.017517,-0.0021507,-0.025928,0.002833,-0.0078761,0.0069951,-0.00045149,-0.0036421,0.0025529,0.0016037,-0.0015623,0.0060849,-0.0016406,0.0014798,0.0092,0.0035292,0.00064027,0.005983,0.00048241,-0.0039644,0.0015793,-3.8389e-05,-0.0085973,0.00034949,0.0080072,-0.04724,-0.0024785,0.0060438,-0.00074246,-0.014336,0.023596,0.0074048,0.0049555,-0.0038516,0.0024251,-0.001799,-0.0045763,-0.0087447,-0.0025513,0.018162,0.0070579,0.034235,0.024416,0.015575,0.0007181,0.01031,0.0087476,0.0051645,-0.025944,0.0015963,0.0025909,0.0041374,0.0065024,-0.035187,-0.0012714,0.025829,-0.0073735,-0.0017141,-0.0033228,0.0015765,0.0013816,-0.0028816,0.021844,-0.0053876,0.012811,0.00075476,0.02213,0.0070068,-0.0035421,0.0011871,0.0019579,-0.0051639,-0.010916,0.0029526,-0.00087434,0.0028597,0.0010428,0.0031785,0.0092977,-0.0012481,-0.0011226,0.075429,0.0070659,0.03559,-0.00034247,0.048841,0.0027355,0.0028494,0.0067086,0.021294,0.004232,0.0039584,0.0068788,0.015802,-0.0041417,0.038298,-0.0044234,-0.002012,0.0057457,-0.0062384,0.00086609,-0.00053676,-0.0029824,-0.0029834,0.0036048,-0.0014805,0.0038554,-0.0014256,0.055855,0.0059099,0.024344,0.0016407,0.0064016,0.0018465,-0.0015898,0.0017838,-0.0049616,0.0055781,-0.0044168,0.019181,0.0026498,-0.072359,0.0030755,-0.0011102,0.010017,-6.7394e-05,-0.039008,0.029172,-0.00020573,-0.00014197,-0.0034201,0.0011362,0.0027922,0.00027802,-0.0016859,-0.0049269,0.010302,-0.00030367,0.044866,0.01634,0.021898,0.012707,0.029062,-0.0095194,0.038318,-0.030222,0.0013453,-0.00025407,0.0040638,0.015432,0.00054049,-0.0065214,-0.0058581,0.0069752,0.00015886,0.0032093,-0.0014217,-0.014793,0.0034438,-0.0013203,0.00025386,0.0063166,-0.00036862,-0.0016134,-0.00051448,-0.0024032,-0.00043566,0.0099276,0.010003,0.028604,0.014358,-0.041919,-0.00656,-0.002462,-0.011388,-0.00014585,0.0080007,0.0056277,-0.007851,-0.0019265,0.020681,0.016961,0.015964,0.0064338,0.012946,0.0015006,0.0016872,0.0016615,0.014763,0.0042114,-0.0049599,-0.0039413,0.0038762,-0.010742,0.041919,-0.005653,0.011099,0.036637,-0.0027305,-0.0013978,-0.0035604,-0.010324,-0.010538,0.014552,-0.0044871,0.012904,-0.0067493,0.015534,0.0080792,0.0068958,-0.00071527,0.0072814,0.0024074,-0.0073016,-0.0010182,0.0002188,0.0046412,0.030398,-0.029309,-3.4286e-05,0.0089353,0.09817,-0.002556,-0.0014466,0.00010463,0.0017068,0.00050401,0.0016441,-0.00080178,0.0009274,-0.00024347,0.0054593,0.04899,-0.0016671,0.00069347,0.053041,0.011523,0.0040259,-0.0014916,0.00049168,-0.00107,-0.0051134,0.0013352,-0.016029,0.0014992,0.0085032,-0.0020528,0.0044669,0.0038976,0.0039966,0.0041223,-0.0012419,-0.0011485,-0.0024601,0.003573,-0.0016908,0.0029132,-0.0014036,0.047441,-0.015807,0.00041791,0.0020661,0.0046277,0.0082273,-0.0024481,0.00036205,0.0013947,-0.00074308,-0.0011562,-0.00084715,-0.0021716,0.026529,-0.0015261,-0.0040276,-4.211e-05,0.00059037,0.00045533,6.1202e-05,0.0010527,0.0068803,-0.00055767,-0.0045916,-0.0011831,0.0072759,0.072054,0.0015252,-0.00066217,0.022061,0.0053597,-0.00036383,-0.0054329,0.0018164,-0.012938,0.0012896,0.0013023,-0.017911,0.0011405,0.0028305,0.00015713,0.00051443,-0.00074908,-0.022496,3.6385e-05,-0.00017607,0.00088488,-0.00081859,-0.00021865,-0.0015593,0.00044389,-0.0022389,0.017627,0.012307,0.00065531,0.0070559,-0.0070343,0.038836,-0.0062882,-0.0089546,0.0007649,0.016221,0.01656,-0.00013091,0.00047958,0.0030569,0.00059329,0.0012985,0.01939,0.00012874,-0.006159,-0.0037743,-0.0032364,-0.0027061,-0.0025235,-0.012152,-0.0041187,0.011394,-0.0083293,0.0061374,-0.0051449,0.0044101,0.0071342,-0.0067217,-0.00108,-0.0020086,-0.00048597,-0.0035507,0.0020786,-0.0021805,-0.0013988,-0.0016551,0.00014885,-0.0014449,-0.00081949,0.0012667,-0.0060305,-0.0015485,0.015336,-0.0091675,-0.0043136,0.0067026,0.013182,-0.0073591,0.003731,-0.0044378,0.00091603,-7.7107e-05,-0.0032652,0.0022847,-0.0049293,-0.012664,-0.0051549,-0.010102,-0.0013134,0.00069418,-0.0023175,-0.0074122,-0.0020415,-0.0025273,0.00075601,-0.00099085,-0.0018427,-0.00095519,-0.0048942,0.0096463,0.00028537,-0.0048055,-0.0051208,0.00073043,-0.001943,-0.0029564,-0.0015229,0.0042994,-0.00089275,-0.0018733,0.0023299,0.0054345,0.00028609,-0.0042706,0.0004843,0.0020648,-0.001068,0.0027828,0.0014594,0.0013542,0.0012559,-0.00010776,0.00058348,-0.0011773,-0.0023408,-0.0021891,0.00018031,-0.0025739,-0.0071396,0.0032431,0.013953,-0.0046774,0.00020856,0.0065087,0.0046263,0.00026386,-0.0041682,0.0078434,0.012135,-0.001709,-0.00091625,-0.0032969,-0.00086496,0.00048412,0.0013142,0.00029005,-0.00253,-0.00040526,-0.0012075,-9.5068e-05,-0.0031629,-0.037523,-0.0016634,-0.0048197,-0.0058801,-0.0020804,0.0027774,0.00044616,-0.0056038,-0.0020943,-0.0023598,0.00052971,0.0053628,-0.00078935,0.0029462,0.0048421,0.0021896,0.00044117,0.006254,-0.00086342,0.0001889,0.00067531,-0.00056452,-0.00016584,-0.0013789,0.0013457,-0.0037809,0.00028436,-0.0031743,-0.0047157,-0.00066335,0.0023502,0.0048585,-0.00054583,-0.0015598,0.0039122,0.0043394,0.0061287,-0.00035159,0.00038415,0.00038337,-6.0755e-05,-0.0033674,0.0019928,-0.0068771,-0.002969,-0.0075216,-0.0011664,-0.00042664,-0.00093326,-0.0017076,-0.00084048,-0.0012179,-0.00080098,0.0013481,-0.0024143,-0.06809,-0.089088,0.028872,0.00097876,0.0012629,0.019882,-0.0047011,5.9782e-05,0.015139,0.0026027,-4.9994e-05,0.0010507,0.0014841,0.00022871,0.0010822,0.0016515,-0.0011787,-0.035197,-0.0051751,0.032686,-0.0080853,0.021942,-0.0047624,0.01224,0.014627,0.0041642,-0.016137,0.0032307,-0.011757,0.00083284,0.00035429,0.00012967,-0.0017453,-0.016063,0.0015199,0.0011475,0.00080868,-0.00015153,0.00044409,-0.028849,0.0068047,0.00010257,0.0037687,-0.0003489,-0.001133,-0.0008389,-0.00058521,-0.00017248,0.0017067,0.0020166,-0.0045993,0.0026925,0.010248,-0.00051942,-0.00058359,-0.00032534,-0.0022959,-0.0032006,-0.0025404,-0.013334,0.00090989,-0.004415,-0.00042223,0.0051109,-0.0022373,0.00123,-0.0048481,-0.0039543,0.0013558,-1.8687e-06,-0.00030513,-0.00058886,-0.0019182,-0.0011594,0.00035719,-0.0078429,-0.0027651,-0.0017948,-0.0020492,-0.00020833,0.00015629,0.003238,0.010084,-0.00096921,0.00027549,-0.00049565,-0.0023885,-0.0024238,-0.0012536,-0.0023382,-0.0058599,-0.0017392,-0.00024345,-0.0023418,-0.0027028,0.01223,-0.010746,-0.013599,0.0022288,0.00071563,0.0014838,-0.0048825,-0.0024737,-0.002456,0.0027001,-0.0030397,-0.0017742,0.019758,-0.003301,-0.0047291,-0.0058608,3.9444e-05,0.0015051,-0.00090257,-0.0043893,0.0031529,0.031221,0.016215,-0.0092444,0.033449,-0.001934,-0.019345,0.009336,-0.0081175,0.014088,-0.003389,0.0011991,0.0025613,0.00011676,0.0052074,0.0018646,-0.0051486,-0.0047217,0.00018439,0.023982,-0.015372,0.0075724,-0.0047116,0.0025734,0.0034724,0.0026758,-0.0046879,0.001313,-0.00037315,0.00044886,0.00020326,2.5749e-05,-0.0011258,-0.0043457,0.0017848,0.002179,-0.0001137,0.0007468,0.0025946,-0.00034226,0.0092346,0.00065001,0.0064812,0.00018652,0.00035547,0.0021465,0.00073887,0.00059289,-0.001653,0.001616,0.0022379,0.001749,0.0036718,-0.00096696,0.00048953,0.0016972,-0.001721,-0.0097541,-0.0029378,0.025043,-0.011682,-0.011871,-0.0012794,-0.0021535,-0.0050359,0.00062715,-0.0067597,-0.0036802,-0.00070513,0.00050175,-0.0017927,0.0047458,-0.011811,-0.00012902,-0.010854,0.0016391,0.0035403,-0.0011851,0.0019197,0.003207,0.009819,0.0087856,0.010009,-0.00024442,-0.00054874,-0.0024121,0.01229,0.0043847,0.0042121,0.0049437,0.00020781,-0.0029545,-0.0023938,0.0017927,-0.0013048,0.0069356,-0.0018401,0.030354,4.2513e-05,0.026635,0.00092388,0.0028826,0.0012007,-0.0019668,0.00063836,0.00030728,-0.022854,0.036459,-0.0020513,-0.0044826,0.004064,-0.014048,0.018697,0.00071508,-0.0014997,-0.00067525,-0.00041831,-0.00016717,0.0060783,-0.0074576,-0.006478,-0.0079504,0.022819,-0.0059122,-0.017212,0.00023385,-0.065422,-0.018136,-0.0040467,-8.1125e-05,0.00064443,0.00059251,0.0013355,-0.0013642,-0.0052873,-0.0024142,0.004711,-0.0025858,0.04188,-0.0016726,0.0023532,-0.016384,-0.0010039,0.010686,0.014924,-0.0042705,0.0090148,-0.0079027,0.00021119,0.0017109,-0.0012492,-0.0025564,-0.0032063,0.00017636,0.00017342,-0.0010628,-0.0014853,-0.00068636,-0.0085138,-0.047262,0.00011671,0.0015233,3.2362e-05,-0.0019217,-0.0012189,-0.0013751,-0.0011679,0.0021503,0.0030653,0.027922,0.0045031,-0.054995,-0.013122,-0.0012406,-0.00051692,-0.0018822,-0.0028015,-0.0022404,-0.092772,0.027521,-0.025162,-0.042178,-0.024377,0.0067163,-0.0037529,-0.00011274,0.0010306,-0.0023439,0.0071698,-0.003181,-0.00049419,0.0077763,0.0022793,0.0021541,0.00057302,-0.003443,-0.0016251,-0.0060055,-0.002947,0.016812,-0.00047494,0.0095301,-0.0041274,0.0055197,0.023613,0.017104,-0.0040042,0.0069062,-0.0068049,0.001152,-0.00035149,-0.00094696,-0.0010381,-0.0041993,0.00054648,8.6132e-05,0.00063044,-0.00099251,0.0036379,0.030861,0.044428,0.0033544,0.0021873,0.0021964,-0.0031924,-0.0001803,0.00073087,-0.00046227,0.0042652,0.010952,0.0046734,0.012074,-0.022514,-0.0015731,8.4418e-05,0.00023974,-0.0018619,-0.0074341,-0.0014747,-0.014116,-0.0026869,-0.041217,0.01323,0.03849,-0.013189,0.001171,-0.00056118,0.0032332,0.0017156,0.00072554,0.0026945,-0.028159,0.02033,0.0049106,0.0076276,-6.4488e-05,0.03638,0.0071372,0.015804,0.00432,-0.014525,0.0016069,0.0035037,0.0076338,0.0066583,0.0028359,0.0054856,0.0016473,0.0010966,0.0014735,0.012609,0.0039612,0.004717,-0.0080357,0.010059,-0.0047478,0.0074946,-0.007512,-0.0017224,0.0018324,0.0026471,0.00010181,-0.0088991,0.004305,-0.0005351,-0.0016825,-0.0070184,-0.045396,0.0088912,0.0081208,-0.002604,-0.0027014,0.019767,-0.0003529,0.0033572,-0.0039209,-0.00032294,-0.0011333,-0.0064155,-0.0035796,-0.0051921,0.0023461,-0.00024356,0.006883,0.00046367,-0.0041761,-0.0097116,-0.0068548,0.0025111,-0.003869,0.0067202,0.0024358,0.0020986,0.0026282,-0.022966,-0.0303,-0.00095771,0.0097751,-0.00043555,0.0017437,0.00089106,-0.0014394,0.0043683,-0.0049241,-0.0021345,0.0013688,0.0065825,0.002044,0.0048902,0.00017254,0.00091863,-0.010652,0.001412,0.00078239,0.0027588,8.2473e-05,0.011135,0.0019732,0.014305,-0.003088,0.0033858,-0.0018826,0.0092432,0.0018696,0.0020457,-0.030569,-0.016348,0.0042826,-0.013462,-0.0021493,-0.02162,-0.0030569,0.00051278,0.017417,-0.0025323,-0.0032137,-0.0013099,-0.0042924,0.0035774,-0.001543,0.000961,-0.0047006,-0.00045878,-0.0045196,-0.00017489,-0.0040434,0.0036268,-0.0012184,-0.0061404,-0.0068872,-0.013575,-0.00054304,-0.0036508,-0.0045294,0.00032514,0.0035202,0.00041213,0.0018216,-0.0032808,0.002423,-0.001691,0.0013745,-0.00085541,0.0065016,0.019603,-0.010884,0.0012353,-0.003313,0.00097599,2.6017e-05,0.0012298,0.00021841,0.00068069,0.00016235,0.00061745,-0.002986,0.0009403,-0.008865,-0.011251,-0.00030429,-0.0025521,0.0031162,-0.0053524,-0.015044,0.003185,-0.017067,-0.0033444,-0.0028545,-0.0013713,-0.00093325,-0.00032176,-0.010784,-0.00060427,-0.0059183,-0.0064957,-0.00098547,-0.0082695,-0.0012216,-0.0015476,-0.013736,-0.001233,-0.0016757,-0.0010483,-0.0088491,-0.001167,-0.012577,-0.0090726,0.0012863,-0.0017968,-0.0014048,-0.0012529,-0.00036351,-0.00095299,-0.0012211,-0.0071036,-0.0025547,-0.00053381,-0.0044013,-0.004863,-0.0011627,0.00072799,-0.0017974,-2.3713e-05,-0.014796,-0.010113,0.0027516,0.0022728,0.00017227,-0.0028447,0.0014662,-0.0053684,-0.00074477,-0.0035945,-0.0026589,-0.0026669,-0.0037473,-0.0021303,-0.0015143,-0.0015648,0.002439,0.0010947,0.00014642,-0.0017599,-0.00084499,-0.0020251,-0.0022692,-0.0048953,-0.0099404,-0.0029477,0.009748,-0.0032721,0.0038957,0.0024685,0.0011955,0.00091494,0.0073,-0.00054814,0.0019714,-0.0068393,-0.0027273,-0.00080385,0.0023327,-0.00045805,-0.0010523,-0.012867,0.00060066,-0.0035721,-0.0041311,1.376e-06,0.00076774,-0.0027588,-0.0030282,0.0072647,-0.0067694,-0.0022851,0.0026395,-0.0014768,-0.00045007,-0.0029765,-0.0016067,-0.014215,-0.0015925,-0.0030313,-0.002846,0.0031547,0.00041472,0.0059175,-0.00029633,0.0028364,-0.0034857,0.0070605,-0.0023754,0.0012115,-0.00061828,0.013433,0.0037655,0.0078686,0.0014627,0.00017711,0.0011909,-0.0013243,0.00017053,0.00014133,0.00047496,-0.00046362,0.0012885,0.0017925,0.00073855,-0.002976,-0.0073902,-0.00048351,0.0054771,-0.00805,-0.013888,-0.0028851,0.008857,-0.0054575,0.0016214,0.00017009,-0.00029819,0.00085417,-0.0052424,-0.0027849,-0.0028129,-0.00038414,-0.0026076,-0.011579,-0.0014113,-0.00019762,-0.0010572,-0.0048666,-0.00095198,-0.0010848,-0.0011598,-0.00077669,-0.00033939,-0.0031261,-0.0041421,0.0056111,-0.0023323,0.0053609,0.0017256,-0.00033806,-0.0011476,-0.00047421,-0.0040239,-0.0060383,-0.0075804,0.00834,0.0067691,-0.0029072,0.0061566,-0.0012942,-0.0077996,0.001276,-0.00081615,-0.010125,-0.0037739,0.00040327,-0.00088624,-0.0028365,-0.0045161,-0.0014854,-0.0064274,-0.00081213,-0.0054477,-0.00045832,-0.0027277,-0.0037427,-0.00092237,-0.0015111,-0.0023652,0.00071584,-0.0017585,0.00021779,-0.0019026,-0.0033568,-0.0014073,-0.0021588,-0.0087992,-0.01153,-0.0052434,0.00036087,-0.0048919,-0.0044159,0.00017034,-0.0020799,-0.0023131,-0.0094841,-0.0021575,-0.0020475,-0.0014369,-0.0038784,-0.0041131,-0.0012957,-0.00045524,-0.0023215,-0.0095711,-0.0013761,-0.0026681,-0.004109,-0.0003333,-2.4935e-05,-0.010551,-0.0077171,0.0023991,-0.0062021,-0.0054684,0.004729,-0.00085557,-0.0013714,-0.0044191,-0.0041563,-0.0081551,-0.00227,-0.04732,0.0029743,-0.00078987,-0.0027277,-0.0045021,0.0014722,-0.0011991,-0.0034553,0.003533,-0.0043505,0.001032,-0.0016457,0.0068326,-0.0012259,0.00090371,0.0057517,0.0018541,0.0025486,-0.0020439,0.00086312,-0.0022627,0.0016108,-0.00024402,0.0003377,0.00043762,-0.00018781,-0.00023126,0.001579,-0.0036664,-0.0038858,-0.00059594,-0.00028579,-0.01357,-0.0054407,0.00080324,-0.00068806,-0.0029765,-0.0023898,-0.00073594,0.0014346,0.0012834,0.0036851,-0.0012751,-0.00087138,0.012058,-0.0036745,-0.0098719,-0.00027296,0.00093006,-0.00020545,-0.0022189,5.0469e-05,-0.00034309,-0.00026025,0.0011175,0.00026164,-0.02042,-0.03534,-0.0060771,-0.003688,0.00082099,-0.0019531,0.00069703,-0.001728,-0.0010783,-0.0033676,0.0018014,-0.0023408,0.0073285,-0.10118,-0.0089882,-0.00042038,-0.0016875,0.010404,-0.0016496,-0.0021403,0.0038848,0.001779,-0.0049844,-0.0039974,0.00024155,0.0019848,-0.0011684,-1.6898e-05,0.0032291,-0.0006019,-0.0015174,-0.0052686,0.004433,-0.0017084,-0.0018873,-0.00088514,-0.00076119,9.4517e-06,0.0012202,-0.0020564,-0.00037222,0.00031709,-0.001343,-0.00048518,-0.0012291,-0.004861,-0.0059662,-0.0042786,0.0006482,-0.0034622,-0.0014235,-0.00058666,0.0015216,0.00087276,-0.00054552,-0.00076264,0.001114,-0.0056818,-0.00067366,-0.00068162,-0.0033343,0.00020701,-0.00071922,-0.001989,-0.00042056,-0.0011848,-0.0017666,0.00048403,0.00055545,-0.0022259,0.014489,-0.015374,-0.0037598,-0.0071777,0.00032024,-6.9165e-06,-0.0015139,-0.0012225,-0.0010174,-0.0020356,-0.0097506,-0.007843,-0.0071178,-0.1218,-0.01926,-0.00071477,0.00088848,-0.0022494,0.003688,0.010259,-0.0012516,0.012947,-0.0078352,0.00041829,0.0024732,0.0047828,-0.00057753,-0.0002472,0.001214,0.010651,0.0015576,-0.0033659,0.0019978,-0.00047152,-0.0022253,0.0014593,0.00059968,0.00011254,0.0014229,0.0019563,0.0013796,-0.00098112,-0.0027481,-0.00064775,-0.001805,0.0021012,-0.0062931,0.0029867,0.0048181,0.00039721,-0.0011318,0.00095672,0.0012427,0.00078592,-0.0010129,-0.0019631,-0.0013161,-0.0005491,-0.0023335,-0.0028493,-0.00036935,0.0012966,0.00035196,-0.001022,-0.00051661,-0.00019144,-0.00064367,-0.00024021,0.00018518,-0.010971,-0.02072,-0.0081722,-0.0022693,0.00098496,-0.00057018,0.00044179,0.0051847,-0.0014941,0.0013302,0.0053917,-0.0055582,3.989e-05,-0.050862,-0.024443,-0.077299,0.00067833,0.00056115,0.00069076,0.011939,8.2613e-05,-0.0012525,0.001703,0.0034485,-0.0078501,0.0045432,-0.0014078,0.0029743,-0.00032896,0.0010225,0.0032487,0.00062771,0.0016499,-0.00045517,0.0030474,0.00049361,0.00018548,-0.0013287,0.0011325,0.0012345,0.0018703,0.0078533,0.00081447,0.00086103,-0.0016098,0.00092544,0.0024314,0.0021178,-0.0036559,0.0017082,-0.0008248,-0.0012571,0.0010886,0.0021953,-0.003854,0.00085979,-0.00011702,-0.0023849,0.0005244,-0.0028167,-0.0018147,-0.0034906,0.00098736,0.00087837,0.00035875,-0.00016997,0.00016108,0.00013635,-0.00050004,0.00045566,-0.0018726,-0.022107,0.01393,-0.021953,-0.0030718,-0.0035768,-0.0015484,-5.0695e-05,0.00086563,-0.0020351,0.00089258,0.0070049,-0.0075111,0.0046672,-0.033079,-0.055382,-0.049038,0.004439,-0.070679,0.00092265,-0.0033611,0.0068165,0.0094842,0.010515,0.013436,0.0027199,-0.0053867,-0.0001181,-0.00055371,0.0034697,-0.001104,-0.001524,0.00049476,0.00089865,0.037742,0.00094196,0.0085687,0.024212,0.006724,0.022524,0.018554,0.019856,0.001347,0.00084376,-0.00079412,-7.6164e-05,0.015208,-0.019922,0.0028429,-0.0025077,0.0028489,-0.00087508,0.0054716,-0.0012323,0.0044811,-0.0037154,0.0060131,-0.003066,0.01036,-0.00042523,0.0018574,0.0016163,0.01628,0.00036782,-0.0022257,-0.00033666,0.00093848,0.00046876,0.00066849,0.0032845,0.00018978,0.00089111,0.00042397,-0.0076823,0.0072059,0.0071515,0.0030221,-0.0043049,-0.00024177,0.00075117,-0.0016882,-0.0003667,0.0017135,-0.00083122,0.000867,-0.0027484,-0.006823,-0.0032271,0.0043111,0.0038518,0.0036833,0.0041793,0.0062645,0.0001201,0.016967,0.00097008,0.010129,0.0064868,0.00092942,-0.0033058,-0.0017724,0.003302,0.0042466,-0.00061179,0.00018152,-9.9244e-05,-0.0014104,0.0031289,0.00038987,-0.0031841,0.0091014,-0.0020122,0.0028103,0.0013892,0.0012475,0.0018164,0.0041488,0.000161,-0.005776,0.0064484,-0.012821,0.0030785,-0.00073688,-0.00062064,-0.00016972,0.0052774,-0.0064133,0.0025232,0.0016876,0.00086679,-0.0065388,0.0031382,0.0093612,0.0028748,0.0021914,0.0084216,-0.0027235,0.00039603,-0.00056536,-6.9817e-05,-0.0039746,0.00048215,0.00078878,0.00033243,0.001124,0.0036728,-0.0083009,0.0609,-0.003288,-0.0030954,-0.01103,-0.012401,-0.0017712,-0.0040713,-0.0013642,-0.00049989,-0.0028647,-0.0002729,-0.0042315,0.0025907,-0.0035427,0.0068319,0.01765,0.00039454,0.0016489,-0.0087432,0.001595,0.0083185,0.020666,0.0032112,-0.0067894,0.0058018,0.02997,0.00054463,0.0053069,-0.0027756,0.00089177,-0.00081909,-0.0075281,-0.0013948,-0.0024955,0.0025769,-0.0020838,0.0056486,-0.00089495,0.0002432,0.0028206,0.00022362,0.0015269,0.0012428,-0.0022806,0.00087109,-0.0012852,-0.0025301,0.00087569,-0.0034114,-0.0045871,-0.0057505,-0.0024266,-0.00093539,-0.0063515,-0.0029922,0.0014499,0.0089515,0.00079804,-0.0042913,0.001625,-0.012074,0.0024084,-0.00358,-0.013712,-4.8816e-05,0.00029161,-0.00041118,0.0054349,-0.0012533,-0.00044703,-0.0018483,0.00028582,-0.0012731,-0.020176,-0.059093,-0.044146,-0.0016446,-0.00068465,0.0029455,-0.0002252,-0.00082449,-0.00066768,-0.0078765,0.012731,-0.0072912,-0.0039513,-0.018952,-0.010635,-0.030846,0.0094586,0.01325,-0.0073719,0.0019871,0.01786,-0.0023629,-0.0016231,-0.0027245,-0.0018799,0.0032745,0.0017578,0.00025766,-0.0051092,-0.0036903,0.0070447,0.0032661,0.00076063,-0.0014172,0.0011657,0.00025119,-5.1033e-05,-0.0061025,-0.00063558,-0.0017795,-0.0018675,-0.001467,-0.00063035,-0.0017613,0.003063,0.0012996,-8.2186e-06,0.0033623,-0.00068714,-0.0014681,0.0035137,-0.0025961,-0.00062602,-0.0024959,0.0007552,-0.0044035,0.0016093,0.0068967,-0.0041479,0.0073446,0.0014355,0.0012374,0.0041592,-0.0015035,-0.0012239,-0.0013983,0.0042338,-0.00050082,-0.00099515,0.0032861,0.000831,-0.0029988,-0.0029098,0.0009661,0.0018325,-0.0014101,-0.00095829,-0.0017081,0.005037,0.098827,0.029485,-0.00011272,0.007142,0.0076703,-0.0015722,-0.0041959,-0.00057707,0.068687,0.0036264,-0.0030822,0.0013935,-0.0078737,-0.00066165,-0.00087232,-0.0037121,-0.0038552,0.0072438,-0.0011625,-0.0035338,-0.0032054,-0.001963,0.0068773,0.00011327,0.00019313,0.0004797,-0.0013252,-0.0013177,0.00030747,-0.00091195,0.021445,0.001718,-0.0075221,-0.00081818,-0.0040614,0.00012321,0.00049492,0.0034076,0.00043368,0.0016384,0.00024193,0.00048695,0.0023688,0.00069023,-0.0013058,-0.0059815,0.0014362,0.00069155,0.007858,-0.0045282,0.0049419,0.0012933,-0.0052933,-0.0016544,-0.0029974,-0.00014945,-5.5302e-05,-0.0017987,0.0080158,-0.002533,-0.0025332,-0.0028619,-0.0017642,-0.0058977,-0.00056055,-0.00055365,-0.0048116,-0.001141,0.0045338,9.8761e-05,-0.0018516,-0.0012463,-0.03224,-0.0062096,-0.026949,-0.00074672,0.00010119,-0.00038971,0.00038121,-0.00032499,-0.00076516,-0.010903,-0.0041458,-0.00043793,0.00049609,-0.027626,-0.00034574,0.00063944,-0.0066056,-0.0071404,-0.012176,-0.003711,0.0039232,-0.0078816,0.00065,0.017127,0.013534,0.014404,0.0014509,-0.024098,0.020312,0.001336,0.0035195,-0.0007048,0.00099973,0.0015566,0.00052286,0.00032686,0.00051468,-0.0054793,-0.0038167,0.016105,0.0051661,-0.0053001,-0.0031564,-0.00031359,0.00040814,0.0010996,0.0018471,-0.021151,0.0010647,-8.9032e-05,-0.00068319,-0.00014081,-0.0025833,-0.0059569,-0.0037902,-0.0003288,-0.00031014,-0.0018737,-0.0018028,0.0013925,-0.00070106,0.0021663,-0.0012536,0.0017651,-0.00019144,-0.00095182,-0.001226,-7.5526e-05,0.0003152,0.00061995,0.0020341,-0.0086438,0.0010406,0.00089473,-0.0011258,0.00052285,0.00063284,-0.0019866,-0.0069475,-0.0030935,-0.024924,-0.01646,0.050674,1.1751e-05,0.011355,0.002024,-0.00027191,-0.00071299,-0.0011198,0.010876,-0.0032165,0.0061263,-0.0030223,-0.0053892,-0.006682,-0.013176,-0.0019941,-0.0045161,-0.0097302,0.006606,-0.00029755,-0.00096612,-0.004223,-0.0012878,0.0017276,0.0033193,0.0022045,0.005941,-0.0015066,0.0048139,-0.0010479,0.0015901,-0.00040958,0.0011484,0.0011444,0.0079365,0.0025933,-0.002995,0.0016402,6.7634e-05,0.0032757,0.0019372,0.0013203,0.00098708,0.00085626,0.0092794,0.00070743,-0.0018404,-0.0071785,0.00062731,0.0034398,0.0072083,-0.0066506,-0.010034,-0.001523,-0.0089754,-0.0030352,-0.0043827,-0.0023824,0.0011618,-0.00039046,0.012595,-0.0012792,-0.0014296,-0.0020293,-0.01202,-0.0016412,0.00053506,-0.0011421,-0.0050816,-0.0010255,-0.00020415,-4.8261e-05,-0.00059688,-9.8495e-05,-0.017899,-0.01799,0.020843,-0.00079759,0.0032361,-0.0017644,-0.00021324,0.00015446,-0.00101,-0.0020467,-0.00025771,0.038875,0.0064241,0.0047483,-0.0040852,0.025882,-0.0096444,-0.013256,-0.021905,0.0005221,-0.0068134,-0.0050887,0.0029612,0.048067,-0.0035953,-0.001972,-0.0023851,0.0019493,-0.0023797,-0.0058527,-0.0055067,0.020643,0.00047398,0.0013407,-8.2668e-05,0.00053874,-0.00053499,-0.0025833,0.00054441,-0.0017707,0.015904,-0.0050264,0.0029648,-0.0044862,0.0026134,0.0030216,0.00053765,0.00035592,0.0016482,-0.00045371,0.00044738,-0.0049725,-0.0021997,0.0012802,0.0011247,-0.0026462,-0.0036289,-0.00013177,-0.00044455,0.00028575,-0.0011641,0.0006641,0.0016388,0.0017119,-0.00058779,0.0047233,-0.0025137,0.010656,-0.0034007,-0.0018101,0.00263,0.0010745,-0.00036395,-0.0034159,0.0010958,0.00030608,-0.00042732,0.00037539,0.00024832,-0.0075076,-0.051063,-0.00050523,-0.002752,0.002065,-0.0078545,-0.00016903,0.00030694,-6.3835e-05,-0.0027422,0.0041164,-0.0023644,0.00069508,-0.028918,-0.0048419,-0.011206,-0.0046857,-0.014599,-0.027115,0.009402,0.017951,-0.012176,0.0043619,-0.0015861,-0.010034,0.0032769,-0.00045824,-0.0034735,-0.00088554,-0.0016146,-0.026941,0.016465,0.001405,0.0080571,0.010315,0.0042437,0.001983,-0.00048411,0.0010008,0.002962,-0.0024169,-0.0080147,-0.0097843,0.0019757,0.002435,-0.00095424,-0.0015796,-0.00056797,0.00067769,0.0017759,-0.0066246,0.00092114,-0.0025349,-0.00051813,-3.8073e-05,0.0067092,-0.0084173,-0.005661,-0.0018787,-0.00032588,-0.0014529,-0.00086175,0.0026948,0.0056099,0.0028718,-0.0010605,0.0045512,0.00084348,-0.0019572,0.00021631,0.00081618,0.00055117,0.00093821,0.00019125,-0.0034674,0.00025259,-0.0018026,-0.0018933,3.2889e-05,0.00066599,-0.0012037,-0.019069,-0.015043,-0.010738,0.00026414,-0.0039705,0.0005118,-0.0035785,-0.010449,0.00076755,0.0012425,-0.0030051,0.0073505,-0.0039352,-0.0060511,-0.0017609,0.026614,-0.010045,-0.0053876,0.00041711,0.0057916,-0.017471,0.016219,0.0020988,-0.016612,-0.0069027,-0.014837,0.0011354,0.01343,0.0063427,0.020094,-0.0062232,0.04943,0.035998,0.0030899,0.020019,-0.0032031,0.0037014,-0.0022648,-0.001881,0.0027756,0.0062259,-0.0015095,0.001579,0.01318,0.019499,0.0064662,-0.0040242,0.0048182,0.00083671,0.0073166,0.0035304,-0.0031724,0.0022031,0.0016772,-0.00013724,0.0063327,-0.00099757,-0.0080814,0.00079578,0.0020829,0.00043256,-0.0033675,-0.002966,0.0041369,0.017605,-0.0031683,0.00042415,0.00041064,-0.0078321,-0.0025574,-0.005416,0.00095998,0.00149,-0.0041093,0.013157,0.011367,0.0010271,0.0011104,-0.00048125,0.0020441,-0.0056769,-0.018105,0.0038261,-0.0066393,0.0038282,-0.012455,0.0043404,0.010772,0.0058099,0.0011995,-0.00027196,0.00047438,0.0022269,0.0043279,-0.0011919,0.00086929,0.023713,-0.0054585,0.012602,0.0033916,0.0090873,-0.033605,0.0068199,0.0054023,-0.0083064,0.0061315,0.017256,0.018153,-0.0064548,-0.0048104,0.0028467,-0.0013245,-0.0083246,-0.0014401,0.0017843,-0.0019702,0.00071157,3.3318e-05,0.0022435,-0.00065838,-0.001363,0.013368,-0.0051519,-0.0084318,-0.014604,0.0082448,-0.002034,-0.00048845,-0.00053733,-0.0004065,0.01033,0.0024892,0.00056778,0.00025483,0.00095819,-0.0018675,-0.00052917,5.2046e-05,-0.0053382,-0.0073855,-0.0016291,0.0017575,-0.0034559,-0.0043677,0.0011711,0.0062023,0.0050554,-0.004131,0.0010521,0.00043276,-0.0025393,-0.002565,-0.00064463,0.00011548,0.00065798,-0.0010593,-0.0062915,-0.00058532,-0.0049286,-0.0035166,0.0010457,0.0013614,-0.0094465,-0.0010451,-0.018091,-0.013202,-0.025429,-0.018045,-0.00042806,-0.010494,-0.010319,-0.0025147,-0.0031553,-0.0049676,0.0040313,-0.011993,-0.028942,-0.011265,0.03551,-0.011629,0.05136,0.00071066,0.0019483,-0.024985,-0.002587,-0.0022592,-0.011986,-0.01284,-0.017465,0.03465,0.011224,0.00053074,0.00035224,-0.00028225,0.011312,0.0023842,0.0031795,0.001105,-0.041681,-0.0040986,0.00096724,0.0096221,0.00055926,0.0021576,0.0033119,0.003873,0.0029309,-0.012585,-0.0019677,0.013712,0.023614,0.006139,0.021748,0.0033901,0.0021153,-0.0016343,0.0016812,0.0016341,0.01148,0.019916,0.0014741,0.00087986,-0.0053522,0.0014227,0.001028,0.00080025,-0.0079549,0.0022191,-0.0026746,0.0027174,-0.0029608,-1.2325e-05,-0.010414,-0.0018748,0.05615,-0.00047786,-7.7551e-05,0.044711,0.0011938,0.005173,0.0018929,0.0034638,0.0052454,0.00073504,0.0031496,-0.0011364,0.00034708,-0.00088457,0.0087966,-0.00262,0.0027106,0.0027892,0.0003634,0.0042569,-0.0050261,0.0012066,-0.0009248,-0.0026551,2.7106e-05,-0.0037706,0.0020485,0.00050501,9.2502e-05,0.0034861,0.015215,-0.0034975,-6.4654e-05,-0.0051685,-0.00088158,0.00086592,0.0011751,0.001085,-0.0012247,0.0013755,-0.0013779,-0.0044395,-0.0073596,-0.017751,0.00028085,-0.018036,-0.0050142,0.0040338,-0.0097327,0.015189,-0.0011274,0.0014138,-0.0011167,-0.0020874,0.0052824,-0.0074276,-0.0011883,-0.019499,-1.9576e-05,0.0057271,-0.0079712,0.0020835,0.0025035,-0.0012132,0.00093507,0.0030044,-4.6622e-06,-0.0026122,0.014511,0.010308,0.0057396,-0.0014058,-0.0054747,-0.0050327,0.0068819,-0.0064638,-0.0053301,0.00043306,-0.00016479,2.7175e-05,-0.0030764,-0.0075164,-0.0028877,0.0017847,-0.0011511,-0.002676,0.00020832,0.00013077,-0.0011653,0.0090508,-0.002076,0.00014988,0.00012909,7.2596e-05,-0.0025262,0.022525,-0.0026625,0.0051947,-0.0029925,-0.0029775,-0.001923,-0.0013555,-0.0036916,-0.0036772,0.002429,-0.0024935,-0.014257,-0.0031803,-0.013834,-0.0060718,-0.0094998,-0.0086245,-0.0010623,-0.0079313,-0.006558,-0.0049199,0.0023185,-0.0009713,0.0045485,-0.0032747,0.011171,0.016198,-0.0049494,0.012927,-0.0081546,-0.0027769,-0.001301,-0.013238,0.0042573,0.012661,0.0014171,0.002701,0.00091138,-0.080721,-0.01778,0.00144,0.005368,0.00062231,-0.0025423,-0.0023258,-0.0010454,-0.00022019,-0.0074607,-0.033682,0.011136,0.037667,-0.006192,0.012591,-0.010834,0.0018897,-0.0023073,0.0018677,0.0010685,-0.0015574,-0.0092539,-0.00098845,-0.0009145,-0.0027085,-0.0021469,7.7174e-06,-0.0014674,-0.0022977,0.00093111,0.0013829,8.9002e-05,-0.0096569,-0.0018107,-0.013858,-0.0077971,-0.0023116,-0.0061425,-0.00046438,-0.0096442,-0.0006998,0.0042982,0.00055468,0.0022524,-0.022573,4.6159e-05,-0.008151,3.2123e-05,-0.0012328,-0.00067651,0.0053416,-0.002004,0.0011826,0.001448,-0.00031184,-0.00054591,-0.0047765,-0.015114,-0.00098949,-0.0019279,-0.0017131,-0.0032977,-0.00048432,-0.0023282,-0.0024858,-0.002249,0.0017053,-0.00029322,-0.0019917,-0.0045211,-0.0014683,-4.9682e-05,-0.00017068,0.00042997,-0.00063584,0.0089344,-0.0022336,-0.019382,-0.0080625,0.0031222,0.0009677,0.011363,0.024823,0.0037078,0.012629,0.0007163,-0.0029065,0.005331,-0.00047299,0.0036568,-0.00021321,0.0014465,0.0017744,0.00066682,0.0014849,-8.7537e-05,0.0047828,-0.023324,0.011913,0.020921,0.0034545,0.016811,0.0016772,0.001523,0.002276,-0.0024233,0.024755,0.04532,0.0035275,0.0019125,-0.0064485,0.0004967,0.0062044,0.00035795,0.0066832,0.001065,-0.00090309,-0.00059877,0.0014824,0.0068118,-0.00079052,-0.00057417,0.00978,-0.0007262,7.3344e-05,-0.0022512,0.0044133,0.0045966,-0.00031617,0.0094022,-0.0024196,0.0016985,-0.0090125,0.0077946,0.014799,0.0038146,0.0029462,-0.0034174,6.5309e-06,0.00022238,-0.0020334,-0.0011763,0.0034141,0.00020002,0.0016401,-0.0023948,0.0016941,-0.0028515,0.0042739,0.0015234,-0.00029258,0.0021283,0.07633,0.037402,-0.0066803,-0.0033347,0.0037014,-0.0023142,0.0045327,0.0055225,0.00081636,-0.010315,-0.0005137,0.0018235,0.0032895,-0.01204,-0.0013693,-0.0042385,-0.0019374,0.016336,0.014564,0.0020406,-0.0024229,-0.0075757,0.0062411,0.0012138,0.0070235,0.00081845,0.00023175,0.0017965,0.001732,-0.02868,3.5105e-05,-0.0011037,0.024204,0.041736,0.012139,0.020298,0.0030581,0.0037377,0.0021082,0.0026555,0.0021951,0.012905,-0.021806,0.0026001,0.0032525,0.0075234,-0.00052736,0.0031376,-0.00064586,0.0032115,0.0011308,0.0020835,0.0007276,-0.0013538,0.0075146,-0.0021,0.00045537,0.025455,-0.003274,-0.00071318,0.0063274,0.0038988,0.0090824,-0.0005713,0.0098785,-0.0043782,0.0012761,-0.0011527,0.0012323,-0.00076983,0.00042624,0.0082473,-0.0038141,0.0010218,0.0015431,0.0022205,0.00099385,0.0024148,-0.0025807,0.00074308,-0.0021532,0.00078104,-0.00052687,0.0036105,-0.0011225,0.00038069,0.00057478,-0.034202,-0.0010762,0.0025938,-0.0032828,0.0012184,-0.0013478,0.0012357,0.0024148,0.00054366,0.0044015,-0.0018016,0.010534,0.0046783,0.0093128,-0.024059,-0.0020829,0.0056163,-0.0038936,-0.019785,-0.00062836,0.0049039,0.0021765,0.00019613,0.023502,-4.0524e-05,0.0083461,-0.00038061,0.0013733,0.0015246,-0.005059,-0.0048305,-0.0026397,0.014537,0.014009,0.016039,-0.0089324,0.03068,0.014153,0.0035809,-0.0013256,0.0015979,0.00065831,0.025703,0.018483,0.005213,0.0017716,-0.0028027,0.0014961,0.013788,-0.0022431,0.0089499,0.00063611,0.0012624,0.00059628,-0.0012768,0.024885,-0.0020352,0.015751,0.012872,0.0024998,-0.0015415,0.014448,0.0036619,-0.0006942,0.00084691,0.0107,-0.0023646,2.4895e-05,0.00026205,0.0048471,0.0017429,-0.0017233,0.0025735,-0.0034999,0.001732,0.00095912,-0.0016336,-0.00043045,0.0047638,0.0018832,0.0049345,-0.0035536,0.0031739,-0.0043182,0.0042673,-0.0025153,0.00074174,0.00065933,0.0016615,0.0053872,-0.00026008,-0.0038819,0.0011282,-0.00054126,0.0031849,0.0079264,-0.0010033,0.0009874,-0.0030283,0.0021077,0.046912,-0.010394,-0.012966,-0.0088993,-0.0088643,-0.0035202,-0.0030098,0.0066889,0.0013459,-0.0071127,0.012254,-0.0016183,0.0026536,0.0015956,0.0057334,0.00079668,0.00049099,0.0021292,0.00031141,-0.0056694,-0.00063268,-0.039156,0.0016688,0.011318,-0.0025826,0.0053498,-0.022905,-0.0030457,-0.0016427,0.0039972,0.0026083,-0.016794,0.01599,0.00090068,-0.00085569,-0.0028336,0.00050726,0.0025684,0.00044518,0.00051512,0.0010597,0.0016553,-0.00093177,-0.0007071,0.0049677,-2.0553e-05,0.0027891,0.012083,-0.0010847,-0.0045873,0.0088001,-0.011704,0.014916,-0.010063,0.014501,-0.022909,-0.00068239,0.00085468,0.0012581,-0.00083707,-0.00036308,0.0011581,-0.0043017,0.00027334,4.0376e-05,0.0034188,1.635e-05,0.0013267,-9.7426e-05,1.8227e-05,-0.0027413,-6.5926e-05,-0.0030121,0.00079425,-0.0014649,-0.00046964,5.7477e-06,0.0032183,-0.0063629,-0.00034704,-0.0032245,0.00033822,-0.0010493,0.00059474,0.0016334,-0.0011091,0.003975,0.0020587,0.011228,0.0012437,0.019301,0.0086822,0.031569,0.026421,-0.00078141,-0.00032626,-0.023851,0.00026199,0.001416,0.00031254,0.0019758,-0.001437,-0.00055274,-0.00053262,0.0053311,0.0016592,0.0024584,0.0029176,0.001834,0.00069261,-0.00118,8.6674e-05,0.0011371,0.001588,0.0014025,-0.0010303,-0.0025394,0.0070754,-0.00051915,0.002738,0.0011125,-0.001131,0.0034001,-0.00086327,0.00012587,-0.0013109,0.0018114,0.00028527,0.00092721,3.6283e-05,-0.0015699,0.00041178,-0.0048112,0.0013128,0.0014969,0.0034136,-0.0015803,0.0059523,0.00086912,0.002398,0.066244,-0.0028787,-0.00032632,-0.0004283,-0.0029598,0.010058,0.00090954,0.011401,0.0011712,0.0011423,0.0011913,-1.4566e-05,0.00022368,0.0005602,0.0063982,-0.0014602,0.0027266,-0.0011132,0.0032214,0.00039643,-0.00011807,-0.0011919,0.0036956,0.0019285,0.00095838,0.0092893,0.0018949,-0.0014708,-0.0020606,0.0027323,0.0010218,-0.0013057,0.0011305,0.00080029,0.0015213,0.001632,0.0016099,0.00056186,0.0032254,3.9912e-06,0.0043983,0.005803,0.0034962,0.00071263,0.0060086,-0.0028759,-0.0034013,0.0036386,0.0086402,-0.0020429,-0.017009,0.0033619,0.0013481,0.0026164,0.0015076,0.0055766,-0.0028219,0.00082965,-0.0019837,-0.014541,-0.0081371,-0.0020441,0.0064925,0.024224,-0.0022876,0.012213,0.0038916,0.0036478,0.001162,-0.043825,0.0023528,-0.01766,-0.00092424,-0.0017269,0.0012417,-0.0091474,-0.0037624,0.0010046,0.00065201,0.00013775,-0.0013871,0.0011665,0.02336,0.00024321,0.00031878,0.0076825,-0.00068601,-0.00071804,-0.0018741,-0.00015588,1.8865e-05,0.00054469,-3.4249e-05,-0.029365,0.001362,-0.0061063,-0.0019762,0.00026893,-1.9599e-05,-0.0036406,-0.0021848,-0.0014837,-0.036185,0.0093563,0.028845,0.0021675,-0.028842,-0.0098409,0.00084357,0.00080351,0.0012481,-0.0016155,-0.0011803,-0.0046994,-0.0012535,-0.0035112,0.00094935,-0.0030491,-0.0030759,-0.0020506,-0.0017558,0.0086335,-0.0028875,-0.010743,-5.5469e-05,-0.005789,-0.019532,-0.0032335,-0.016787,0.00024098,-0.0033748,-7.7908e-05,-0.0026195,-0.0028569,-0.00088085,-0.00067516,0.00059689,-0.012825,-0.0029105,-0.0046654,0.0066515,0.00070289,-0.0052873,-0.027033,-0.0029957,0.00086728,-0.00011751,0.0006675,-0.00099384,-2.3646e-05,-0.0019248,-0.0033081,-0.0061354,-0.0023756,0.0018379,-0.011194,0.015614,-0.038403,0.01058,-0.0035589,0.00085137,-0.0088184,0.0044678,-0.010244,-0.0010513,-0.0052496,0.00055513,-0.002894,-0.0028939,0.0026976,-0.00089113,-0.0032902,-0.00041354,-0.00061926,0.0021604,-0.0059432,-0.0015286,0.0035658,-0.0014429,-0.0084146,-0.0016886,0.0021426,-0.00090371,-0.00077716,-0.0010036,-0.019413,0.0028365,-0.064056,-0.012331,-0.00082339,-0.0015084,0.0013963,-0.0036005,-0.0016527,0.022031,-0.0053573,0.012999,0.0020882,-0.016489,-0.047002,-0.0031172,-0.0037446,0.0036697,-0.0026243,-0.00073183,-0.0020332,-0.0026801,-0.0018651,-0.00063482,-0.0018729,-0.0051547,-0.0040206,-0.0015846,-0.00078667,9.0411e-05,-0.0023401,-0.00041502,-0.00085469,-0.0050932,-0.0068129,-0.01004,-0.00048832,-0.0046064,-0.0010182,-0.0071246,-0.0073858,-0.0057703,-0.003421,-0.00070912,0.052936,0.0019578,0.0024907,-0.0062729,0.062855,-0.00015463,0.0083593,0.010946,0.0015254,0.010218,0.0045612,0.00081911,0.00071668,-0.00082767,0.0018846,-0.00020309,0.014462,-0.012568,0.018884,-0.00084488,0.001779,0.046931,-0.01493,-0.028627,0.0042716,0.001283,0.015541,-0.007803,0.00052197,0.0083823,-0.0015484,0.00096292,-0.00039692,0.00010667,0.0023324,0.0044342,0.0011247,0.00088701,0.013949,0.0057519,-4.9997e-05,0.010133,0.00089498,-0.00010872,-0.0057397,-0.00065774,0.00042641,0.0065718,0.003856,0.0098311,0.002815,0.0025278,-0.0039931,0.0019837,-0.00057125,-0.0028,-0.002884,-0.0075767,0.0058117,0.00083996,0.0050983,0.0013022,0.0024983,0.0074557,0.0023795,0.0021874,-0.0019578,0.0010591,-0.0028301,-0.0038351,-0.0075449,-0.0023858,-0.00044912,0.012198,0.0010584,-0.01026,-7.7602e-05,-0.0018258,-0.0041908,-0.0007913,0.00035722,-0.0072548,-0.0016597,0.028829,-0.020753,0.0010864,-0.022739,0.00043604,-0.020413,-0.0054337,-0.036666,0.000508,-0.0021033,0.042362,-0.0047455,-0.00059267,0.0057949,-0.00062777,0.065357,0.0077564,0.0081928,-0.0033884,-0.0018829,-0.00077311,0.00066842,-0.0026723,-0.00050078,0.0031402,-3.4834e-05,-0.0045469,-0.044062,-0.0079696,0.0038279,0.0085176,0.00090246,0.057077,0.017486,-0.0095558,0.0022635,-0.024972,0.0029414,-0.022553,-0.0055821,-0.0016372,0.00033675,-0.0042302,-0.0036648,-0.00073449,-0.00055122,0.00077662,-0.0030532,0.00031904,0.00015557,0.0027343,-0.00099552,0.0035824,-0.0021265,-0.0017337,-0.00053048,-0.00072035,-0.00064209,0.00058347,0.0011882,-0.021497,0.0020704,-0.018337,-0.0032459,-0.00027083,-0.0020906,-0.0058064,-0.0049714,-0.010401,0.074776,0.0046761,0.0090436,0.0069658,-0.009898,0.023032,-0.00021408,-8.6439e-05,-0.0031139,-0.010012,-0.0041786,-0.0075359,-0.0054275,-0.0085196,-0.01219,-0.0060351,0.0012449,-0.0076113,-0.0043458,-0.0040284,-0.0024861,-0.0071333,-0.0033043,-0.012046,-0.027806,0.0026346,-0.016455,0.00061027,-0.01144,0.0005985,-0.0020312,-0.0010866,-0.009206,-0.0011523,-9.3603e-05,-0.0017628,0.026012,0.011101,-0.0031009,0.00015679,-0.00059455,-0.013213,0.0013144,-0.0013425,-0.006785,0.00030054,0.0013111,0.0049455,0.004215,0.0031963,0.00089041,0.0024609,0.0044034,0.017757,-0.00061797,-0.0058377,0.0013424,0.0031092,0.031898,0.0061032,-0.01205,-0.0034538,-0.0050837,0.02258,0.0070432,0.0012476,0.0011379,0.00080446,-0.0055464,-0.0071886,0.0022136,0.00064018,0.012744,-0.0036428,0.0096508,0.017457,0.023979,0.0011796,0.0068674,0.00053152,-0.0037161,-0.00019496,0.00088027,-0.0057641,0.014745,0.017468,-0.0011695,0.0060691,0.027173,-0.01322,0.0027589,9.2953e-05,2.4818e-05,-0.00055262,0.0011054,0.0095789,0.0027094,0.00085465,0.065613,0.015419,0.048871,0.0016053,-0.0036488,0.001547,-0.00072,0.00083359,-0.00015381,0.0010233,-0.00011066,0.0011938,0.00088897,0.00014588,-0.00080901,-0.00013045,0.0014611,0.0026831,0.0059119,0.00090384,0.00080222,0.00091741,-0.00049082,-0.0018014,0.0026107,-0.0017916,0.0022976,0.00050447,0.0013567,-0.00070391,-0.00083195,0.0010199,0.019614,0.0060491,0.0080413,0.0050686,0.0010316,-0.0022424,-0.02621,0.027627,-0.0022959,0.031943,0.013988,0.003782,-0.0013915,0.0003465,0.00054525,-0.0013515,0.0026312,4.6626e-05,0.0089058,0.0049045,-0.012854,0.0092602,0.0049972,-0.0044015,0.0077586,-0.00017728,0.0057722,0.011614,-0.00066997,0.00050996,-0.0046186,0.00060623,0.013554,0.00030674,0.001725,-0.0019957,0.0083535,0.0026343,0.00072881,-0.0046955,0.0018565,0.016372,0.0039542,0.0047161,0.0070184,0.0027717,0.0016923,0.0023475,0.001968,-0.00073747,-0.0034081,-0.021797,0.0014225,-0.015266,0.00048515,-0.010008,0.0013727,-0.0025372,-0.0053596,-0.003181,-0.0010222,0.0092101,-0.0056362,-0.0013419,-0.0094643,0.006945,0.0037177,0.010955,5.6704e-05,-0.0010708,0.00027464,-0.00079009,-0.00065912,-0.0016874,-0.0025367,0.0034948,0.011233,-0.0008987,-0.0072512,-0.0026952,0.00064881,0.00075813,0.004002,0.0034681,0.0026368,0.00034923,-0.00096102,-0.0099352,0.011064,-0.0082379,-0.00042486,-0.024642,-0.002194,-0.011021,-0.0083618,-0.0032727,0.018399,0.0017928,0.079591,0.0047169,-0.002703,-0.0048367,-0.012245,0.0040428,-0.010428,0.0027259,0.0010099,-0.012422,-0.0018906,0.0066356,0.0016289,0.0019665,0.0010112,-3.5015e-05,0.000462,-0.010196,0.0052115,-0.015323,-0.0037628,-0.006457,0.024041,0.019313,0.030699,-0.0032819,0.0020663,-0.0022573,0.0044429,-0.0068233,-0.0080308,-0.0097214,0.00037769,-0.0077816,0.0008729,-0.0028211,0.00034984,-0.0015437,-0.0049077,0.00071495,-0.0094317,0.0028047,0.00075333,0.0054803,-0.00078687,-0.0041848,-0.00098684,-0.0035692,-0.00035459,0.0017618,0.0004412,0.0020036,0.002118,-0.018629,8.4075e-05,-0.00021199,-0.00084483,-0.0032287,-0.00030441,-0.0024982,0.036459,-0.0024178,0.017244,-0.0039349,0.0017645,0.0018716,0.0017426,-0.00025792,-0.0013189,-0.0015962,0.00022335,-0.002453,0.0028773,-0.0001694,-2.0941e-05,0.00054889,-0.010326,-0.0027489,0.00037322,-0.0012766,0.0089474,0.0033012,0.0017971,0.0019563,0.0013536,0.0055652,-0.00077076,0.00090008,-0.010849,0.0042604,-0.025245,0.0027643,-0.013497,-0.0035449,0.0007035,0.02367,-0.038284,0.031707,0.0047782,-0.0020517,-0.0021377,-0.00085224,0.0049015,-0.031411,0.0019922,-0.029586,0.01631,0.0024388,-0.0043984,-0.014769,0.00029629,0.0013156,-0.00065898,-0.0049897,0.0012472,-0.0066121,0.013617,0.0022941,-0.0019088,0.0061006,0.0011368,0.0068819,0.00062805,-0.00076004,-0.00020968,0.00071887,0.00069501,0.0013316,-0.0022933,-0.0036444,-0.0016223,-0.0025155,-0.0026918,-0.0036449,0.00010573,-0.0065255,-0.00065167,0.00044932,0.0036927,-0.0084036,0.0022706,-0.001091,7.816e-05,-0.0053986,-0.0017404,-0.00014943,6.6039e-05,-0.00061695,-0.0028644,-0.0028363,-0.0010451,-0.0019825,-0.0015816,0.00042914,-0.0010092,0.0075342,-0.010342,0.0014464,0.009759,0.01199,0.020872,-0.0023831,-0.00048579,0.011075,-0.00070773,-0.00477,-0.00073001,0.0015583,0.0033447,0.0016313,0.0020442,-0.00090086,0.003604,0.010434,-0.0058229,-0.0022386,0.003615,0.0030458,0.0037612,0.033323,0.0092517,0.0048829,0.025126,0.0069146,-0.016992,-0.00039138,-0.0088842,-0.006334,-0.0055033,-0.016324,-0.01694,-0.0079287,-0.0011076,0.045342,0.010437,0.017635,0.013891,-0.0097555,0.034861,0.033637,-0.0015771,-0.0057683,-0.0090952,-0.017297,0.0032166,0.0085084,-0.0012154,-0.0076759,0.0052215,0.0014467,0.002223,0.00090197,0.0029831,0.00078572,-0.0016238,-0.0056446,-0.0020751,0.0088208,0.0002583,-0.0020395,0.0097757,-0.0029099,-0.013644,0.012291,-0.00089949,0.0030111,-0.0019001,-0.0023032,-0.0091242,0.0022719,0.000972,-0.0055591,0.0040649,0.0018053,0.0070896,-0.0030635,0.0036609,0.0034083,-0.016718,0.0010282,0.013732,-0.000312,0.0010045,0.00021486,0.0077232,-0.00025013,0.00033773,-0.016362,-0.0026171,-0.0017463,-0.021987,-0.022392,0.00067149,-0.00078982,0.0076269,-0.0018685,0.0012753,0.01965,-0.014327,-0.0031065,-0.012727,-0.0030571,-0.010135,0.0036817,-0.0083818,-0.003268,-0.00087285,0.00225,0.00036995,0.0029641,-0.0044469,0.0035528,0.0012403,-0.011572,0.0081543,0.0020717,-0.0014555,0.0022378,-0.0060286,0.008671,0.0053657,0.0021243,0.0025911,-0.0056816,-0.0053534,-0.0069665,-0.0050341,-0.0032711,0.0014033,-0.0032048,-0.022912,-0.0037246,0.035142,0.020846,0.08898,0.032192,0.0029162,0.0054327,0.013238,-0.0076652,0.00063491,-0.0024816,-0.0039507,-0.010463,0.00052686,-0.005276,-0.0010193,0.014771,0.0049727,0.0026514,0.0035475,0.001087,2.6554e-05,0.001085,0.00077862,-0.001069,-0.0038957,-0.02881,0.00085654,0.0072724,-0.0028481,0.0026218,-0.0143,0.0036392,-0.0010755,0.003859,0.00059351,0.0046663,0.028604,-0.0087968,-0.00076828,-0.0049985,0.0011449,-0.00029271,-0.00019763,-0.0013735,-0.0048101,-0.0025543,0.010666,-0.001083,-0.0019817,-0.00024791,0.00092855,0.0039087,-0.00034526,-0.0017567,-0.035324,0.0029911,-0.0030448,0.0089738,-0.0011512,-0.014706,-0.00014061,0.0027299,-0.0011397,0.00057995,9.8936e-05,0.00080742,-0.0019021,-0.00034476,0.0048043,-0.0029939,0.014515,-0.0020447,0.008586,-0.00018604,-0.001443,-0.0015385,-0.0008678,0.00091508,-0.0017274,0.00010676,0.00017935,-0.014751,-0.0060131,-0.00073889,-0.0017309,0.0069163,0.00011495,0.0011365,7.6945e-05,-5.5378e-05,0.00088317,-0.00080684,-0.00087112,-0.0028657,-0.006868,-0.0024848,0.0065804,-0.00084424,0.0090834,-0.0361,0.0051313,0.024759,0.0063206,-0.00053034,0.013006,0.0019757,-0.023969,-0.0069081,-0.0055947,0.0066078,-0.0041166,-0.0051439,0.00015249,0.014286,0.00076071,0.0060204,0.00025883,-0.0022213,-0.00034167,0.003642,-0.00064195,0.019325,0.0022951,0.015164,0.0029151,0.00055278,0.0011243,0.00060024,2.0809e-06,-0.00091203,0.00064933,-7.6951e-05,0.0010858,0.014697,0.00041246,0.00033171,-0.0017347,-0.00033125,0.0091566,-0.00033725,-0.0054334,0.0077072,0.0044935,0.0025411,0.0050957,-0.00043313,-0.0013804,0.00019248,0.0045968,0.0096506,0.0027633,-0.0011397,0.0012888,-0.00053301,-0.0021316,-0.0016427,-0.0023383,0.0021609,-0.0029264,-0.0022331,-0.0040433,-0.0010441,0.00073692,-0.0013387,0.00355,0.035245,-0.00067063,0.010936,0.00033031,-0.0021927,-0.001039,-1.9176e-05,0.0019756,-0.0014536,0.0062525,0.00062685,0.050963,0.0038067,0.017874,0.0047588,-0.00055431,-0.0046392,0.013661,0.00328,0.0015603,-0.025447,0.045819,-0.0058468,-0.02569,0.0057451,0.0023842,-0.016201,-0.011948,0.00068984,-0.0040009,-0.00041458,0.0088752,0.00098955,-0.00042398,-0.00014702,0.0021504,0.00012803,-0.00049705,-0.0044555,-0.0019515,0.0012749,0.0017146,0.0005013,-0.002383,0.0027409,0.00011141,0.018106,-0.0023688,-0.021088,0.0082672,0.00042198,-0.00075864,0.0065757,0.01139,0.0024687,0.0040832,0.0065937,0.001769,0.0020394,0.0025232,0.00099072,0.0017546,-0.012822,0.0037674,0.0020927,-0.00089288,0.014758,-0.0062347,0.011229,0.0046345,-0.00079636,0.0042619,0.00079842,0.0012982,0.0068467,-0.0040511,0.0058823,-0.0079843,0.002587,0.0048229,-0.00014439,-0.0014973,0.0013972,0.021988,-0.00014605,-3.7387e-05,0.0063621,0.00053993,-0.0012202,-0.0017099,-0.0014609,0.00099785,-0.0054897,-0.016147,0.00075203,-0.0015362,0.0044698,-0.0059946,0.0017394,0.0028225,-0.0027,0.0013505,-0.0016144,0.0019991,0.0025911,0.00028482,0.0025779,0.0015491,0.019142,-0.00089359,-0.0049462,-0.00079591,-0.0012886,-0.00018445,-0.0016207,-9.9523e-05,-0.00063195,-9.8611e-05,-0.00086776,-0.0028248,-0.0029129,0.00039196,-0.00082777,0.0011262,4.2093e-05,0.0010643,0.00056291,8.5848e-05,0.0014421,-0.00064344,0.0023554,-0.0017762,0.0020056,0.0021379,0.0085034,0.0086088,-0.0015315,-0.070892,0.0015588,0.02003,0.016231,0.002597,0.020578,-0.029538,0.016823,-0.0099778,0.00090608,-0.00868,0.00026125,-0.00304,-0.0022233,-0.000922,-0.019114,-0.015687,0.00014419,-0.0085101,0.0034136,0.0096712,-0.00035247,0.00013885,-0.00048625,0.0040327,-0.00050579,0.0081033,0.006575,-0.0027591,0.0015641,-0.015265,0.0056558,0.0012964,-0.0026019,-0.0023196,0.0014013,-0.012605,0.00052547,-0.0057035,0.0013182,0.0020727,0.0022348,0.0013441,0.0037399,0.0019083,0.0025992,0.0019663,0.0014883,-0.0005389,0.00069011,-0.0024429,0.00095213,0.006951,-0.0003956,0.005738,2.409e-05,-0.0020509,0.00015668,-0.00024629,-0.00095276,-0.0019183,-0.00024938,-0.0013549,-0.00012927,-0.0003865,-8.7547e-05,0.0015471,-0.00086271,0.017491,-0.0026534,0.0010549,-0.0047776,-0.00054368,-0.00063048,0.00022057,0.0074181,0.0051073,-0.0016114,0.0016894,0.0026138,-0.0024486,0.0077667,0.0001794,0.020239,0.0019199,0.0064923,0.0029726,0.00025938,0.0052256,0.020065,0.00058146,0.047011,0.069028,-0.010456,0.023824,0.0031812,0.0010842,-0.0027251,-0.0014445,0.0093427,-0.00097168,-0.011804,0.00039498,6.6588e-05,-0.026819,-0.0031626,-0.076434,-0.012934,0.00024185,-0.011602,0.0012002,0.02021,-0.0024088,-0.0010801,-0.020727,-0.0022815,-0.002936,0.00064725,-0.0049566,0.016413,0.0016457,-0.016987,0.013731,0.00040465,0.0024948,0.0053122,0.005224,0.00082207,0.0029576,0.0034149,0.0012206,0.0032331,-0.0014805,0.0099148,0.0024493,0.009476,0.024324,0.033859,0.0066983,-0.0064835,0.0002652,0.0077181,0.0031335,0.0028858,0.025988,0.00081129,0.00028548,-0.0071041,0.0053998,0.0018321,0.0020232,0.00092633,0.0050322,0.038651,-0.00387,0.0010605,0.00728,0.0021062,0.0013392,0.007859,0.001421,0.00058984,0.018657,0.017093,0.015429,0.014123,0.014371,-0.022726,0.0029137,0.0017062,-0.0023218,0.0028364,-0.0018196,-0.0035976,-0.0028876,-0.0027258,0.015104,0.0066599,0.013504,0.00082661,0.001878,0.0070236,-0.0015985,0.0031724,-0.0033481,0.0033208,-0.00013013,0.0013115,0.0021299,0.0075742,0.0020496,0.0025558,-0.0004296,0.012309,0.00046125,0.0029771,0.0017152,-0.00050271,0.00084615,-0.0018462,0.0044089,7.3529e-05,0.0036443,0.017698,0.011879,0.010873,-0.034726,0.016813,-0.00042991,0.012734,0.025269,0.0029542,0.015659,-0.050529,0.010834,0.003992,-0.016735,0.0088588,0.0012976,0.019177,0.0001465,-0.0027835,-0.0061054,-0.029534,0.0016614,0.0049704,0.0042426,0.0075117,-0.0019387,0.0034315,0.0010614,0.01212,-0.00083231,0.0035003,-0.00017054,0.0033019,-0.00052462,-0.0025509,0.0012553,-0.00069933,-0.0021888,0.0010192,0.00043777,0.0010863,0.0059028,0.005979,0.00058391,0.00086042,-0.0018724,-0.0012182,-9.7414e-05,-0.00030344,-0.0048433,0.0023157,0.0051939,-0.00027662,0.00033968,0.0033528,0.0031227,0.006224,0.0013829,0.0018722,0.0051967,-0.001982,-0.0005854,0.0011026,0.00054814,0.00011713,0.00088586,-0.0012384,0.001296,-0.0011735,-0.0019864,0.00021935,0.0020639,0.0013392,0.037533,-0.0063482,-0.00051441,-0.018958,-0.0029583,-5.0819e-05,-0.001909,-0.00025236,0.0056374,0.006497,0.0010542,0.012899,-0.0052314,0.0052435,-0.018723,0.02065,-0.0042376,-0.0073644,-0.0033202,-0.01403,0.0031756,0.0082022,-0.0018315,-0.01835,-0.021753,-0.038107,-0.0042004,0.02229,0.020547,-0.00059042,0.0005862,-0.0005935,0.00068029,-0.0014079,-0.00061638,-0.0010279,0.00052826,-0.0020478,-0.0022625,-0.0034769,-0.0057373,0.00035032,-0.013759,-0.00036824,-0.0066305,-0.0022509,-0.0003355,-0.097581,-0.0017512,0.0055548,-3.21e-05,-0.010304,-0.0064772,-0.011008,0.0093109,0.00027546,0.0022954,0.0042959,-0.012285,0.0036347,0.0047195,0.0046421,0.0059892,0.0015784,0.0010934,0.00012404,0.0011713,-0.0077501,-0.0059266,0.0021127,0.0049165,0.0031456,0.0099521,0.0029002,0.006176,-0.0013659,0.0067367,0.00013834,0.00044236,-0.0031101,0.00054707,-0.001827,-0.003331,0.005238,0.0013819,0.00083672,-0.00013706,-0.0021977,0.018955,-0.036228,-0.00068997,0.00028565,0.0033039,-0.0034929,-0.0011535,-0.00019859,6.9764e-05,-0.0054073,-0.0013553,-0.00021348,0.0080452,-0.0025362,-0.018294,0.0032893,0.0001683,-0.0013759,0.00073302,-0.0028403,-0.00061082,-0.0051346,-0.0050568,-0.0019243,-0.010173,0.024758,-0.001454,-0.0061783,0.00015235,-0.0020724,-0.00010379,-0.0030531,0.0013952,-0.0014737,0.0012401,0.0017401,0.0037095,-0.0009595,0.0032676,-0.00103,0.00054951,-0.0004394,0.0019474,0.0011842,0.0011819,0.0019124,-0.0013889,0.003311,-0.0045341,-0.00061067,-0.0068362,0.0042873,0.0011289,-0.024395,-0.03817,0.006105,0.004107,0.011188,-0.0065835,0.020665,-0.036142,0.021738,-0.017527,-0.011223,0.0098545,-0.00095164,-0.017497,-0.0033759,-0.0052657,-0.0014033,-0.012451,0.006505,-0.0075962,-0.02069,0.0055505,0.02542,0.0012767,0.0013374,0.0082096,0.00012074,-0.00028727,-0.00091942,0.0045304,-0.0044953,-0.0031155,0.0028484,-0.0018921,0.00038931,0.0048381,0.0039874,0.0027353,0.0041948,0.00099881,0.013838,0.00080112,0.00011106,-0.0064216,-0.0010701,0.0027261,0.0025415,-0.00059001,-0.0034395,0.0022218,0.0014534,0.0082154,-0.00020668,0.0018069,-0.00037857,0.004787,0.0030378,0.0036923,-0.00024454,-0.0042372,-0.0018714,-0.0034498,8.1222e-05,0.00074643,-0.0036242,-0.0040023,0.0017314,0.0046232,0.0094199,-0.0033319,-0.0015931,-0.0020732,-0.003513,0.0087368,0.012003,-0.01603,-0.026979,-0.0067726,0.016667,-0.0035842,0.0042341,0.0043639,0.0063809,0.00044363,0.0029861,-0.001348,0.0048978,-0.0012273,0.0021174,0.0035729,-0.0018191,-0.0048053,-0.0042326,0.0014466,0.0040685,0.0097812,0.0086822,0.010063,6.3815e-05,0.020232,-0.03021,0.002539,-0.0066636,0.00083078,-0.0026137,0.0031757,0.0058566,-0.0010206,-0.00037159,0.01201,0.0044788,0.020673,0.0090565,0.0089113,0.046552,0.00964,-0.0065887,0.019058,0.0034911,0.02184,-0.00079431,0.059613,-0.0071773,-0.013039,-0.0015124,-0.0058915,-5.4567e-05,-0.00033074,-0.048774,0.0019361,-0.039459,0.01072,-0.00044479,0.0014276,0.0035116,0.0040871,0.00062341,1.8021e-05,0.001627,-0.0025094,0.0015367,-0.00097626,0.0099251,-0.0023613,-0.005378,0.0053639,0.01621,0.00066796,-0.015364,-0.00083636,0.015603,-0.002322,9.4971e-06,0.0043846,0.0011276,-0.0018248,-0.0067905,-0.00023892,0.00095774,-0.00065624,0.00043212,0.0062582,0.027036,0.0059533,0.00065586,0.0017023,0.00080432,0.0012173,0.003753,-0.0016394,0.00012005,-0.029574,0.004727,2.5865e-05,0.02262,0.0027276,-0.023247,0.0065451,-0.0014365,-0.0020188,0.00063739,-0.00092579,0.021397,-0.0018822,-0.011369,0.025027,-0.0012443,0.034655,0.0020035,0.00085706,0.0049714,-0.0015393,0.0092886,-0.0016542,0.00043415,-0.0021884,0.00052724,0.00064917,0.0057427,0.0019939,0.00226,-1.9972e-05,0.0013504,0.00062087,0.0038873,0.0011029,-0.00050696,-0.0044943,-0.0050448,0.0036601,0.00026087,-0.0035972,0.010649,0.0070604,0.0042195,-0.011732,-0.0031861,0.004402,0.02225,0.010701,0.007145,0.018806,-0.021651,0.012236,0.0032631,-0.034196,-0.010043,0.0037713,-0.015274,0.0010781,0.0069323,0.0020614,0.0046248,0.011004,0.0013061,0.0041884,-0.046758,-0.0030512,0.017103,0.025717,0.012825,-0.00090797,0.0053106,0.0004922,0.0094548,-0.0013126,0.0033127,0.0029051,-0.0012832,0.0021204,0.0001398,0.0043148,0.0012697,0.0018393,-0.00023027,0.0017292,-0.0012049,0.0040736,0.0016972,7.7625e-05,0.00089418,-0.00042992,-0.00040664,0.0061338,0.0015518,-0.0012817,0.0019119,0.0038635,7.2694e-05,0.0017677,0.0017922,0.0027666,-0.015206,0.00060853,0.0035311,0.00097152,0.00010925,0.00025369,-0.0021108,0.00033838,-0.001269,1.6053e-05,0.010927,0.0010897,-0.00010275,-0.0018231,0.00090251,1.9838e-05,-0.0059781,0.0077252,-0.0015618,0.016804,-0.057246,0.018176,-0.0025973,-0.006186,-0.016289,0.0048102,0.0050061,0.00087615,-0.00049709,0.00088243,0.0060977,-0.0018988,0.0063876,0.0030165,0.0082439,0.0047621,0.000123,-0.0083567,-0.001811,0.0019182,0.0031583,0.0053279,0.0079111,0.012314,0.047672,-0.010174,0.0011966,-0.0056837,0.00048539,-0.0061377,0.00020189,-0.0035367,-0.0014961,-0.0078467,0.0033089,0.00247,-0.022349,-0.0079882,0.0027757,0.017128,0.00078635,-0.028194,-0.0047492,-0.001133,0.021063,-0.0041578,0.024058,-0.0044836,0.019788,-0.014734,-0.003489,0.0066191,-0.00011345,0.0041537,0.00096975,-0.034992,0.0015952,-0.028859,0.042107,0.0031135,0.0045924,0.0022226,0.0051135,-0.00083477,0.0021764,0.0049854,-0.0096922,0.0079323,0.00030914,0.031294,-0.0018412,0.034599,0.0029484,-0.011676,-0.025797,0.0054924,-0.0021471,0.016012,-0.0033057,-0.0047275,0.04296,0.0030096,-0.0003319,-0.0039476,0.0045766,0.00258,-0.00068134,0.0018942,0.013579,0.0047545,-7.9566e-05,0.0016328,0.010812,-0.00028639,0.0027923,0.008143,0.0014167,-0.0002471,-0.019746,0.018901,0.0035843,0.0024062,-0.022278,-0.0061604,0.0026733,8.4791e-05,-0.0044074,0.0036469,-0.0031187,0.021782,-0.0013594,-0.010697,0.013281,-0.013081,0.0042056,0.0024281,0.0043734,0.011183,-0.00057796,0.011654,-0.00012539,0.013902,0.00076294,0.0038985,0.0026011,0.011279,0.0024474,0.010698,0.00055623,0.0031631,0.000694,0.0060283,0.0030289,-0.00012376,0.0040624,-0.001309,0.0092452,0.0056133,0.0081615,0.016751,0.023206,0.033834,0.0041039,-0.0037956,0.0063901,0.016561,0.058562,0.00049311,-0.0090755,0.016844,0.0019911,0.0027904,0.0021219,0.024556,0.0028728,0.014812,-0.0020766,0.06214,0.003444,0.004483,0.0029427,0.088205,0.006916,0.0046165,0.0059795,0.0012537,0.054721,0.013814,-0.034281,0.054323,0.0031834,0.0025499,0.0020205,0.0069798,7.9239e-06,0.0017176,0.018412,-0.00082357,0.0050829,-2.4737e-05,0.0092812,0.0051432,0.029799,0.0017196,0.030896,-0.016082,0.0040292,-0.0015749,0.015704,-0.0035099,0.01503,0.032783,0.0062336,0.00011001,0.0019064,-0.00053593,0.0021427,-0.006198,0.0021394,0.012331,0.011977,0.014037,0.0027401,0.00086192,0.0060243,-0.0020846,0.0006956,-0.00061257,0.0026567,0.00019677,0.0044333,0.0044574,0.0071209,-0.00066825,0.0017563,0.0027706,1.9084e-05,-0.013084,-0.0006545,0.00035488,0.0065904,-0.00070226,-0.0014222,-0.00033566,-0.0043727,0.003808,-0.0072962,0.0018992,0.0024359,-0.00064905,0.0019328,-0.00057736,0.019397,2.1177e-05,0.0016603,0.00012812,0.0037322,0.0025917,0.0017937,0.0013614,3.5206e-05,-0.00075224,0.0027848,-0.0023911,-0.001621,-2.71e-05,-0.0026509,0.0071318,0.0029964,0.0066307,0.01697,0.012163,0.021744,0.013,-0.000535,0.010496,0.00059955,-0.010042,-0.00039132,-0.0061787,0.0046309,0.02881,0.0059661,-0.0042101,-0.0065903,0.0018461,0.0103,-0.017127,0.026698,0.0027426,0.009087,0.0073744,0.013466,0.0027791,0.036792,-0.0045943,-0.0019772,-0.021418,0.0033204,0.0022111,-0.018017,-0.022866,-0.0043053,-0.00034194,0.0017254,0.0030599,0.00021554,0.0016269,0.0026998,-0.00045884,0.0021278,-0.0058251,0.0028697,0.00019681,0.0036507,-0.012976,0.0030648,-0.013101,0.0066013,-0.0011714,0.004112,-0.0021157,-0.0022535,-0.0044854,0.00211,-0.0019323,-0.0026351,0.00064743,0.0010541,0.00013697,-0.00088802,-0.0020346,0.011574,0.016694,-0.00089537,0.0010063,0.00052263,-0.0094374,0.00022137,-0.00087534,-0.00021808,-0.0035081,0.00046721,-0.0011902,0.011425,-0.016128,-0.004852,0.0018048,-0.00041615,-0.0038575,-0.0030336,-0.0076588,-0.0043276,-0.01467,-0.0020091,-0.028188,-0.037352,0.00094471,0.0034323,-0.00070276,-0.0011911,-0.0019106,-0.00058179,-0.0016234,-0.0014063,-0.0026893,6.4501e-05,0.0013765,-0.0080871,-0.011395,-0.0025716,-8.9086e-05,0.00042037,0.0064944,0.00089567,0.0010747,-0.00066031,0.013981,-0.01507,0.0034978,-0.0039554,-0.0022675,-0.0070713,-0.0017758,-0.0032011,-0.0053685,-0.0090239,0.0067871,-0.02002,0.037472,0.0071634,0.0024051,0.0054689,0.00018106,0.0026026,0.026106,-0.0010197,0.0049961,-0.012522,-0.010611,-0.0094767,0.0096172,0.048867,-0.028078,0.031194,0.02046,-0.017012,0.00015082,-0.0023541,-0.0031258,-0.0030259,0.0060528,-0.013416,-0.0016362,-0.00097652,-0.00039323,0.0010523,-0.0027565,0.00048494,-0.0013809,0.00085708,0.0010159,-0.012466,-0.0008297,-0.00060856,-0.0006335,0.0044809,-0.00055566,0.001809,-0.00013323,-0.0012142,0.00063365,0.009542,0.00017413,-0.00095498,-0.0074399,0.0026709,0.002074,0.0066572,-0.0056674,0.0061692,0.013035,0.0065613,-0.0020997,-0.0021582,-0.0063247,-0.00077405,-0.0011779,-0.0074544,-0.0025164,-0.0065839,-0.0035292,-0.0037577,-0.0015471,0.00014332,-0.0013169,-0.0021736,-0.0016039,-0.0018976,0.00040753,-0.00048049,-0.0014009,0.018287,-0.0021508,0.016846,-0.002579,-0.0022353,-0.0024193,-0.0012722,-0.00022995,-0.001891,0.0042798,-0.00061089,-0.036234,0.001725,-0.019228,-0.0035095,-0.00012535,-0.0045448,-0.00063397,-0.0059755,0.0046329,0.0082416,-0.0040579,-0.00023955,-0.019798,-0.003311,0.019246,0.0073878,-0.0030765,0.0023563,-0.0046678,-0.0013868,0.031008,-0.0014174,0.015403,0.0018421,0.0083003,0.00099322,0.00034078,-0.0056144,0.0013044,-0.0068908,-0.0074926,-7.669e-06,0.0052637,-0.001357,-0.0072704,0.0013736,-0.00035732,-0.014877,-0.00067035,-0.028313,0.00045354,-0.00039689,-0.00050013,-0.0076699,0.00073459,0.00075479,0.0020673,-0.0082247,-0.00074523,-0.002764,-0.0033415,0.0044768,0.00080725,0.0011419,0.0025064,0.0036834,0.035006,0.063966,0.00035856,0.014792,-0.00084468,-0.025033,0.0017432,-0.005884,0.0015175,-0.018217,0.0010755,0.0018062,-0.0020053,0.0028871,0.010496,0.0021269,0.00043907,0.0015068,-0.00018126,1.3625e-05,-0.0021771,0.0017645,-0.049539,-0.024995,-0.014098,-0.035761,-0.0037962,0.0042072,-0.014253,0.0018614,0.0026665,0.0047034,-0.030132,0.00052167,0.00027818,-0.012242,-0.016808,-0.026679,0.0014989,-0.00018958,0.00073988,-0.0013788,-0.0015142,0.00074,0.00023805,0.00031855,0.0013041,0.0031004,0.0017162,-0.0014164,0.001052,-0.00022955,-0.0010198,0.00019438,-0.00042019,-0.00020325,0.0056258,0.016107,-0.00083909,-0.0063137,0.00068169,0.012255,-0.00053898,-0.0017841,-0.0039418,-0.0035007,0.0075371,0.0048125,-0.0048428,-0.0036576,-0.00011805,0.0017678,0.0026154,0.0018593,0.012378,-0.00068015,0.0040016,0.012849,0.0056981,-0.00054802,0.003572,0.0034142,0.0062914,0.0017778,-0.0028338,0.0015311,0.00093173,-0.001262,0.0014865,0.0017566,-7.3472e-05,0.0057874,-0.0013094,0.0051757,-0.0020848,0.0032431,0.0015658,0.0032987,0.002396,0.00031907,0.00058675,0.0031018,0.0015465,0.0053698,0.0029372,0.003186,0.0026253,0.00062052,-0.0010261,-0.0026411,-0.012229,-0.00094761,-0.014795,-0.0031142,0.0022067,-0.0034381,0.0010319,-0.0016729,-0.0019766,-0.0013028,-0.0016781,-0.0036267,-0.011237,0.00036239,0.00011347,0.00076278,-0.0027475,0.0010825,-0.0014228,-0.00030332,-0.0014498,0.0012337,0.0065907,0.00077686,-0.0065683,-0.014683,-0.0012147,0.0019363,-0.00063774,-0.0092833,-0.0049795,0.0031895,-0.0093667,-0.0053403,-0.00067809,0.00035395,0.00063716,-0.0040785,0.00089696,-0.010677,-0.0014382,-0.0048631,-0.0080219,-0.0017087,0.00062196,-0.001482,-0.0089698,-0.0009237,-0.0012172,2.1051e-05,-2.4016e-05,-0.007543,0.010191,-0.0093524,0.01428,-0.0021187,0.0049787,-0.0032595,-7.447e-05,-0.00074509,-0.0017801,0.00013252,-0.0014173,0.001304,0.0004753,0.025309,-0.011611,-0.011934,-0.0028524,-0.093022,-0.01572,0.0038802,0.0039742,0.0029895,0.012415,0.0031625,-0.0041477,-0.024962,0.00095643,-0.0030916,0.016851,-0.00077295,-0.0002191,0.043342,-0.0012163,0.0097627,0.00015618,0.0082616,-0.0002007,0.0010144,-0.0024692,-0.0019872,-0.0056019,-0.0065799,0.00071899,-8.6235e-05,-0.001378,0.0094391,0.0043654,-0.00085867,0.0015351,-0.0018659,0.012812,0.0002481,0.0058724,0.00012867,-0.00092958,0.0005906,0.0017108,0.0034069,0.020558,0.00052027,0.042592,0.00062844,0.0034754,0.0012342,-0.00057748,0.002494,0.0064049,0.002611,0.0034009,0.0024584,0.0030542,-0.00032421,0.0012864,-0.00054762,0.004803,0.001348,0.0038088,-0.023438,0.0060191,0.00044251,0.00057327,0.0020638,-0.0049708,-0.00054017,-0.0029678,0.00080078,0.029447,0.00091333,0.0025,0.00025065,-0.0026641,-0.0031992,0.0082498,0.0033171,0.0013744,0.0066569,0.0011973,0.0024413,0.00090682,0.0011702,-0.00045886,-0.00066554,0.0025643,8.9815e-05,0.0016406,0.00084715,0.006515,0.00058524,0.0019316,0.0026634,0.0022096,0.001738,0.001919,0.013517,0.0035475,0.00023373,0.0014339,-0.002182,0.00066104,-0.011253,-0.00058378,-0.01385,0.0019179,-0.0032356,-0.00023916,0.0033742,0.0021096,0.0043206,-0.00069311,0.0022397,-0.001636,0.0031344,-0.00011318,0.0010852,0.0097254,-0.012327,0.00039454,0.021009,0.00083498,0.005382,-0.0037741,0.00598,-0.0019742,0.0039348,-0.0089243,0.010907,0.00037052,-0.0042245,-0.0034641,-0.0023889,-0.0075965,-0.0022033,-0.0017276,0.00034987,-0.011204,0.0002933,-0.0047186,0.017297,0.0014955,0.0014133,-0.00066656,0.0076225,0.00097863,-0.00056075,0.00452,-0.00080299,0.001112,-0.00048528,0.01237,-0.00010849,0.0017622,0.00046024,0.00049251,0.0013568,-0.00042097,-0.00080764,0.0021699,-0.00024784,0.0003634,0.0025838,-0.0015411,0.00035773,0.0028342,0.022435,0.00019356,-0.0015768,0.00049768,0.0070258,-0.00017159,0.0013119,-0.0008296,0.0017802,0.00070258,-0.003762,-0.020561,0.0031276,0.001219,0.020811,-0.0035575,-0.026587,0.0016921,-0.0052741,0.0013305,0.020905,0.00098548,-0.0087319,-0.00088315,-0.00068519,0.0018593,-0.0027478,0.0024214,-0.0022691,0.0058132,-9.1283e-05,0.0040439,0.0010204,0.00056502,0.00086164,-0.0001726,0.0017401,8.4666e-06,0.0010673,-0.00089588,0.0042261,0.00084351,0.00030765,0.00030671,-0.0011257,0.0007515,0.0011421,0.004366,0.0041322,-5.6963e-05,-0.0019385,-0.00014368,0.00081451,0.0014355,-0.00062986,-0.011439,0.00061037,-0.0025127,-0.00060436,0.0024353,0.0028749,0.0035416,-0.00086434,0.00044919,-0.0038819,0.0018692,-0.0018125,-0.0055482,0.016027,-0.0040487,0.013105,0.019783,-0.00044282,0.0051147,-0.007107,0.0036146,-0.0035743,-0.020432,-0.026471,-0.0057549,-0.00076161,-0.0020476,-0.0096688,-0.0044173,-0.007309,-0.0095676,-0.0047875,5.951e-05,-0.0061867,0.0067031,-0.0082847,-0.018665,0.0015654,-0.003976,-0.00064247,0.0089715,0.0024637,-0.0012972,0.0028834,-0.0010758,-0.0065991,-0.00050568,0.0009368,-0.0017301,0.00040998,-0.00023123,-0.00031983,0.0017109,-0.0035005,-0.0027036,0.012267,0.0021934,0.0014906,-0.014188,-0.0021638,-0.0062269,-0.0032471,0.0021824,0.0006257,0.010561,0.0048747,0.0028434,0.024097,0.0014461,0.0083049,0.0016269,-0.015317,0.0070569,-0.0066989,0.0021096,0.018467,-0.00070545,-0.016247,0.002081,0.001161,0.0049806,0.0024031,0.0084312,-0.0053312,0.0014722,-0.00093358,-0.0055866,0.0050411,0.0057902,-0.019994,0.018488,-0.017599,-0.009995,-0.025022,-0.025219,0.0043723,0.0016999,0.0070089,-0.018995,0.0055917,0.011715,-0.0060476,-0.000537,-0.0019795,0.0071692,0.00091986,0.0016186,-0.002766,-0.0018202,0.0022288,0.0011545,0.00049073,-0.00016796,-0.0065804,0.0062264,-0.004624,9.4889e-05,-0.0017461,-7.1439e-05,0.0022565,-0.00077474,-0.00046143,0.011788,-0.0020535,-0.0067648,-0.0079294,-0.0053055,-0.0014311,-0.0092404,-0.0072776,-0.0040436,-0.0048238,0.0068293,0.011755,-0.0084699,-0.0063641,0.0034068,-0.0020344,0.00053727,-0.00080367,0.0063595,0.0077016,0.0049441,-0.00057549,-0.0054255,-0.007662,0.0040293,0.0064307,0.015997,0.00096695,0.00049442,0.0057823,-0.0012613,-0.0011248,0.0032827,0.0021619,-0.00088481,-0.0078316,-0.0049617,0.0069401,-0.0027906,0.0041427,-0.00056654,0.0075126,0.0014837,0.0014445,0.0036484,0.010668,0.0015241,0.020778,0.0029812,0.0035317,0.0096068,-0.010128,-0.05725,-0.010178,0.00095288,0.007415,-0.0026604,-0.0038358,-0.004381,0.0028841,-0.037124,-0.00078594,0.0085236,-0.0033514,0.0047533,-7.6597e-05,0.010123,-0.00092053,0.0066006,0.0093184,0.0014877,-0.017126,0.010569,-0.00010562,0.0062807,-0.0013363,0.00053228,-0.0016948,-0.0017965,0.0015049,0.032106,0.00069802,0.0017233,-0.0020533,0.00053017,0.0095808,0.018508,-0.017109,0.017215,0.013891,0.0079247,-0.0040153,0.00050711,-0.0024063,0.00111,-0.0029341,0.0052582,-0.0020537,-0.0025886,-0.0070548,-0.00038706,0.00013899,0.0010029,-0.00066535,0.011429,-7.3989e-05,0.0013397,0.0021582,0.00053186,-0.0011103,0.0071856,-0.00314,-0.0091121,-0.0030945,-0.00082562,-0.0040469,-5.7503e-06,-0.0015972,-0.0038953,0.006442,0.00028647,-0.018898,-0.00019321,-0.0091346,-0.0064469,-0.013822,-0.0064509,0.0092093,-0.014072,0.00032643,0.0015449,-0.0021566,0.00038588,-0.024067,-0.004525,-0.0076375,-0.031193,-0.0037845,-0.0020925,-0.0057879,-0.00035604,-0.019748,-0.0028451,0.0026199,0.00035669,0.019026,0.0007983,0.00056359,-0.0051697,-0.00199,0.0010453,-0.010274,0.0056448,0.0014027,-0.0024048,0.023387,0.0069952,-0.00083856,-0.0028266,-0.0016349,-0.047345,0.0010931,-0.0023684,-0.0012051,-0.011358,0.00020146,-0.00039841,-0.00071694,0.013545,-0.0010967,0.0055924,0.0034234,-0.017503,-0.0045328,0.002369,-0.0053351,-0.0034689,0.0063758,0.016957,-0.0070732,-0.012972,-0.0022112,-0.0065929,-0.017096,-0.021236,0.00035088,-0.0047286,-0.0010933,-0.021235,-0.0037429,0.020566,0.0089735,-0.041089,-0.0097384,0.0095918,0.0075086,-0.0028373,-0.0020025,-0.00038303,0.0017953,0.0055262,0.0011367,0.00053324,0.0032465,0.0073266,-0.016601,-0.0027255,0.0077513,-0.030078,-0.023327,-0.011212,-0.016021,-0.00052757,0.0010698,-0.00050779,-0.026315,-0.010649,-0.0074848,-0.018531,-0.0044046,-0.031427,0.00036164,0.00039706,-0.00062992,-0.0024958,0.00068262,0.00052688,0.00047424,-0.0016617,-0.0040285,-0.00056769,-0.0015402,-0.0058629,0.00018834,-0.0025449,-0.010041,-0.00026057,-0.0038887,-0.0037561,-0.0030139,0.0023336,-0.0044433,-0.0067486,-0.0062192,-0.011108,-0.0049574,-0.0090938,-0.0073392,-0.0041444,0.0012628,0.0099155,-0.013775,-0.0053523,-0.0016141,-0.0059721,-0.0033588,-0.0088604,-0.0029318,0.0069143,-0.0043079,-0.0015903,0.0028451,-0.010507,0.0092466,0.010866,0.015457,0.0074654,9.5242e-05,0.0093729,-0.0053998,-0.014493,-0.0052781,0.00048997,-0.0031918,-0.015648,-0.011317,0.00032625,-0.0033223,-0.0016803,-0.0047371,0.0099048,-0.00036611,0.00093179,-0.001841,-0.0063884,-0.00029125,0.0011831,0.00069478,0.001311,-0.0011974,0.0069659,-0.026455,-0.010352,-0.0061992,-0.017761,-0.061748,-0.0064852,0.00049044,-0.00038817,-0.0026401,0.0010158,0.012315,0.023756,0.0034097,-0.0015974,0.0024061,-0.00014416,-0.0022421,-0.00097874,-6.6191e-06,0.00047436,-0.0049132,0.031627,-0.0088647,-0.00028347,-0.038146,0.003831,0.0040895,-0.0051601,-0.0043653,0.00098333,0.048497,0.0005518,-0.021429,-0.0017219,-0.0073958,0.0071488,0.036786,0.014378,-0.0016809,0.019558,-0.0032227,0.0098906,0.00041845,0.0014751,0.00034301,-0.0053481,0.0071396,-0.0066154,-0.0034074,-0.00082224,-0.0022165,2.2854e-05,0.00064152,-2.8752e-06,0.0023185,0.00030301,0.0015731,0.0028826,0.00046462,-0.0043281,0.0038512,-0.0036178,0.0019436,-0.0031881,-0.00082339,0.0067912,0.0012062,-0.0020644,-0.00023283,0.0056347,0.0013469,0.0012746,-0.0021393,0.001466,-0.0030827,0.0013687,-0.0044943,0.009227,-0.0011263,-0.0047913,-0.013805,-0.0091761,-9.4856e-05,0.0065598,-0.0076415,0.012064,0.026711,-0.012896,-0.012483,-0.01174,-0.0047893,-0.012666,-0.0044215,0.010145,-0.011247,-0.0058215,-0.0017595,0.00044012,0.016814,0.0034544,-0.0012803,-0.0066414,0.0088895,-0.00093103,0.0016393,0.0029924,0.0030606,-0.0010892,0.0080088,-0.0021997,0.030683,-0.0033981,-0.0048723,-0.0018668,0.0044844,0.0011257,0.0023662,0.0018128,0.0014079,-0.00098788,0.0098479,0.00036107,-0.025544,-0.0021526,0.063443,-0.018874,0.02845,-0.056755,-0.00079624,-0.0017193,-0.0028321,-0.0088424,-0.025409,0.002321,0.0091138,-0.0011592,0.0052858,0.00032245,-0.00034678,-0.0010702,0.0053298,0.0031949,0.012439,0.0059431,0.0033253,0.0014628,-0.05889,0.0075202,-0.022105,-0.012409,-0.0028442,0.0017732,0.024755,0.00045762,0.0025754,-0.0041086,-0.0017672,0.017266,0.034255,0.006724,0.016248,0.018885,0.001676,-0.0011984,0.00010269,0.00018596,0.0015137,-0.001601,-0.00022259,-0.0011663,0.001227,-0.0012949,0.0031901,-2.1486e-06,0.00054181,9.9406e-05,0.0014261,0.0015307,0.00016747,0.0027363,0.00026352,-0.008028,0.015612,-0.00014927,-0.0042735,-0.0025232,-0.00042866,-0.0026483,0.00068327,-0.0015988,-0.0013321,0.013576,0.001923,-0.0019956,-0.0011937,-0.0083257,-0.0048218,-0.003192,-0.0023561,0.021919,0.00023919,-0.0023615,-0.0015488,-0.0024114,-0.00032989,0.0070721,-0.0045215,-0.0062451,-0.0042562,-0.0073826,-0.0034734,-0.0042684,-0.00029453,-0.00060464,-0.0023294,-0.010291,-0.0026114,0.0087471,0.002981,0.0004338,-0.0098316,-0.0016675,0.0059304,-0.016,0.0030913,-0.0070645,-0.0011409,0.002921,0.00062002,-0.00072171,-0.0010328,-0.00052205,-0.021218,0.00084704,-0.0017267,-0.00081421,-0.0032565,-0.00036957,-0.00014614,0.0034631,-0.0035994,-0.0013646,0.016155,0.009914,0.0078757,-0.012952,-0.020113,0.0077019,0.078442,0.021245,-0.006689,0.028489,-0.034886,-0.0047197,-0.0031267,-0.0015492,-0.0015928,-0.0016685,-0.016186,-0.0069268,-0.00048694,0.0061747,0.00035899,-0.0068187,0.0021011,0.0013417,-0.0015964,0.0045779,-0.0034211,-0.0019639,-0.012427,-0.0017078,-0.00053334,-0.002915,3.1632e-05,0.0025541,-0.000128,-0.0015579,-0.0013901,-0.0027289,0.0014481,-0.0014981,0.02442,-0.0037384,0.0098513,-0.0038657,0.027859,-0.00088785,-0.00023485,-0.0040346,-0.001176,-0.0044626,0.002309,-0.0045878,-0.00013061,-0.0021429,0.00061474,-0.00030566,-0.0013025,-0.0061987,-0.0019333,-0.004488,-0.0071716,-0.0018177,0.0037395,-0.0073853,-0.012168,0.0013266,-0.007614,-0.0061448,0.0042135,-0.0033675,-0.016271,-0.0062584,-0.0054155,-0.0012793,-0.0041547,-0.02492,0.0097985,-0.027021,-0.00057663,0.00098263,0.0031065,-0.0012032,-0.011638,-0.0061394,0.0085346,-0.0065768,-0.0031183,-0.006871,-0.0010442,0.00081399,-0.00051271,-0.0025512,0.0014218,-0.00077463,-0.0077748,-0.0023207,-0.0055822,-0.0046304,-0.0044498,-0.0033307,-0.0019476,-0.0096948,-0.006585,-0.0027714,-0.0090974,-0.00014418,-0.0024332,-0.007198,-0.0023669,-0.0024227,-0.0028574,-0.0041544,-0.0030083,-0.0010476,-0.0017845,-0.0030852,-0.0066327,-0.0035301,-0.0021858,-0.0073086,-0.0012127,-0.0014989,-0.0077432,-0.0021109,0.0042524,-0.002141,-0.0019127,-0.0037814,-0.0079827,-0.002946,-0.0039447,-0.0012286,-0.0034112,-0.0009479,0.0023831,-0.01128,0.0020828,-0.00062728,0.0005461,0.0085257,-0.0076618,-0.010859,-0.0073754,0.018347,0.00146,-0.0080795,0.014734,0.00017916,0.0015829,-0.0036836,0.0026801,0.0029129,0.0014991,0.0010713,0.0028275,0.0013815,0.0022541,-0.0012851,0.0068138,0.0038775,-0.0080494,-0.0048516,0.003643,-0.0034495,-0.0044252,0.00063233,-0.0022995,0.00052436,-0.0023834,0.0053009,-0.017339,-0.0034131,-0.0004167,-0.0069019,-0.0019956,-0.0037589,-0.0012577,-0.012187,0.060928,-0.00061792,0.039457,-0.002231,0.056136,-0.0058179,0.0052377,0.016666,0.01825,-0.010179,0.0031125,-0.0023827,0.00080485,-0.00067444,0.0022434,0.010202,0.003885,0.0062763,0.00036764,-0.0037727,-0.0045456,0.0049657,-0.0019709,-0.0036706,-0.00025766,-0.0042134,-8.1216e-05,0.00068778,0.00047408,0.0041369,-0.0019098,0.0080049,-0.0040372,0.0010583,-0.0039949,0.0039956,0.00088267,0.0018753,-2.2405e-05,0.0010191,0.00043518,-0.00042631,0.00048473,0.00063815,0.00048755,0.00054514,0.0025427,-5.8902e-05,-0.00044246,0.0018127,0.00037069,0.00407,-0.0028212,-7.553e-05,0.00027765,0.00057664,0.00025535,-0.00076466,-0.0025824,-0.0015291,0.0013972,0.0054587,0.0024193,0.00014918,0.0027625,0.0092816,0.0020326,0.0075383,0.010056,-0.0062952,0.0019976,-0.0022383,0.00027209,0.00027374,0.0019309,-0.0017694,-0.0013347,-0.00060525,-0.00025404,-0.0030999,0.028011,0.022204,-0.013906,-0.00084468,-0.0011962,-0.014662,0.0015905,0.0069623,0.0098275,0.012876,0.0054879,0.015213,-0.00070315,-0.00019067,-0.0048394,0.00060121,-0.0056539,0.019574,-0.0028015,0.0064904,-0.00070717,0.0042897,0.0014629,0.0022808,0.0035184,0.0016701,-0.0071871,0.00066858,0.00097064,-0.0076721,-0.00049184,0.019868,-0.0017139,0.0046737,0.0005775,0.0038409,0.00015613,0.00051381,-0.0034472,-0.002233,0.0008933,0.0010709,-0.00091783,0.0018521,-0.0032027,0.017599,0.0016652,0.00083714,0.011142,-0.00066784,-0.0046418,-0.0027483,-0.0029217,0.00013415,-0.0059386,-0.0015243,0.003008,0.0040765,-0.029771,-0.025658,-0.00034227,-0.011708,0.0061269,0.011135,0.0018514,0.00081373,-0.021203,0.00066869,0.0023905,-0.0014028,-0.002873,0.0065722,0.0029013,-0.0040693,-0.005694,-0.0035032,-0.015642,0.0046474,-0.017588,-0.00070483,-0.0035754,-0.005789,0.00011293,-0.010159,-0.0022292,-0.01158,0.0094271,-0.008369,-0.0036041,-0.0076864,-0.0031751,0.00011338,-0.0055712,-0.010744,0.0013083,-0.0072251,0.0023457,-0.0016329,-0.0054123,-0.0012959,-0.0067211,-0.0012753,-0.010253,0.0089073,8.8363e-05,-0.0012979,-0.012271,-0.010975,-0.0013685,-0.0061982,-0.019903,0.0011869,0.0014625,-0.004319,-0.0045127,-0.002834,-0.0040259,0.00027389,-0.0042255,-0.011112,-0.0049921,-0.0084456,-0.0039923,-0.0031896,-0.03785,-0.002465,-0.022945,0.0090033,-0.011964,-0.0020078,-0.0021226,-0.0012584,0.00046651,-0.0043869,-0.0085496,-0.0086979,-0.005053,0.0047791,-0.00699,-0.012097,-0.0043206,-0.00042578,-0.005766,-0.0041237,-0.0010296,-0.0034021,-0.001406,2.9685e-05,-0.0026856,0.013509,-0.0067166,0.0018041,-0.0072032,-0.0092892,-0.0042538,-0.0051988,-0.0071594,-0.0066649,0.0010595,-0.0050306,0.00024805,-0.0042813,0.0072289,-0.0077018,-0.010968,-0.0037923,-0.0044226,-0.0089949,-0.0093129,-0.0052473,-0.016152,0.004541,-0.00067208,0.03561,-0.02151,0.034193,-0.0019866,-0.0072427,-0.0065678,0.0060281,-0.006954,-0.0045402,-0.0035177,-0.0048444,-0.038653,0.0012302,-0.012851,0.0052317,0.00058764,-0.0061677,-0.004528,-0.009349,-0.0053702,-0.0067408,-0.0054258,-0.0027086,-0.0056538,-0.0027531,-0.0026896,-0.0014045,-0.0022361,-0.0097359,-0.0080164,-0.0057733,-0.00036228,-0.0041793,-0.0055857,-0.0018808,-0.0046977,-0.0078428,-0.00066645,-0.0044452,-0.0032927,-0.0029786,-0.004018,-0.0030789,-0.0041735,-0.0017754,-0.0024981,-0.0046876,-0.0018422,-0.0023198,0.0013535,-0.0091457,-0.0024817,-0.0030302,-0.012916,-0.0025148,-0.01584,-0.00272,-0.010877,-0.0039171,0.00059098,-0.0014212,-0.010592,-0.0016853,-0.0099215,-0.0023654,0.00016037,-0.010398,-0.011013,-0.00089148,-0.0067934,0.00051834,-0.0017125,-0.0020275,-0.0083682,-0.0057154,-0.0024879,-0.002824,-0.004804,-0.013917,-0.0039088,0.018292,-0.05304,-0.0090305,-0.0021171,-0.00098517,-0.0067891,0.0012969,-0.016126,-0.01168,-0.0038149,-0.0032174,-0.0079907,0.0061419,-0.0068929,-0.0059424,0.010187,-0.0080413,-0.0091507,-0.00018495,0.0068968,-0.00021543,0.00063053,-0.0044589,0.016953,0.0013466,-0.00030006,-0.00077069,-0.00024361,-0.0017813,-0.010568,-0.0021798,0.013686,0.00024484,0.0068264,-0.0025712,0.0020027,0.0032013,-0.00012512,-0.0051653,0.011768,-0.015,0.00085501,-0.0085216,-0.0032183,-0.010703,-0.0011352,0.003579,0.013798,0.020281,-0.015452,-0.02412,-0.07232,-0.0023685,-0.00074818,-0.0031258,0.0013522,-0.0044248,0.0054276,-0.018927,-0.010061,-0.00305,0.014757,-0.017477,0.0013103,-0.04384,-1.749e-05,-0.027434,-0.0062946,-0.018508,-0.0026292,-0.004163,0.0011201,0.0023793,0.0014922,0.0020021,-0.0024324,-0.0078175,-0.0046626,-0.0017736,-0.0034604,-0.0054178,0.0054819,-0.002604,-0.017994,-0.0057436,-0.008073,-0.0062468,-0.0090136,0.0033318,-0.0066852,-0.0091844,-0.0022174,-0.0033558,-0.0099339,0.0011401,-0.0067275,-0.0048835,-0.0011801,-0.0070297,0.0010575,0.0092537,-0.0033335,-0.0066508,0.0015941,-0.00049115,0.0019458,-0.0085726,-0.0099971,-0.013092,0.0070468,-0.015319,0.0021065,0.00013913,-0.014644,-0.0026927,-0.0035668,-0.0044773,0.0012412,-0.00021304,-0.0013366,-0.0041674,-0.008625,-0.0029082,-0.0025703,-0.028499,-0.0051217,0.093273,-0.066058,0.0068339,-0.022092,-0.0044327,-0.0017167,-0.00016311,4.3029e-05,0.0012213,0.0026654,-0.015025,0.0050931,0.017343,0.00080763,0.013017,-0.00082973,0.0072058,0.0012655,-0.0073748,-0.0030412,-0.0016285,-0.00036053,0.000619,0.0014798,0.0013831,0.0027428,-0.034212,0.0010686,0.008321,0.005893,-0.0011813,-0.0067489,-0.016584,-0.015891,0.0084602,6.7876e-05,0.01194,0.0049591,0.0042756,-0.0037034,0.0027096,0.034351,0.0025937,0.02406,-0.012563,0.0040355,0.016916,0.0019618,0.0029576,0.017468,-0.0077535,0.00076854,-0.0081586,-0.0081069,-0.00015047,0.005311,-0.0044393,0.00013872,-0.0086952,-0.0073249,-0.01325,0.0030666,0.00041859,-0.0059867,0.0094351,-0.0047417,0.0019557,-0.0023596,-0.029554,-0.010058,-0.02961,-0.0017349,-0.001056,0.0026129,0.018808,-0.0039799,0.0049917,-0.0054732,-0.020171,-0.0010704,-0.0043944,-0.003068,-0.0029084,0.001887,-0.0025693,-0.0014177,-0.0011628,-0.0033886,-0.0026552,-0.0055854,-0.0043973,-0.00221,-0.0023883,0.0011635,-0.00245,-0.0045109,-0.0028031,-0.0038595,-0.002217,0.00039082,-0.0035854,-0.0051061,-0.0044341,0.0012841,-0.017193,-0.0091246,-0.0018464,0.0004194,-0.0070863,-0.0057992,-0.0044335,-0.00078992,-0.0070643,0.00013602,0.0001451,-0.0040923,0.0050478,-0.0075861,-0.0069622,-0.00014179,-0.0029372,-0.0069777,-0.0012072,-0.0069903,-0.0013084,-0.0019676,-0.03475,0.0073764,-0.046508,-0.0087883,-0.039141,-0.011075,-0.00067655,-0.009837,-0.0019911,0.0040992,0.0019475,0.00097242,-0.003142,-0.011182,-0.0087489,0.0095569,4.5475e-05,-0.0038628,-0.0028886,0.011805,-6.0615e-05,-0.0034905,-0.0030564,-0.0010796,-0.0010534,-0.0007305,-0.00033532,-0.0025161,0.00093409,0.0078685,0.0018338,-0.0025272,-0.0031312,-0.0025745,-0.006487,-0.0058291,-0.0058259,0.0050297,-0.0012798,0.001103,-0.0019598,-0.0023235,0.011784,0.034891,0.023641,-0.0088069,0.021189,-0.0059345,-0.014338,0.021994,2.672e-05,-0.0015209,0.00038987,-0.0044912,0.0006343,-0.019466,-0.01728,-0.0058756,0.0043551,-0.00088137,0.0037689,0.004173,0.00060826,-0.018964,0.0029654,0.015417,0.012671,0.0083636,0.0046768,-0.0027547,-0.0052058,-0.012503,-0.0054346,-0.0099415,-0.0011611,-0.00028767,-0.0011052,-0.00077549,-0.0041101,-0.013615,-0.002971,-0.0091674,-0.0024975,-0.0016746,-0.0028731,-0.0028871,0.0011661,0.003989,-0.004332,-0.0009514,-0.0028274,-0.0028921,-0.0057484,-0.0052059,-0.0039307,-0.0039105,-0.0027105,-0.0021654,-0.0055057,-0.0012562,-0.0032971,-0.0054235,-0.00087679,-0.0029976,-0.0058024,-0.0032352,0.00064961,-0.014627,-0.002136,-0.0023899,0.00073333,-0.0043966,-0.0031651,-0.0065686,-0.00069785,-0.0062716,-0.00033452,-0.0010398,-0.0039259,-0.0049645,0.001732,-0.0050364,0.00043296,-0.00071015,-0.0051588,-0.0015416,-0.0045711,-0.0010755,-0.0013036,-0.0095249,-0.0075526,-0.024671,0.060212,-0.020073,0.048973,0.0022876,0.0015271,-0.005816,0.030367,0.03869,0.0070443,0.010986,0.0024893,0.00224,0.00025647,0.0026094,-0.0010784,0.0047503,0.0023129,0.0036363,0.05785,-0.0011156,0.0019234,0.0018162,0.001149,0.009292,-2.3218e-05,0.0032373,0.0015212,0.014935,0.0021386,0.017951,-0.0010741,-0.0042142,0.0063596,0.0099525,0.0022098,0.0013304,0.0059375,0.0015312,0.0021444,0.001579,0.006352,0.002307,0.00016667,0.005585,-0.00030286,0.0023248,0.00084282,0.0015394,0.00051361,0.0013609,0.0021654,0.0044498,0.0017822,-0.00042998,0.016432,0.017489,0.00057159,-0.0015399,-0.0039629,-0.00070099,-0.025394,0.0083623,-0.013211,0.0027913,-0.0046488,-0.0013379,0.004208,0.0049154,0.00085458,-2.0868e-05,-0.0064884,0.00041069,-0.00051762,-1.1697e-05,-0.024373,-0.013984,0.01008,-0.014135,-0.0025556,-0.0018084,0.0023079,-0.023276,0.0011081,0.0032726,-0.028857,-0.022131,-0.0051484,0.0011923,-0.0014579,-0.00096266,-0.00122,-0.0047214,-0.0019705,-0.001835,0.00082088,0.022967,0.023391,-0.0069565,-0.047734,0.0041278,0.0053753,0.0014898,0.014612,0.001453,-0.00092786,0.0031311,-0.00026295,0.020315,0.0013152,0.0051773,0.0003683,0.011674,0.00087701,0.0026821,0.0011079,-0.0045293,-0.0023574,-0.0086577,0.0016865,-0.017109,0.028967,0.0076381,0.00089964,-0.049452,-0.0057021,-0.036368,0.00061557,-0.0013225,0.00067754,-0.0031211,0.00071185,0.0041908,0.0012519,-0.00012442,0.0048691,-0.0017966,-0.0071408,-0.0029905,-0.0029889,-0.00237,-0.0021717,-0.0096735,-0.018341,-2.4777e-05,0.0014977,0.0016685,-0.0043437,0.0027927,-0.0038081,-0.0024586,0.013036,-0.002257,-0.0035397,-0.0028947,-0.0022892,-0.0012662,-0.0021317,0.00063513,-0.0024161,0.00034468,-0.00090792,-0.0012608,-0.0017692,-0.00038315,-0.0034734,-0.00038963,-0.0035141,0.0042904,-0.0025386,0.0082551,0.00011519,-0.00023298,-0.00043799,0.00059742,-0.0033544,0.0048839,-0.0050033,-0.00096785,-0.0028883,-0.00070574,0.00055482,-0.0017575,-0.0026048,-0.0007409,-0.0029501,-0.0043049,-3.2974e-05,0.0038719,-0.0071512,-0.014873,-0.015239,-0.0030753,-0.012645,0.0056195,-0.0013213,0.0046856,-0.0024344,0.00052821,0.0025653,-0.0028315,0.0079411,-0.00076961,-0.020852,-0.007962,-0.00088294,-0.0053086,-0.012857,-0.0056368,-0.0094143,-0.0039032,-0.0071061,-0.0040456,0.001112,-0.0046807,-0.0065917,0.0094248,0.0010562,0.0064383,-0.0010959,-0.0077471,-0.0011612,-0.0031377,-0.0020843,-0.0032882,-0.0019712,-0.0013862,-0.0027185,-0.0024185,-0.0029725,-0.0054203,-0.00061997,-0.0039449,-0.0026159,-0.0012039,-0.00098825,-0.0018661,0.0069814,-0.0022613,-0.00094163,-0.0017481,-0.0043429,-0.0064798,-0.0028641,-0.0015961,-0.0035421,-0.0011009,-0.0012979,-0.0029796,-0.0033327,-0.024122,-0.0023169,0.00019798,-0.0024628,-0.022848,-0.0046622,-0.0063357,-0.0014707,-0.0033651,-0.071175,0.0039226,-0.037536,0.0041528,-0.01095,-0.010316,-0.011385,-0.00017796,-0.0054465,0.009858,-0.0023852,0.01217,0.00012602,-0.022233,0.025408,-0.00080765,0.00091607,0.000817,0.00011601,0.00023858,0.0028291,0.0048439,0.00040666,0.023359,-0.0041593,-0.0036161,0.0026799,-0.0012871,0.0087625,-0.0023498,0.031893,0.0036615,0.029288,0.010066,0.014294,-0.00059361,7.4568e-05,0.00084411,0.0073137,0.00060548,0.0010451,0.0023169,-1.0566e-05,0.00107,0.0017093,0.01475,0.020272,0.00032187,0.0015743,0.0013896,0.00038508,0.00057131,0.0007211,-0.0006701,0.00052343,0.0020033,-0.0095345,0.002328,-0.0072143,-0.0012486,0.0013542,0.00022889,-0.001208,0.0039465,-0.00057317,-0.020544,-0.011402,-0.0052008,-0.0016958,0.0020038,0.013049,-0.00057882,0.00056455,0.0014831,0.00077449,0.0004868,0.0012859,-0.0039976,0.00089444,-0.0013594,0.0019659,0.016474,-0.0014528,-0.0018924,0.008259,0.0012165,0.0010494,0.0011866,-0.0025165,-0.0014704,-0.015349,-0.0054055,0.0013524,0.0034764,-0.0031934,-0.018847,-0.0045372,-0.0026895,-0.0066097,0.00043229,0.022031,0.019416,0.00080999,-0.044297,0.025969,0.010224,0.0038067,0.0046627,0.019883,-0.0019637,0.0039529,0.00016822,0.00032827,0.0015406,0.00061262,0.0050905,-0.0025959,0.01542,-0.0018283,-0.00082477,0.014165,0.044823,0.0052076,0.0013595,-0.0012165,-0.011274,-0.022301,0.0023362,-0.011296,0.0053333,-0.020626,0.0060018,-0.0024582,0.00022399,0.0069969,0.00075131,0.00090829,0.0037117,0.00019394,-0.012878,0.00040959,0.010863,-0.0094677,-0.0058268,-0.0014475,-0.0053075,0.0024749,-0.00027264,-0.0062412,-0.0020527,0.0011394,0.0028456,-0.00051712,-0.0021831,0.0024816,-0.0011294,0.00076865,0.0052658,-0.00019183,0.001024,-6.6049e-05,-2.0457e-05,-0.001067,-0.0019361,0.00017196,0.035585,0.00076188,-0.0032351,-0.0011662,-0.0018326,-0.0041267,-0.001961,-0.0026492,-0.00030365,0.00139,-0.0020811,0.001023,0.0011595,0.0014079,0.00084146,-0.0018663,0.0024221,0.0011164,-0.0016188,-0.0012644,-0.00079249,0.00030852,-0.00076716,-0.001505,0.018399,-0.001644,-0.00074751,-0.0012521,0.000133,0.00010003,-0.0045518,-0.0038676,-0.0031003,-0.00088086,0.0030197,0.021224,0.00016769,0.0067676,0.0027942,-0.00065529,-0.0031683,-0.0017353,-0.0031852,-0.0037185,-0.0022358,-0.0064667,-0.0068488,-0.0071015,-0.016056,-0.00075208,0.0013245,-0.00256,-0.026378,-0.00061891,-0.021375,-0.0028968,-0.0075867,0.0019226,0.00086451,-0.0057527,-0.00099227,-0.0081647,-0.00088324,-0.0011813,-0.00062053,-0.0034427,-0.0023048,-0.00057721,0.0020997,-0.0066708,-0.0033617,-0.010653,-0.00024818,-6.0277e-05,-0.00092945,0.0012535,0.0010383,-0.0043227,-0.011206,-0.0019677,-0.0051236,-0.0019532,-0.010116,-0.0023613,-0.0035101,-0.00080474,-0.0029,-6.3066e-05,3.3903e-05,-0.00034685,-0.0011179,-0.0008497,-0.0099636,0.0012579,0.0045844,-0.011105,0.0010221,-0.0014155,0.0043714,-0.00075267,-0.017098,0.00066459,-0.038071,-0.0017669,-0.0011068,0.010607,-0.01228,-2.0284e-05,-0.022046,0.0084086,-0.031709,-0.011741,-0.012625,-0.0010282,0.0017382,0.0034974,0.0037024,-0.024463,0.00073049,0.001276,0.0020186,0.0040142,-0.0018555,3.4274e-05,-0.0021773,0.012643,-0.0098045,0.0087827,0.00059952,0.0067724,0.011608,-0.0021632,0.01393,0.006922,-0.0028879,0.0020579,-0.00048375,-9.2719e-06,0.0066296,-0.00080721,-0.0024838,-0.011162,-0.002565,-3.6009e-05,-0.0011373,-0.0052513,0.0013762,0.0014534,0.0027111,0.001097,-0.00018797,0.00011576,-0.00088765,-0.0008882,-0.0017001,-0.00011965,0.00059677,0.024107,-0.013339,0.0042251,0.023931,0.0077653,-9.4538e-05,2.9681e-06,-0.0018048,-0.0035089,-0.0013267,0.0058186,-0.0036074,-0.020861,0.0024397,0.030075,0.0055178,-0.0019487,-0.0036933,0.0070883,0.00028877,0.00030111,0.0069601,-0.0010307,-0.0056903,0.00075285,0.0034453,0.0029806,-0.0082258,-0.00055795,0.0040962,0.0013506,-0.00086817,0.0016619,0.0013624,-0.0036248,0.011666,0.010582,0.00071105,-0.0015933,0.0013119,-0.011424,0.023752,-0.00060904,0.0010244,-0.00035065,-0.0011493,-0.0011106,0.022923,-0.022246,0.0034828,0.013914,0.010262,-0.013987,0.010276,-0.0069141,0.01306,0.0015815,0.0053633,-0.023359,0.0020374,-0.028367,0.043495,0.009083,0.0051308,0.012551,0.018099,0.0022769,-0.0048415,0.001477,-0.00027885,-0.00038731,0.0033482,-0.0045038,0.00062933,-0.0055168,-0.00045613,-0.0013145,-0.0098824,0.0019346,0.029336,-0.0055276,-0.028696,-0.011697,-0.01182,-0.002525,-0.0016995,0.014879,0.01544,0.0046383,0.0019649,0.00022467,0.002381,-0.013784,-0.00032364,0.004038,0.00065223,-0.0014763,0.0010122,0.0028893,-0.00011828,0.003248,0.0028198,0.0043132,0.011711,-0.0015207,0.0030176,0.020416,-0.004245,0.0050305,-0.0010455,0.0025677,0.0015462,0.060345,0.0013568,0.013936,-0.0016853,-0.0010615,0.0015876,0.017598,0.0023017,0.0014812,0.0032178,-0.00045789,0.0045374,0.0034139,0.0028679,0.0017994,0.0019653,0.002958,0.00088116,-0.00041986,0.0003961,-0.00028933,0.0009667,0.00064749,0.00049642,0.026728,0.00089297,0.00039659,0.00064581,0.00040164,5.0661e-05,-0.0011629,-0.0015851,-0.0012402,-0.016603,0.0014874,-0.0082074,0.001578,0.0057783,-0.0011354,0.0033969,0.00081453,-0.00060769,0.0019772,-0.0036307,0.021964,-0.0081121,0.0059934,-0.017747,-0.01588,-0.0052791,-0.011867,0.0023529,-0.0027467,-2.604e-05,-0.058145,-0.0075926,-0.019053,-0.00097802,-0.0087058,-0.001659,-0.00036569,-0.0052438,-0.0020004,-0.00079131,-0.0012794,-0.0019556,-0.0026934,0.00038715,0.020108,-0.0021641,0.0012509,-0.020688,0.0017546,0.0007881,-0.0007847,0.023544,0.0032483,-0.0012433,-0.00089914,-0.0019693,-0.014622,0.00039186,-0.0045842,-0.0013089,0.0017276,0.00090818,0.0049299,0.00094739,0.00033806,0.0016125,-0.0032355,0.00071023,-0.0092861,-0.011662,0.011948,0.0098533,-0.016572,0.017597,0.030646,-0.0092032,-0.0015555,0.0012279,-0.0063819,-1.6402e-05,0.00074485,0.0075775,0.0021729,0.029038,0.0052127,0.096535,0.015437,0.022761,0.033695,-0.0026402,-0.0092863,-0.0022709,-0.0085522,0.033322,-0.00019785,-0.0037253,-0.002316,0.00025127,0.00017441,-0.00034998,-0.0028885,-0.0016249,-0.004451,-0.0087096,-0.0073004,-0.0025407,0.00099134,-0.012379,-0.0040822,-0.0017709,-0.0024596,0.001635,0.009637,0.00085231,-0.0010792,-0.0029924,-0.0047999,-0.0032066,-0.0017168,-0.0050083,-0.0021893,-0.00095644,-0.0035107,0.0033335,0.00090086,-0.00062602,-0.0011231,-0.0051403,-0.0011131,-0.00059829,-0.0031359,-0.0011603,-0.0057437,0.0001414,-0.00084219,-2.2946e-05,-0.014168,-0.00047582,-0.0026646,-0.0050312,-0.0011602,0.00033312,-0.003726,-0.0085725,-0.00035018,0.001085,-0.02483,-0.0059837,-0.0010421,-0.011076,-0.01386,0.00080045,0.00033906,0.0045683,0.011109,0.0048812,-0.012513,-0.00079125,0.0026929,0.00058087,-0.021079,-0.020378,-0.027175,-0.0012386,-0.0045078,-0.0010828,-0.02885,-0.0035733,0.00095626,-0.0091282,-0.0031026,-0.033021,-0.002511,-0.010227,-0.0027729,-0.024223,-0.0094954,-0.0036103,-0.0059276,-0.0004334,-0.019171,-0.011954,-0.0067572,-0.016131,0.00084791,0.0012297,-0.0070684,0.011245,0.0016002,-0.0041916,0.02235,-0.0029637,-0.020374,-0.0022642,-0.0085664,-0.0048811,-0.0089149,-0.0017511,0.0062837,-0.0014824,-0.00045255,-0.00092172,-0.0040393,-0.0006585,-2.3811e-05,0.048508,-0.0030301,-0.0064496,-0.0047415,-0.010209,-0.010488,-0.0066891,-0.012222,-0.00032614,-0.027983,-0.003743,-0.0025394,-0.004854,-0.0066437,0.017202,0.018279,-0.014655,-0.006579,-0.024131,0.032466,-6.0143e-05,-0.00042698,-0.00081964,0.0016132,-0.00044668,0.0006268,0.01117,-0.0016505,-0.0014874,0.045244,-0.0099924,0.0053126,-0.0020431,0.00066239,-0.0049642,0.00044257,0.0037448,0.0021512,4.5325e-05,3.8197e-05,0.00021962,-0.0034486,-4.0564e-05,0.0057473,-0.0010368,0.0091752,0.0042896,-0.0074516,-0.0010531,-0.0018737,-0.0017626,-0.0025248,0.0035673,-0.0015284,0.00014809,-0.002144,0.032946,-0.0068582,0.0041893,0.0040982,-0.00049467,0.0097692,-0.0033193,0.014051,-0.0034485,0.021306,0.0041466,0.0088116,-0.0004081,0.084378,0.0010162,0.005595,0.0004899,0.010702,-0.001324,-0.0015367,-0.00089232,0.00046673,0.0032538,-0.0024751,-0.0038703,0.00059451,0.0013112,0.00081365,-0.00090258,-0.0016914,8.8642e-05,-0.0015976,-0.0014485,-0.0016238,-0.00096979,-0.0012271,-0.00031112,-0.0014378,0.00058917,-0.0032099,0.0013939,-0.0026803,0.00050426,-0.003291,0.00020252,-0.00058258,-0.00031228,-0.0065168,3.4757e-05,-0.00075395,-0.0002383,-0.00078511,4.2624e-06,-0.00077971,0.00030891,0.0018368,0.00055688,-0.00028664,0.00072534,2.9324e-05,0.002246,0.00040456,0.00058743,-1.6234e-05,0.0010339,-0.00016708,-0.0007853,0.0028905,-0.00062034,0.0069536,-0.0014149,-0.0010658,0.00089199,0.0033744,0.00099669,0.00048846,0.0081597,0.0023145,-0.0060864,-0.0051309,