-0.66361,0.00059298,-0.054909,0.019056,-0.026544,-0.037318,-0.033725,-0.048544,-0.016896,-0.072725,0.46733,0.051989,-0.021692,0.0053198,0.16246,0.23152,0.037484,-0.031304,0.13165,-0.005178,0.37277,0.092091,0.095033,-0.019851,-0.022471,0.073316,-0.016406,0.0177,-0.0024061,-0.044427,-0.12044,-0.029322,0.033111,-0.03601,-0.015616,0.048899,0.060083,0.032305,0.037545,0.011029,0.044993,0.1649,0.070498,0.037853,0.05257,0.055699,0.034186,0.11106,0.053013,-0.024671,0.0079118,0.078943,0.059409,0.059204,-0.022521,0.015097,0.0091908,-0.010017,-0.01789,-0.0074307,0.0077974,0.02358,-0.011312,-0.0022906,0.43598,-0.38306,0.0040317,-0.0041021,-0.015032,0.026245,0.059163,0.031924,-0.029079,-0.49619,-0.17829,-0.10896,0.095143,-0.017118,0.13882,-0.058495,0.07446,0.034844,0.033659,0.021248,0.088491,0.034717,-0.016758,-0.24646,0.036635,-0.26244,0.25634,-0.0082318,-0.019827,0.057511,0.031473,0.16342,0.15494,0.072636,-0.069976,-0.072893,0.33131,0.95841,-0.11711,1.5997,0.73906,0.14824,0.015554,0.020832,-0.059466,0.17089,0.38999,-0.51899,0.045516,-0.0022835,0.038538,0.02605,-0.02396,0.08369,0.097184,0.056586,-0.027644,-0.1022,-0.10826,-0.028858,-0.12384,-0.30142,-0.0039297,0.41151,0.35186,0.024469,-0.83012,-0.0024355,-0.3741,-0.1708,-0.99756,-0.024896,0.26245,0.086418,-0.012674,-0.64908,0.019804,-0.66577,0.2269,0.028381,0.15238,0.033417,0.034533,-0.011118,0.045072,0.13986,0.08357,0.1859,0.051162,0.01486,-0.039426,0.018745,-0.09651,0.042289,0.088834,-0.28438,0.087084,-0.21289,0.047379,0.19985,-0.026131,-0.1425,-0.11313,-0.28907,-0.00048711,-0.23101,0.0058524,-0.074957,0.045123,-0.11944,-0.097,0.048666,-0.061672,0.13597,0.58744,0.081002,0.0158,0.063547,0.0037883,-0.067253,-0.088597,-0.21842,0.013474,-0.032713,0.72497,0.053482,0.18858,0.002305,0.015577,-0.21414,-0.12891,-0.15294,-0.916,-0.023642,-0.053831,0.045882,0.094763,-0.044251,0.029332,0.079932,0.025952,-1.0325,-0.025513,0.2284,-0.32773,0.096765,0.002341,-0.046646,-0.012184,-0.169,0.030589,-0.13784,-0.20319,-0.019254,-0.053982,0.073542,0.28245,-0.04392,-0.0049701,-0.053834,0.01251,0.060054,0.25494,-0.32096,-0.80107,-1.4885,0.84467,0.11894,0.034246,0.033433,0.36758,0.1215,-0.20037,-0.19024,0.1899,0.024624,0.042487,0.12246,0.018887,0.083084,0.034842,0.085821,-0.049977,0.10921,1.3255,0.19503,0.16975,1.1085,0.60828,-0.16551,0.05545,0.0097829,0.0013507,0.0099153,0.01881,0.045151,0.02346,0.038138,0.024725,0.0019709,-0.60857,-0.006724,-0.098243,-0.060094,0.0015943,0.045307,-0.14037,0.027815,-0.02755,0.01993,0.11934,0.099073,0.13935,0.25584,0.15698,0.037763,-0.1779,-0.067985,0.16277,0.065246,0.083588,0.091617,0.24716,-0.27434,0.2021,-0.16608,-0.11309,0.12204,0.37502,0.063348,-0.58636,-0.23455,0.13019,0.10363,0.050282,-0.0040696,0.039727,0.028604,0.010444,-0.072943,-0.018129,-0.036068,-0.12418,0.016181,0.027608,-0.14742,-0.014905,-1.1585,0.014151,-0.16873,0.0077516,-0.02195,0.02965,0.0010891,-0.020286,-0.072376,0.017385,-0.10321,-0.28254,-1.647,-0.0074454,0.039223,-0.038527,-0.017893,0.01483,-0.18812,0.097563,0.03856,0.0032122,0.02339,-0.013373,0.0058299,-0.11963,0.24502,-0.60627,0.1574,0.16926,-0.069168,0.0043045,-0.54537,-0.42121,0.14945,0.066775,0.21044,-0.035187,-0.14599,-0.0010623,0.017614,0.02986,0.072214,0.021836,0.16141,0.097875,0.09844,0.062982,-0.0026007,0.0086388,0.28075,-0.038908,0.1526,0.13053,0.20901,0.15535,0.080863,0.1912,0.27772,0.12048,0.15864,0.087626,0.16258,0.040864,0.13924,0.0022767,-0.017444,-0.0041463,0.1049,-0.057972,0.12656,0.0014805,0.094124,0.085429,-0.10312,-0.11205,-0.0027199,0.02627,-0.0087783,0.0044262,0.039775,0.02407,-0.046361,0.031863,0.0046386,-0.11949,-0.23143,0.038371,-0.89408,0.82449,-0.012143,-0.084253,-0.031358,-0.09147,-0.15501,-0.031132,-0.0072798,0.029191,-0.0019064,0.015998,-0.0073286,0.036529,-0.2319,0.18076,0.052602,-0.091731,0.0088544,-1.173,0.04462,-0.094389,0.054995,0.19546,-0.018078,0.044567,-0.012477,0.031973,-0.021225,-0.029168,0.053963,0.23337,0.032758,0.017867,0.04999,-0.012175,0.044255,0.0054746,0.0034209,0.018181,0.0077749,-0.026389,0.010381,-0.047736,0.44798,0.22478,-0.00021213,-0.012543,0.7279,0.065121,-0.24608,0.10945,0.017622,0.001683,-0.067576,-0.19872,-0.0031848,-0.015328,0.047084,-0.0023132,-0.28957,-0.00083353,-0.21552,0.10527,0.0044322,-0.088374,-0.061218,-0.30196,0.0079345,-0.10101,-0.038069,0.0036091,0.0084763,-0.5079,0.011855,0.17713,-0.24237,-0.0016762,-0.38724,-0.072794,-1.1351,0.011006,0.67197,-0.054057,-0.044489,-0.26072,-0.0016255,-0.1653,0.026649,0.089651,0.10917,0.046679,-0.25384,-0.0010183,-0.074211,-0.056994,0.3228,-0.011035,-0.018791,0.018678,0.012813,0.066658,0.020675,0.041491,-0.30175,-0.4587,0.18045,0.13734,-0.012034,1.8476,0.28126,-0.13255,0.053925,-0.21605,0.061444,-0.10501,-0.036142,0.068264,-0.00069692,0.03846,-0.025468,0.10769,0.1183,-0.01371,0.15516,0.0091091,-0.0055359,-0.12668,-1.0006,-0.071304,0.077006,0.019711,0.0057172,0.022141,-0.0042335,-0.013018,-0.13058,-0.090241,0.04192,0.05597,0.020618,-0.66767,0.10715,-0.20498,0.016317,0.13715,0.051303,0.18396,-0.022648,-0.027844,-0.021338,0.071012,-0.0051991,0.25359,0.031763,0.037207,0.041019,-0.022465,-0.5812,0.098924,0.38009,-0.038639,-0.056379,-0.022671,-0.04752,-0.018435,0.025537,-0.002305,0.13074,-0.30527,-0.1447,0.072025,-0.044619,-0.0087323,-0.08388,-0.10032,-0.4245,0.021328,-0.1997,0.040713,0.054954,0.0098611,0.15342,0.0040334,0.088031,0.046581,0.0080385,0.09743,-0.20491,0.16091,-0.014572,-0.39986,-0.27548,-0.24768,-0.71506,-0.10282,-0.030604,0.1431,0.080669,-0.010429,0.009591,-0.011867,0.029494,0.38686,-0.064652,0.11186,-0.06581,0.03934,-0.30861,-0.13842,-1.3763,-0.014126,0.10369,-0.01304,-0.0077564,-0.01707,-0.018623,0.0023663,-0.012179,0.047698,0.2095,0.024548,-0.14574,0.030733,-0.030036,0.20923,0.099883,0.96278,-0.27922,-1.2618,-0.59299,-0.053799,-0.044341,0.22969,-0.03997,0.0089698,-0.084819,0.013302,-0.012038,0.024763,-0.63886,0.31624,0.12133,0.014391,-0.34856,0.099838,-0.0304,0.04795,-0.064818,0.027023,-0.039918,0.0083934,0.012467,-0.0099613,0.052418,-0.038646,0.11387,0.11643,-0.28575,-0.03268,0.024632,0.036146,0.024575,0.039188,-0.017506,-0.04909,-0.017884,0.035354,-0.039551,-0.03984,-0.21402,-0.014245,-0.03228,0.083381,0.0098002,0.0048559,0.061325,0.02217,0.13807,0.18396,0.29137,0.12043,-0.0040163,0.019127,0.090955,-0.067375,0.032848,-0.064171,0.0074186,0.050297,0.54568,-0.22794,0.14622,-0.41132,-0.11034,-0.024417,0.020234,-0.029202,0.048519,0.01388,0.049962,-0.0029905,0.014218,-2.3594,-0.31791,-0.46516,0.13098,-0.060566,0.018623,-0.64203,0.051267,-0.0075111,-0.01991,0.37854,0.014474,0.024103,0.085394,0.25906,0.13219,-0.035142,0.041489,-0.059127,0.010888,-0.0099986,-0.07939,-0.042677,-0.084126,0.046594,0.031826,0.033006,0.0049627,0.067646,-0.03311,0.021006,0.069471,-0.014642,0.028966,0.029585,-0.0029746,0.021905,-0.080166,0.18693,-0.1019,-0.041313,-0.015242,1.5315e-05,0.017487,0.013367,0.0099915,-0.0064697,-0.40259,0.015544,0.93335,-0.016862,-0.05405,0.063456,0.27192,0.045623,-0.16147,0.025397,-0.029493,-0.066677,0.013662,0.0060508,-0.0034396,0.03484,-0.03283,-0.017612,0.058713,0.032728,0.0040873,-0.30304,-0.40021,-0.72748,-0.35971,-0.4942,-0.29045,-0.35162,-0.12943,0.043997,0.20969,0.10931,-0.018147,0.041532,0.045192,0.065033,0.13331,0.010539,-0.59182,-0.80269,0.18893,0.15326,-0.0069054,-0.21213,0.10911,0.64252,0.031322,0.063959,0.10133,0.039393,-0.028713,0.043435,-0.035806,0.10244,0.037883,0.43632,0.0066685,0.14624,0.047751,-0.040834,-0.28695,-0.0038691,0.017761,0.57816,0.079017,-0.23084,-0.055862,-0.011774,-0.022416,0.03568,-0.14038,-0.047499,-0.017814,0.057979,0.016323,0.11277,-0.0067674,0.013829,-0.11112,-0.33579,0.0041542,0.83502,-0.021894,0.019427,0.12125,0.14396,0.029895,0.19903,0.039004,-0.031052,-0.027687,0.012128,0.16801,0.029197,0.05248,0.023694,0.0039429,0.047401,-0.17404,0.044045,-0.10574,-0.091031,-0.028871,-0.084189,-0.087636,-0.077571,-0.14606,0.23532,0.023639,0.068702,0.19553,-0.12431,-0.1287,-0.0093423,-0.01625,-0.094466,0.050822,-0.032987,-0.020916,0.01472,-0.51073,0.090304,0.10233,0.02402,-0.31154,0.02129,0.10924,0.012372,0.040761,0.15556,-0.2006,0.00567,-0.021366,-0.042791,0.071174,0.023677,0.03547,0.040017,-0.083465,-0.0042036,-0.21156,-0.13015,0.076754,-0.0071679,-0.17245,0.0034135,-0.27265,0.021092,-0.089335,0.073089,0.041805,-0.075372,-0.87354,-0.34077,0.0020264,0.0091447,-0.013708,0.10516,0.00662,0.077979,0.021506,-0.56754,-0.58034,-0.079503,-0.13695,0.017407,-0.018204,0.096049,0.37339,0.061298,-0.050119,0.11162,0.056611,0.047619,0.036333,0.043524,0.062138,0.051545,0.02968,0.02459,0.29195,2.0489,-0.09405,-0.040345,0.015464,-0.17483,0.14614,0.062412,-0.033103,-0.012741,0.082286,0.08606,-0.10834,0.033873,0.1978,0.10122,-0.053322,-0.017438,-0.10274,-0.0093467,0.034329,0.23876,0.054244,0.01096,-0.61613,-0.13461,0.054232,0.23626,-0.091323,0.45197,0.10591,0.63588,0.15153,-0.16572,-0.004641,-0.029258,-0.053167,0.048887,-0.025912,-0.029039,-0.015237,0.064854,0.0071515,0.068567,-0.076831,0.010485,0.50721,-0.14859,-0.31001,0.31689,-0.15788,-0.75162,-0.37326,-0.020611,-0.0041886,0.05912,0.10412,-0.85683,0.2031,-0.92145,-0.24508,0.027044,0.0061286,-0.029741,0.037452,0.32393,0.020556,0.063497,-0.026469,0.033043,-0.61439,0.043943,-0.034378,0.039728,0.25748,0.076365,0.029359,0.040258,0.025649,0.052718,0.033872,0.038247,0.07314,0.050164,0.063013,0.041855,0.076608,0.059778,-0.2674,0.090593,0.019784,0.025076,0.013885,0.035298,0.026085,0.0076191,0.011623,-0.53833,0.17122,0.45841,0.018068,0.083027,0.079904,-0.044584,-0.071261,0.040729,0.075026,0.028406,-0.12826,0.073524,-0.060635,-0.062281,-0.042686,0.080356,-0.066323,0.15269,-0.078687,-0.019832,0.15788,0.00254,-0.0011114,-0.067673,-0.050054,-0.0364,-0.065863,0.2076,-0.041853,0.12542,0.15277,0.032242,-0.0015287,0.012182,-0.019088,-0.37658,-0.065999,-0.040744,0.0078308,-0.15749,0.052572,-0.0011171,-0.018469,-0.0020645,-0.32904,0.24665,0.12059,-0.019122,-0.081951,-0.040521,-0.027139,0.13748,0.0052393,0.29918,-0.032433,-0.13633,-0.0095,-0.2066,-0.030934,-0.10017,0.18638,0.085428,0.0214,0.31214,0.049227,0.29406,0.10483,0.33279,0.024689,-0.044062,0.019344,-0.052436,-0.022502,-0.029757,0.03325,0.0069816,0.11342,0.48109,0.035559,0.19309,-0.0065141,-0.0082513,-0.12704,0.068955,-0.0024688,0.12279,0.015247,-0.0039641,0.10663,-0.0063005,-0.0060407,-0.022528,0.0013803,0.025083,0.046791,0.014354,-0.023699,0.077275,0.024184,0.29936,0.19784,0.058987,-0.9759,-0.058544,0.0117,0.071372,-0.033491,0.18192,0.12488,0.089421,-0.079099,0.11973,-0.047577,-0.026722,0.11421,0.18033,-0.12218,0.058758,-0.26357,-0.11894,-0.23098,-0.0014783,-0.22575,-0.038841,0.059859,-0.12162,0.028043,0.27345,0.11889,0.022513,-0.15254,0.23834,-0.079397,-0.03852,-0.066537,0.076925,0.26459,0.077594,-0.094276,-0.087885,0.031916,0.10717,0.053499,0.15143,0.16983,0.055263,0.047913,0.033239,0.036716,-0.025534,-0.29247,0.010605,-0.10871,-0.01303,-0.028146,0.024061,0.045484,0.04797,0.069452,0.12601,-0.070749,-0.020633,-0.48339,-0.084309,-0.040094,0.071566,-0.064262,0.0034808,-0.11636,-0.064666,0.13526,0.18069,2.3365,-0.11432,-0.31532,-0.36968,-0.015599,0.018962,0.09417,0.0017785,0.16794,0.089515,-0.0061986,0.050425,0.1186,0.026744,-0.019791,0.034,0.093021,0.0041955,0.095722,-0.0037816,0.053315,0.031717,-0.03899,-0.081637,0.04122,0.088996,-1.1389,-0.28446,-0.041999,-0.047522,0.058568,-0.04972,0.72187,0.02369,0.033861,-0.070835,0.14818,0.00034805,0.063132,0.25897,0.13955,0.81336,0.0027956,-0.23756,0.11044,0.044809,2.1689,0.071455,0.37022,-0.12353,-0.12743,-0.29586,0.14785,0.086433,0.026809,0.041674,-0.028567,0.038768,0.12699,0.033421,0.09686,0.033109,-0.31188,0.47115,-0.24997,-0.0046312,0.3217,0.017153,0.30757,0.080284,0.089693,0.15177,0.0099449,-0.57516,1.3968,-0.26969,-0.22907,-0.11718,-0.010599,0.17782,0.0054327,0.059402,0.35639,0.044405,0.091464,-0.024657,0.15022,0.10289,0.37726,0.37529,0.090287,-0.0022669,0.00044051,0.4032,0.0027186,0.016547,0.17526,-0.19729,0.1983,0.12598,-0.036203,0.015938,0.48273,0.1005,0.18644,-0.00070047,0.012477,-0.030596,0.36198,-0.042702,0.22172,-0.076939,-0.089682,-0.023039,-0.62664,0.047137,0.034684,0.030589,0.028345,0.15031,0.11704,0.0058565,0.30983,0.63641,0.38267,-0.48849,-0.1264,-0.04984,0.0096818,-0.033107,0.018007,-0.0068349,-0.063447,0.0050883,0.006942,0.011772,-0.15069,-0.36501,-0.2642,0.049451,0.43809,0.035369,0.075135,0.057535,0.022761,-0.017318,0.043947,-0.02503,0.017885,0.0091924,0.23525,0.07348,-0.056353,0.13196,0.024123,0.0041497,-0.0022681,0.0022839,0.0081697,0.057227,0.00084252,0.013946,0.0038031,-0.25967,-0.21775,0.056548,0.035817,0.14126,0.0079962,0.12731,-0.051037,0.038686,-0.12985,-0.5925,0.14738,0.1347,0.31213,0.024471,0.1669,0.048557,0.036778,-0.02539,0.020812,0.052989,-0.0028215,-0.0028849,0.086982,0.035802,0.049568,0.91297,0.033035,0.053547,0.36328,0.15935,0.0051958,0.098532,0.049231,0.34955,0.29188,-0.026065,0.10947,0.035033,0.040759,0.068146,-0.030419,0.017279,0.10464,-0.018422,0.040209,0.069731,0.08754,0.047553,0.042882,0.05116,0.038417,0.10467,0.007235,-0.0011694,0.1583,-0.036346,0.57353,0.087032,0.21052,0.067616,-0.21713,-0.22504,0.098745,0.070946,0.019641,0.013,0.12213,-0.079794,-0.034023,-0.032852,-0.058241,-0.060597,-0.049886,-0.031758,0.053254,-0.11908,-0.19961,-0.10708,-0.033991,0.10362,-0.11317,-0.14146,-0.19556,0.0017302,-0.079932,-0.031784,-0.065393,-0.20742,0.073822,-0.09569,-0.017767,0.038557,-0.026827,0.016782,-0.098338,0.0062827,-0.10887,-0.086833,-0.065181,-0.074053,0.087226,-0.11127,-0.22037,-0.27448,0.047323,-0.031036,-0.014876,-0.2181,-0.51596,-0.14098,-0.057058,-0.11742,-0.31481,-0.0071242,-0.045255,0.044452,-0.011759,0.016499,0.048724,0.025962,0.028933,0.035251,0.053922,0.01731,-0.094903,0.0026662,-0.048974,-0.080161,-0.028253,-0.074419,0.095458,0.2303,0.073975,0.023087,0.036772,0.048212,0.17073,0.049032,-0.045467,0.002792,0.015426,-0.041734,0.021468,-0.015754,0.044463,0.026548,0.070366,0.0049209,0.0040411,0.06289,-0.00093705,0.071335,0.085691,0.092768,0.12201,0.096193,-0.031621,0.18984,0.065718,0.061835,0.0077513,0.0063829,-0.016059,0.043982,-0.098807,0.099887,0.084941,0.056719,-0.012052,0.0048279,0.030226,0.04323,0.023299,0.057428,0.015321,0.032579,0.10946,0.025157,0.0046722,0.0030308,-0.018449,-0.018841,0.0097146,-0.072567,0.027946,0.19962,0.077948,0.18145,0.005552,0.098524,0.06377,0.041044,0.070579,0.029972,0.017429,-0.054964,-0.0069836,0.051697,-0.024071,0.039929,0.026976,-0.069297,0.0051068,-0.048815,-0.015665,0.068652,0.10468,0.078167,0.12896,-0.092871,0.055459,-0.19725,0.10271,0.011968,0.017223,0.0088621,-0.028016,-0.20907,-0.053729,-0.17161,-0.075769,0.17999,0.0026504,-0.029036,0.0083294,0.063973,0.01193,0.0086051,0.039375,0.0021344,-0.0096779,-0.7277,0.10835,0.30575,0.14946,0.1468,-0.035524,-0.14707,0.021914,0.50367,0.054566,-0.039398,0.026407,0.016929,-0.0063175,0.0078131,-0.015981,-0.0066911,0.11303,-0.10618,0.27581,-0.19318,0.25276,0.013167,-0.048371,0.053704,0.049297,-0.25524,-0.00071684,-0.37095,0.050264,-0.021879,-0.029149,0.0015208,-0.52704,0.015195,0.039414,-0.0065468,0.020404,-0.097791,0.091151,-0.42694,0.029944,-0.028938,0.0086741,0.016068,-0.13002,0.03807,0.012142,-0.055474,0.0027339,-0.74474,-0.022979,-0.17555,-0.010557,-0.010162,0.02398,-0.027862,0.004975,-0.011286,-0.2235,-0.52947,0.012763,0.026598,0.089783,-0.0039205,0.034527,-0.027599,0.00064111,0.078182,-0.013986,0.0083473,-0.0080376,0.0028901,0.037102,-0.011982,-0.048298,0.071499,0.01182,-0.039246,0.013288,0.017436,0.11053,0.083206,-0.013138,0.05538,-0.0033897,0.0035827,-0.0046804,0.035472,-0.02657,-0.21406,0.0061027,0.0087608,-0.020193,-0.038375,0.14166,0.16707,-0.03078,0.048434,-0.023977,0.099768,-0.056253,-0.0022069,0.083854,0.073875,0.0030248,0.050373,-0.062013,-0.039282,-0.040065,-0.045921,0.03773,0.053616,-0.022845,0.12735,0.059939,-0.017987,-0.65026,0.012877,0.31906,-0.0082124,-0.34913,-0.21978,0.14406,-0.060416,-0.096712,0.04387,0.057046,-0.0085788,0.009894,-0.0030072,-0.11106,-0.04847,-0.25768,0.19978,-0.032256,-0.050007,-0.01092,0.0024508,0.08964,0.0053441,-0.2539,0.012735,-0.22161,0.02543,-0.0049332,-0.042006,-0.046445,-0.22524,0.0055426,-0.0056927,-0.018938,-0.010075,-0.041967,0.061803,-0.18045,0.042919,-0.017713,0.018445,-0.064683,0.050776,0.02993,0.023253,-0.040326,0.016137,0.16489,-0.024514,0.13638,0.034665,0.0041278,0.028975,-0.031266,-0.10615,0.023547,0.49102,0.03265,0.0051693,0.03172,0.030603,-0.35478,-0.016194,0.09443,0.13975,0.065641,0.026168,0.28958,0.092248,0.27136,0.0032085,0.15262,0.12942,0.063724,-0.0070495,-0.11896,0.036948,0.031898,0.11124,0.11456,0.10278,0.38021,0.15107,0.44871,-0.08389,0.041386,0.01493,0.059805,0.0018318,0.0008115,0.019918,0.017476,0.14017,-0.022038,-0.044582,-0.26093,-0.5343,0.036404,0.089393,0.019016,0.015909,0.08994,0.06924,-0.27001,0.33,-0.15516,0.22533,0.34071,-0.067193,-0.11831,0.16864,-0.029559,-0.016124,0.066291,0.010362,0.051078,0.20056,0.034112,-0.16575,-0.25009,0.026045,0.045125,-0.0012903,-0.28209,0.67187,-0.00058801,-0.0045507,0.058178,0.05167,0.01884,-0.0067738,0.012371,0.032874,0.25469,0.0060045,-0.08208,0.0079926,0.31078,0.19867,-0.008817,0.087037,-0.061225,0.094811,0.027073,0.034069,0.038571,-0.011576,-0.015412,-0.026725,-0.077877,0.040176,0.012304,-0.017213,-0.011645,-0.13741,0.5724,-0.17916,0.023106,0.010784,0.010845,0.027458,0.021772,0.045559,0.033503,0.012867,-0.14799,0.71753,-0.23833,-0.26567,-0.15151,0.03919,0.053318,-0.026555,0.037056,-0.010418,1.5148,-0.39386,-0.43713,-0.035424,-0.58855,-0.24784,0.0023885,0.11483,0.010388,0.29732,0.11974,-0.036015,-0.047393,0.20469,0.11124,0.027085,-0.018298,0.048625,-0.016768,0.12096,-0.033854,-0.057232,0.027661,0.062431,-0.051062,-0.013814,0.1128,-0.015261,0.18088,-0.032269,-0.13573,0.038263,-0.072952,-0.013888,0.0032469,-0.028459,-0.0069666,-0.02435,-0.0064559,-0.031535,-0.09441,0.11357,0.23579,0.012161,0.011927,0.013542,-0.030981,0.0040838,-0.0049599,0.078431,0.061376,0.087625,-0.11521,-0.044331,-0.52003,-0.02735,0.10082,0.074391,-0.02733,0.024625,0.0011381,-0.29044,0.12796,0.4631,0.69064,1.6754,-0.078582,0.057454,0.031351,0.025335,0.12566,-0.016618,0.078591,-0.23256,-0.71707,0.11842,0.2009,-0.015715,0.085285,0.31833,0.15445,0.033594,-0.34724,0.023667,-0.0035461,0.11908,0.078629,0.0059371,0.16025,0.049203,0.23717,0.013994,0.14365,0.087523,-0.0077768,-0.046213,-0.067273,-0.38647,0.059089,-0.70874,-0.0055597,0.40857,0.052948,-0.00076764,0.28763,-0.032663,-0.49052,-0.060176,-0.049294,0.45008,-0.12941,0.10326,-0.15685,0.014258,0.13202,-0.012027,0.1739,0.038379,0.11626,0.086966,-0.078431,0.056896,-0.0024922,0.015045,-0.00067195,-0.014638,0.10426,0.074904,-0.033848,-0.11467,0.11071,0.031989,-0.032517,0.036249,-0.010169,0.037963,-0.090121,-1.3106,0.031098,0.23121,-0.0083939,-0.1831,0.069257,-0.022948,-0.029985,-0.089855,0.031227,-0.010512,-0.064465,0.030557,-0.00097441,0.034319,0.025956,0.10079,0.012131,0.042998,0.12514,-0.10608,-0.024624,0.14671,-0.1917,0.0065332,-0.13421,-0.083231,0.047721,0.022652,0.064042,-0.36854,-0.011571,-0.34591,-0.21634,0.34754,-0.00036863,-0.32238,0.011549,-0.064935,0.055168,-0.051311,-0.012287,0.11823,0.013135,0.023268,0.12761,-0.027073,0.0084194,-0.030421,-0.037178,-0.011145,0.011629,0.037968,-0.042739,-0.068343,0.44339,0.030486,0.10473,-0.064701,0.01835,0.13861,0.0087388,0.054203,-0.023979,0.012926,0.036222,0.034706,0.012581,0.039999,-0.045369,-0.0034022,0.041918,-0.023319,0.0034031,0.0034155,-0.040396,0.037795,-0.0188,0.036673,0.018819,0.1114,-0.0020968,0.00414,0.038938,0.025434,-0.0034996,0.017903,-0.10404,-0.11218,0.0023247,0.60746,-0.019861,-0.017905,-0.033345,-0.0077381,-0.0029898,-0.43442,-0.042236,-0.26065,-0.045304,-0.19885,0.051811,-0.031809,-0.0033154,0.065494,0.0052744,0.057411,0.019061,-0.014351,0.047702,-0.099617,-0.022496,-0.13772,-0.014134,-0.068456,-0.0019907,-0.0087073,-0.017248,-0.0092718,0.060886,-0.062493,-0.048784,-0.12409,0.022322,0.001493,0.040377,-0.032559,0.015071,-0.42513,-0.10713,0.066793,0.066022,6.5925e-05,-0.16228,0.020846,-0.052022,0.023306,0.21073,-0.0146,-0.0017797,-0.051394,-0.027823,-0.014059,0.026816,0.035121,0.076164,0.004865,-0.025017,0.011401,-0.0096955,-0.065031,0.0078229,-0.33721,-0.15219,-0.04396,0.047763,-0.098099,0.042058,0.015332,0.019149,-0.032718,-0.12655,0.10612,-0.23431,-0.013042,-0.099178,0.055725,-0.002697,0.012068,-0.056391,0.031665,-0.035945,0.015325,0.038219,0.04362,-0.13428,0.11372,-0.040248,-0.063221,-0.17544,-0.11143,0.010199,-0.014651,-0.023485,-0.11481,-0.58255,-0.057739,0.033081,0.0567,0.024362,0.071527,0.26278,0.036219,0.086074,-0.10778,0.097648,0.083197,0.2519,0.018001,0.11691,0.049336,0.32731,0.091145,0.01553,0.035097,-0.0057073,-0.13362,0.06777,-0.0033202,0.033652,0.022015,0.3157,-0.011385,0.041876,-0.041593,0.037675,0.036491,0.048747,0.12304,0.33211,0.10607,0.037579,0.1474,0.017776,0.006039,0.046165,0.063329,-0.037402,-0.086008,0.03909,0.032455,0.11601,0.033926,-0.0099213,0.013691,0.1955,0.013135,0.056568,0.10486,0.033962,0.068111,-0.36799,-0.28772,0.015233,0.0032759,0.069493,0.028453,0.02166,0.009712,0.018775,0.23277,0.056748,-0.1409,-0.24576,-0.04152,-0.1632,0.0089653,-0.014121,0.078798,-0.043523,0.0046636,-0.15194,-0.17156,0.054168,0.010993,-0.073008,-0.052397,0.067108,-0.032418,0.037321,-0.030562,0.036384,-0.038845,-0.13971,0.01885,-0.024021,-0.012489,0.021504,-0.011478,0.011798,-0.035803,-0.015925,0.002177,-0.0037853,-0.018161,-0.086918,-0.047811,-0.045697,-0.044826,-0.076654,-0.0018202,-0.050588,-0.012514,-0.059928,-0.037594,0.01076,-0.048037,-0.0072202,-0.058502,0.021106,-0.011612,-0.011107,-0.016187,0.004713,-0.018125,-0.017127,0.017952,0.047065,-0.071819,0.01466,-0.010093,-0.00053256,0.082572,-0.15612,0.015044,0.0030585,0.02204,-0.0098496,-0.05829,-0.067833,0.013035,-0.07995,0.12778,0.031406,0.011745,0.11476,0.14147,-0.046496,-0.090948,0.024319,0.094191,0.31762,0.14066,0.024827,0.14317,0.16975,0.40682,0.080571,0.13909,-0.013038,-0.025529,-0.0090151,0.078677,0.0019045,0.11677,-0.028852,0.18177,0.012825,0.0066068,0.097553,-0.0023909,0.13985,0.37092,0.28116,0.30165,0.18726,0.13768,0.1875,-0.0063364,0.035058,0.044063,0.027038,0.30803,-0.026348,0.013823,-0.095938,0.23624,0.046388,0.0041119,0.0348,0.13232,0.03042,0.081572,0.14325,0.013005,0.073388,-0.028716,-0.1755,-0.14709,-0.02014,0.089616,-0.028238,0.058822,-0.01709,0.027067,0.15677,0.13587,0.40689,0.12258,0.39151,0.028625,0.027161,0.016759,0.19842,-0.015478,0.078494,0.0039773,0.033036,0.066332,0.041818,0.05973,0.056654,-0.008372,-0.013705,0.010981,0.0047207,0.0024611,0.18286,0.15458,0.067662,0.0082741,0.049774,-0.015392,-0.0085167,0.029571,0.00017564,0.0082644,-0.011394,0.04135,-0.018706,0.092597,0.050188,0.0082391,-0.0025415,0.017856,-0.014065,0.009661,-0.0091233,-0.010903,0.051624,-0.019693,0.033983,0.036151,0.13539,0.03153,0.021151,-0.060501,0.0067423,0.016693,0.062148,0.012318,-0.001138,0.038697,0.0098969,0.041485,-0.13991,-0.22988,0.12365,0.0037191,0.067853,0.10294,0.037515,0.050799,0.048292,-0.039818,0.018689,-0.19733,-0.078768,-0.10449,0.12507,-0.027285,0.059505,-0.0003911,-0.019946,-0.044119,0.079834,0.045308,0.13918,-0.022753,0.040165,0.21231,0.041825,0.0078082,-0.061207,-0.00077496,0.20171,0.11892,0.049377,0.064177,0.050344,-0.022068,0.17623,0.019369,-0.014656,0.014171,0.11432,0.0068836,0.0079615,0.038881,-0.013393,0.044237,0.5493,0.23046,0.13656,0.11463,0.03923,0.27563,0.0031768,0.0035117,0.067285,-0.19829,0.091912,-0.044937,-0.27797,-0.0017828,-0.06904,0.0025824,-0.0016639,0.037809,0.064374,-0.0088181,0.057484,0.10028,-0.011594,0.043551,-0.032997,0.01729,0.01267,-0.038018,0.054431,0.049548,0.042416,-0.030855,-0.031182,0.060664,0.068703,-0.10306,-0.021268,-0.10862,0.080075,-0.21686,-0.33501,0.037366,0.012951,-0.053077,-0.027728,-0.030744,-0.058491,0.017065,-0.064137,-0.1105,0.23696,0.066048,0.020056,-0.021787,0.10146,0.079818,0.17953,0.060811,0.0411,0.0046986,-0.026125,-0.033289,0.022091,0.0035296,0.027739,-0.0082527,0.013408,-0.016214,0.054153,0.03278,0.006049,0.10703,0.017592,0.042382,0.0072864,-0.01727,-0.023409,0.013426,-0.092237,0.072673,-0.14235,0.14171,-0.015441,-0.04818,0.01458,-0.19488,0.03881,-0.0040133,0.017656,-0.012033,0.0043955,0.026432,0.054294,0.005938,0.099611,-0.1281,-0.066077,-0.00088404,-0.012815,0.010882,0.050319,0.018689,0.01445,-0.035904,0.030774,0.10592,-0.07431,-0.024518,-0.31718,-0.33798,-0.21637,0.059018,-2.0347,0.021205,0.04875,0.25487,-0.095476,0.043056,0.18884,-0.094546,-0.12732,-0.21231,0.061273,0.13761,-0.015445,-0.0013989,0.11784,0.17186,-0.028758,-0.025171,-0.013746,-0.28139,-0.028158,-0.2211,-0.13341,0.036741,-0.0077986,0.030991,-0.15562,-0.028,0.096375,-0.24041,0.067825,0.076761,-0.0075888,0.13979,0.061665,0.039453,0.019997,0.11365,-0.050173,0.032581,0.024634,0.068605,0.050348,0.016185,0.15682,0.25585,0.17088,-0.16977,-0.076751,0.060763,-0.032169,-0.001538,0.0072243,0.0027333,-0.022978,0.36822,-0.097335,0.22897,0.0027461,0.081547,0.030635,0.0058467,0.012398,0.0006844,0.020935,0.0058263,-0.049838,0.018529,-0.12811,-0.026009,0.0513,0.096779,0.062626,-0.064029,0.2139,0.12092,-0.68936,-0.028153,0.0077695,-0.029464,-0.035843,-0.098485,-0.26153,0.10279,-0.024526,-0.0054743,0.0076126,0.0022515,0.0048639,0.00077786,-0.027118,-0.048939,-0.1282,-0.010136,-0.043746,-0.033622,0.012926,0.0034086,-0.080489,-0.0062465,-0.1924,0.083768,-0.036183,0.0084725,0.011129,-0.017701,-0.0042435,0.0066527,-0.15335,-0.040777,-0.050383,-0.016913,-0.041739,0.074407,0.034992,0.034617,-0.07832,0.19766,-0.061049,0.015146,-0.086676,-0.023701,-0.058308,-0.016275,-0.016901,-0.0041439,-0.0039532,0.0066572,-0.26551,0.25732,-0.121,0.041468,0.14164,0.006315,0.019421,0.0060403,0.0029005,-0.037124,-0.033034,-0.26526,-0.014085,-0.28209,-0.047828,0.010917,0.081193,-2.6038e-05,0.093882,-0.042202,0.051451,0.0064644,-0.14042,-0.017453,-0.06636,-0.14089,-0.12258,0.076202,-0.043091,-0.041526,0.14599,0.015935,-0.034173,0.18606,0.10856,0.01048,-0.071925,-0.017714,-0.067618,-0.049466,-0.02045,-0.0052026,0.04884,0.01248,0.035266,-0.0075581,0.007699,0.067993,0.032216,0.064928,0.043647,-0.0035337,0.1551,0.039178,0.002858,0.058513,-0.0043671,0.029914,-0.050682,-0.10483,0.16093,-0.029145,0.30118,0.026598,-0.21284,0.03649,-0.015472,-0.0027862,0.072971,-0.010608,0.013969,0.075008,0.0032322,0.079465,0.27226,-0.25336,-0.29337,-0.047961,0.039448,0.047797,0.022205,-0.020794,-0.019768,0.028874,-0.042481,-0.40967,0.058894,-0.38285,-0.011684,-1.5091,-0.17627,-0.84597,-0.74355,0.036006,-0.029134,-0.019706,-0.26828,0.11075,-0.019826,0.056429,-0.0069423,-0.012728,-0.077651,0.032035,0.076881,0.10537,0.024229,-0.017838,0.035259,0.039024,-0.029499,0.010835,0.07001,-0.0061589,-0.038718,0.0032639,-0.00063893,-0.028599,0.031721,0.017981,-0.0020875,0.01558,0.032494,0.011882,0.06878,-0.048842,-0.089401,-0.031509,-0.0094587,-0.028328,0.0094329,0.13567,0.18778,0.044432,0.044019,-0.028155,0.003078,-0.040011,-0.0018759,0.14134,0.079095,-0.0076389,0.0061974,-0.024467,0.04781,-0.01255,0.015051,0.029567,0.043002,-0.040262,0.13731,0.10607,-0.04979,1.1082,-0.032393,0.022792,-0.090277,0.01786,-0.06731,-0.070246,0.068993,0.61548,0.065609,-1.1791,0.09396,0.037005,0.03549,-0.069107,0.01429,0.053298,0.10482,0.005401,-0.018862,-0.07786,-0.027327,0.069612,0.016364,0.087414,-0.052762,0.13313,0.021056,0.054967,-0.0060099,-0.05081,0.0098096,-0.12438,0.014228,-0.0043594,-0.01508,0.0080685,-0.040775,0.023146,-0.023785,0.036582,0.013112,0.13871,0.00087919,-0.066076,-0.10503,-0.026581,0.062735,0.16119,-0.078422,0.0084758,0.042554,0.22086,-0.052256,-0.11276,-0.03838,-0.031147,-0.0088389,-0.5126,-0.04114,-0.16488,0.0026187,-0.057331,0.031393,-0.048684,-0.0049017,0.5162,0.0025468,0.1148,0.025708,0.0204,0.016348,-0.33549,-0.35119,-0.74924,-0.022402,0.0086852,-0.02094,-0.0099924,-0.01904,-0.019168,0.10076,-0.056997,0.38745,-0.099566,-0.1025,-0.014698,0.005464,-0.0010584,-0.0144,-0.21453,-0.16169,-0.15108,-0.13644,0.021702,0.014297,-0.17282,0.62785,0.025498,-0.069833,0.054708,0.11069,0.011781,0.015277,0.080241,0.057588,0.017067,0.020634,0.041279,-0.10279,0.019476,0.011957,0.085316,-0.0080594,-0.0285,0.08811,0.015221,0.088411,0.014668,-0.034597,0.0091758,-0.11986,0.040341,0.012197,-0.046423,-0.1652,-0.045422,0.034859,0.018489,-0.025725,-0.033752,-0.0021261,-0.013127,0.089872,-0.00091054,0.019327,0.00017013,-0.029728,0.0065646,0.041252,0.030353,-0.01297,0.0056641,0.067689,0.0008159,0.063216,-0.00010046,0.0031594,0.032683,-0.019847,0.26577,0.060212,-0.40257,0.0090128,0.56749,0.033503,-0.23176,0.41999,-0.045807,-0.010199,-0.0047979,-0.020411,0.055006,-0.44717,0.13286,0.15431,0.067828,0.42239,0.043846,0.10473,0.73373,-0.092951,0.0025671,0.037698,-0.016374,-0.023971,0.034022,-0.080437,-0.0019772,0.054382,0.22706,0.18022,0.11538,0.056192,0.016207,0.23048,0.19605,0.16551,0.015366,0.074022,0.024816,0.061109,-0.020048,0.035467,0.0093986,0.056039,0.023675,0.21976,0.0051531,-0.036848,0.0022772,0.0053146,0.10376,0.36245,0.09483,0.39581,0.039978,0.091603,0.090295,0.07566,-0.006651,0.010385,0.0055361,-0.12347,-0.032669,0.023748,0.037295,0.079339,0.0054029,-0.0087779,-0.0082804,0.14327,-0.00055792,0.034113,0.054194,0.0098425,0.050428,-0.07889,-0.42265,-0.27272,-0.0044331,0.020608,-0.012206,0.019367,0.0022563,-0.00073042,0.096019,0.10286,0.9644,0.018238,0.049759,-0.16107,0.052376,-0.14065,0.054389,-0.51973,-0.041547,-0.084956,-0.41903,-0.024544,0.34306,-0.00012762,0.057832,0.029456,-0.054195,-0.043836,-1.8018,-0.070012,0.054692,0.055864,0.039264,0.091182,0.04936,-0.0057449,0.013928,0.062951,-0.057746,0.070379,-0.043795,0.01039,-0.095256,-0.036341,0.025343,-0.0038997,-0.0059211,0.016208,-0.037604,-0.010415,-0.014218,0.15759,-0.01109,0.060454,0.012076,-0.070319,0.076114,0.03588,0.068155,0.074526,0.040232,-0.070775,0.036862,-0.037032,0.10402,-0.0038287,0.10805,0.079919,-0.12276,0.025869,-0.027453,-0.0025787,0.00032187,0.0011307,0.023521,0.068128,0.015644,0.065084,0.021065,-0.14131,0.14539,-0.017756,0.049273,-0.51248,0.013588,-0.035162,-0.010765,0.28862,0.028172,0.17955,0.051571,0.5376,-0.063489,0.91797,0.12429,-0.06139,-0.14542,0.027072,-0.016838,-0.9448,0.069694,0.05934,0.058118,0.38612,0.03639,-0.11635,0.28772,0.017959,0.37379,0.25628,0.075384,-0.027142,0.14189,0.084247,0.062864,-0.010784,-0.0029057,0.044551,-0.20614,0.2568,-0.12375,0.047861,0.057314,-0.14473,0.090831,-0.00011601,0.11407,0.022983,0.14848,0.0097349,-0.048917,0.04467,0.010068,0.035456,-0.0067406,-0.045935,-0.0090431,-0.0075049,-0.033812,-0.069196,0.04142,0.042396,0.064485,0.0052089,0.069583,0.020971,-0.0084645,0.040308,0.020113,0.052691,-0.0060409,0.0059239,-0.0034743,0.0010912,0.027625,0.098312,-0.0057786,0.038358,-0.12336,-0.10562,0.039773,-0.091446,0.27563,0.24692,0.065643,0.089531,0.22842,0.0095773,-0.010494,-0.040451,-0.3335,-0.048672,-0.87263,-0.00022133,0.15522,-0.090949,-0.12751,0.087113,0.2096,-0.20633,0.042434,0.020213,0.8308,-0.15169,-0.077793,-0.40063,-0.14623,0.020684,0.31753,-0.17034,-0.58027,0.20984,0.039159,-0.0033853,-0.039249,0.048917,0.0076166,-0.00050186,0.087339,0.030225,0.089577,-0.074862,-0.13887,-0.051785,-0.094143,-0.28379,-0.044216,0.085449,0.058583,-0.060743,-0.033463,0.039534,0.025005,-0.062905,-0.0092473,0.0068913,-0.0036418,-0.010796,-0.01866,-0.051782,-0.012054,0.07141,-0.050109,0.071301,-0.015198,-0.063672,-0.021464,-0.2023,-0.015989,-0.19606,-0.010044,-0.037812,0.012835,0.11977,-0.079496,-0.10193,0.041017,-0.0057186,0.017315,-0.056897,-0.27399,0.32817,-0.23942,0.20925,-0.3159,-0.017707,-0.30315,-0.13325,0.039496,-0.079567,0.00081035,0.039851,0.29093,-0.21913,0.069544,-0.42719,0.072194,-0.40875,0.033478,-0.13341,-0.38266,0.0040912,0.055693,0.14832,-0.068063,-0.23212,-0.32216,-0.25563,-0.11734,0.058699,-0.0060522,-0.15408,-0.38836,-0.11005,0.023021,-0.065923,0.10756,0.057071,0.022203,-0.014738,0.15798,0.02571,0.091531,-0.047011,-0.084475,0.034378,-0.16156,0.026518,-0.018256,0.10619,0.040004,-0.0041771,0.035127,-0.041018,0.019242,-0.019095,0.041253,0.051612,-0.014683,-0.011835,0.017352,-0.041454,0.043112,0.022759,-0.1261,0.13205,0.00018774,-0.0013275,0.028237,-0.077358,0.0070616,-0.14883,0.066912,-0.0042881,0.020318,-0.11897,0.012585,-0.25065,0.070726,0.023143,0.035049,-0.069465,-0.11257,-0.10672,-0.086596,0.054677,-0.15712,0.065749,0.10365,-0.045527,-0.0031257,-0.014941,-0.14301,-0.027948,-0.18547,-0.28396,-0.047968,-0.71213,-0.090567,-0.46985,0.040549,-0.062091,-0.45531,0.012143,-0.035057,-0.048528,-0.021995,-0.22701,-0.52934,-1.5199,0.016097,-8.3523e-05,-0.0010988,0.052971,-0.0048313,0.0099091,-0.1216,0.10278,-0.30922,-0.0047069,0.19854,-0.0075212,-0.047296,0.04787,0.0013236,0.049851,0.085487,0.2423,0.21889,0.076192,0.11431,0.028718,0.10467,0.024282,0.047389,-0.0028652,0.014147,0.43208,-0.10904,-0.045893,0.0017649,-0.08876,-0.031712,-0.015253,-0.015621,0.010412,-0.027028,-0.10973,0.039327,-0.40539,-0.17059,-1.0705,-0.029192,-0.37198,-0.061215,-0.032855,-0.62764,0.012198,0.032661,0.020859,0.029863,0.047161,-0.21999,-0.17978,-0.089038,-0.077783,-0.043775,0.017715,-0.0057697,0.0021604,0.026298,0.0054075,-0.012812,0.0050144,0.19825,-0.045572,-0.048718,-0.005008,-0.022099,0.0081754,-0.07143,-0.016328,-0.01687,-0.062698,0.11024,0.0097026,-0.056064,-0.061008,0.0034927,0.03154,0.015969,-0.0031075,-0.00067016,0.0046726,0.037014,0.27737,-0.12732,0.058287,0.11342,0.14035,0.021695,0.0082535,-0.027575,-0.010396,0.10286,-0.03759,0.03598,0.060553,0.043878,0.051761,-0.28133,0.27201,-0.10996,-0.023434,0.077501,0.13618,0.19751,0.017402,0.31072,-0.015722,-0.023893,0.1624,-0.025926,-0.065305,0.088278,-0.01954,-0.20225,0.043338,-0.12963,-0.063861,-0.11741,0.0099938,0.045124,0.059105,-0.088227,-0.037142,-0.023171,0.0043615,-0.061177,-0.11064,-0.059396,-0.018094,0.1899,-0.031687,0.072973,0.075697,-0.02037,-0.011823,-1.0739,0.027827,0.23704,0.023366,0.084221,0.059804,0.021304,0.017481,0.030326,0.045438,-0.041682,0.083314,-0.0091444,0.22354,0.0094018,0.34183,0.05826,0.19959,0.022857,-0.052721,-0.45368,0.14614,0.060897,0.017638,0.082433,0.15944,0.01838,0.059384,0.036138,0.0094488,0.0015951,0.050625,-0.057707,-0.027795,0.14987,-0.005427,-0.07279,0.086207,-0.23666,-0.41347,-0.016324,0.26552,-0.0061305,0.00339,0.035681,0.039405,0.25974,0.021369,-0.1878,0.26882,0.22644,0.2513,0.77971,-0.13143,0.021171,0.075013,0.012235,0.004748,-0.11896,-0.21786,-0.019997,0.0064535,-0.045521,-0.02037,-0.011534,-0.024561,-0.015259,-0.019962,0.048352,0.041343,-0.24287,-0.074863,-0.0051031,-0.046524,-0.077626,-0.09677,0.0051963,-0.18257,0.073061,0.059201,0.04977,0.11754,-0.050361,-0.021475,0.095463,-0.083012,-0.036323,-0.034506,0.022782,0.042787,0.014382,0.059338,0.00082693,0.0016346,-0.097402,-0.26984,-0.057732,0.02521,-0.063451,-0.049529,-0.016451,-0.12266,-0.0228,-0.14361,-0.13844,-0.058356,0.03898,-0.020837,-0.22835,0.019726,-0.0081742,-0.00063522,-0.017912,-0.018937,-0.045914,1.036,0.071157,-0.052465,-0.16328,-0.12991,-0.46428,-0.19143,0.014921,-0.32319,-0.22487,-0.094162,-0.015778,-0.20194,-0.024788,0.05922,0.039822,0.052555,0.092694,-0.3515,-0.054291,-0.36945,0.00033513,-0.39306,-0.28029,0.23892,-0.024107,0.023963,-0.24636,-0.02713,0.17012,-0.16806,0.018634,-0.0038261,0.10018,0.015013,0.015166,0.00053054,0.006772,-0.14967,-0.0021459,-0.040638,0.0062075,-0.029194,-0.0059198,-0.28776,0.047635,0.043306,0.0090983,-0.33907,-0.29101,-0.051651,-0.079581,-0.048325,-0.053849,-0.010429,-0.13013,-0.14427,-0.041461,0.13667,-0.030007,0.048461,0.01803,-0.029566,-0.024131,-0.033392,-0.008741,-0.1161,-0.027851,0.0017773,0.037758,-0.015259,0.073593,0.048826,-0.038947,0.059732,1.0609,0.033349,0.28991,-0.012099,-0.043751,-0.00025417,0.026724,-0.072514,0.016557,-0.33715,-0.065378,-0.16926,1.9296,-0.092086,0.14347,-0.04179,-0.073189,0.23345,0.026467,-0.10742,0.0036977,0.090009,0.17107,-0.019998,0.12927,-0.010117,0.0053757,0.041369,0.082392,0.048125,0.27284,0.28597,-0.18632,0.28987,-0.12054,0.68631,0.52689,0.028616,0.098989,0.0093598,0.034056,0.48926,-0.5572,0.049713,0.10224,0.11605,0.024804,0.040726,-0.037436,0.081276,-0.036063,0.020228,0.01032,-0.0029309,0.040333,-0.034343,0.34486,0.087299,-0.015228,0.00086444,-0.19487,0.037959,0.10137,0.05443,0.10456,0.11375,0.0013584,0.036681,-0.088741,-0.028007,0.0061745,0.039308,0.032167,-0.0046744,0.037263,0.065767,0.014613,0.037701,0.10169,0.0092163,0.0092784,0.048958,0.0080745,0.12325,0.0024961,0.008062,0.028648,-0.13804,-0.037306,0.11801,0.0020284,-0.019117,-0.010422,0.024016,0.019981,0.024511,0.0060246,-0.021724,0.85051,0.18106,0.39253,-0.39214,0.14929,-0.07775,-0.00022134,0.12821,0.06241,0.45637,-0.032793,0.20143,0.033077,0.01954,0.17715,-0.017789,0.014843,0.026409,-0.022594,-0.052626,0.40592,0.45373,0.39679,0.15913,-0.47991,0.27904,-0.13417,0.0092589,0.011181,-0.037973,-0.023981,0.65763,-0.48039,0.09236,0.059431,-0.095614,-0.0055109,-0.015975,-0.075864,0.018825,-0.036494,-0.0014221,-0.0040656,0.0001461,0.055533,-0.067254,-0.14191,-0.060588,0.034283,0.02075,0.050899,-0.036705,0.25148,-0.013281,0.32624,0.028395,-0.0033274,0.018796,-0.24255,-0.015677,-0.067095,0.014719,0.058955,0.012159,0.018426,0.045066,0.02508,0.012459,0.007691,0.11911,0.0056496,0.13076,0.00022015,0.14257,0.011302,0.074407,0.060153,-0.065622,-0.090375,0.032082,0.0081571,-0.021658,0.032403,0.052844,0.16589,0.034038,0.063726,-0.016518,-0.16517,-0.21898,0.095988,-0.40033,-0.30613,0.032638,-0.0024783,-0.07656,-0.10096,-0.0073455,-0.13454,-0.1023,0.065176,-0.068456,0.0010345,0.13003,-0.019758,-0.0072699,0.0097251,0.0045199,0.13664,0.14146,0.34835,-0.18046,-0.26837,0.056586,-0.63644,0.16754,-0.10873,0.0037414,-0.010148,-0.031418,-0.067677,-0.83155,-0.020881,-0.0091984,-0.094753,0.0033792,0.0068363,-0.002318,-0.0035141,-0.080005,-0.039433,-0.05341,-0.023204,-0.040015,-0.01457,0.006215,0.17123,0.021185,0.073808,-0.32126,-0.075998,0.071325,0.0026168,-0.0067793,-0.013871,-0.0042777,0.029083,-0.086754,-0.033094,-0.022387,-0.025274,0.017342,-0.03548,-0.0034528,0.080127,-0.025897,0.0065018,-0.022664,-0.040283,-0.0036968,-0.017925,-0.028498,0.0054181,-0.021921,-0.0054775,-0.035201,-0.28855,-0.079284,-0.066154,-0.02235,-0.097471,-0.0091238,-0.01509,-0.029532,-0.021981,-0.060816,-0.058379,0.3248,0.0061631,-0.12167,-0.36,1.2976,-0.31445,0.019229,0.020806,0.011733,-0.034394,-0.03521,-0.016161,-0.022957,-0.02435,-0.031314,0.18397,-0.0052996,0.028352,0.029939,0.064858,0.033009,-0.032076,0.013033,-0.011795,-0.017833,0.033766,-0.030834,0.012355,0.054559,0.17331,0.023183,0.03436,0.0069792,-0.12824,-0.34931,0.013157,0.024216,0.0098988,0.011092,0.025794,-0.0078145,0.021553,-0.044403,-0.2883,0.27021,0.015992,-0.039826,-0.052727,0.056211,-0.1058,0.0050147,0.15139,-0.30001,0.11839,0.032406,0.065265,0.12126,0.11125,0.01287,-0.16798,-0.022783,0.0081562,-0.015707,-0.020598,0.11388,0.0054129,0.17471,0.02528,0.028406,-0.031328,-0.0092399,-0.024844,0.022199,-0.11373,-0.06035,-0.0046984,0.014969,0.030024,0.010845,0.12491,0.20049,-0.00044051,0.021264,-0.13141,0.0041923,-0.02845,-0.01319,-0.0013195,-0.00026382,0.021009,-0.20586,-0.039011,-0.079902,-0.034036,-0.039137,-0.080434,-0.063517,-0.047535,-0.032719,-0.056072,-0.076036,-0.027904,0.61596,0.075912,-0.014284,-0.031706,0.0080555,-0.0029121,-0.040379,-0.0060816,-0.14893,-0.083617,-0.33286,-0.0051345,0.049315,-0.11401,-0.21943,0.077004,-0.046555,0.23683,0.0006668,-0.12258,0.0042747,-0.26669,0.025438,-0.035988,0.0055422,-0.014433,0.048124,0.0023105,0.024574,-0.02445,0.042599,-0.072085,-0.43616,-0.11361,-0.0058129,0.043366,0.0020539,-0.021906,0.0040225,0.00063659,0.016031,-0.051899,-0.03508,0.35457,-0.03381,0.10421,-0.032523,-0.007745,0.013016,-0.048268,-0.023195,-0.0040351,0.95498,-0.17227,-0.37728,0.060631,0.054815,0.50041,0.0088797,-0.010528,-0.022005,0.092734,0.0093671,0.26472,0.028612,0.073701,0.10761,0.094067,-0.26148,-0.11421,-0.033566,-0.17961,-0.058705,-0.30316,0.02295,-0.021565,-0.0072356,-0.17156,-0.13913,-0.0094811,0.046136,0.010133,-0.16511,-0.0034416,0.0049295,-0.018402,-0.034616,0.1362,0.057394,-0.0107,0.079349,0.04245,0.058416,0.27765,0.21865,-0.024737,0.062435,0.046521,-0.0093643,0.030459,0.058332,0.052612,-0.20648,0.048486,0.13987,-0.10058,0.068516,-1.6947,-0.12795,-0.25769,0.026357,-0.018313,-0.028275,0.2585,0.025372,0.030368,0.044506,0.077688,0.063854,0.0070051,-0.025828,-0.040211,0.047668,-0.019977,-0.075392,0.020401,-0.0096037,0.1128,0.015148,-0.10055,0.016724,-0.071925,0.047538,-0.027747,0.0056227,0.17152,-0.0055839,0.090897,-0.037931,0.024108,0.014486,-0.061542,-0.031546,0.0083024,0.13753,-0.090655,0.2208,0.047108,-0.32995,1.3976,0.059451,-0.031161,0.0083366,0.0054161,0.046792,0.02907,-0.037021,0.04858,0.027252,0.0089391,0.037451,-0.021507,-0.0071481,-0.0074387,0.020095,0.17082,0.027976,0.013217,0.0022714,-0.10832,0.13355,0.0024722,0.058921,0.054488,-0.11682,-0.061815,0.075337,-0.044432,-0.0094229,-0.36909,-0.02099,-0.013606,-0.20943,-0.044957,0.26388,-0.10855,-0.33869,0.040893,-0.023709,0.047719,-0.012506,-0.00067003,-0.054653,0.10154,0.061246,-0.054936,-0.074144,0.062567,-0.17212,0.11524,-0.12143,-0.13039,-0.34311,-0.019491,-0.014074,-0.046217,-0.040025,0.052237,-0.084852,0.040731,-0.108,0.013174,0.10854,0.055984,0.087686,-0.016963,-0.068297,0.038587,-0.019852,-0.0076215,-0.023257,0.010256,-0.0014162,-0.01874,-0.057352,0.018315,-0.10026,-0.063054,-0.014249,-0.072052,-0.065664,0.091217,0.0084194,0.034378,-0.049388,-0.14536,-1.7361e-05,-0.05966,0.15096,-0.085246,-0.02837,0.028873,0.07084,0.037555,0.024306,-0.0067305,0.031875,0.105,-0.027053,0.15398,0.11919,-0.025222,0.10112,-0.18856,-0.28601,0.10016,0.012615,-0.0073992,-0.030743,-0.053449,-0.011808,0.23778,0.26257,-0.12477,-0.023208,-0.063835,0.12097,-0.24979,0.048777,0.10124,-0.12189,-0.00094456,-0.10632,0.14194,0.095202,0.021254,0.086643,-0.19969,-0.066833,0.23788,0.0023891,-0.035971,-0.037025,0.030128,0.0052752,-0.011906,-0.010367,-0.024981,0.018781,0.23205,0.02283,0.30249,-0.33641,-0.19831,-0.39525,0.049173,-0.44442,0.010275,-0.049935,-0.0020869,-0.72615,0.12775,-0.049081,0.030959,0.028683,-0.021952,0.023334,0.09426,-0.032951,0.075079,-0.045117,-0.24038,-0.13853,0.043522,0.0113,0.0099639,0.017347,0.017416,0.053322,0.034783,-0.095342,-0.018672,-0.12756,-0.033703,0.13124,0.078332,-0.056522,0.018992,-0.0036153,0.027943,0.12231,-1.7729,0.033515,-0.13067,-0.0078235,0.10938,0.92464,-0.01083,0.014001,0.018781,0.018148,0.05847,-0.019271,0.07081,0.0075068,0.085826,0.060871,-0.054332,-0.11171,-0.0038141,0.0306,0.015244,-0.1286,0.04186,-0.06884,-0.058953,-0.2736,-0.046022,-0.054859,0.099108,0.005581,-0.062934,-0.17782,-0.31895,-0.026485,-0.03413,-0.17492,0.56609,0.043781,0.3381,1.7017e-05,-0.044476,-0.44364,0.045702,0.016008,0.21157,0.0169,-0.013725,0.053736,0.02183,0.030555,0.024802,-0.015556,0.011357,-0.15802,0.036848,-0.10687,0.088116,-0.015224,0.54191,-0.17263,0.090065,0.060253,0.088299,-0.17006,0.080271,0.020936,-0.010367,0.036519,0.10439,-0.028102,-0.0049185,0.05955,-0.061092,0.075895,-0.15274,-0.10501,-0.11324,0.010873,0.028254,-0.0014929,0.090777,0.021058,0.019035,0.17861,0.099813,0.19693,0.13707,0.11344,-0.05374,0.11561,0.038208,0.0095572,-0.028469,0.041916,-0.0024242,-0.03182,-0.045425,0.25306,-1.054,-0.30686,0.047865,0.075949,-0.0043451,-0.012975,-0.0087681,0.043447,-0.003979,0.070779,0.02369,0.06197,0.026135,-0.042496,-0.066663,0.039867,0.011284,-0.031339,0.058218,0.017811,-0.014784,0.042964,-0.01112,0.0036679,0.0027858,0.027316,0.012386,-0.066022,0.0089045,0.021333,-0.038526,0.012219,0.12169,2.0707,0.0050792,-0.065379,0.1643,-0.046366,0.093102,-0.26673,0.1314,-0.003311,-0.20995,0.034999,-0.14454,-0.016052,0.098464,-0.019142,-0.077645,0.057067,-0.11794,-0.016897,-0.054671,-0.62143,-0.099055,0.017176,-0.014859,0.067783,-0.16941,-0.074436,0.032813,0.00054571,-0.02603,0.014361,-0.097605,-0.051405,-0.068935,0.0061359,-0.042709,-0.024929,-0.087233,-0.068886,-0.055849,-0.0248,-0.11537,0.0054043,0.0078765,0.016288,-0.15642,-0.025909,-0.079208,0.039995,-0.26432,0.11191,0.035285,0.11762,-0.09219,0.096279,0.017627,0.053092,0.033838,-0.13056,-0.016752,-0.010329,0.27341,0.21598,0.5261,0.14819,0.27921,0.12281,-0.024894,-0.0072209,-0.011892,0.071472,0.011829,0.010858,0.18417,-0.024885,0.088945,-0.71474,-0.3448,0.027007,0.037191,-0.01484,0.088029,0.013756,0.045952,-0.042485,-0.010255,0.1767,-0.06611,-0.0045876,0.065474,-0.072521,-0.12342,0.58145,-0.40308,-0.095719,-0.11896,0.035033,0.90012,-0.13204,0.076861,-0.025058,-0.050566,-0.070506,-0.51953,0.050964,0.27189,-0.050483,0.056334,-0.24619,0.0021423,0.045294,-0.0072632,0.074864,0.027918,0.19883,0.22258,0.28546,0.15706,0.09375,-0.17146,-0.069566,-0.48707,0.16778,0.0025743,0.096962,-0.04095,0.010022,-0.26684,-0.26022,-0.039152,0.13295,0.13877,0.12654,0.098078,0.024743,0.12536,-0.11827,-0.45671,-0.11613,0.0069188,-0.035523,-0.0047942,0.011853,-0.085292,-0.065534,0.0099199,-0.42836,-0.030951,0.20397,-0.032293,-0.12205,0.029465,-0.014951,-0.00788,-0.13239,-0.012188,-0.0221,0.16223,0.072567,0.24118,-0.14798,0.18058,0.5018,0.040091,0.014797,-0.041051,0.0018747,0.055595,-0.0074435,0.11298,0.04236,0.042864,0.051042,-0.31593,-0.18551,0.01186,-0.042105,-0.073858,0.13748,0.029468,0.004723,0.056151,-0.003542,0.027563,-0.35079,-0.012341,-0.081141,-0.60078,0.029239,0.027185,-0.24004,-0.2578,0.34616,1.1048,0.072674,-0.014112,-0.78173,0.13765,-0.056447,-0.12418,-0.50073,-0.18025,-0.26005,-0.11146,-0.033909,-0.081648,-0.17448,0.050565,0.10501,0.004144,0.0052789,0.080868,0.037872,0.06009,-0.08718,0.039233,-0.021911,0.030024,0.037643,0.0068229,0.070802,0.028469,0.15251,0.022782,0.00072238,0.029289,-0.20092,0.10373,0.062516,0.065276,0.071775,-0.037085,-0.0051182,-0.015851,-0.04768,-0.12436,-0.38015,0.040444,0.0044596,0.018803,-0.049477,0.023523,0.042508,0.03232,-0.092976,-0.0094476,0.012908,-0.03115,-0.0027127,0.012191,-0.016004,0.023608,0.15702,0.25375,0.074313,-0.015715,-0.13624,0.081661,-0.11063,-0.00030792,0.18498,-0.037026,-0.065643,0.079539,0.024362,0.14861,0.17185,0.1036,-0.020744,0.14124,0.077338,-0.086181,-0.29545,0.12095,0.060381,0.10202,0.26184,0.10629,0.042443,-0.15983,0.20125,-0.10801,-0.014632,0.033096,-0.097403,-0.141,-0.25882,-0.018333,-0.10729,-0.010169,-0.37368,0.26674,-0.014012,0.42736,-0.11575,-0.96477,0.28245,-0.27485,-0.39377,0.30794,-0.069824,0.18924,-0.10884,-0.13533,0.036732,-0.15664,0.029758,0.048974,-0.015685,0.059348,0.052855,0.031676,-0.14098,0.026547,-0.49152,-0.18712,-0.089134,-0.03279,-0.11226,-0.065677,-0.10597,0.084226,0.2478,-0.21553,0.0084905,-0.11906,-0.042388,0.050551,0.19441,0.021971,-0.036658,-0.021322,0.092467,-0.11012,0.53463,-0.067954,0.028702,0.0010118,0.016166,-0.036604,0.026612,0.059634,0.038358,-0.21206,-0.096915,0.029124,0.087575,-0.31123,-0.027674,-0.027645,0.016899,-0.062961,0.087779,0.011315,-0.11321,-0.12617,-0.066428,0.12456,0.54617,-0.11292,0.091666,-0.042363,0.25323,0.021702,0.29621,0.045718,0.093872,0.30976,-0.032107,-0.0025446,-0.14445,-0.18795,0.1977,-0.014045,0.019036,-0.18971,0.17255,0.11151,0.34657,0.11324,0.17331,-0.12946,0.20165,-0.039312,-0.3593,-0.25507,0.14802,-0.051669,-0.078609,-0.12762,0.0085936,0.34391,0.80609,-0.024269,0.048677,0.39267,0.23462,-0.26946,0.0037442,-0.14094,-0.17877,-0.039524,-0.048865,-0.14972,-0.12392,-0.054142,0.014264,-0.062913,-0.0041856,0.053668,0.006412,0.011317,-0.019243,0.10295,0.81618,-0.13857,-0.28436,-0.24991,0.01992,0.17265,-0.018837,-0.022799,-0.0069855,-0.11958,0.18592,-0.21728,-0.094141,0.0040443,-0.12743,0.034202,0.062817,0.03318,0.014053,-0.22143,-0.45695,-0.14555,0.011534,-0.16258,-0.014214,-0.076976,0.038295,0.0059542,0.017189,-0.46459,-0.17138,0.03729,-0.039065,0.14125,-0.12505,-0.070655,-0.092222,-0.025506,-0.015255,-0.00015484,-0.044335,-0.012363,-0.054745,0.060785,0.30985,-0.037695,-0.0057683,-0.016913,-0.027412,0.022476,-0.0043007,0.0022233,0.012863,-0.014492,-0.0011968,0.0093018,-0.093815,-0.013862,-0.025499,-0.018969,-0.048307,0.006003,-0.012453,-0.021547,-0.0035782,-0.024675,-0.02674,0.11727,-0.049504,-0.19228,-0.29238,0.11664,-0.040545,0.20761,-0.37086,-0.059029,-0.075196,-0.24753,-0.083393,-0.036088,-0.29708,-0.84126,0.016263,-0.58566,-0.15481,-0.077442,-0.19804,-0.013909,-0.26856,-0.023648,0.015128,0.031543,0.029266,0.082375,0.032633,0.0064968,-0.090207,0.041664,-0.049068,0.013787,0.053156,0.003072,-0.022783,-0.031435,-0.051465,-0.028898,-0.0073309,0.0095755,0.10494,-0.012622,-0.033326,0.0081987,-0.029501,0.0015174,0.21145,-0.032163,-0.068895,-0.017938,-0.049649,-0.030856,-0.078891,-0.026912,-0.012675,-0.053106,-0.049434,-0.0017486,0.030472,-0.0010767,-0.53775,0.001577,-0.049227,-0.028191,0.097848,-0.028888,-0.0029639,0.00028859,-0.0025038,0.03529,-0.28277,-0.27223,0.51598,-0.021665,-0.17939,-0.039725,-0.00010416,0.002136,0.0011541,0.16643,0.017286,0.20059,-0.090968,0.36601,-0.10994,-0.10936,-0.10299,-0.12959,-0.33424,-0.080773,-0.096449,0.10676,0.014454,0.97293,-0.22202,-0.89874,-0.69508,0.1117,0.01174,-0.012646,-0.018277,-0.12552,-0.034446,-0.036124,-0.016428,-0.04776,-0.020868,0.063895,-0.03973,-0.0091795,-0.058427,-0.0092098,-0.030431,-0.10831,-0.052384,-0.14491,-0.022533,-0.049953,-0.30437,-0.079605,-0.2384,-0.026825,-0.018329,-0.074428,-0.046454,-0.042921,-0.038124,0.031738,-0.0064815,0.0071664,0.038434,0.03894,0.015807,0.0075487,0.29689,0.1937,0.0057922,0.26316,0.072976,0.37497,0.41055,0.0971,-0.034948,0.036849,-0.043641,0.21429,-0.03571,-0.10823,0.015154,-0.0027839,0.056082,0.043501,0.040996,0.064597,-0.15104,-0.03525,-0.25389,0.0025058,-0.048207,0.015396,-0.028348,0.12308,-0.068172,0.0027007,-0.83576,-0.06488,-0.017849,0.1007,-0.16866,-0.10532,0.015381,-0.020411,-0.020053,-0.01428,-0.03189,-0.059871,0.19631,-0.20691,-0.054469,-0.007409,0.026886,-0.065923,0.077355,-0.029288,0.046338,0.0097077,-0.0010794,0.007121,0.020809,-0.019236,-0.0070321,-0.17882,-0.13342,-0.024036,0.008378,-0.055277,0.0085239,-0.0015394,-0.016956,0.014556,-0.044751,0.0087687,0.12821,0.03922,0.21849,-0.10822,0.26237,0.16015,-0.090204,-0.6455,0.0022995,-0.11986,-0.10968,-0.047864,-0.21151,-0.61457,-0.1603,-0.18536,-0.76384,-1.0794,-0.037639,0.012775,-0.12426,-0.09198,0.027836,-0.9188,-0.0035131,-0.087469,0.069462,0.087232,0.045929,0.0063423,-0.014292,0.050279,0.099818,0.01964,0.14394,0.018828,0.1051,0.047918,-0.11475,0.055381,-0.14836,0.0027064,0.0090176,0.29929,-0.023381,-0.015411,0.037987,-0.020824,0.03853,0.030465,-0.022324,0.061186,0.037209,0.16094,0.043099,-0.027338,-0.048526,0.042272,-0.0011539,0.14529,0.0024602,0.14174,-0.012376,0.18571,-0.012841,-0.028511,-0.0061934,0.37037,-0.016193,0.14268,0.064914,0.020464,0.048297,-0.14981,-0.025184,0.035301,-0.044579,-0.13644,-0.13684,0.010168,-0.016844,0.0049306,0.24639,0.13411,0.24368,0.025334,0.32873,0.0048599,0.25844,0.036232,0.13801,-0.13482,-0.027974,-0.12887,-0.31782,-0.06634,0.27966,-0.17664,0.48264,-0.075951,-0.18733,-0.25481,-0.18249,0.010382,-0.11587,-0.026197,-0.24653,-0.030338,-0.15091,-0.043432,-0.022142,-0.028592,0.21431,-0.72718,-0.069621,0.12068,-0.16663,0.012378,0.46341,0.17831,-0.034171,-0.058533,-0.02208,-0.059277,-0.23346,0.036771,-0.18539,-0.0057089,-0.11304,0.10394,0.077688,0.0020404,0.034104,0.034279,-0.040692,0.048711,0.05788,0.0098609,0.007146,0.1107,-0.45375,-0.047835,-0.095314,0.37901,-0.1011,0.31132,-0.039763,0.026562,-0.085891,0.0019823,0.14788,0.054483,0.054331,0.047125,0.074864,0.13403,0.024992,0.058547,0.10909,-0.2061,0.0010461,-0.1561,0.019069,-0.011415,0.01272,-0.037084,0.049252,-0.013704,0.023314,-0.59824,-0.60796,-0.10104,-0.52891,-0.050666,0.069256,0.012296,-0.0036398,-0.095165,-0.030504,-0.081555,-0.21368,0.019003,-0.051433,-0.040477,-0.57055,-0.30315,-0.11883,0.013264,-0.030554,-0.0018916,0.028559,-0.022273,0.044043,0.01293,0.0052917,0.0096928,-0.24133,-0.23067,-0.031285,0.0024932,-0.061076,0.019163,-0.0024373,-0.012006,-0.083647,-0.18958,-0.10359,0.13245,0.04257,0.095536,-0.13669,0.12093,0.028256,0.15002,-0.059587,0.036955,0.010128,0.34073,0.04311,0.081249,0.8028,-0.0087004,0.025111,-0.62948,-0.20752,-0.0277,1.2576,0.0027868,0.10912,-0.0055433,0.035049,0.022461,0.022285,-0.0021169,0.034519,-0.014437,0.071018,0.15326,0.0853,-0.010743,0.011503,0.22892,0.13749,-0.010202,0.12938,0.022074,-0.050707,-0.058387,-0.0065416,-0.0094298,0.041424,0.045361,0.079362,-0.0099543,0.035556,0.072938,-0.020455,0.059735,0.12947,0.10256,0.084207,0.050389,-0.0085167,0.10668,-0.021774,0.030946,0.10231,-0.0014621,0.079376,0.03119,0.051392,0.018519,0.0070355,0.02153,-0.01986,-0.0025447,0.051049,-0.013261,0.014719,0.053563,0.042275,0.0133,0.0034869,1.3844,0.011102,-0.0018983,0.088242,0.14002,0.036149,-0.0059703,0.034506,0.18157,0.11434,0.01863,0.22213,0.37249,-0.027181,0.057941,0.074602,-0.07288,-0.37944,0.017569,0.04659,-0.19919,-0.034175,-0.074944,0.61275,-0.2827,0.30461,-0.13979,-0.010069,-0.24608,0.0002392,0.057666,-0.017148,0.015301,-0.019579,0.0056696,-0.029208,0.0059424,-0.02047,-0.025654,-0.046475,-0.037056,0.047757,-0.36253,-0.0029632,-0.15711,0.10226,-0.019033,0.27567,-0.01442,0.09864,-0.025326,-0.16508,-0.00878,0.37328,-0.2519,-0.015681,-0.096172,-0.20915,-0.055918,-0.023114,0.060324,0.054123,-0.048976,0.04865,0.063586,0.038051,-0.039457,0.029014,-0.18688,-0.042845,-0.037123,0.0796,-0.06055,-0.090607,0.11,0.0029381,0.01254,-0.036674,0.043994,0.30624,0.052783,-0.040642,0.025913,0.15284,0.034133,0.032395,0.039926,-0.062522,-0.23342,0.079696,0.1062,-0.014161,0.027272,-0.0052581,-0.017063,0.027817,0.15266,-0.15156,0.17508,0.08436,0.24657,-0.16574,0.11093,0.0047379,-0.00018361,-0.065574,-0.004599,-0.068351,-0.12842,-0.022194,-0.011955,-0.094541,-0.10658,-0.18703,-0.14885,-0.052732,-0.036608,0.026904,-0.0042963,-0.028475,0.034101,0.021231,-0.0048649,-0.00083377,0.099724,0.044544,-0.0028162,0.0212,-0.05382,0.03268,0.0049403,-0.0029892,0.06146,-0.024941,0.011164,0.044472,0.071755,0.104,-0.10642,0.23498,0.050697,-0.20667,-0.27616,-0.095599,-0.16947,-0.28296,-0.30887,-0.20343,-0.67009,-0.16821,-0.14533,-0.47149,0.19785,-0.094893,-0.24903,-0.029078,0.56021,0.0085367,-0.31719,-0.305,-0.014129,0.034634,-0.051013,-0.19776,0.045242,0.051343,0.064035,0.067524,0.047717,-0.015308,0.038776,0.13184,0.068797,-0.035344,0.010395,-0.10792,0.10064,-0.074973,0.016194,-0.011272,0.12386,-0.025487,0.063844,-0.15336,-0.088631,0.10177,-0.0094294,0.033515,0.065596,0.074537,0.042113,0.043323,-0.032119,0.028654,-0.11348,-0.080769,-0.38492,0.040128,0.10207,0.037459,0.12977,-0.019946,0.0282,0.035474,-0.092033,0.12634,0.055627,-0.019692,0.09648,-0.0056823,0.021671,0.02758,-0.15241,0.12926,-0.0062117,0.020599,0.057295,-0.39948,-0.15024,-0.30751,-0.10376,0.26588,0.15691,0.11386,0.00027133,0.15578,-0.0071944,0.033558,0.1301,0.093667,0.074079,-0.032122,-0.24668,0.020987,-0.047398,0.058899,-0.055564,0.029111,-0.047617,0.13588,0.3361,-0.1731,0.012538,0.16251,0.038915,-0.056823,0.036055,0.10167,-0.027937,-0.0044587,0.047039,-0.069041,0.53159,0.086486,0.18596,0.37604,-0.22816,-0.38435,0.13672,-0.12161,-0.29423,-0.08843,0.21816,0.10152,0.17806,0.048344,-0.25581,-0.14652,-0.018562,-0.20255,0.0030051,-0.2516,-0.025056,0.00021452,-0.034755,0.028549,0.024807,-0.03177,-0.018974,0.030502,-0.077709,0.016347,0.0054047,-0.35442,-0.17339,-0.13508,0.0036522,0.0057156,0.23673,0.033534,0.0057588,-0.19766,-0.17006,0.18684,0.13857,0.014572,-0.035634,0.00093361,-0.0087728,-0.0038285,0.0034798,-0.03526,-0.16895,-0.014218,-0.1589,-0.0030927,-0.051986,0.0066015,-0.017621,0.044602,0.046562,0.040576,-0.0056641,0.052535,-0.12468,-0.40314,-0.41574,-0.37686,0.028157,-0.03187,-0.036487,0.0036537,-0.050955,-0.099735,0.029954,0.053056,-0.034797,-0.23282,-0.050513,0.0014853,-0.0071205,-0.014513,-0.0063072,0.051114,-0.0041416,0.15097,0.040101,0.042692,0.031852,-0.19896,-0.052961,-0.010035,0.0088533,-0.010496,0.012607,0.027438,0.016214,0.0098302,-0.11252,0.046529,0.085828,0.015731,-0.069647,-0.053578,0.30055,0.19493,0.49083,-0.028502,-0.099047,-0.17275,-0.35007,0.091813,-0.080639,-0.20411,-0.13527,0.16384,-0.066686,0.081666,0.042939,0.4279,-0.030853,0.25209,0.019882,-0.53352,-0.31021,-0.1212,-0.14115,-0.19703,-0.023312,0.1562,-0.32898,-0.093459,-0.13898,-0.29641,0.16702,0.096965,-0.016665,0.00047032,0.081257,0.066428,-0.13513,0.016128,-0.080455,0.031132,-0.084974,-0.043648,0.0084932,-0.008484,0.020818,0.021981,0.034483,-0.02578,0.038118,-0.070597,0.0033716,0.049895,-0.016628,-0.0076663,0.015324,-0.033666,-0.0030711,-0.19599,-0.099283,-0.33032,-0.0083923,-0.026067,0.014379,-0.1111,0.039277,-0.061937,0.048812,-0.10404,-0.015209,-0.043452,-0.023924,-0.039182,-0.011627,-0.10102,0.017134,-0.03974,0.31839,0.050854,-0.2493,-0.53737,-0.19762,-0.037862,-0.17882,-0.11096,-0.072179,0.01561,-0.038884,-0.10651,0.029992,-0.068977,0.21243,0.19605,-0.0015724,0.1545,-0.15374,-0.42309,0.12983,-0.24015,-0.03461,0.091137,-0.039753,0.0091272,0.19052,0.58217,1.1712,-0.015228,0.070439,0.0090001,-0.0073451,-0.021974,0.043932,-0.081142,0.047398,0.16372,0.043318,-0.10994,0.063402,-0.13113,-0.21811,-0.16825,-0.65393,-0.063748,-0.12178,-0.37625,0.0055756,-0.38311,-0.18568,0.10765,-0.048828,-1.1041,-0.095522,-0.26523,-0.089269,-0.063266,1.2083,0.019923,-0.031285,-0.38297,-0.0023259,-0.03502,-0.0010825,-0.0035478,-0.10543,-0.0046063,-0.02724,-0.076112,0.019298,-0.019709,-0.25725,-0.27057,-0.15277,0.0066648,-0.1162,0.29382,-0.13548,-0.048712,-0.13371,-0.15128,-0.036874,0.38409,0.0079329,-0.017829,-0.023284,0.088524,-0.0085207,-0.0070314,-0.013046,-0.16972,0.20864,-0.33782,-0.014411,-0.022531,0.061924,-0.017597,0.092417,-0.013126,-0.051474,-0.48847,-0.32575,-0.010006,-0.75967,-0.28781,-1.0063,-0.024039,0.001135,-0.18739,-0.030673,-0.17346,-0.099812,-0.025694,-0.17802,-0.1323,-0.16488,0.27954,0.034904,0.028046,-0.043819,-0.012279,-0.020523,-0.047129,0.018435,-0.003555,0.013393,0.0025665,-0.13642,-0.080009,-0.10227,-0.011382,-0.036678,0.0026884,-0.0078093,-0.031399,-0.0054453,-0.15402,-0.061109,-0.085049,-0.037213,0.054809,-0.31594,0.2638,-0.1747,-0.009745,-0.20298,0.040891,0.16668,0.06582,-0.061324,-0.021318,-0.12134,-0.24034,-0.028103,-0.93616,-0.25743,-0.0028306,0.11832,0.012545,-1.192,0.0042962,0.16564,0.15784,-0.831,-0.04159,-0.078162,-0.11315,0.046574,-0.61468,0.51633,0.24435,-1.0786,0.051067,0.078605,0.031581,-0.017463,-0.0009113,0.065899,-0.0078679,0.053718,-0.093153,0.012782,-0.49192,0.080153,-0.47538,0.22789,-0.26717,-0.18694,-0.023429,0.028273,-0.077559,-0.2021,0.24246,0.067561,0.21041,0.064467,0.017235,0.030661,0.045,-0.1617,0.054967,0.072194,-0.15724,-0.034038,0.038561,0.046449,0.072477,0.16653,0.33621,0.20137,0.073924,-0.29838,-0.13885,-0.12013,-0.12228,-0.033787,-0.18013,-0.010667,-0.018806,-0.34837,0.0041549,-0.2249,-0.072744,0.097039,-0.0365,-0.12387,0.029771,-0.057764,0.34517,0.041277,0.13576,0.011942,0.071414,-0.0036211,0.0079019,0.050999,-0.041582,-0.033393,-0.049213,-0.0046684,-0.046529,0.028991,0.070848,0.0038591,0.030204,-0.013211,0.023335,-0.0037122,0.077751,0.032075,0.11058,0.026309,-0.44564,0.055884,0.060236,-0.10944,-0.072464,0.020933,0.20271,0.45644,-0.016133,0.20601,0.059382,0.074742,0.4612,0.028685,-0.77605,-0.01343,-0.14985,0.14609,-0.082517,0.064143,-0.41313,1.0145,-0.24823,0.19913,0.049898,0.076706,0.071809,-0.14522,0.030082,0.045635,-0.20013,0.0020022,-0.054836,-0.20635,0.060341,0.055471,-0.0095709,0.025191,0.052452,0.036123,-0.061479,-0.027684,-0.15579,-0.1165,-0.034426,-0.028117,0.11474,0.013856,0.0073568,0.027554,-0.0056448,-0.09252,0.075967,-0.13723,0.021726,-0.022324,-0.0053021,0.04685,0.013815,0.0014316,-0.019055,-0.028577,0.071828,-0.68555,0.00061607,-0.056027,0.023164,-0.059498,0.052155,0.029299,0.074117,-0.20158,0.02986,0.2027,-0.028281,0.1609,0.093201,-0.002975,-0.00041036,-0.0621,-0.00014996,-0.17883,-0.017547,0.27081,-0.083432,0.11036,0.31675,0.04029,0.0076971,-0.030472,-0.063181,0.005805,0.022293,0.016383,0.029997,-0.039388,0.0504,0.099231,-0.11434,-0.080711,0.043929,0.016684,-0.03205,0.17538,0.01271,-0.0040163,0.23483,0.018807,0.034511,-0.023194,0.16633,0.079846,-0.23631,0.073501,0.026227,-0.14794,-0.21124,-0.23692,-0.26291,-0.027286,-0.0247,-0.11523,-0.27827,-0.38327,-0.665,-0.27222,-0.26793,-0.02413,0.045799,-0.039263,-0.036643,0.23587,-1.1081,-0.1894,0.5589,-0.80435,-0.31438,-0.28103,0.01617,-0.031509,-0.028233,0.057427,0.10998,0.11438,0.091075,-0.0051748,0.035196,0.037677,0.13787,0.0081863,-0.11121,0.078171,-0.16549,0.20473,0.1029,0.078559,0.32068,-0.070133,0.11292,0.11184,-0.0029134,0.026353,0.56147,0.0031336,0.090277,0.16627,0.021324,-0.14065,0.028394,-0.0384,-0.40473,0.033514,0.16961,-0.040743,-0.026397,-0.036633,-0.011243,-0.10329,0.022448,-0.016456,-0.056057,-0.088577,-0.33469,-0.00097974,-0.028385,-0.0015818,-0.092011,-0.012634,0.072173,0.028842,-0.0073776,0.060855,-0.90083,-0.14427,-0.61857,0.027213,0.007174,0.014795,0.011053,0.014403,0.019079,0.16455,-0.012917,-0.1687,-0.13536,0.2535,-0.17236,0.13647,-0.00098553,-0.031754,0.019393,0.028009,-0.12759,0.031453,-0.0032221,-0.46471,0.039362,-0.48124,0.34434,0.023721,-0.021281,0.00022003,-0.01215,-0.087884,0.0094464,0.22429,0.064858,0.44098,-5.227e-05,-0.02221,0.19601,0.092711,0.076633,0.058897,0.035367,0.093123,0.047325,0.36087,0.192,-0.0091231,-0.58464,0.0016393,0.12751,0.015855,-0.070389,0.0062949,-0.0074911,0.0051566,0.0097344,-0.021852,-0.32293,0.034295,-0.0092738,-0.1195,-0.032566,-0.01426,-0.015877,-0.025427,-0.017486,0.070422,-0.29549,-0.01373,-0.085536,-0.0072119,-0.52497,0.066532,-0.15485,-0.027032,0.1949,0.025046,0.058073,-0.095235,-0.010009,0.10202,0.051882,0.08227,-0.062233,0.028781,-0.022245,-0.0053676,-0.046277,-0.092645,-0.099479,-0.01473,0.020127,-0.17594,-0.30761,-0.34823,-0.0035704,-0.0040285,0.022303,-0.85777,-0.29423,-0.2771,-0.30633,-0.3287,0.26764,0.0024335,-0.034511,0.035745,0.033923,0.10436,-0.0025205,0.064587,0.0010679,0.0084418,-0.05151,0.029922,0.076403,-0.041824,0.015622,-0.1965,0.015504,-0.014972,-0.025614,0.37299,-0.1363,-0.037156,-0.011443,0.03816,-0.06955,0.064858,0.10936,0.023948,-0.016002,0.0034665,-0.02583,-0.0053091,-0.016283,-0.0224,-0.012212,0.024029,-0.01823,-0.0013375,-0.054855,0.090537,-0.17146,-0.03552,-0.065365,-0.054417,0.011822,-0.0022032,-0.011224,-0.038372,-0.0057987,1.787e-05,-0.044225,-0.030557,0.0031975,-0.13291,-0.037061,-0.092,-0.049304,-0.07981,0.004011,-0.011393,0.0029137,0.041894,-0.028678,-0.020229,-0.015545,-0.020053,-0.13072,-0.032616,0.018831,-0.051181,-0.036868,0.085387,0.044459,-0.20214,-0.048461,0.062443,0.097023,0.11375,-0.0057312,0.064292,0.084162,0.11317,0.00025778,0.060371,0.1101,0.42376,0.078733,-0.0072268,0.060922,0.1404,-0.041449,-0.025131,0.038705,0.030074,0.024237,0.14757,-0.0084548,-0.26447,-0.034456,0.094042,-0.049454,0.020855,0.035248,0.019064,0.034238,-0.031542,-0.060305,-0.024571,0.00030937,0.034005,-0.052406,0.041704,-0.10405,0.0061869,0.074443,-0.11981,0.0023563,-0.027373,0.0041119,0.088454,-0.0158,0.055304,0.026558,0.0264,0.18767,-0.19349,-0.39674,0.039777,0.0082095,0.033364,-0.021506,0.020997,0.013193,0.007019,0.098329,0.058563,0.037023,-0.10427,-0.15545,-0.0018198,-0.60232,-0.021497,-0.43034,-0.35412,0.027002,-0.05015,-0.24268,0.12429,-0.048642,0.10641,-1.0291,0.020278,-0.0090952,0.18123,-0.026911,0.0024663,0.4358,0.0095331,0.11631,0.020842,0.18454,-0.0062391,-0.033276,0.037443,0.11789,-0.052337,0.079212,0.044617,-0.020054,0.045143,0.17158,0.096116,-0.011375,-0.096796,-0.022862,0.038241,-0.017733,-0.0072593,0.011952,0.050238,0.039474,0.12853,0.040081,0.011784,0.042256,0.12295,-0.041748,0.016639,-0.010963,0.015881,0.016395,-0.10244,-0.037889,-0.042486,-0.010928,-0.01009,0.017065,0.026885,-0.029168,0.051279,0.0050918,-0.050446,-0.06109,-0.13513,-0.014401,-0.27017,-0.077817,0.047177,-0.035333,0.021043,-0.027864,-0.15565,-0.033875,-0.232,0.010606,-0.056802,-0.28191,-0.03086,-0.082198,-0.014932,-0.087426,-0.023307,-0.12681,-0.030562,-0.035795,0.013193,-0.051913,0.028168,-0.014378,-0.0067132,0.019845,0.16452,0.007442,0.023883,0.057983,-0.1485,0.025957,-0.011343,0.30514,0.083023,-0.01761,-0.055917,0.13684,-0.0090177,0.02273,0.0030259,-0.18225,0.02018,-0.012621,-0.00080942,0.030252,-0.012075,0.00082295,0.0054667,0.013917,0.10263,-0.012309,0.02394,0.024918,0.21583,0.14459,-0.08529,0.065334,0.031541,-0.03641,0.075851,-0.016867,-0.13298,0.17245,-0.13384,0.062172,-0.016009,-0.037896,-0.042153,-0.092059,-0.058055,-0.05788,-0.0080732,-0.040938,-0.033607,0.0019703,0.13147,-0.20819,0.0044987,-0.028432,-0.0020766,0.055753,-0.01177,-0.022833,-0.023215,-0.019239,-0.18849,-0.017537,0.040566,-0.029371,-0.026577,-0.011033,-0.03405,-0.025328,0.017482,-0.034377,-0.0034218,-0.096652,-0.041303,0.022264,-0.015928,-0.040379,-0.087172,-0.97512,0.15201,-0.21679,-0.0075749,-0.066314,0.021184,0.031075,-0.030435,0.026096,0.149,-0.2221,0.52452,-0.3525,0.061871,-0.1927,-0.25796,-0.086595,0.0068663,-0.056602,-0.014581,0.40468,-0.03102,0.067133,0.020241,-0.0089737,-0.1618,0.030258,-0.091308,-0.077564,-0.078738,-0.080803,-0.18293,-0.04251,-0.062479,-0.0036883,-0.041825,0.077123,-0.019038,-0.075288,-0.0023767,0.019809,0.0069961,-0.075796,-0.095635,-0.057697,-0.073312,0.057325,0.097901,0.098803,-0.013648,-0.00042073,-0.039211,-0.019267,-0.17453,-0.020271,-0.26216,-0.023528,-0.0097162,0.012958,0.02218,-0.028307,-0.030148,0.0010107,0.023045,-0.0021536,-0.030288,-0.098869,-0.044078,0.042989,-0.066128,-0.23005,-0.33076,0.0071436,-0.0078578,-0.30138,-0.16262,-0.28387,-0.29667,-0.43767,-0.32291,-0.020799,-0.047994,0.12278,-0.044688,0.11128,-0.0033754,-0.050697,-0.032298,-0.23551,-0.0048512,-0.077439,-0.61746,0.03502,-0.15819,0.033993,-0.075889,-0.054976,-0.046372,-0.081102,-0.038707,-0.28199,-0.028806,-0.029992,-0.069066,-0.14472,-0.027609,-0.19023,-0.051926,-0.025231,-0.11323,0.1385,-0.11975,-0.033476,1.2636,-0.00016331,-0.011314,0.14438,-0.015481,-0.045597,-0.095128,0.0091696,-0.91686,-0.35297,0.18952,-0.021657,0.0046144,-1.1174,-0.069922,-0.17741,-0.023456,1.2299,-0.018039,-0.1488,0.0030612,-0.1158,-0.044043,0.075695,0.084508,0.11263,0.0093246,-0.18637,0.03026,-0.040678,0.50295,-0.064995,-0.26612,-0.49189,-0.10598,-0.03432,-0.22144,0.073517,-0.019381,0.059951,-0.59003,-0.20796,-0.36256,-0.35615,-0.16157,-0.41793,0.07921,-0.023814,0.045538,0.11951,0.19426,0.010097,0.11578,0.019188,0.026419,-0.38633,-0.040344,-0.0060674,-0.0346,0.05804,-0.089536,0.04437,-0.0062603,-0.0075897,0.088325,-0.4311,-0.11434,-0.13892,-0.024941,0.039313,0.064199,0.11807,-0.11781,-0.080278,0.010129,0.064339,-0.020755,-0.016341,-0.1709,-0.0012507,0.069023,-0.017934,0.060601,-0.050459,0.2426,-0.23283,-0.079812,-0.34955,0.056234,-0.13879,0.088497,-0.017887,0.0065805,0.040886,0.048006,-0.0042241,-0.0022899,-0.015985,-0.18468,0.060221,-0.18795,-0.081319,0.1323,0.054972,0.030102,0.051879,0.080488,0.11675,0.071774,-0.00077787,-0.0026482,-0.018816,-0.025393,0.0075195,-0.039258,-0.20175,-0.18315,-0.06428,-0.12576,-0.32911,0.046982,-0.00067479,-0.04647,0.033813,-0.21692,0.16698,-0.20676,0.021084,0.047653,0.00075547,0.011921,-0.019752,-0.15161,-0.045781,-0.26313,1.3195,-0.30501,-0.008563,0.044667,-0.083924,0.10904,0.039087,-0.027638,0.020575,0.39142,-0.0085576,-0.1313,-0.030934,-0.02505,0.12317,0.40626,0.090595,-0.23172,0.0108,-0.012222,0.14921,-0.027673,-0.078396,-0.021602,-0.22837,-0.40158,-0.087028,0.029504,-0.039934,-0.20674,-0.010156,-0.036467,-0.015185,0.028155,-0.034007,0.056575,0.00061429,-0.022624,0.071111,-0.10249,-0.14216,-0.094427,0.0014108,-0.016816,-0.012679,0.01487,0.034581,0.038896,0.024683,0.042657,-0.071925,0.0063092,-0.19451,0.0094877,-0.15017,0.011631,0.11275,0.55579,-0.01956,-0.088481,-0.042846,0.027894,-0.033163,0.063116,-0.50542,-0.22372,0.027408,-0.21181,-0.02315,-0.012319,-0.19911,-0.013615,0.067841,0.0046036,0.030554,0.001314,-0.01531,0.0040964,0.12244,-0.15626,0.16815,-0.011507,-0.067415,-0.057172,0.296,0.04522,-0.024044,-0.3274,-0.022709,-0.48521,0.012143,-0.018549,-0.012885,-0.050287,-0.026408,0.0031717,-0.19477,-0.26036,0.028218,0.1062,-0.20961,0.21954,-0.16817,0.074531,-0.19827,0.016939,-0.040621,-0.00015752,-0.14227,-0.024147,-0.17567,-0.00040736,0.33843,0.25081,0.080612,0.13344,-0.014222,-0.48838,-0.03211,-0.87218,-0.22448,0.833,-0.1907,-0.095601,0.13937,-0.2768,0.081261,0.15625,0.017372,0.31012,0.0054868,-0.12689,0.010615,0.074356,0.091393,-0.22278,-0.28817,-0.13459,-0.72839,-0.6012,-0.10593,0.032081,-0.025419,0.019486,-0.13699,-0.13876,-0.083804,-0.21035,-0.021178,-0.33116,0.035622,-0.028692,0.013315,0.096386,0.018824,0.025971,0.083353,0.015613,0.10699,-0.10286,-0.032379,0.18941,-0.18351,0.051256,0.10234,0.037518,-0.028989,-0.019832,0.13174,0.11261,0.015143,0.029565,-0.24402,0.25847,0.025068,0.042895,0.030526,-0.14932,-0.178,-0.26942,-0.44099,-0.052156,0.062014,-0.023618,0.1418,-0.093226,-0.039515,-0.048716,-0.11234,-0.0035073,-0.091352,0.01894,-0.17513,0.14607,0.28394,-0.0091761,-0.0020423,0.33792,0.067131,-0.084766,0.038788,0.017946,-0.11093,0.3326,-0.206,-0.066671,0.032282,-0.020653,0.075716,0.027948,0.0014777,-0.049481,-0.0048384,-0.0058692,-0.032259,-0.0267,-0.066536,0.017621,-0.037335,0.53602,-0.086946,-0.11533,-0.23577,-0.041262,-0.56948,-0.3291,0.047197,-0.024589,-0.036182,0.041906,-0.28662,0.92865,0.21853,-0.042145,-0.043226,0.019181,-0.066006,-0.015681,-0.20734,-0.085469,-0.20283,0.77079,-0.62682,0.020184,0.21872,-0.073228,-0.25397,-0.0038597,-0.12107,0.001229,-0.73698,-0.013256,-0.12672,0.056654,0.12556,-0.15451,-0.33307,-0.24967,-0.25742,-0.1129,-0.15221,-0.22024,-0.011285,-0.0076354,0.010936,-0.2814,0.045298,0.035992,-0.017716,-0.062721,-0.25637,0.02516,-0.051474,-0.02323,-0.0065307,-0.022426,0.034628,0.056031,-0.061672,0.0551,-0.15574,-0.034458,-0.016866,-0.30024,0.0090313,0.11359,0.031731,0.069507,0.08635,0.018182,-0.035781,-0.050218,-0.013606,-0.2325,0.0083922,-0.11902,-0.023004,-0.094142,0.14173,-0.097212,-0.10485,-0.14688,0.0066028,-0.033222,-0.071093,-0.302,-0.42555,0.15647,-0.54074,-0.14115,-0.02731,0.025048,0.046879,0.24064,-0.064701,-0.29204,-0.0099056,-0.013808,-0.044573,0.1867,0.0082712,-0.10317,0.073196,-0.024843,0.2729,-0.086555,0.027763,-0.035265,-0.080683,-0.015537,-0.046372,-0.057575,-0.062624,-0.017132,0.04291,0.010172,-0.0068838,0.029603,0.081161,0.055858,0.11181,-0.1904,-0.12122,-0.22094,1.5158,-0.116,0.06914,0.39232,0.10196,0.083836,0.048472,0.1275,-0.067454,0.29036,0.061928,0.026058,-0.016253,0.042851,0.36543,-0.021069,-0.036125,0.019644,0.038679,0.95699,-0.1318,0.017555,0.40652,-0.18023,-0.19439,0.51893,0.014707,0.021702,0.59651,-0.0016927,0.065843,-0.024489,-0.059194,-0.19551,0.18861,-0.10125,-0.068381,-0.024386,-0.088718,0.041518,0.0030528,-0.049527,0.025719,-0.024568,0.037013,0.020778,-0.04192,0.020729,-0.091476,0.027115,-0.036321,0.01408,0.35911,0.0072801,-0.00023145,0.078176,-0.0037773,0.21278,-0.17472,0.075672,0.0070769,0.026582,0.045999,0.059034,0.048751,0.067827,0.060292,0.23153,0.015141,0.040799,0.03455,0.038732,0.006166,0.052731,0.10817,0.33892,0.016645,0.0095418,-0.091118,0.033662,0.049024,0.16119,0.1026,0.050155,-4.8196e-06,0.041229,-0.10038,0.02959,0.056191,-0.59189,0.041148,0.041279,-0.13075,-0.2183,-0.023305,-0.0098225,0.33446,0.22991,-0.16949,-0.065369,0.10808,0.001104,0.23724,-0.029857,0.28685,-0.0051543,-0.097682,0.020909,-0.022153,0.038596,0.059336,0.045128,0.066234,0.049336,0.091817,0.053334,0.050509,0.093142,0.34685,-0.048856,0.1367,-0.13622,0.28559,0.032854,0.55398,-0.24601,-0.074674,0.17868,0.069499,-0.092715,-0.02036,0.0028218,-0.016192,0.024282,-0.11742,-0.10832,0.061004,0.025048,-0.0056506,-0.2381,0.059537,0.1582,0.040203,0.036926,0.024695,-0.027377,-0.15702,0.01641,-0.015278,0.043492,0.0011681,-0.079993,0.0039622,0.0019508,0.019974,-0.019565,-0.0079601,0.12736,0.00053488,-0.053151,0.22176,-0.13057,0.22296,-0.033619,-0.00594,0.0090271,-0.11402,-0.35861,-0.047865,-0.25501,0.012458,-0.026616,0.002705,0.0036392,0.013556,0.15938,-0.017882,-0.090707,0.045017,0.0059051,0.14225,-0.1394,0.16351,0.076993,0.041077,-0.25413,0.15164,0.011589,-0.2107,-0.060773,-0.077523,0.012924,-0.015579,-1.4384,0.32979,0.047694,0.12867,-0.12438,0.090118,-0.074056,-0.047145,-0.17556,0.029852,-0.43311,-0.094718,0.098435,0.068968,0.037336,-0.24497,-0.21332,-0.05282,0.022263,0.095463,-0.042806,-0.008782,-0.026054,0.021439,-0.00073799,0.02145,0.2686,-0.045411,0.025295,0.11921,0.0021468,-0.020304,0.01946,0.03118,0.01568,0.077555,-0.030303,-0.014474,0.015635,-0.020392,-0.18415,-0.15721,0.0057986,-0.013671,-0.078575,-0.01647,0.0016212,0.0036591,-0.036906,-0.0062722,0.065372,-0.017321,-0.014761,0.18133,0.013042,0.047431,-0.014011,0.0072381,-0.10665,-0.10216,0.099789,-0.025646,0.032905,-0.054048,0.040815,-0.045296,0.20243,0.37254,0.3315,-0.16379,-0.092359,0.22346,0.086874,-0.013014,-0.019307,-0.089688,0.022013,-0.031123,-0.0036546,0.039436,-0.010894,-0.09458,0.083385,0.098153,0.062557,-0.36656,0.17744,0.055083,-0.02964,-0.041424,0.0022659,-0.011881,-0.044196,0.01218,0.0064675,-0.023043,-0.082237,-0.0059782,-0.17418,0.052892,-0.13207,0.16403,-0.10903,-0.002444,-0.10895,0.18824,0.058845,-0.66826,-0.03959,0.0054933,-0.10741,0.17324,-0.11734,0.031142,-0.014123,-0.042726,0.25826,-0.012064,-0.023214,-0.056234,0.0090828,0.089304,-0.018719,-0.013306,0.014763,-0.12869,0.04525,0.044426,-0.029003,-0.033775,0.0022195,-0.11272,-0.051244,-0.07088,-0.047275,-0.048207,-0.0047685,-0.069458,0.042811,0.00071513,-0.12117,-0.11788,0.001181,-0.2796,0.0023383,-0.16161,-0.039762,-0.046929,-0.0769,-0.089388,-0.041986,-0.0161,-0.015728,-0.029333,-0.0055084,-0.13821,-0.046809,-0.1211,-0.017822,-0.10126,-0.0043176,-0.074898,-0.023845,-0.33911,-0.089547,-0.050477,-0.0041979,-0.19048,0.0013636,-0.14416,0.21021,-0.030896,-0.15043,0.012874,-0.11246,-0.035172,-0.055719,0.037048,-0.074586,0.018663,-0.021222,-0.0088484,-0.023023,-0.35042,0.5658,-0.12448,-0.0010478,-0.0023685,-0.063027,0.020823,-0.079169,0.021165,0.021961,0.0061524,-0.0023761,-0.033202,-0.056746,0.035844,0.005204,-0.049183,0.1805,-0.02989,-0.088809,-0.011041,-0.014018,0.045601,9.1297e-06,0.15102,0.017282,-0.047926,0.032761,-0.024403,0.16782,-0.025555,-0.11374,-0.037757,0.0084951,-0.056234,0.0078929,-0.17713,-0.055131,-0.25142,-0.11515,-0.17517,-0.045076,-0.18288,-0.0056264,-0.152,0.36367,0.0094201,0.014336,0.18597,-0.065508,-0.3273,-0.13643,0.0085747,-0.017397,-0.16802,-0.12359,-0.085243,0.17793,-0.68818,-0.019569,0.027554,-0.2007,-0.23194,-0.087238,0.0067733,-0.19916,-0.42253,-0.13507,0.018669,0.021526,0.093626,0.017469,0.053215,-0.012099,-0.12744,-0.049513,-0.21063,0.030653,-0.11208,-0.050032,-0.00088742,-0.087666,-0.15095,-0.28626,0.027402,0.14778,-0.019016,0.055896,-0.02148,0.1458,-0.010755,0.0118,-0.0070734,0.18688,-0.010382,0.13199,-0.034294,-0.060266,0.11239,-0.24233,0.07379,0.10248,-0.22074,-0.077366,-0.0039904,-0.10633,-0.2405,-0.11599,-0.010556,-0.10995,-0.27498,-0.1145,-0.052696,0.042045,-0.048127,-0.097157,-0.0017855,-0.020281,0.0018597,0.045014,-0.043068,0.072818,-0.012813,0.067991,-1.5702,-0.23969,-0.40606,-0.038638,0.33139,-0.0080513,0.015343,-0.060526,0.038237,0.016531,-0.045113,0.49869,0.13813,0.048592,-0.041711,0.34025,0.18702,-0.010923,-0.0040098,-0.051594,0.013091,-0.013249,-0.0018028,-0.05244,0.073561,0.0079703,-0.02316,0.12177,0.067057,-0.056584,0.17139,-0.020742,-0.033323,0.031465,0.0098346,-0.033385,-0.074207,0.0026831,0.17691,-0.15274,0.11273,-0.22376,-0.11304,-0.0070013,-0.16366,0.071426,-0.093187,0.45076,0.31236,0.82859,-0.19642,0.039732,0.028814,0.32062,-0.41556,0.22857,-0.032696,-0.16497,-0.021659,-0.069012,0.18503,-0.015481,-0.29814,-0.3013,-0.086158,0.018819,0.090346,-0.024943,-0.0049692,-0.12964,0.043008,-0.012995,0.10932,0.023394,-0.016994,0.015354,-0.073943,-0.14064,0.03438,-0.10591,0.0076431,-0.098528,-0.019478,0.077466,-0.054033,0.010924,0.0015381,-0.094494,0.01193,-0.076008,-0.023771,-0.033532,-0.093083,0.07585,-0.050548,-0.0031856,0.015553,-0.0057353,0.028113,-0.070278,-0.0099759,-0.014604,0.14092,-0.13948,-0.3085,-0.11931,-0.10371,-0.29708,-0.17338,0.065895,-0.077812,-0.07032,-0.091738,-0.17786,0.0076157,0.14248,-0.1732,-0.0038661,-0.071938,0.039986,-0.057214,-0.022231,-0.19857,-0.038505,-0.017795,0.0045067,-0.14748,0.080635,-0.12951,-0.43085,-0.12502,0.10829,-0.030418,0.036407,0.001219,0.0056069,-0.066543,-0.0092005,0.15864,0.092135,-0.037058,0.26745,0.25039,0.17864,0.050645,0.0046416,-0.080253,-0.0056813,0.0048025,0.0044442,-0.031888,0.05011,-0.29461,0.0099477,0.016943,0.024533,-0.040323,-0.083482,0.0063703,0.50212,0.15533,-0.096554,-0.17769,-0.22545,0.22444,-0.16897,-0.014558,-0.18017,-0.23947,-0.34981,-0.093206,-0.44997,-0.19079,-0.22214,0.0024069,0.1972,-0.3774,0.2334,-0.21303,-0.99681,-0.72404,0.11018,0.077568,-0.014941,-0.021358,0.086925,0.32108,-0.38359,-0.11622,-0.11564,0.0047461,-0.10916,0.50211,-0.29414,-0.035711,-0.073921,0.098404,0.033155,0.50475,0.12727,-0.008026,0.16359,0.13632,0.15607,-0.067014,-0.046994,-0.085222,0.13158,0.087714,0.078341,0.057589,-0.28913,-0.056404,-0.020738,0.031183,0.062125,-0.040628,0.13887,0.027582,-0.040784,0.090095,-0.026378,0.141,0.02982,-0.068896,0.1472,0.044629,0.034055,0.067626,-0.017278,-0.099543,0.071705,-0.36398,0.034884,-0.29286,-0.069689,-0.18452,0.042158,-0.32333,-0.071418,-0.23298,-0.10415,-0.022138,0.0029024,-0.022277,0.14133,0.0072695,0.0024603,-0.00067819,-0.0098892,-0.026619,-0.0062008,0.026141,0.24077,-0.49756,-0.78553,-1.4519,-0.43165,-0.13127,0.24398,-0.014198,0.016562,-0.023118,-0.00081793,0.1464,0.14226,0.073684,0.083356,-0.012696,0.053758,0.19404,0.019365,0.027146,0.18126,0.078078,-0.019699,0.021241,0.0011871,-0.027888,0.077988,-0.071233,-0.22338,0.00043409,-0.062799,-0.013991,-0.024516,0.027713,0.20522,-0.088094,0.29801,0.15385,-0.16302,-0.031416,-0.062237,-0.081505,-0.1215,-0.15851,-0.077118,-0.064612,-0.19942,-0.14701,-0.0060095,0.042419,0.50988,-0.17123,0.015637,-0.27727,-0.16113,-0.11145,0.039279,0.10866,-0.015693,0.049484,-0.030845,0.036193,-0.17964,0.10503,0.070447,0.0038721,0.026351,-0.16516,0.029503,-0.15175,-0.16703,0.0031069,0.092542,-0.058927,0.15607,0.16451,-0.085944,0.15519,0.13316,-0.3234,-0.11739,-0.0050908,0.13574,0.07717,-0.14079,0.096578,-0.21233,-0.033369,-0.0070418,0.064217,-0.022488,-0.066172,-0.006632,0.040127,-0.026937,0.069029,-0.0039282,0.01548,-0.040668,0.030408,0.028965,-0.019954,0.066821,0.040283,0.097641,0.05399,0.26473,0.043819,0.024733,-0.034827,0.29195,-0.0074649,-0.10592,-0.049876,0.20936,-0.076115,0.00041638,0.011414,0.015314,-0.010023,-0.079221,-0.0061433,-0.0098638,0.033997,-0.024447,0.026566,0.0079852,-0.011678,-0.13862,-0.075151,0.081463,-0.041395,0.48632,-0.058925,0.14546,0.073022,-0.014899,0.029752,-0.092544,-0.023005,0.0032162,0.062907,0.15147,0.34667,0.012135,-0.14816,-0.023925,0.25128,-0.02912,0.06101,-0.014787,-0.023342,-0.034426,-0.033475,-0.040069,0.0095696,0.043099,0.19568,-0.067201,-0.04164,-0.01446,-0.027194,0.0046908,-0.10512,-0.0045699,-0.018542,0.069571,-0.16488,-0.072294,0.22674,-0.068287,-0.10869,0.27456,-0.23718,0.062868,0.017517,0.085185,0.070155,0.042698,0.061736,0.056041,-0.054056,-0.03498,-0.098105,0.076681,-0.10089,0.22272,-0.012505,-0.15844,0.1629,-0.044714,-0.10886,-0.022593,-0.17191,-0.29647,-0.21621,-0.097634,-0.078575,-0.096332,0.050931,-0.10672,0.078406,-0.020626,0.060539,-0.0049152,-0.049404,-0.00086675,-0.010843,-0.12834,0.1886,-0.021666,-0.040598,-0.013887,-0.092774,-0.0013275,-0.11359,-0.084117,-0.010605,-0.0053349,-0.029225,-0.10946,0.015983,0.025273,-0.055406,0.039446,-0.058262,-0.035507,-0.005393,-0.010615,-0.067832,-0.021319,0.013629,0.07921,0.027487,-0.0052746,0.019714,-0.042558,-0.022324,-0.04684,-0.17525,-0.022405,0.022968,-0.056481,-0.19434,-0.083518,0.014013,-0.058876,-0.086207,-0.08241,-0.050446,0.0033943,-0.051168,0.099857,-0.030574,0.04126,-0.032914,0.006066,-0.21706,0.24278,0.091462,1.4146,-0.2897,-0.51744,0.019609,-0.02784,0.010946,-0.05492,0.02555,0.30197,-0.05273,0.011954,0.011892,0.02337,0.071477,-0.026903,0.10004,0.0034389,-0.01371,2.8963,-0.092272,0.084368,-0.35224,-0.030741,-0.17868,0.10287,0.25091,-0.032665,-0.2837,-0.039882,-0.029004,-0.0045101,0.22392,-0.018412,-0.0043784,-0.037244,0.018268,-0.0014503,-0.01098,-0.029829,-0.029643,-0.011691,0.015188,0.00057033,0.070854,0.0022666,-0.0070406,0.018338,0.088085,0.0182,-0.081954,0.034263,-0.2785,-0.029153,0.0048624,0.35956,0.36375,-0.016068,-0.032527,0.01239,0.041325,-0.26277,0.0044605,-0.42255,-0.062698,-0.092679,0.018962,0.03003,-0.021326,0.009514,0.024544,-0.099624,0.08566,-0.76413,0.16483,-0.37552,0.41233,0.064809,-0.29545,-0.24694,0.0010611,-0.025194,0.083753,-0.16366,-0.39196,0.85686,-0.25139,0.012912,0.0077672,0.054295,0.050182,0.16641,-0.078265,-0.050129,-0.010523,-0.033478,-0.23442,0.29941,0.082687,0.05922,-0.0043885,0.028122,0.054732,-0.16487,-0.036658,-0.0064275,-0.045917,0.011034,-0.019827,0.015493,0.0057785,-0.0039511,0.080926,0.033862,-0.014773,-0.014657,-0.30535,-0.19478,0.29496,-0.027254,0.47762,-0.25918,0.91789,-0.022776,0.1816,-0.38778,-0.50802,0.70468,0.017252,-0.048503,-0.028436,0.047641,0.034658,0.0019307,-0.015597,-0.018322,-0.023621,-0.056063,-0.015301,0.0025396,-0.023105,-0.0046317,-0.30569,0.17615,0.075253,0.034839,0.014826,0.028496,0.0062856,0.079284,-0.023545,0.0066281,-0.0087356,-0.040707,-0.06747,-0.013248,-0.016802,0.0046355,0.01744,-0.013073,0.0074382,0.010953,0.016735,-0.017171,0.021202,0.0051302,-0.091926,-0.038252,0.13701,-0.057857,-0.15529,-0.032287,-0.0023387,-0.011839,-0.033347,-0.21612,-0.0024881,-0.11507,0.017185,-0.079283,0.02198,-0.013736,0.0016236,0.016935,0.0072925,-0.015004,0.010755,0.027613,0.039291,-0.11757,-0.03204,-0.20106,-0.012731,-0.09306,0.0036573,-0.012812,-0.041413,-0.036774,-0.053144,-0.20804,-0.19095,0.26916,-0.3853,-0.27307,-0.12308,0.11269,-0.067691,-0.14663,-0.011218,-0.14739,-0.021729,-0.31457,-0.089714,0.066696,-0.24427,0.023908,-0.1692,-0.053118,-0.074375,-0.024911,0.020868,-0.018408,-0.024623,0.0024052,-0.002065,-0.0049851,0.0065086,0.027594,0.010605,-0.012805,-0.0082793,-0.009694,-0.025591,-0.024762,0.0025363,0.0073417,0.025616,-0.12086,-0.0053389,-0.022721,-0.011206,-0.032196,-0.0060383,-0.03628,0.0034555,-0.17144,-0.018677,-0.0080671,-0.025307,-0.11403,-0.34515,0.089943,0.011927,-0.029248,-0.20417,-0.01018,0.0063318,-0.0132,-0.023174,-0.84685,-0.014013,-0.0009581,-0.086313,-0.15039,-0.25265,-0.19382,0.003807,0.086366,-0.049936,-0.048123,-0.097515,0.10404,-0.16917,0.02141,-0.01575,0.012668,0.073836,-0.055071,0.0058116,0.075094,0.16109,-0.037974,0.64569,-0.12848,0.09299,0.065439,-0.12066,-0.11034,0.219,0.11172,-0.041097,-0.45066,0.023489,0.018926,0.12224,0.1713,-0.0096871,0.00063078,-0.0069787,0.084534,0.046688,-0.0066812,0.022885,0.039077,-0.074193,-0.027092,-0.022884,0.06991,-0.0028405,0.056746,-0.0023069,0.15549,-0.004352,-0.0027482,-0.024623,0.010262,-0.012879,-0.11329,0.071703,-0.0080271,0.026805,0.0035615,0.012741,0.076652,0.32759,0.16669,-0.077121,0.12878,-0.15434,0.021974,-0.03619,-0.040693,0.016043,0.024705,0.06336,0.11663,0.032002,0.18624,0.10302,0.035096,-0.14874,-0.0050435,0.054596,0.036406,0.015489,-0.46152,0.032801,-0.01588,0.38273,0.14425,0.11721,0.067977,0.10723,0.033116,-0.10469,0.21416,0.63965,0.053834,-0.004295,0.015781,0.19679,-0.25472,-0.43812,-0.013687,0.29378,0.073212,-0.25215,0.41753,0.077331,0.023103,0.09369,0.1052,0.057534,0.061128,0.058548,-0.13724,-0.064162,-0.19197,0.0049695,-0.093567,-0.20321,0.022767,0.0085272,0.032317,-0.12453,0.30045,-0.014932,-0.29162,0.06236,-0.12993,-0.018516,0.044698,-0.02912,0.24649,0.026985,0.03711,0.05251,-0.033326,-1.0259,-0.017785,-0.0072344,-0.12755,0.29208,-0.016069,-0.011678,-0.078171,-0.0037406,-0.056765,-0.038377,0.048836,-0.0048402,-0.014788,-0.049597,0.030551,0.072513,0.002611,-0.099395,0.027772,0.035258,-0.16448,0.023013,-0.014547,-0.01543,0.0046445,0.19522,0.0037862,0.18119,0.0379,0.0019034,-0.083296,-0.066255,-0.048147,0.024377,0.03281,-0.023545,0.023244,-0.017271,-0.02236,-0.017462,-0.0342,-0.020406,0.021361,-0.031679,-0.01734,0.029075,0.024237,-0.010871,0.00076978,-0.42881,-0.0075286,-0.0046768,0.023374,0.026465,0.044785,0.061769,0.16738,0.20351,0.1159,-0.18556,-0.011033,0.011822,-0.06124,0.018803,-0.057032,-0.038916,0.20797,0.52203,0.081212,1.6604,0.015657,0.52886,0.066527,0.041616,0.028887,0.063068,0.070433,-0.30623,0.11469,-0.65677,0.087392,0.080691,-0.3328,-0.020995,-0.014922,-0.0021496,0.12913,0.0023034,0.01853,0.013252,0.017382,0.0014326,0.0093519,0.00075533,-0.081098,-0.052203,0.18932,-0.0044579,-0.102,0.0058464,0.0087762,0.036137,0.015015,0.37305,-0.0084001,-0.10164,-0.014289,-0.10842,-0.0057511,-0.14677,-0.0068006,-0.25414,-0.033922,-0.013593,-0.054774,-0.084558,0.026036,0.15781,-0.058469,0.038613,-0.020797,0.31617,-0.040673,-0.026128,0.083927,0.44718,0.027067,-0.080389,-0.012812,0.16024,0.30635,0.073877,-0.068897,0.9375,-0.1313,0.56739,0.49637,-0.1248,-0.091451,-0.0077087,-0.17931,-0.13196,-0.20547,0.12931,0.055396,0.0052272,0.03651,-0.00080812,0.040265,0.057763,0.19373,-0.012238,-0.24439,-0.0041651,-0.64261,0.12823,-0.15605,-0.21799,-0.3482,0.17537,0.070196,0.027365,0.047618,-0.065326,0.1595,0.020228,-0.00040551,-0.020482,0.11927,-0.0040848,-0.032156,-0.077574,-0.017439,0.015214,0.029103,0.044063,0.038319,0.065951,-0.019884,0.066905,0.025736,-0.018876,-0.1605,-0.096119,-0.19051,-0.69973,-0.23157,0.0081959,0.038447,-0.010937,-0.017965,0.058214,0.13346,0.23298,-0.1441,-0.069565,-0.37673,-0.27369,-0.0059681,-0.016733,0.034408,0.17044,0.0076648,-0.039879,0.0090613,-0.039873,0.089584,0.18505,-0.032233,-0.066041,-0.00783,0.070727,0.015368,0.21751,0.052009,-0.015675,-0.12978,-0.27237,0.27982,0.071722,0.17728,0.31458,-0.0081853,0.24836,0.16517,0.30054,0.0097172,-0.0069353,0.081004,-0.19464,-0.073021,-0.062201,-0.042623,0.013822,-0.020805,-0.086351,0.36098,0.16419,-0.041129,-0.030717,-0.0346,0.074376,-0.24889,-0.37879,-0.65702,-0.10042,-0.2546,-0.081309,-0.44431,-0.031028,0.070656,0.052422,-0.0075683,0.081921,0.3496,0.034334,-0.044478,0.086979,0.12023,-0.11768,-0.13008,-0.003229,-0.33508,-0.032168,-0.26549,-0.27824,0.062562,0.022151,0.72068,-0.24172,0.0015124,-0.038308,0.01118,-0.019862,0.036606,-0.022021,0.02697,0.025701,-0.052911,0.048203,-0.0033639,-0.0091198,0.015767,-0.013595,-0.03213,0.16498,-0.20535,0.05651,0.029338,-0.12064,0.11054,0.015352,0.071704,0.0013346,0.19326,-0.01208,-0.086319,0.014236,0.022873,0.035284,-0.12827,0.013712,0.011907,0.020182,-0.018847,0.024051,-0.013068,-0.075348,0.0010138,0.038462,0.044118,0.029764,-0.008934,0.011094,-0.030432,0.02336,-0.021419,-0.026537,-0.80903,-0.024167,-0.012245,-0.045267,-0.012806,0.027873,0.0027073,-0.064037,0.082479,-0.22851,-0.16808,-0.33609,0.004524,-0.11168,0.03595,0.021765,0.014646,0.036355,0.037807,0.059621,0.93408,0.0059768,0.25993,0.022792,0.3608,-0.13579,-0.25422,0.0027392,-0.1399,0.016514,-0.28081,0.0096955,-0.045298,-0.18031,-0.067015,-0.1116,-0.0044871,0.1475,-0.025788,0.023951,0.024925,0.033909,-0.0054926,-0.0030695,-0.16745,0.070755,-0.063111,0.056902,0.012711,-0.014327,0.053181,0.12393,0.091539,-0.0096846,0.038656,-0.034836,0.027062,-0.011463,-0.13818,-0.030143,-0.078877,-0.035486,-0.18027,-0.030892,0.0080921,-0.025338,0.016025,-0.0082117,-0.30972,0.77299,0.24979,-0.0021162,0.17922,-0.072884,-0.053405,0.21574,0.01936,0.0050497,0.029006,-0.0062388,0.066986,0.070036,-0.037897,0.34294,-0.013689,0.037113,-1.1554,0.31312,0.067888,-0.22653,-0.2724,-0.016845,-0.17159,-0.23898,0.0035763,-0.016653,0.17384,0.060099,-0.01776,0.001995,0.0058604,0.13359,0.17182,0.12372,0.079799,0.064796,0.088152,-0.26928,0.15431,-0.029663,0.11335,0.0025573,0.051182,0.03238,0.0017771,-0.012041,-0.0030712,0.1037,-0.17496,0.28739,0.039312,0.014324,-0.014907,-0.011886,0.0051955,-0.04705,-0.035366,-0.04211,0.0034038,0.0092953,-0.031823,0.03541,0.058919,0.041277,-0.015574,0.0019594,-0.06823,-0.005086,-0.029685,0.010912,0.035221,0.036723,0.043904,0.10454,0.21135,-0.020192,-0.47278,0.084092,0.049511,-0.074466,-0.020268,0.044547,0.02557,0.044188,0.21163,0.12245,0.074147,0.048862,0.64841,0.097309,0.96879,-0.069756,-0.1306,0.098958,-0.042809,0.020468,-0.2488,0.084227,-0.31142,-0.3871,-0.27937,0.057197,-0.0084861,0.40811,-0.043122,-0.080212,0.040325,0.088046,-0.064005,0.0076086,0.098177,0.26475,-0.073767,0.27686,-0.015819,-0.30649,0.11275,-0.028357,0.089824,0.045854,-0.030197,-0.046513,-0.46665,-0.038056,-0.10212,-0.050722,-0.25922,-0.2006,-0.34276,-0.16999,-0.056543,-0.019322,-0.098579,0.031669,0.28028,-0.41763,0.29105,0.10089,0.5678,0.17414,-0.14324,0.14284,-0.21773,-0.0030608,-0.049666,-0.039909,0.069988,0.059741,-0.17176,0.079043,0.060282,0.25335,0.48529,0.23289,1.7993,0.01653,0.01708,0.037672,-0.0062508,0.01251,-0.013693,0.088954,0.05272,0.040485,1.0738,-0.032816,0.36042,0.063128,-0.037127,0.39581,-0.0067619,0.14777,0.006965,0.041794,0.015597,-0.02143,0.019821,-0.082576,0.20117,-0.0056812,0.2385,0.1578,-0.017344,-0.057987,0.00024757,0.050123,-0.0045088,0.086883,-0.0014325,-0.026417,-0.015463,-0.21734,-0.035608,0.026724,0.069124,-0.10483,-0.0034909,-0.050367,0.077494,0.019126,0.14483,-0.063691,0.2104,0.092595,0.30144,0.065622,0.057233,-0.13602,0.03406,-0.013593,-0.036271,-0.0088419,-0.0053169,0.10716,-0.096624,0.11094,0.0069104,0.050709,0.048573,0.04786,-0.01049,0.11495,-0.0068857,0.013502,0.0010614,0.0014852,0.026534,0.010269,-0.03711,-0.014661,-0.10885,-0.0084066,-0.09838,0.0079118,-0.083977,0.0057975,-0.0092849,-0.051527,-0.14869,0.025001,-0.015287,0.03505,-0.032638,0.0016317,-0.0084326,-0.019686,0.022134,-0.011656,0.0044737,-0.0026621,-0.0072286,-0.032345,-0.060347,-0.014463,-0.0070287,-0.004594,-0.16785,-0.033479,-0.14737,0.00010507,-0.10588,-0.11948,-0.12348,0.039202,-0.029183,0.052759,-0.10356,0.074546,0.023565,-0.058686,0.0045282,-0.0008194,-0.030186,-0.036707,0.099674,-0.007494,-0.00094334,-0.0023836,0.0089331,0.021632,0.23463,-0.047069,0.41598,-0.10201,0.03596,0.15939,-0.022209,0.061014,0.03236,0.027391,0.015442,0.012001,0.023206,0.015484,0.067358,-0.30446,-0.014321,0.0064263,-0.025234,-0.0034834,-0.40848,-0.11427,0.033857,0.05739,0.0011991,-0.059032,0.029883,0.23602,-0.023212,0.050091,0.076111,0.0055573,-0.33715,-0.0065555,-0.021035,-0.021414,0.017771,0.099879,0.01306,0.040708,0.02335,-0.02457,0.12995,0.0019241,-0.27132,-0.046603,0.050069,-0.052634,0.13958,-0.035673,0.003065,0.010423,-0.047295,-0.14907,0.0080563,-0.043411,0.020286,-0.05831,0.039632,0.014463,0.019646,-0.12754,0.011539,-0.042143,0.035972,0.04799,0.081006,-0.16288,-0.17605,-0.086357,-0.030336,-0.089795,0.0087837,0.016181,-0.051373,-0.025112,0.04802,-0.03681,0.33361,-0.10226,-0.076058,-0.10544,-0.0072491,-0.030336,-0.012792,-0.080468,-0.029684,-0.1539,-0.095913,-0.1675,-0.016717,0.0057843,0.079782,-0.03058,-0.018062,-0.081987,0.0074497,0.17178,0.0099569,-0.030611,-0.036701,-0.021648,0.00040405,-0.020806,0.037295,0.074152,0.022761,-0.0079885,-0.070911,-0.0084549,-0.03666,0.011726,-0.12418,0.020469,0.029043,0.22017,-0.0059345,-0.013967,-0.015299,-0.23481,-0.044864,-0.052702,-0.011203,-0.2725,-0.031434,-0.01243,-0.054033,-0.092384,0.054797,-0.076576,-0.015659,-0.022572,0.066191,-0.031566,-0.04227,-0.014455,0.015823,-0.075918,0.11715,-0.35396,0.02744,0.21116,-0.0061714,0.041194,-0.025829,-0.12719,-0.027927,-0.109,0.15618,-0.084643,-0.33563,0.057487,-0.0038728,-0.090023,0.030925,-0.016249,0.0059645,-0.049507,0.0056006,-0.11398,-0.35639,0.1959,0.10081,0.019719,-0.058999,0.013786,-0.0085817,-0.0097157,0.056264,-0.012874,-0.018628,-0.088199,-0.0186,-0.012422,0.0084553,0.032256,0.019118,0.021287,-0.010998,0.033116,-0.023302,0.018584,-0.0085895,-0.1425,-0.044549,-0.034177,-0.085308,-0.2422,0.11346,0.0061715,0.030482,0.037869,-0.048238,0.16972,-0.26423,0.071878,-0.0031059,0.087692,0.010663,0.015661,-0.041492,0.018638,-0.01787,0.022824,0.036298,0.047872,-0.23312,0.049137,-0.030562,-0.0096682,0.17927,-0.062051,0.0060394,-0.019257,0.014249,-0.17026,0.065535,-0.49891,0.19213,-0.066511,-0.2475,0.030374,0.027831,-0.016337,-0.21618,-0.018297,-0.16246,0.03746,0.78762,-0.20055,-0.21817,-0.0015652,-0.020673,-0.17969,0.081693,-0.12946,0.039362,-0.08409,-0.017996,-0.042609,0.0057269,-0.015982,-0.018351,0.075364,-0.052529,-0.012222,-0.011898,-0.069119,-0.027806,-0.025947,-0.012207,-0.078019,0.018041,-0.0048782,0.016962,0.0039225,-0.0061556,-0.01225,0.063313,0.0090438,-0.03477,0.015342,-0.094305,-0.019177,-0.0061118,-0.031219,-0.13481,0.33037,-0.068418,-0.027281,-0.022354,-0.023698,0.0049913,0.031887,-0.030415,-0.00027936,-0.43277,0.23397,-0.37046,0.18013,-0.19219,-0.11664,0.051258,-0.029776,0.17694,-0.049451,-0.13269,-0.035178,-0.1643,-0.17333,-0.12663,0.72504,0.034364,-0.1883,0.17169,-0.04324,0.022595,-0.094645,0.049908,-0.06014,-0.083888,-0.35326,0.27219,-0.0061426,-0.095198,0.01621,0.028734,-0.0079024,0.0082691,-0.06332,-0.033333,-0.072609,-0.044074,-0.027214,-0.059716,-0.0084556,-0.010393,-0.043797,-0.036555,0.015869,-0.081657,-0.021494,-0.0064966,-0.054927,-0.0065052,-0.014358,-0.032099,-0.012034,-0.10318,-0.32016,-1.1111,-0.017368,-0.046973,0.058632,-0.061684,-0.10219,-0.014173,-0.62107,-0.2014,-0.092047,-0.17608,-0.11447,-0.17494,-0.16669,0.20037,0.071294,-0.016639,-0.049869,-0.15958,-0.097502,-0.28139,-0.10656,-0.22874,-0.20562,-0.37694,0.045745,-0.022824,0.027416,0.12196,0.0077096,-0.03787,0.050466,0.0072176,0.035724,0.02843,-0.25608,-0.23111,0.031731,0.14112,0.0032462,-0.074288,0.054009,0.02109,-0.020204,0.24627,0.034368,-0.038996,0.0010401,-0.021268,-0.076626,-0.043266,-0.029893,-0.10124,-0.1024,-0.10988,-0.081899,-0.059479,-0.081916,-0.041768,-0.094608,-0.091043,-0.089004,-0.083961,-0.11161,0.0083784,-0.17376,-0.0042048,-0.15728,0.039628,-0.4083,-0.1108,-0.092705,-0.28079,-0.10279,-0.046084,-0.41926,0.0015076,-0.0444,0.13363,-0.088271,-0.0067557,-0.040465,0.0047396,-0.018539,-0.0093822,-0.0034019,-0.24524,-0.10566,-0.18071,-0.45257,-0.17954,-0.075275,-0.6257,-0.011536,-0.1533,-0.050604,-0.064771,0.02315,-0.071739,-0.057178,-0.13422,0.17505,0.19942,0.17657,-0.029988,0.14913,-0.013093,0.041158,-0.033807,0.0071903,-0.062792,-0.031776,0.1113,0.097508,-0.083051,-0.049937,0.032777,0.01823,0.0093289,-0.076573,0.019811,0.018966,-0.0079262,0.0038068,-0.0099307,0.0063705,0.0384,0.064001,0.01087,0.0054148,0.028043,-0.0083919,-0.034797,-0.016906,-0.066126,-0.0036398,-0.0019538,-0.02481,-0.036273,0.11776,0.046394,0.04087,0.19274,-0.052136,-0.045666,-0.00092029,-0.020358,0.027756,0.12377,0.0067799,-0.014223,-0.070277,0.06795,0.13442,0.044496,0.055464,0.061216,-0.099294,0.06955,-0.013539,-0.04466,0.53255,-0.075683,0.030107,-0.032333,-0.032126,0.029372,-0.0423,-0.25546,0.060651,-0.15189,-0.26132,0.013441,0.040994,-0.024296,0.025161,-0.053078,-0.18803,-0.072247,0.11369,-0.14384,-0.42445,0.002915,0.0031644,-0.3073,-0.027431,-0.064799,0.018685,-0.018326,-0.00065813,-0.0036387,-0.023869,0.0072974,1.3828e-05,0.035815,-0.063259,0.0023738,-0.016858,0.001151,0.0045506,0.0065317,-0.0043214,0.032158,0.033908,-0.0058113,-0.037681,-0.0029076,-0.016273,-0.010823,0.0851,0.010068,-0.020123,-0.0023246,0.054996,-0.021441,0.023004,0.029336,-0.10319,0.067692,-0.055617,-0.0082937,-0.021111,0.063505,-0.035953,-0.039747,-0.021954,-0.01228,-0.24168,0.054564,-0.31125,-0.10409,0.10093,-0.048539,0.82672,-0.051566,-0.19967,-0.027105,-0.13406,-0.004269,-0.31794,-0.30491,0.02429,-0.27575,0.27062,0.1431,-0.026157,-0.1963,-0.044684,-0.022903,0.018238,-0.13203,-0.018619,-0.077114,-0.055672,0.13895,0.070079,0.0037416,-0.03995,0.03232,0.014286,-0.045641,0.026691,0.002853,-0.026603,-0.059923,-0.033798,-0.016668,-0.016664,0.028078,0.014217,0.0063041,-0.011942,0.011009,-0.012352,-0.015904,0.017244,-0.087329,-0.0015742,-0.010793,-0.010762,0.016501,0.08619,0.039624,0.1221,-0.00068566,-0.049429,0.047432,0.062887,-0.017008,0.025825,0.0024178,0.017974,-0.019057,-0.063874,0.036175,0.0026486,-0.0099535,-0.028827,0.079748,0.018127,0.010168,0.11795,-0.14412,-0.68304,-0.32639,-0.0038052,0.097027,-0.054761,-0.043458,0.10473,0.035502,-0.035282,0.037767,-0.1632,0.018773,-0.016198,-0.011867,-0.069802,-0.093151,-0.49578,-0.049051,-0.074336,0.023832,-0.217,0.037123,-0.023658,-0.30811,-0.014489,-0.028643,-0.0045344,-0.0070946,-0.014077,-0.067095,-0.023028,-0.020149,-0.035298,0.087964,-0.32711,-0.013592,-0.041593,-0.34495,-0.020241,-0.051914,-0.055039,-0.1584,-0.01145,-0.039552,0.035877,0.00026589,-0.04695,-0.035297,-0.00086107,-0.068494,-0.056106,-0.033428,-0.22646,-0.049072,-0.010708,-0.13274,-0.025223,-0.0074774,-0.00025232,-0.037242,-0.089672,-0.046481,-0.020543,-0.051172,-0.045838,-0.00087366,-0.43489,0.16435,-0.51126,0.18952,0.0424,0.23041,0.46696,-0.083128,-0.346,-0.14587,-1.4989,0.47722,-0.38688,-0.13257,0.078841,-0.14117,0.024315,0.83423,-0.010136,-1.0461,-0.11863,-0.027089,-0.12127,-0.0046814,-0.094654,-0.032007,-0.13037,-0.093811,0.065534,0.036138,0.014468,-0.034773,0.037095,-0.1193,-0.0061624,-0.0025975,-0.10576,-0.023989,-0.193,-0.055778,-0.094014,-0.053544,-0.03575,-0.15479,-0.1221,-0.025882,-0.015696,-0.1368,-0.029962,0.016532,0.26145,-0.029862,-0.058004,-0.061847,0.047229,-0.036695,-0.037619,-0.33616,-0.044294,-0.27936,-0.033608,-0.15778,0.017218,-0.043953,0.015583,-0.038555,-0.092309,-0.26301,-0.13095,-0.22758,-0.043537,0.036396,0.024669,0.11685,0.026662,-2.0093e-05,0.47714,-0.28681,-0.15836,0.01073,-0.15678,-0.25642,-0.018579,0.03312,-0.016642,-0.12137,0.0045597,-0.054296,0.045378,0.027963,-0.0019222,0.008398,0.0031288,-0.013496,0.16094,-0.028821,-0.027731,-0.0059863,-0.00026669,0.033556,0.030397,-0.13899,-0.30219,-0.024241,-0.043406,-0.051451,-0.10992,-0.081946,-0.059241,-0.17625,-0.0077453,-0.02375,-0.019837,-0.12798,0.032025,-0.072481,-0.15515,-0.054042,-0.066682,-0.36788,-0.06451,-0.0053457,-0.42372,-0.026809,-0.29917,-0.024372,-0.11606,-0.46508,-0.22638,-0.15392,-0.20657,-0.077699,-0.04724,-0.014035,-0.020298,-0.016281,-0.0233,-0.035681,0.0077034,-0.039173,-0.059911,-0.016749,-0.0093891,0.3393,-0.15303,0.2415,-0.41162,-0.45673,0.60764,0.36796,-0.049177,-0.026586,-0.14017,-0.023106,-0.57937,-0.056523,-0.16168,0.0041452,0.11971,0.0018985,-0.13616,0.032228,-0.014884,-0.22546,-0.024978,-0.018294,-0.015314,-0.00986,-0.10698,0.02247,-0.038024,0.081096,0.054274,0.010154,0.010497,-0.050083,-0.084991,-0.10559,0.05276,-0.10733,-0.048799,-0.05528,-0.063552,-0.0030927,-0.099806,0.059319,0.0065668,-0.13543,-0.0037202,-0.019157,0.022421,0.010835,0.07933,-0.056941,-0.13293,-0.045979,0.083823,-0.083715,0.014723,-0.0037505,-0.014498,-0.06576,-0.02221,-0.12816,0.0020521,-0.10094,0.063643,-0.041955,0.04623,-0.007253,-0.0085915,-0.2509,-0.020292,-0.013108,0.10179,0.0055961,0.069872,-0.02086,0.047815,0.018557,0.080293,-0.10024,-0.16017,0.024154,-0.077215,-0.10884,0.020314,0.094977,0.010285,-0.052702,-0.068916,-0.16868,0.012458,0.053503,0.021731,-0.0040173,-0.024801,-0.10315,-0.08281,0.11788,-0.015183,-0.22106,0.11829,0.0048032,-0.10697,-0.14,-0.23251,0.03293,0.051034,-0.0026354,0.029887,-0.040242,-0.047972,0.025653,0.011417,-0.067605,0.022612,-0.020902,-0.0084101,-0.013802,-0.080115,0.011023,-0.088807,-0.1889,-0.05057,0.34022,-0.10055,-0.032062,-0.12045,-0.15065,-0.058482,-0.17616,-0.089043,-0.098082,-0.09368,-0.034859,0.062825,-0.029648,-0.083767,0.027706,-0.0098712,-0.035154,-0.032573,-0.014028,-0.045092,0.00929,0.023596,0.23574,-0.042975,0.12763,-0.13595,0.51642,-0.11829,0.0016079,-0.063948,0.024489,-0.08795,-0.026487,-0.37982,-0.013015,0.0023218,0.043121,0.19018,-0.027176,-0.11434,0.066985,-0.023254,-0.55297,3.4113e-05,-0.016221,0.56261,-0.0031961,0.0022639,-0.0059902,-0.024387,-0.073879,-0.30965,0.055981,0.10119,0.0033812,-0.050202,0.091513,0.10542,0.076612,0.061824,0.043796,0.019812,-0.1059,-0.032072,-0.019506,0.11129,0.011914,0.14219,0.019589,0.031604,0.10424,-0.054686,0.037844,0.037387,-0.023193,0.023568,0.014537,-0.050283,0.0032929,-0.20775,-0.12755,0.60388,0.10888,0.070291,0.046202,-0.12236,0.046708,-0.013219,0.11979,-0.16965,-0.022155,0.013675,-0.0059472,-0.014757,-0.010569,0.015857,0.0039241,-0.092574,-0.074185,0.019779,-0.071212,0.046027,0.060838,0.0059128,-0.0034768,-0.0026754,0.019099,0.13328,-0.071473,-0.027677,0.01183,0.06976,0.056492,0.11505,0.058052,-0.06801,-0.28005,-0.5817,-0.090993,0.14811,-0.049856,0.1967,-0.01079,-0.015214,0.36729,-0.0094478,0.17852,-0.0033552,0.035576,-0.015222,-0.10158,-0.18346,-0.010737,-0.082611,-0.16298,-0.13272,-0.013714,-0.21855,0.06226,-0.025762,-0.44936,-0.20822,-0.36818,0.2299,-0.14466,-0.24689,-0.33773,0.0038882,0.0094026,-0.1254,0.32943,-0.12713,-0.038417,-0.70204,-0.072821,-0.01316,0.0082483,0.029966,-0.03696,-0.01775,0.033412,-0.04504,0.072665,0.0081863,0.090376,0.0098745,-0.059258,0.1507,-0.14873,-0.067014,0.088566,0.10166,0.36456,-0.12422,0.096163,-0.0015403,0.044674,0.25764,-0.0037578,0.002454,-0.19817,0.015947,-0.0078793,0.24332,-0.15486,0.025277,-0.081632,-0.038432,-0.023279,-0.22275,-0.34553,-0.20379,-0.05689,-0.093057,-0.3321,0.087857,-0.036599,-0.16922,0.0039586,0.037779,-0.0057515,-0.04513,-0.0074587,-0.12381,-0.40037,-0.18179,-0.14416,0.18467,-0.055512,-0.18703,-0.08021,-0.018589,-0.013962,-0.068826,0.00028086,-0.060025,-0.0029417,0.05081,-0.041988,-0.096489,-0.10355,-0.058947,-0.053472,-0.030339,-0.066489,-0.038626,-0.07032,-0.08141,0.035509,-0.022975,-0.021951,-0.043635,-0.017168,-0.013258,0.015237,-0.031927,0.012906,-0.082629,-0.061612,-0.057287,-0.034732,-0.014818,0.0045633,-0.027321,-0.020306,-0.058674,-0.14367,-0.082622,-0.22049,-0.055788,-0.068444,-0.1391,-0.051294,-0.061037,-0.064882,-0.025891,-0.034114,0.0060698,-0.044268,0.016873,-0.014453,-0.009349,-0.067713,-0.022766,-0.022125,0.14253,-0.042526,-0.036802,-0.059728,-0.16087,-0.0071771,-0.11534,0.32993,-0.030246,0.020762,0.054283,-0.096237,-0.083596,-0.075743,-0.026086,-0.018704,-0.14046,-0.29567,-0.050349,-0.11351,-0.045641,