-0.026016,-0.0060767,-0.011223,-0.028964,-0.0052577,-0.0012706,-0.022215,0.0029271,0.01116,-0.00040674,0.078002,0.040287,-0.014238,0.019396,-0.0089484,-0.024968,-0.0097164,-0.016539,-0.073839,-0.014406,0.04254,-0.019676,-0.035228,-0.014274,0.0024012,-0.0041391,0.0078583,-0.0033353,0.0057479,-0.0026728,-0.012281,0.0050157,0.0053961,0.0055518,0.0064102,-0.1068,0.0013964,-0.0011669,0.01902,0.00029468,0.0014244,0.014595,0.0022188,0.0022659,0.0021824,-0.0065937,-0.004232,0.0075793,-0.0045811,-0.013294,0.034875,-0.0062433,-0.016906,-0.0069607,-0.013249,0.013844,0.0049865,-0.0025287,-0.0011877,-0.0021219,-0.0021008,-0.005009,0.002256,0.0011635,0.038063,-0.042328,-0.030522,0.01404,0.0098955,-0.0080799,-0.0052561,-0.0080935,0.00509,-0.033327,-0.021668,-2.2334e-05,-0.032926,0.00037716,0.019059,0.032511,0.0080069,-0.0014544,-9.0602e-06,-0.023449,-0.0011168,-0.0021062,-0.012532,-0.037438,0.00016652,-0.080939,0.010577,0.0048896,0.014977,0.026034,-0.0052443,0.011542,0.011889,-0.0022651,-0.024104,-0.01782,0.012942,-0.074199,-0.015737,0.076766,0.15521,0.0017633,-0.0037441,0.0012875,0.011701,-0.0044051,-0.014292,-0.0070544,-0.009758,-0.0056359,0.0042552,0.0015331,0.0001717,-0.0030548,0.0049148,0.014138,0.0019271,-0.037822,0.01293,-0.022137,-0.026695,-0.026644,-0.013097,-0.059306,-0.10949,-0.019765,-0.05721,0.0010694,0.01072,0.0086691,-0.00029727,-0.015524,-0.018082,-0.06908,-0.0057517,-0.12361,0.014782,0.12947,-0.026707,0.011702,-0.0073577,0.0088185,0.0047718,0.0056947,-0.0093099,0.028875,0.0020652,0.011739,0.0085718,-0.0083034,-0.0062535,-0.0023638,0.0061143,-0.00065386,-0.008064,0.0081516,0.0012608,0.014789,-0.0045874,0.040506,-0.0015394,0.010836,0.03719,0.043209,0.0059656,-0.021831,0.024378,-0.0022444,-0.1522,0.00063072,-0.02243,-0.0097578,-0.0083955,-0.019631,-0.086875,-0.048022,0.0018147,0.013061,0.00047493,-0.0034391,0.012983,0.025574,-0.0078792,-0.012098,-0.053562,0.0092046,-0.014787,-0.0083104,-0.0042544,-0.058,-0.055271,0.027877,-0.20079,0.0061107,-0.014405,0.0038879,0.01402,0.0026142,-0.0034179,0.0071275,0.0031331,-0.081713,-0.0011005,0.04371,0.081564,-0.013857,-0.0077327,-0.0040451,0.0095856,0.028532,-0.011166,-0.0020682,-0.023805,0.0084463,-0.011651,0.0095129,-0.019044,-0.0032773,0.0026632,-0.0044817,-0.0020824,0.017834,0.0013507,0.025226,-0.219,0.04654,0.037172,-0.034616,-0.013873,-0.0045246,-0.09394,-0.0038562,0.12007,-0.10546,9.2354e-05,0.0020245,0.007759,0.0036917,0.0025206,-0.001218,0.00071465,0.0057551,0.019962,0.0045823,0.1183,0.014574,-0.025296,0.10801,0.053564,0.021545,0.00041364,-0.00016004,0.0018397,0.001045,0.0055947,0.00060961,-0.0016635,-0.0015374,-0.012345,-0.0012495,-0.11732,0.0019938,-0.0023137,0.032848,0.0031851,-0.0017307,0.043712,9.5094e-05,-0.0015147,0.0034988,0.0028451,0.03495,0.033455,0.038181,-0.018154,-0.013232,-0.014086,0.062401,0.0036015,-0.031346,-0.054027,0.00165,-0.027625,0.0072198,-0.021395,0.022932,0.030362,0.049704,-0.018671,-0.0016063,0.073626,0.070842,-0.016139,-0.033117,0.00092613,0.0017899,-0.036883,-0.011078,-0.0010623,-0.0099056,-0.00026916,0.0057299,-0.014836,-0.0034414,-0.0086146,0.0023266,-0.0066871,0.059437,-0.0017862,0.019157,-0.00067805,0.00084191,-0.0044778,0.031836,-0.0020845,0.0079943,0.012957,0.010453,0.031423,-0.031812,0.00094032,0.011879,0.0099915,0.0069452,-0.025642,-0.060658,0.061433,0.020683,0.0070682,0.0069572,-0.015857,0.03352,-0.031257,-0.0015606,0.17858,0.010184,0.037878,0.016323,0.0013768,-0.11799,0.048028,-0.016941,-0.030363,0.0090234,-0.001046,-0.015435,0.002798,-0.0020607,-0.0086863,0.027707,0.0064545,0.017015,0.0066467,0.010467,0.0035557,0.0047487,0.039741,-0.0045729,-0.0062215,0.0055635,0.0015246,0.0049882,0.0012051,-0.0027098,0.069093,0.0025473,-0.0071601,0.027527,0.070404,0.04521,0.017167,0.013364,0.00085083,0.01156,-0.010311,0.005855,0.014177,-0.069673,-0.0050728,-0.0085534,-0.008595,-0.020573,-0.018872,0.0029572,0.014481,-0.0036006,-0.0025335,0.0018207,0.002631,0.0081402,0.0025908,0.08041,0.036458,-0.039483,-0.083716,0.019648,0.018238,0.0048057,0.011751,-0.0044274,0.019915,0.0087475,0.0098517,0.0026963,0.0019641,0.0016929,-0.0069809,-0.015357,-0.0047446,0.062658,0.0032875,-0.007658,-0.040047,-0.0083531,-0.076266,-0.010845,0.0092451,-0.0045443,-0.078178,0.0023281,0.0031849,-0.018764,-0.0021496,0.0041979,0.0034354,-0.0044725,-0.035477,-0.0054399,-0.0080958,0.0055534,-0.0001457,-0.089032,-0.0111,0.014422,-0.0068968,-0.0039208,-0.017238,0.00058482,-0.010993,-0.017545,0.010176,-0.0020639,0.0015111,0.0065262,0.061438,0.0051695,-0.014029,-0.040378,-0.019709,-0.0012953,0.021008,0.0036199,-0.0012985,0.001188,0.0024934,0.093557,0.001513,0.018337,0.009528,-0.0060239,-0.028089,0.0018773,-0.0067008,0.023564,-0.059405,0.0022336,-0.0095553,0.008715,0.071334,0.0056236,0.025324,-0.087324,0.0011039,0.023618,0.049435,0.025846,-0.0087348,-0.082739,-0.075458,-0.021767,-0.049484,0.0018178,-0.070568,-0.002982,-0.010095,-0.017843,-0.0087124,-0.0055867,-0.014854,-0.0066538,0.025382,0.011827,-0.022934,-0.001994,0.0017122,-0.0056101,-0.0052723,-0.0074228,0.0046732,-0.036165,-0.086568,0.012698,-0.037802,0.00078742,0.18826,0.037177,0.014205,-0.0036027,0.0048204,-0.00084712,0.01334,0.0029469,-0.001156,-0.0035657,0.0043659,0.0005196,-0.012291,0.0047209,-0.052173,0.014146,0.0012728,-0.019934,0.054252,-0.011228,-0.0073259,-0.023124,0.0033496,-0.0018048,-0.008905,-0.00095907,0.0039579,0.024543,-0.013962,0.004569,-0.036101,-0.0039642,0.072656,0.004246,0.029246,0.0015122,0.058674,0.00023384,-0.0047818,0.00087078,0.0036918,0.0026157,-0.00037893,0.0015702,0.022656,-0.0036119,-0.011904,0.0010383,-0.0025422,0.042262,-0.003004,-0.01978,-0.0042608,-0.017414,0.0050689,-0.016035,-0.0093956,-0.0090801,0.0048821,-0.003684,-0.0061173,-0.047672,-0.0021687,-0.021738,0.0014191,0.035947,-0.030575,-0.016829,0.003037,-0.017168,-0.0034297,0.05941,0.0032089,0.010565,-0.00054009,0.0050065,0.0029077,-0.04814,0.0063659,-0.0024326,0.020762,0.017227,0.00063683,-0.036513,-0.0048117,0.057603,0.010658,-0.062329,0.0056068,0.010762,0.0054135,0.010406,0.0058357,-0.0025062,0.051547,-6.3685e-05,-0.023318,-0.017412,0.0029832,-0.0053699,0.021255,-0.053473,0.0048805,0.0096703,0.0021912,-0.0072021,0.0023547,0.004356,-0.0075821,0.0033762,-0.0017613,0.015075,0.0006159,-0.0052297,0.0011508,-0.0028112,0.045539,-0.026623,-0.15072,-0.012023,0.14831,-0.028012,-0.00083371,0.0071813,0.0022195,-0.0017746,-0.0025873,0.0054272,-0.0073485,0.0049663,-0.0045149,0.025745,-0.012881,-0.015181,-0.0039369,-0.094285,-0.0019287,0.0088135,-0.0042601,0.017373,-0.0029402,-0.0019341,0.0032203,-0.022234,0.0050642,0.010504,0.0053443,0.026997,-0.01956,-0.044947,0.0046875,-0.0016113,-0.0029305,-0.018724,-0.0062999,0.0047255,-0.0019957,0.0055749,-0.0051408,-0.011812,-0.027657,-0.012725,-0.0042503,0.039693,-0.036334,0.0042009,-0.01072,0.013101,-0.016068,-0.0031587,-0.016083,-0.061124,-0.051671,0.0051485,-0.010681,-0.0027186,-0.01069,-0.0086896,-0.0042273,-0.027032,0.007199,0.021076,0.033336,0.026423,-0.013935,0.0024899,-0.0054529,-0.010107,-0.041205,-0.017697,0.0037691,-0.008696,-0.0076539,-0.011008,-0.085905,-0.0093521,0.048229,0.015973,-0.016553,-0.0014111,-0.037305,-0.019905,0.0032468,0.0068561,-0.013224,0.0064795,-0.012085,-0.021866,-0.059375,-0.030345,-0.0066018,-0.011375,-0.024188,0.0023126,-0.029558,-0.029534,-0.036053,-0.0050905,-0.015592,0.0051395,0.0042022,-0.00831,0.0017472,-0.0070701,0.0032579,-0.013236,0.0067628,0.0050791,0.0074325,-0.0057333,0.0033778,-0.0032275,-0.084366,-0.034447,-0.01268,0.0054407,-0.00073414,0.0098966,0.00026799,0.00037566,0.0021513,-0.038344,-0.010789,0.016674,-0.00088879,-0.014073,0.0085502,-0.023719,-0.0023578,0.01874,-0.0092057,-0.0038227,-0.016941,-0.0016263,0.0033438,0.002948,-0.0057103,-0.022485,-0.0073133,-0.00097745,-0.024972,0.0023231,-0.0063105,0.0031775,-0.030328,-0.016271,0.020415,-0.03437,0.0060088,-0.0076276,-0.0030063,-0.028313,0.0017928,0.0079479,0.0019019,0.0086605,-0.0026228,-0.018784,0.004377,0.023552,-0.014268,0.033688,-0.027179,-0.0028298,0.0021126,0.011971,-0.015926,-0.0031942,0.021967,0.013151,0.022666,-0.003367,-0.00084104,-0.0018811,0.0095698,0.005534,-0.003986,-0.0012586,0.024558,-0.028173,0.0065426,-0.0055316,-0.0082849,-0.0054086,-0.013246,0.027158,0.024559,0.015972,0.0091776,0.010749,-0.0012534,-0.00839,-0.012243,-0.0014088,0.0044596,-0.00050939,-0.0050128,-0.0020215,-0.0072317,0.015276,-0.02396,0.0022744,0.035273,-0.0052151,-0.020568,0.0096535,-0.012127,0.003841,-0.025388,0.006544,0.0054018,0.0030237,0.0050671,0.024568,0.0079023,-0.010378,-0.0016711,8.4672e-05,0.011502,-0.024003,0.0012634,-0.0081969,0.00016104,-0.015958,-0.0042399,-0.0078523,-0.013315,-0.010087,0.010832,-0.0040274,-0.003711,-0.15848,-0.015138,-0.0051807,-0.016528,0.0084015,-0.014519,-0.0082139,0.00062261,0.005698,-0.0097014,0.013167,-0.011488,0.0045506,-0.0044292,-0.029892,-0.0032306,-0.017624,-0.0087218,0.014146,-0.0069851,-0.04407,0.016946,0.0068666,-0.0037089,0.0002186,0.01843,-0.03076,0.0066103,0.0031835,0.013277,-0.024902,0.032005,0.025969,0.0086134,-0.02458,-0.010094,0.03397,-0.024155,0.0071216,-0.018438,-0.0045527,-0.017432,-0.063799,-0.018571,-0.0094658,0.0049675,0.010453,-0.0073559,-0.0082153,-0.0078158,-0.0069037,0.041516,-0.019556,0.016439,0.030779,-0.0041284,0.021585,-0.00020327,0.0041929,-0.0066473,-0.022858,0.00078587,0.011268,-0.015931,-0.005297,0.029597,0.0067523,4.244e-05,0.011202,-0.0037475,0.026327,-0.01188,-0.0023506,-0.008207,0.026189,-0.030626,0.01291,0.012104,-0.025049,-0.015233,-0.014061,-0.027708,-0.0094968,-0.0030678,0.018567,-0.0017049,0.051881,-0.014654,0.018171,-0.0061916,-0.0090485,-0.0026083,-0.0086409,0.0030738,-0.079209,-0.034718,0.022615,0.010813,-0.01185,0.060418,0.0093676,0.0035288,-0.00094382,-0.058728,0.0031174,0.0039005,-0.015346,-0.0042242,0.0037062,0.0042687,0.002211,-0.036548,-0.0037748,0.0073618,-0.004208,-0.0034072,0.03829,0.032103,0.01992,0.12123,0.022364,0.058645,0.051755,0.016309,0.0036408,-0.017094,-0.03257,0.1078,-0.035805,0.048504,0.014744,-0.0025482,-0.0039569,-0.0020627,0.0022931,-0.015741,8.269e-05,0.0068244,0.003608,0.0036427,0.01275,-0.02798,-0.0044099,0.0004516,0.021061,-0.0017701,0.0054887,-0.0038455,-0.00052353,-0.00012183,-0.0066101,0.0094957,0.00065525,0.019692,-0.007439,-0.0031503,-0.00033601,0.005305,0.030835,0.018026,-0.0049276,-0.0019334,-0.0061345,0.0033911,-0.0018633,0.0019808,-0.0031607,-0.018223,0.037895,0.01936,-0.0030918,0.022663,0.031175,-0.00038341,0.029004,0.013111,-0.008697,-0.001897,0.019905,0.025018,-0.0020507,0.0073652,-0.000708,-0.033102,-0.006132,0.027656,0.0071479,0.00098087,-0.015026,0.0010103,-0.0075009,-0.0020568,0.010095,0.051323,0.0045428,0.012951,0.014342,0.098449,0.059277,0.0039535,-0.0037178,-0.012848,0.0042388,0.023932,-0.023607,0.0049033,-0.0086779,0.017042,-0.01002,-0.00059282,-0.0030201,-0.00032344,-0.044269,0.032445,-0.035944,-0.010275,0.01037,0.0054714,-0.019457,0.051142,-0.0031677,-0.015321,0.009902,-0.0069141,-0.00083494,-0.044654,-0.0003669,0.027726,-0.030795,-0.01764,-0.0047164,-0.0072663,0.013776,0.031065,0.0033426,-0.012713,0.013922,-0.0039972,0.0014242,0.049903,-0.0028239,-0.063493,-0.0065649,0.00089299,0.010087,0.045438,0.0019584,-0.054756,-7.7634e-05,-0.015804,0.0081116,-0.0036427,0.0046312,-0.055933,0.0025941,0.0039536,-0.0062318,0.0048946,0.023828,-0.047376,0.022794,-0.0038736,0.0010646,0.010066,0.0064029,-0.0027963,0.0011854,-0.00076443,-0.0031693,0.05493,0.032438,0.012501,-0.022337,-8.0338e-05,0.01591,0.021016,-0.0051192,-0.013909,0.0074679,-0.0049112,0.0032119,0.0075367,0.10565,-0.011735,0.045206,-0.048834,0.028746,-0.057658,0.066823,-0.034072,-0.026004,-0.034531,0.0013039,0.03729,-0.0027665,0.026937,0.0027058,-0.0057878,0.032332,-0.017658,-0.043925,0.011245,0.0027875,0.0046943,0.022873,0.0019681,0.020709,-0.021426,0.0077638,-0.0037619,-0.0043665,-0.022932,0.0094804,0.0014804,-0.0057235,-0.001414,-0.031009,0.017998,-0.0050375,0.0018575,0.00029446,0.0042898,0.0050154,0.0029171,-0.00078332,0.0035127,-0.047383,-0.035684,0.014826,0.00081435,-0.035854,0.00084641,0.007819,-0.00053909,0.024912,0.0021401,0.0030117,0.028759,0.0037963,0.059866,0.15471,0.0049678,-0.025374,-0.0051936,0.019118,0.034056,0.00040487,0.001402,-0.0039955,0.0062521,0.0018007,0.0055969,0.0036736,0.10267,0.023452,-0.0011606,-0.0034049,0.011769,-0.0088003,0.0041268,0.0050498,0.030968,-0.016457,0.030525,0.061991,0.0025789,-0.12943,0.0012432,-0.0032746,-0.034121,-0.0019472,0.038874,0.031287,-0.022066,-0.013457,0.0071826,0.0047415,-0.0028283,-0.00046286,0.056512,0.0033295,0.085149,0.0046852,-0.010423,0.018609,0.0085219,0.081233,-0.010957,0.039204,0.025495,0.021905,0.009753,0.026825,0.014538,0.023086,-0.0086208,0.0069723,-0.018332,-0.0060752,-0.00060605,0.0052934,-0.00045033,0.0079545,-0.028966,-0.010426,-0.016081,0.066963,-0.00044967,0.021313,-0.0071089,0.0060541,-0.00727,-0.040027,-0.073048,-0.034804,0.075497,-0.0038391,-0.0029186,-0.0027527,0.069458,-0.00073687,0.0052403,0.04136,0.0089609,-0.0013029,-0.015706,-0.004504,-0.0087624,-0.0024549,-0.010108,0.0053716,0.020195,0.0039057,0.018711,0.011071,-0.01369,0.012704,0.036686,0.020346,-0.0040302,0.0074646,-0.0070953,-0.014225,0.051157,0.022101,0.0049182,0.0084787,0.0040651,-0.0032742,0.0052013,-0.0058094,0.008544,0.056158,-0.084901,-0.03638,-0.0074663,0.0022434,0.0019517,0.010618,0.0053092,0.0050571,-0.011592,0.066024,0.087642,0.028499,0.0082618,-0.035315,-0.0021736,0.0021862,0.0081064,-0.0057256,-0.0031583,-0.0052475,-0.011175,0.0084807,-0.0020766,0.020563,-0.045963,-0.047346,-0.0020083,-0.22062,-0.011518,-0.00074871,-4.4644e-05,0.0063122,-0.01671,-0.018579,-0.0036717,-0.044005,0.0042255,0.011772,-0.0015515,-0.0070841,-0.039034,0.014267,0.0048969,0.0033585,0.0035354,0.002374,-0.0028977,0.0038462,-0.0019727,0.0036507,0.0091451,0.01338,-0.00098872,-0.0010227,0.029944,0.0022507,-0.0073418,0.01897,-0.0017121,0.0096599,-0.10591,0.028505,-0.0078382,0.052292,-0.00087686,0.0001687,0.0049985,0.0017072,0.0065717,0.015671,0.0033625,0.02233,0.0058632,0.021866,0.01698,0.01976,0.16268,0.021411,0.0029819,0.025544,0.0073559,0.011387,0.017447,0.004578,0.067948,-0.016781,0.016451,0.025752,0.01454,-0.00036166,0.0026542,-0.0049001,0.034956,0.044269,0.016447,0.0053191,0.006078,0.0099827,0.0026885,0.0032899,0.0070449,-0.0072839,-0.00065524,0.0093128,-0.0012258,-0.0021553,0.054241,0.032968,0.027643,0.060511,0.0020788,-0.021902,0.040198,0.0024587,0.0032581,-0.0071597,0.00032707,0.0028661,-0.0033332,-0.0017928,-0.0054142,0.015811,-0.035865,-0.0029583,0.003208,0.014868,-0.013988,-0.0080692,-0.0045443,0.0013511,0.007719,-0.010458,-0.033986,-0.031553,0.0027777,0.0044942,8.4347e-05,-0.0026409,-0.030641,0.011327,-0.011498,0.0023728,-0.0018046,-0.027359,-0.0040057,0.023536,0.04657,-0.0037598,-0.0092552,0.014405,0.010663,-0.0083309,0.0091274,-0.051631,-0.030148,0.0117,-0.0066168,-0.0037341,-0.015887,0.019827,-0.011018,0.019965,-0.018098,-0.017129,0.0015597,1.3654e-05,0.0016956,0.0062347,0.008915,-0.0013092,-0.00041044,-0.0021529,0.01171,-0.0086791,-0.012859,-0.01178,-0.002644,-0.024893,0.0027207,0.0059292,-0.019868,-0.017601,0.031159,0.00045807,0.0018846,-0.0063567,0.023969,0.011093,-0.0044982,0.011086,0.0048649,-0.0029578,-0.0036366,-0.0005118,0.00047381,-0.0016356,0.0014449,-0.01088,-0.0010769,-0.00081732,0.015415,0.0028357,-0.010341,-0.018544,-0.0045679,-0.0025595,-0.0016619,0.004074,-0.0094977,-0.0032199,0.0006734,0.00032234,-0.0094073,0.012791,0.0016233,0.018418,-0.014545,-0.020847,0.010127,0.0047509,0.0019765,-0.016622,0.016871,-0.0057718,0.0028969,-9.1564e-05,0.0266,0.030211,-0.012844,0.0069492,0.01691,0.0010588,0.0044478,-0.016438,-0.001879,0.0098695,0.023082,0.024789,-0.010994,0.0011268,-0.0066896,-0.0033985,-0.00017662,0.001963,-0.014362,-0.0036843,0.016269,0.0034308,0.0030061,-0.0026295,0.00035579,-0.0012343,0.010311,-0.005983,0.010352,0.036077,-0.00099649,-0.0069206,-0.021782,-0.0032091,0.0063433,-0.006582,-0.053145,0.025274,0.0018163,-0.0042547,-0.0028153,-0.024168,0.012703,-0.015622,-0.0082401,-0.022181,-0.016054,0.014703,0.00025,0.00084774,-0.010489,0.0079082,-0.005098,0.0027144,-0.00457,0.0035182,0.026106,0.0084449,-0.010509,0.010358,0.00096975,-0.00019535,-0.016947,0.039926,-0.11215,-0.0017675,0.0083894,0.0012649,0.0062938,0.0020473,-0.0011788,0.0010417,0.0029176,0.030828,-0.012178,0.049081,-0.075321,0.0041436,0.0080507,-0.019718,0.033374,0.0079772,0.032133,-0.0028034,0.031836,0.0017828,-0.013167,-0.0070253,-0.014381,-0.087728,-0.004147,-0.0069401,-0.0068958,-0.010111,0.0061691,-0.029575,-0.081824,0.0047217,-0.0064547,0.002693,0.0099693,-0.035378,0.011255,-0.00059635,-0.00074343,0.020415,0.21076,0.007136,0.032587,0.032368,-0.0037945,0.0079985,-0.0019169,0.0011262,-0.0061374,-0.0063081,-0.030354,0.0038045,-0.010957,-0.030352,-0.027567,-0.0019276,0.0095833,0.0070829,-0.0048938,0.0089516,0.0012097,-0.01378,0.0053784,-0.0025247,0.0055528,0.0070583,-0.018181,0.0019855,-7.3885e-05,-0.0068021,-0.0018729,-0.0026262,-0.0016973,0.0020673,0.0011322,0.0029397,0.0043566,0.0038296,-0.0053865,0.0034915,0.011352,-0.0023438,-0.0092698,0.0045962,0.0057983,0.00109,-0.024577,0.046465,-0.040238,-0.0033022,-0.0051575,0.01234,0.0059655,0.0035063,-0.0029334,0.0039212,-0.0078383,-0.022592,0.0039135,-0.020492,0.0064353,-0.0037597,0.00081975,-0.0066773,-0.00924,-0.014384,-0.0010096,0.010152,-0.010181,-0.044466,-0.027692,-0.046395,-0.040636,0.0036508,-0.02012,0.0032613,-0.00010682,-0.0012131,0.0018138,-0.0037368,-0.013701,0.013841,0.017024,-0.0594,-0.050462,-0.05108,-0.021169,-0.013039,-0.0044793,0.0062772,0.0041577,0.047984,-0.00069062,0.025002,-1.8777e-05,-0.0078709,0.0025133,-0.0023521,-0.038711,0.0041938,-0.0046159,-0.010289,-0.0090075,-0.0011729,-0.030973,0.0020557,-0.0040725,-0.0054839,-0.00048912,-0.0030668,0.0042643,4.0866e-05,-0.0013795,-0.0071058,-0.0067666,0.039067,0.0040923,-0.055129,0.023842,0.00011473,0.00081892,-0.0052558,0.010905,0.0059089,-0.081052,0.01211,0.0047371,0.00095951,-0.0040346,-0.0031444,-0.0053685,0.095604,0.0062326,-0.0056664,-0.0024085,0.025674,0.00082514,0.017613,0.002479,-0.015384,-0.004755,0.0089404,0.0025721,0.039747,-0.0015804,-0.011414,-0.01213,-0.016511,0.029133,0.031866,-0.0040274,-0.009766,-0.0032812,-0.00030929,-0.00017083,-0.0074664,0.0021555,0.0048591,0.0047022,0.0029018,0.012564,0.0047588,3.1378e-05,-0.020428,0.011185,-0.0069119,0.0093348,-0.00023454,0.0040031,-0.0042615,-0.00066506,0.0077941,-0.011989,0.011213,-0.03804,0.095267,-0.032195,-0.26953,0.0099497,0.0016157,-0.0047189,-7.0466e-05,-0.0026302,-0.0040208,-0.012849,0.0042454,-0.049392,-0.012745,0.012135,-0.063715,-0.008285,0.033789,-0.019519,0.0085455,0.0043974,-0.003688,-0.00022511,-0.003561,0.0063214,0.0025381,-0.012707,0.0022721,-0.0012284,-0.065497,-0.010268,-0.046523,-0.043613,-0.0028914,-0.019452,0.0083456,-0.0036243,-0.0019484,-0.044795,0.0013554,-0.0094479,0.0053197,0.0066725,-0.0088224,-0.0090195,0.0016296,0.0060311,0.0056496,-0.0014207,-0.06963,-0.0031409,-0.00010736,0.0014078,-0.0011817,-0.0065984,0.0020953,0.012465,-0.0054999,-0.015509,0.0071483,0.019478,0.044793,-0.022523,0.042824,-0.0024783,0.006186,-0.004923,-0.0061855,-0.0012748,0.21709,0.0011571,0.039092,0.0033545,-0.073139,-0.042513,0.00066939,-0.020488,-0.0081367,0.059479,-0.030588,0.0078829,0.0095967,-0.0067564,0.0090566,-0.0048588,0.0057101,-0.004103,0.0058266,0.049822,0.0062751,-0.033048,-0.0079811,-0.033086,0.0058751,-0.012923,-0.016802,0.0085751,0.0046,-0.0012092,-0.06293,0.0036866,-0.022494,0.0045664,-0.022537,0.0067452,0.0063915,0.0056123,0.0038715,0.0069647,-0.0089281,-0.16084,-0.032078,-0.0093799,0.00026456,-0.0038089,0.012408,0.0039676,0.0062755,-0.0068287,-0.016899,0.0019914,-0.03136,0.010696,0.0083028,0.0079256,0.00041062,0.0040682,-0.0036369,0.004925,-0.010987,-0.039594,0.0033473,0.038769,0.21055,0.15074,0.01148,-0.0037098,-0.0032589,-0.025683,-0.0037986,-0.026492,-0.0051095,0.035318,-0.042319,0.016293,-0.0022747,0.0017402,-0.010669,0.012266,-0.011285,-0.00031938,0.0077583,0.0038782,0.0019272,-0.0033746,0.0014362,0.0038272,0.0055973,0.0010627,0.0070431,-0.0026425,0.013481,0.0028812,-0.0077628,-0.012968,0.0058652,0.020912,-0.0071588,0.022344,-0.024252,0.021632,0.002624,0.0090301,-0.061128,-0.034337,0.034157,-0.0029632,0.065472,-0.041586,0.033221,0.0053507,0.024646,0.0064913,-0.028092,0.0032332,-0.0036078,0.0083642,-0.0055681,0.026288,0.0069766,0.001385,0.005513,-0.011243,-0.0029467,0.0091699,-0.016976,-0.048352,-0.012795,0.0034875,-0.035302,-0.0077993,-0.0015481,-0.0079311,0.0044947,0.0019749,-0.033066,0.0084902,0.0044599,-0.019469,0.0016413,-0.012451,-0.0043214,-0.036143,0.0027689,0.0084684,0.0061481,0.011391,-0.057553,0.003154,0.0062782,0.0044427,1.5578e-05,0.0007035,-0.0034108,-0.012028,-0.00079869,-0.00093209,-0.0083726,-0.016055,0.012471,-0.063955,0.0058798,-0.013049,0.024723,-0.022452,-0.003613,0.028157,0.003734,0.013036,0.027728,0.010454,0.0010492,-0.039332,0.0040454,-0.017906,0.0041106,0.019516,0.0044155,0.01414,0.013137,0.0051174,0.014028,-0.0062495,0.0027214,0.027576,0.0048674,0.0044066,0.00047058,-0.00041938,0.016009,0.012061,-0.081399,-0.0044156,-0.00021041,0.030228,-0.012772,-0.020443,-0.011742,-0.002617,-0.00021845,-0.029777,0.011679,0.00077878,-0.00050353,0.0010177,-0.0055716,-0.0019838,-0.0037467,0.0067164,-0.0028508,-0.0026435,-0.015023,-0.00018662,-0.0011208,-0.0013673,0.0011631,-0.0036575,-0.0022328,-0.031042,0.04778,0.00055904,-0.00040925,-0.013281,-0.0086215,-0.039009,-0.012531,0.0057918,-0.00056002,0.0041145,-0.00548,-0.0044976,0.0057001,0.0056379,-0.0030214,-0.051881,0.013108,0.0128,0.0043354,0.00077438,0.0007956,0.0048742,0.0043253,0.0049777,0.0018571,0.0039615,0.0093515,0.03029,0.021721,0.058383,-0.0036642,-0.0010326,-0.0055467,-0.0019738,-2.5975e-05,0.0035819,-0.0087144,-0.0089946,-0.023665,-0.027879,0.0023425,-0.010087,-0.019167,0.0048288,-0.0060235,-0.0067346,0.002545,0.0057256,-0.0057028,0.0020345,-0.012056,-0.0036074,0.016208,-0.0081066,0.0032289,0.0070041,0.004321,0.0044202,0.0051958,0.0012429,-0.005075,-0.0021896,-0.016931,-0.002973,0.0055601,-0.00078611,0.00097787,-0.064849,-0.0096676,0.044041,-0.032944,-0.022479,-0.024291,-0.014432,0.00046102,-0.0097257,-0.006704,-0.014375,-0.010941,-0.0011422,-0.0045092,0.0066537,-0.0054554,-0.0041379,-0.0015202,-0.0025236,0.0093722,-0.001711,-0.0074269,0.0019215,-0.0034441,0.0024199,-0.019876,-0.0094579,-0.018379,-0.00098307,-0.0059348,-0.027764,-0.0046542,-0.0087492,0.0055689,-0.0096551,-0.0069958,-0.02855,0.0059231,-0.0026828,0.0050397,-0.0084647,-0.031557,-0.015121,-0.0046968,-0.027759,-0.015424,0.037416,0.0070242,0.00029772,-0.0072268,0.021201,-0.021483,-0.0082211,-0.0092021,0.0014493,0.0071918,-0.0018419,0.00055756,-0.0019068,0.0026027,0.0028777,-0.004387,-0.00019987,-0.00035497,0.015427,-0.0014113,-0.014927,0.026181,-0.011864,0.0099053,-0.014971,0.017718,-0.023074,0.0056077,0.0092467,-0.0017997,-0.016185,0.016959,0.0057461,-0.01189,0.015292,0.028454,0.0084936,0.0054252,0.0048305,-0.0038341,0.011768,0.00085578,0.005672,0.0025105,0.010272,-0.059619,0.029314,0.021944,-0.00080085,-0.0036806,-0.010736,0.003187,-0.0045573,-0.0085547,0.0022986,-0.035283,0.057437,-0.053934,-0.026092,-0.042914,-0.00077102,-0.010254,-0.015812,-0.027858,-0.0085843,-0.043936,-0.032924,0.0022061,0.007878,0.0020434,-0.0059062,0.0048655,-0.0037069,-0.00043861,0.0045067,-0.0056645,0.0063166,-0.012985,-0.0057682,0.0034289,0.0028374,-0.0022116,0.0033854,-0.0017115,0.0033808,0.0073969,-0.0022875,-0.024178,-0.034987,-0.014179,0.0030312,-0.023888,0.0032573,0.0090279,-0.0047394,-0.0072144,-0.0058538,0.016124,-0.0021118,0.0040993,-0.008545,0.0096765,-0.002936,-0.00023611,-0.0051998,0.0038329,-0.010474,0.00061118,-0.0087637,0.006939,-0.0021912,0.001915,0.00071299,-0.022811,-0.01487,0.0023715,-0.03393,-0.068572,-0.0060829,0.00022656,-0.0015809,0.00081214,0.013033,-0.017704,-0.041562,-0.056876,-0.010205,0.0061459,0.0015387,-0.019416,-0.020596,0.0023492,-6.5045e-05,0.015418,-0.043741,0.016719,-0.0043261,-0.0031383,-0.03449,-0.0031312,-0.022763,-0.015174,-0.014774,0.0038625,0.0076939,-0.018318,0.0024108,0.0022892,-0.0045074,0.016334,-0.052631,-0.0020193,0.0016253,-0.00040989,0.0033809,-0.0096628,-0.0020798,-0.043439,-0.0087487,0.0026018,-0.019565,0.0045758,0.0015669,0.0070559,0.003197,-0.021762,0.015163,-0.0060926,-0.017225,-0.042743,0.011262,0.016574,0.00052993,0.0028428,-0.016926,0.0071898,-0.0099628,0.0014812,-0.0064935,0.0052611,-0.091435,0.093818,-0.012617,0.0032698,-0.0098505,-0.043928,-0.0022388,0.0043713,0.00069932,0.010115,0.00036785,-0.029726,-0.065767,0.0403,0.0055192,-0.016854,-0.0050719,-0.010714,0.0056423,-0.011491,-0.033738,-0.0101,-0.0052145,-0.0022897,0.0031534,-0.0083262,0.00173,-0.013648,-0.01647,-0.0037379,0.0050922,-0.010229,0.0048977,-0.004173,0.0018966,0.0023967,0.004525,0.0031751,-0.001009,0.0083535,-0.0009429,-0.006489,-0.00013721,0.0039783,-0.0079829,0.0017083,0.0062388,0.012746,-0.014593,-0.0037996,-0.01598,-0.013675,-0.0033454,-0.0034822,-0.01585,0.0080299,-0.0045308,0.030956,-0.010456,0.0079797,0.00067463,-0.0041689,-0.0026254,-0.0038735,0.0024351,-0.0058844,-0.00062643,-0.0039354,-0.00070031,-0.013722,-0.0072876,-0.012977,-0.0074401,0.0064958,-0.018376,-0.0036831,0.00015435,-0.0063451,0.013689,-0.0075099,0.012213,-0.02396,0.012717,0.00083367,0.011858,0.0021987,0.0089589,0.0085601,0.0012816,0.025995,-0.026555,-0.010376,0.0043826,-0.020598,0.018296,0.0066394,-0.0023424,0.020508,0.0031495,0.018657,-0.014289,0.00056524,-0.0021478,0.006727,-0.027809,0.013432,-0.00335,0.0035134,0.00035765,0.03685,-0.0017128,-0.016246,0.0077375,0.0028041,0.01187,0.015774,-0.014736,-0.0016924,-0.0059707,-0.0061657,-0.015226,-0.0057536,-0.0043174,-0.00061748,-0.010841,0.010334,0.0064527,-0.0080644,0.0036717,0.0098255,-0.0010453,-0.00085268,-0.00099933,-0.00032941,0.0067822,-0.0060957,0.0011332,-0.011132,0.00068846,-0.0056433,0.034366,0.0026681,-0.0029104,-0.010732,-0.027755,-0.0025848,-0.0036492,0.0056837,0.0096282,-0.010032,0.0091719,0.0016209,0.058907,0.010406,0.048918,-0.030821,-0.0094939,0.0060669,-0.010506,0.0034348,-0.01378,0.0014235,-0.00054129,-0.00090387,-0.0038617,0.039342,-0.0080815,-0.0015518,-0.026877,0.0023496,-0.011382,-0.0039717,-0.024039,0.0011735,0.010262,0.0044229,-0.000857,-0.0041733,0.0029846,-0.00011956,-0.017699,-0.0025952,-0.00050009,0.0020054,-0.0053032,-0.01167,-0.033314,-0.024781,-0.01467,0.011228,-0.022583,0.0056362,-0.0015588,0.0033509,6.4449e-05,-0.037159,0.017064,0.00093793,0.0056689,-0.0010339,0.0023468,0.00084237,-0.0037837,-0.0021634,0.0055989,0.0046275,-0.01105,-0.00096538,-0.003419,-0.0024146,-0.04213,-0.037302,-0.0052935,-0.012268,0.0042375,-0.042134,0.0019053,-0.0099862,0.0056125,0.017671,-0.005739,0.038167,-0.029639,0.042012,-0.04154,0.061799,-0.20444,0.28845,0.00016924,-0.028046,0.09408,-0.031326,0.010556,-0.031657,-0.0031595,-0.014609,-0.014293,0.00020705,-0.0024558,0.001479,0.006781,0.014048,0.017794,-0.033666,-0.0068465,0.011758,-0.036007,-0.021782,0.0093841,-0.015597,-0.021835,0.00034852,0.0041046,-0.0023188,0.0070963,0.026097,0.0091017,0.0018664,-0.005176,0.013607,0.013882,7.755e-05,0.031269,0.0025782,-0.027467,-0.0060709,0.004362,-0.00038722,0.039714,0.0049339,-0.00027451,0.0081795,0.0091711,0.010942,0.019076,-0.0074458,-0.020742,0.0079912,-0.0006641,0.0082785,0.0026388,0.0037425,0.070736,5.7964e-05,0.010199,-0.0090214,-0.0072931,-0.0026988,-0.0041246,0.0047149,-0.0053007,-0.0016458,-0.015888,0.009348,-0.015355,0.024325,0.0073698,-0.0042967,0.0079538,0.00097813,0.011458,-0.002221,-0.0037929,0.035915,0.005794,-0.024187,-0.00079803,-0.015044,0.012723,-0.012888,0.014846,0.019806,0.0004511,0.0008733,0.030611,0.038298,-0.016761,-0.0055551,0.010414,-0.0065838,0.0049693,-0.0038976,0.0083494,-0.0043894,0.0016925,0.0029148,-0.0039038,0.048283,0.017848,0.0073203,0.0021256,0.0073226,0.037319,0.0077657,0.00096762,0.024356,0.0047281,0.024465,-0.0030371,0.00062435,-0.0059521,0.0090269,-0.00058083,0.0033053,-0.0012168,0.011055,0.012146,0.0086123,-0.00079783,-0.00095411,0.0076472,-0.007542,0.0038105,0.0028747,-0.0064695,0.049484,0.039627,0.015166,0.0071754,-0.023433,0.0096812,-0.0048892,0.0095834,-0.022576,0.010087,-0.0013319,0.027512,0.013118,-0.006886,0.0002078,-0.019438,-0.010499,0.0017198,-0.045717,0.051274,-0.00080064,-0.0019949,-0.0062699,0.0035992,0.0031503,-0.021962,-0.029158,-0.0058016,-0.011009,-0.0012819,0.0060507,-0.0014517,-0.010096,0.026261,0.013451,-0.0099719,0.0051254,0.002654,-0.017954,-0.0050095,-0.0038563,0.0014597,-0.00037334,0.0034728,-0.0094633,-0.0020166,-0.0067578,0.0066957,-0.0027452,0.014934,-0.022275,-0.013103,-0.0038467,-0.0025047,-0.0097395,-0.0050828,0.0024355,-0.0042768,-0.0015389,-0.05243,0.013335,-0.0069932,0.016719,-0.018021,0.0052991,0.0091634,-0.00015714,0.0042138,-0.016932,0.013137,-0.004972,0.0074215,-0.0043177,0.0092965,-0.032096,0.045572,-0.021418,-0.0052817,0.0009468,0.00015309,0.00094342,-0.0016969,-0.0047759,0.0047121,-0.0099794,-0.020783,-0.073888,0.032974,-0.052097,-0.0058937,-0.083482,-0.1362,-0.019773,0.024458,0.0026413,0.0025349,-0.0092384,0.0095454,0.0057367,0.00012255,-0.00046889,0.0058485,-0.0071502,-0.0032347,-0.0010067,-0.0070003,-0.0030968,0.0042521,-0.001904,-0.0035656,0.0056424,0.0068378,-0.0065977,0.0057694,-0.0094748,0.0023524,-0.0057218,0.0050216,-0.0023393,-0.0058453,0.00063238,-0.0025947,-0.0039839,-0.0039783,-0.029606,-0.0009925,-0.0034046,0.0078858,-0.0027542,0.0059054,-0.013732,-0.0026202,0.023618,-0.0025852,0.0071688,-0.0078627,-0.00086347,-0.0128,-0.0012029,-0.015271,-0.0054708,-0.0030694,-0.0047306,-0.019947,-0.001623,0.00044366,-0.003177,-0.0037926,-0.00024462,0.0042286,-0.012227,-0.0081206,-0.0055776,-0.12322,-0.0050281,-0.0062765,-0.0119,0.00017733,0.01038,-0.0031792,-0.004399,-0.25031,-0.0013961,-0.016177,-0.015138,0.014962,-0.0056574,-0.060941,0.0045603,-0.013472,-0.046515,0.001119,0.0027797,0.012694,-0.049507,-0.02974,-0.011902,-0.011786,-0.001959,0.0452,0.011753,-0.0024685,0.00075639,-0.0056715,0.0057101,0.028333,0.0056076,0.0067926,-0.0077002,-0.0070245,-0.010253,-0.00069939,-0.002681,-0.0018553,0.0010299,-0.0096152,-0.0027726,0.013178,0.0077112,-0.00158,-0.0098847,-0.009206,-0.0032538,0.013964,-0.0062672,0.012472,0.0017751,0.016902,-0.0043151,-0.0045477,-0.0042321,0.027203,-0.0094078,0.0018666,0.0047944,0.0084591,0.0034308,-0.0048001,0.00020033,0.0051712,0.0040664,-0.0064729,-0.00051091,0.00047829,0.0069428,0.098966,0.010742,0.0016812,-0.0039541,-0.011873,-0.0079001,-0.003843,-0.0052774,0.0039776,0.032853,0.013379,-0.041178,0.0069324,0.073848,-0.014935,0.0078392,-0.017737,0.015478,0.037788,0.011699,-0.01963,0.0058873,-0.0091461,-0.021947,-0.0041579,-0.053015,-0.015743,0.0070827,-0.023858,-0.0064375,-0.015246,-0.012561,0.0035635,-0.006143,-0.0062034,-0.01079,0.0018557,0.020954,0.0041194,-0.066953,-0.0086345,-0.015693,-0.027647,-0.0020538,-0.0060381,-0.0029323,7.712e-05,0.021355,-0.0031844,-0.028864,-0.0024415,-0.0077353,0.008608,0.04309,0.0031116,-0.0071719,-0.004341,0.0060409,0.0083376,-0.00092044,-0.00059416,0.025909,0.0065168,-0.0042508,0.0028088,-0.0046982,0.0062141,-0.0064355,-0.0014908,-0.0042842,-0.0024471,0.0051759,0.00040265,-0.0047353,0.0050357,-0.0019096,0.0020579,-0.0042281,-0.012291,-0.0074744,0.012684,-0.013314,-0.12267,0.0036617,0.081226,0.041636,0.008956,-0.0052395,-0.0057292,-0.057916,-0.000227,-0.075772,-0.01955,-0.032482,0.0049862,-0.032915,0.0013871,-0.032084,0.024712,0.02,-0.0079833,-0.0056698,0.0082639,0.0015045,-0.0021928,-0.049674,-0.0001937,-0.0076035,0.0097345,-0.011421,0.0035224,0.0076957,-0.0010249,0.0047478,0.033679,-0.0057495,0.00053998,-0.021668,0.0032756,-0.0074918,-0.0065409,-0.0010223,-0.0015283,-0.0012452,0.0022062,-0.028574,-0.0020476,-0.027229,0.017226,0.0030185,-0.013564,-0.020984,-0.0068366,0.021761,-0.0097459,-0.013449,-0.014737,-0.0057128,0.001783,0.00047888,-0.0097754,0.010452,-0.02561,0.003734,0.010428,0.006463,0.0067796,0.0037094,0.0068343,0.013785,0.0088552,-0.0027859,0.0034974,0.00077406,0.0044064,-0.007206,-0.012368,-0.093698,-0.0074025,-0.012122,0.0063486,-0.001324,-0.0060323,0.003845,0.0075034,-0.0034804,-0.054516,-0.024732,0.0018221,-0.010214,0.072962,-0.015471,0.0053878,-0.0077028,0.0060799,-0.025384,-0.023322,-0.001534,-0.077425,0.0060459,-0.021012,-0.003964,-0.0058027,0.0086876,-0.010595,0.0036302,-0.033608,-0.0031227,-0.014061,0.010411,0.0035478,0.0006074,0.010108,0.013338,-0.012629,-0.025829,-0.014759,0.00028436,0.011284,-0.0037333,-0.0095531,0.0039401,0.0031211,0.0017987,-0.012611,-0.0019349,-0.009553,0.006224,0.0035314,-0.0018039,-0.016123,0.00063911,-0.0042127,0.010967,-0.0035085,-0.014971,-0.0010892,0.010799,-0.00073276,-0.016285,0.0037297,0.010569,0.0027337,-0.0034203,0.038442,-0.0018937,-0.0023468,0.00090572,0.0059407,0.005752,-0.0055901,0.001836,-0.0036694,0.003079,0.0027828,0.033762,-0.0097347,0.0049976,-0.022437,-0.067382,-0.00088072,-0.0095991,-0.011574,0.017326,0.011885,-0.020683,-0.03723,-0.025187,-0.024235,0.0083446,0.018238,0.018046,0.012891,-0.010528,0.010223,0.038319,-0.017351,-0.0058685,0.013729,-0.034774,-0.0054191,-0.020852,0.0079229,-0.0046303,0.011044,-0.04929,-0.0075831,-0.0028635,-0.038411,0.0055849,-0.0078542,0.002189,0.0081567,-0.0019355,-0.0034476,0.011168,0.010339,0.010234,-0.011636,-0.0063541,0.0049465,-0.0037874,0.0051182,0.0024914,0.01052,-0.0042457,-0.013995,-0.0020708,0.0018055,-0.013186,-0.010317,0.018137,0.010628,0.011939,-0.0051466,-0.011223,-0.0033314,-0.0038225,0.0037929,0.011106,-0.0057886,-0.0034887,0.0076819,0.002964,0.0070822,-0.00068029,-0.00046754,0.0044282,0.033098,0.0078654,-0.0028515,0.058313,-0.0039405,-0.00016378,-0.021362,-0.050707,0.011267,0.0072086,-0.0010348,0.040616,0.0029743,0.020542,0.04084,2.6074e-05,-0.018818,-0.024839,-0.084703,-0.0026773,-0.1184,-0.041001,-0.11994,0.0039058,0.0029025,-0.0053047,-0.0093947,0.012948,0.016212,-0.023599,0.044597,-0.042779,-0.00042627,-0.039298,-0.02382,0.011737,-0.032555,-0.017909,-0.033582,-0.026389,-0.00055925,-0.030711,0.0010613,-0.016225,0.0041912,0.0073397,0.0011992,-0.029028,-0.030914,-0.022261,-0.018305,0.005417,-0.012614,-0.048802,-0.010805,-0.010579,0.0017563,-0.014119,0.013969,-0.0055784,-0.0021973,0.0051589,-0.020364,-0.026225,-0.0082692,-0.023909,-0.013125,-0.029914,0.0072863,0.018852,-0.014414,0.0028249,0.006206,-0.00018754,-0.012297,0.014335,0.00082085,-0.015657,0.0083281,-0.0044308,0.034061,-0.0042693,0.030448,-0.0098855,0.034628,0.0026339,-0.0047101,-0.041501,0.027221,-0.019779,0.031765,-0.055292,0.13864,-0.011154,-0.017715,-0.04521,-0.0064585,-0.017073,-0.024242,0.00091216,-0.009,-0.037875,-0.02437,-0.069624,-0.0090564,0.0027881,-0.0058493,-0.011508,0.029728,-0.033556,-0.005107,0.061682,-0.033552,0.018645,-0.0084331,0.0057131,0.0059479,-0.018323,-0.0014644,8.6083e-05,-0.1426,-0.040631,-0.0063563,-0.012207,0.010232,-0.010077,-0.0040776,0.0023497,-0.026009,0.01358,0.013493,0.017179,0.031584,-0.00486,-0.0089079,0.0003372,0.0070978,0.00066571,0.0032291,-0.0094196,-7.7032e-06,0.0014531,0.003088,0.0031158,-0.007,-0.0088911,-0.0037501,-0.013085,-0.027458,-0.0012449,-0.010731,0.0013769,0.030617,-0.0030434,0.012422,0.00010481,-0.011188,-0.010109,0.0083881,-0.0065946,0.00017342,-0.0012897,0.008761,0.013779,0.013539,-0.018055,0.058438,-0.0039447,-0.0049277,-0.02841,-0.04613,-0.0017486,-0.0091601,0.013845,0.024608,0.011378,0.040962,0.043096,-0.00023005,0.0070992,-0.0056238,-0.03954,-0.026474,-0.0018972,0.018257,-0.16354,0.030598,-0.01051,0.012597,-0.062799,0.044447,0.015049,-0.027846,-0.0070992,0.0045914,0.029347,-0.1353,0.0095629,-0.0079453,-0.038166,0.00010784,0.0042001,-0.012219,-0.0058593,0.022163,0.025094,0.0043193,0.0049093,-0.00053627,0.00030884,-0.015594,0.0038509,-0.0067081,-0.0029707,-0.0029264,-0.0035888,0.0062856,-0.09271,0.016346,0.046364,0.001912,0.0028694,0.0045113,-0.0011626,-0.005177,0.021428,-0.04348,-0.0042777,-0.0074601,-0.047591,-0.0082287,-0.006643,-0.0018009,0.016031,-6.4267e-05,0.0080165,-0.011694,-0.066304,0.010918,0.035324,0.016589,0.052381,-0.021391,-0.016347,-0.0013279,-0.0046879,-0.026144,0.0084823,0.0091566,0.012111,0.028072,0.033331,-0.0038141,0.0059408,-0.0010795,-0.0046099,0.0040278,-0.0064124,-0.0046671,0.0022236,0.00025108,0.012337,-0.026314,0.0033878,-0.0045326,0.0028684,0.0023138,-0.006337,-0.053419,-0.0055644,-0.0087515,0.010302,-0.025124,-0.0057032,-0.007389,0.00472,-0.0086989,0.010169,-0.0096753,0.0062465,-0.018864,-0.001126,0.0012868,-0.028567,0.044138,-0.020473,0.0030869,-0.0104,0.0043856,0.00047696,0.025018,0.016082,0.034552,-0.0097237,0.0075045,0.0011481,-0.035796,-0.0031936,-0.010762,0.024663,-0.00063412,0.0026307,5.294e-05,-0.013324,0.015794,0.00055987,-0.032337,-0.0048543,-0.021413,-0.0062803,-0.0064761,-0.021524,0.009095,0.0054968,-0.0024422,-0.023903,-0.022133,0.0058043,-0.0099094,-0.0058782,-0.0047221,0.015173,0.0099313,0.0038851,0.032978,-0.0082736,-0.0050475,-0.019034,0.010063,0.0013133,-0.039546,0.013291,0.0037874,0.0086216,0.0034051,0.0018214,0.09892,-0.014053,0.030611,-0.0082052,-0.002761,-0.0043652,-0.002655,-0.0085629,-0.007127,-0.027543,-0.0037831,0.015312,-0.0077234,-0.030866,-0.020805,-0.026826,-0.01489,-0.032483,0.016657,0.028106,0.080278,-0.023854,-0.0081092,0.012886,-0.008565,-0.029336,-0.072097,-0.017248,-0.027014,0.0055117,0.0015243,-0.0033421,0.0068805,4.6144e-05,-0.0056254,0.003667,-0.022372,0.021728,-0.00046956,0.067703,0.008383,0.015676,-0.0033334,0.0075461,0.01382,0.0025045,0.0076196,-0.02164,0.018371,-0.032781,-0.046252,-0.003293,-0.031308,-0.003315,0.0014785,-0.023653,-0.0029365,-0.0070382,-0.003807,-0.0090259,0.004859,-0.00078093,0.0071283,-0.0014916,-0.0042931,0.00011411,0.0064986,0.0038462,-0.0058641,-0.0075902,-0.029343,0.010291,0.0014306,0.0021488,0.011579,0.013354,0.0030454,0.02033,-0.0066985,-0.025213,0.010706,0.0076881,0.016583,0.018192,-0.0086103,-0.0035493,-0.00060909,-0.0020069,-0.0060471,-0.0084197,-0.0066531,-0.0050412,0.0020689,-0.0002492,0.0055611,0.0085385,0.0021846,0.020703,0.007874,0.0070503,0.0040441,0.021895,0.0021416,0.031635,0.0022498,0.0041868,0.00794,-0.0038941,0.041558,-0.0081407,0.0046539,0.0027092,0.0057625,0.0036397,0.011496,0.074973,0.014397,-0.059086,-0.058838,0.011167,-0.04523,-0.012059,-0.018892,-0.029782,-0.032389,-0.011646,0.0034227,0.049723,-0.0039115,-0.0044647,0.010832,0.00814,-0.013227,-0.0027054,0.00069583,0.071856,0.011251,0.011356,-0.014997,0.029907,0.001104,-0.013416,-0.039026,0.00075694,0.037503,-0.0145,-0.0053455,0.0085243,0.040766,6.276e-05,-0.0015221,-0.0020298,-0.019885,-0.027854,0.010918,-0.0097987,-0.010232,-0.0075339,0.0017766,-0.038704,0.0043625,-0.00034969,0.0022954,-0.0087634,-0.042129,-0.059505,0.010989,0.024135,0.011459,0.0091568,0.063192,0.033991,0.013683,0.023208,-0.01723,-0.0070801,-0.00050195,-0.0025862,-0.015614,-0.015215,0.0025274,-0.014281,0.0077312,-0.0097014,0.0057641,0.0071375,-0.0011509,-0.0010575,0.0085451,0.003361,-0.047708,-0.010468,0.023631,0.0091564,0.00017538,0.0059375,0.0040936,0.014901,-0.003327,0.029583,0.0057366,0.027427,0.16401,0.038124,0.0033179,0.00089104,0.0033692,-0.0060297,-0.0077666,-0.022693,0.046704,-0.0015448,0.0059619,0.0094752,0.00081766,-0.0045011,0.0059091,0.0020917,-0.00075149,0.036179,0.014628,-0.0044511,0.020094,-0.036917,0.028108,0.12035,0.03858,0.0039277,-0.017008,-0.0055426,-0.0092931,0.014342,-0.029679,0.0038359,-0.0041788,-0.0042759,0.0027176,-0.0030651,0.0077638,0.0055832,0.005395,-0.0040879,-0.0092704,-0.00019647,0.0066011,0.0048408,-0.0034963,0.001229,0.0065918,0.0062406,0.051338,0.015309,0.0032984,0.028614,0.038962,0.038591,0.0066107,0.020095,0.0078321,-0.0019765,0.0021767,-0.0095268,-0.0019375,0.0025245,-0.0010065,-0.012536,-0.01331,-0.0074814,-0.0021411,0.00031462,-0.0039227,-0.0020261,-0.012039,0.0040935,0.0055446,0.0048794,-0.0033178,-0.0041379,-0.021053,0.00012589,0.0038931,0.0047195,0.0034966,0.0052192,0.0066137,-0.0072575,0.0029025,0.0052824,0.0078455,-0.00083175,0.10698,-0.024956,0.00084693,-0.035475,0.0061482,-0.016121,-0.019211,0.036772,-0.012079,0.00070257,-0.0099387,0.0065075,-0.0083192,-0.0012337,-0.0076842,0.0073697,-0.0095338,-0.036845,0.022964,0.077791,0.002308,0.099883,-0.086248,0.049949,-0.051946,0.0050846,-0.019459,-0.0052225,0.01514,0.083719,0.0012904,0.0012156,-0.0062355,-0.026079,-0.0046655,-0.0071082,0.024377,-0.0017344,0.0048795,0.0018119,-0.0048963,0.002982,-0.015776,-0.003928,-0.0022101,0.0057067,-0.010801,0.0073581,-0.011158,0.004317,0.02375,0.014145,0.056537,0.0070864,0.0069275,-0.00091111,0.025264,0.0034919,0.0014461,-0.002367,-0.0041877,-0.0068622,-0.0039692,-0.006559,-0.0073117,0.0029606,-0.0082727,0.002782,0.00083327,-0.0032063,0.0024601,0.0031906,0.0080294,0.0048609,-0.0059394,-0.0051756,0.013904,0.0021649,0.0027684,-0.002032,-0.010494,0.010383,-0.0016179,-0.007305,0.011543,0.012992,0.020664,0.0052292,0.050543,-0.086723,0.019195,-0.00054846,-0.061245,0.0056688,0.010305,0.0054493,0.0054523,-0.019611,-0.0099506,-0.014961,0.0038158,3.2035e-05,-0.0055413,-0.0063882,-0.00070363,0.00088495,-0.011639,0.0028394,0.017066,0.05334,-0.044602,0.0082511,0.084142,0.0034819,-0.029226,0.0047743,-0.0073318,-0.0022464,0.080966,-0.095235,0.0033743,0.0036152,-0.04151,-0.001143,0.00088575,-0.00015334,0.0031945,0.005857,-0.0030908,-0.0084754,-0.0095987,0.0059448,0.00043811,-0.0055742,0.041444,-0.0051987,0.018991,-0.05323,0.0047639,-0.019758,0.029326,-0.0050005,0.036197,0.047495,0.012299,5.4373e-05,0.003585,-0.00015239,-0.0051066,0.002012,-0.0041913,0.0011563,-0.026552,-0.012037,-0.0011118,0.011091,-0.0006073,0.0022366,-0.0017752,0.0058528,-0.0080222,0.005632,0.0020302,0.00095241,-0.010587,0.0083405,0.0089138,0.0073673,0.008519,0.003209,0.0056772,-0.0057034,0.0071043,-0.00089058,0.00071667,-0.0099965,0.0051339,0.008535,-0.004997,-0.042532,-0.0021465,-0.0023905,-0.0021646,0.019438,0.011178,0.00044672,0.0060057,0.0026159,0.0026962,0.0038525,0.031525,0.0040274,0.0036497,-0.0014615,-0.001023,0.0026186,0.0058163,0.0038876,0.027389,0.0047055,0.008068,0.0075973,0.0049561,0.028767,0.0078572,0.0016177,-0.0011482,0.0067536,-0.0032214,0.056161,0.0042397,9.5107e-05,0.0010293,-0.0010797,0.0010202,-0.0001631,0.00084197,0.055062,-0.033439,-0.012522,-0.002298,0.0061893,0.0045207,-0.0062161,0.0050733,-0.0010652,-0.054858,-0.13215,0.042196,0.0027142,0.024042,-0.0065876,0.020072,0.0048445,0.011311,0.0018924,0.0053846,-0.0015227,0.003885,-0.0021117,0.0030687,0.01797,0.00052786,-0.0055384,0.011957,-0.0027643,-0.00016377,0.0026978,0.012685,-0.00088271,0.00014931,-0.001424,-0.0031766,-0.00074226,0.0081514,0.0018186,0.0013888,-0.00094419,-0.016054,-0.00067995,0.0032534,0.00095628,0.00095094,-0.0001799,0.0013624,0.028844,0.012909,0.024797,-0.011162,0.0079373,0.026319,-0.0078963,-0.00045342,0.018775,-0.03579,-0.025983,-0.021966,0.01543,-0.0084152,-0.019159,-0.026017,0.0018515,0.010931,-0.0034224,0.0010098,0.015253,0.04946,0.073662,0.010573,0.0012749,-0.090753,0.015006,-0.038702,-0.0097415,-0.0095326,0.0020383,0.051831,-0.0012708,0.047305,-0.0022132,-0.0050112,-0.0010072,-0.01036,0.011892,-0.0022227,-0.0025065,-0.0095973,0.012263,0.0034325,0.024342,-0.01605,0.0014273,-0.0083194,-0.0030695,-0.0093343,-0.01953,-0.0018662,-0.0024449,0.0020727,0.00069191,0.07713,0.0066727,0.038943,0.015376,-0.0012515,0.0058821,0.0036174,0.0051087,-0.0026917,0.01931,0.012285,0.013127,-0.0036892,0.0036677,-0.048307,0.00051473,-0.021556,0.0016418,0.010885,-0.0033023,0.027957,-0.01172,0.0034286,0.0061876,0.0085779,-0.002569,-0.018846,-0.0025977,-0.018495,0.014389,0.047198,-0.0048174,0.0057863,0.0053628,0.0066678,0.056519,-0.00082768,-0.0060274,0.0045858,-0.022734,0.0071916,-0.0049492,-0.0078019,0.0048669,0.012232,-0.00039634,-0.011074,0.035196,0.0059822,0.029865,0.0070754,0.0082023,0.010079,0.0042673,-0.001833,0.0011574,-0.00026986,0.0073849,0.01114,0.21597,0.001091,0.0031628,0.034977,-0.0079885,0.002003,-0.019111,0.019178,0.0027727,0.068345,-0.001543,0.064792,0.00066175,-0.0038435,-0.0012795,-0.0038006,-0.0031493,-0.0043451,0.0062309,0.0058776,-0.0014703,0.0055615,-0.026117,-0.010986,0.00084845,-0.010301,-0.00016639,0.016405,0.0014279,0.0060233,-0.0021744,0.013068,-0.0064347,0.024667,0.0093649,0.15699,0.050086,-0.00067087,0.0090196,0.0017909,0.0064774,0.0031307,0.0045183,0.025479,0.0028392,0.025338,0.020131,0.11791,-0.0021191,0.0059271,0.0051083,-0.0018754,0.0003224,-0.00082753,0.0054764,0.00042533,-0.00039154,0.0030281,0.045206,0.0072753,-0.0017955,-0.0030254,0.0036381,0.018186,0.0018055,-0.0016343,0.0030317,0.017791,0.035702,-0.003825,0.0096908,0.0013734,0.0095624,-0.01534,0.012007,0.0019388,0.0105,-0.030774,-0.020936,-0.0096158,-0.03087,0.10824,0.0049712,-0.002516,-0.069648,-0.022083,-0.028691,0.007169,0.0066225,7.4078e-05,0.0069327,0.00469,0.0080842,0.016383,0.010841,0.036015,-0.011178,0.010421,0.066528,0.030765,0.057536,0.011031,-0.010422,-0.0072731,-0.029778,0.022691,0.012374,-0.011422,0.0044673,-0.019522,-0.00020704,-0.014831,-0.016526,0.0052814,0.01313,-0.0082683,-0.013607,0.0041723,-0.011006,-0.001459,-0.0012741,0.0058729,0.0097376,0.0025254,0.019583,0.0089318,0.030495,0.041455,0.005544,0.024438,0.0019323,0.010771,-0.013426,0.010741,-0.024253,-0.010237,-0.014246,0.017101,0.011904,-0.02453,-0.0049662,0.0019149,-0.01638,-0.00071529,-0.012696,-0.010484,0.0046731,-0.011691,-0.0070273,0.0018914,-0.010578,-0.023057,-0.061742,-0.023585,0.0026067,-0.0010097,0.0055939,0.0050691,0.012205,-0.023634,-0.039945,0.01494,0.015943,0.013152,0.018565,0.0086303,0.063201,0.089155,0.014215,0.032686,-0.095058,-0.0094938,0.0017379,0.024573,-0.015353,0.0046929,-0.013104,-0.22321,0.0045068,0.0017651,-0.0033138,0.0062282,0.03909,-0.007435,-0.0047368,-0.0026412,0.015776,0.016595,-0.015933,0.025944,-0.028052,0.052647,-0.057905,-0.028726,-0.030422,0.0033068,0.027183,-0.003285,-0.0063353,0.022448,0.0027482,-0.0051494,-0.012169,-0.0017916,-0.0037762,-0.014566,-0.011838,-0.00036186,0.0072629,-0.0033265,-0.0068708,-0.0037655,-0.0059608,0.0044684,0.0082392,-0.0082286,-0.0012554,0.0016357,-0.0066403,-0.0024841,0.02884,0.0067118,0.0047341,-0.0028118,-0.01106,0.014421,0.0018546,-0.0036098,0.012005,-0.19916,-0.003547,0.074184,0.011165,0.00096992,0.04887,-0.0094156,-0.0090214,-0.0030192,0.022187,-0.0026217,0.011915,-0.026651,0.005864,-0.015448,-0.0078579,0.0034109,-0.01457,-0.000354,0.013454,-0.0011801,0.022996,-0.0066595,0.01947,0.0085572,-0.006827,-0.014742,0.004101,0.011452,-0.0039946,-0.036957,-0.014289,-0.02421,-0.011205,0.0045791,-0.0099237,0.099365,-0.087069,-0.03616,-0.01195,-0.0056695,0.039152,0.0017929,0.077446,0.028524,-0.0022883,0.001493,0.0006487,-0.0053725,-0.0031157,-0.0003593,0.013707,-0.010211,0.075521,-0.0025917,-0.00091624,0.021761,0.0045364,0.09331,0.024894,0.065266,-0.01442,0.015764,-0.0027352,0.015423,-0.00026481,0.005649,-0.0052853,-0.01535,0.0061499,0.0011141,-0.0070935,-0.0067445,-0.021122,0.0043777,-0.0016062,-0.057138,-0.0070437,0.0012894,-0.0034279,-0.0047185,-0.0023879,-0.0029967,-0.02458,-0.016384,-0.025558,0.0045542,0.02174,-0.097156,0.0061311,-0.001924,0.0021682,-0.0024119,-0.002952,-0.003811,0.0069436,-0.001452,0.020422,-0.071578,-0.047083,0.021775,-0.028756,-0.0034681,-0.0048839,-0.0051699,0.00035891,-0.0061591,-0.0048123,-0.0034829,-0.0026861,-0.0050801,0.00043007,-0.010391,-0.0019616,-0.0053255,-0.015846,0.0020307,-0.0012926,0.0050038,0.0015353,-0.0066723,0.019324,-0.007222,0.0039755,-0.0070016,0.004092,-0.0019212,0.0028445,-0.0050788,0.012661,0.0061348,-0.10533,0.05032,0.058065,0.0030034,-0.00082648,0.0069438,-0.04467,-0.0059557,-0.055959,-0.099731,-0.01656,-0.020781,0.018974,-0.0032437,-0.00052798,0.0031663,0.0030554,-0.014887,-0.025744,-0.010396,-0.036137,0.0023414,-0.034132,-0.046178,0.0052702,-0.019187,-0.032618,-0.015925,-0.0068581,0.0014041,0.021539,0.011018,-0.0020867,-0.0026096,-0.03172,-0.017177,-0.014449,-0.022231,0.0098857,0.0079209,-0.021966,-0.017187,-0.02071,0.0323,-0.0033367,-0.0092664,-0.023194,-0.028188,0.0075231,0.094131,0.01124,0.012913,0.0816,-0.0077834,-0.0086808,0.0099838,0.017561,0.0026662,-0.00222,-0.015785,-0.0030979,-0.002488,0.022982,-0.03223,-0.016018,-0.0088659,-0.019287,-0.0062769,-0.0091827,-0.0011579,-0.019472,-0.0073923,0.0056293,-0.0082144,0.0060767,-0.026694,0.045425,0.0075607,0.0076476,-0.015679,-0.014411,-0.0026717,-0.013181,-0.0095252,0.0058337,-0.0031643,0.0045937,-0.0071594,0.007864,0.012986,0.024588,-0.00080894,0.047067,0.022087,0.042442,-0.029809,-0.014731,-0.12683,0.0067566,-0.024179,-0.020373,0.013509,-0.005919,-0.0053515,-0.00041671,0.010639,-0.015547,0.0095904,-0.013539,0.0031422,0.0028554,-0.0023162,0.0097657,0.003625,0.060026,0.0065506,0.024871,-0.022693,-0.025788,-0.025835,-0.12249,-0.0036211,0.0004441,-6.0594e-05,0.01447,-0.0036522,0.027236,-0.010902,-0.00050698,0.0047448,-0.0074372,-0.024398,0.014326,0.0043709,-0.008583,-0.0093131,0.0094659,0.01835,-0.010236,-0.0045923,0.011982,0.00034224,-0.028807,-0.031847,0.0098563,0.00084636,0.041975,-0.0051638,-0.0093771,0.015054,0.034995,-0.015263,0.00098254,0.0076072,-0.0014673,-0.00015485,0.0079345,-0.033309,0.011819,0.0016795,-0.01944,-0.052013,-0.010758,-0.014753,-0.023118,0.0067144,-0.0083698,0.0083919,-0.00092062,-0.0074176,-0.014299,-0.0024771,-0.010432,-0.014088,-0.051334,-0.00098296,0.004384,-0.0032759,0.0035187,0.0089771,-0.002459,-0.033226,0.0055697,-0.020456,-0.057191,0.0691,0.0025512,0.023204,-0.017077,0.10502,-0.015017,0.022042,0.028593,-0.074743,0.0023089,-0.049396,-0.029522,-0.0043356,-0.019847,0.0029797,0.021838,-0.044934,0.050341,-0.015613,-0.036933,-0.01499,-0.018438,0.0082289,-0.0011759,-0.002493,-0.0045866,0.0077905,0.0010848,0.010314,0.00088288,0.0053196,0.00049935,-0.022521,-0.021611,0.0028584,-0.01383,0.0046322,0.00060703,0.00031604,0.015572,0.0074525,0.004023,0.01687,0.019347,0.0025857,-0.0012146,-0.022718,-0.061207,-0.0025122,0.0044866,-0.013295,0.063913,-0.011856,0.01145,-0.0030859,-0.013466,-0.012198,0.0065966,0.00063862,-0.003393,-0.0054767,-0.0064416,0.0072821,-0.0053038,-0.0034187,0.0019667,0.0073366,0.0036878,0.017776,0.011925,-0.012621,0.0022715,0.0149,0.010586,-0.01085,-0.020267,-0.0094122,0.0047914,-0.0055549,-0.0049698,-0.0055447,0.0075968,0.00042291,0.011644,0.0014552,-0.0034892,0.018134,0.045356,0.0077741,0.012092,-0.017843,0.0082444,-0.00046311,-0.015399,-0.015041,-0.053937,0.026795,-0.0088445,-0.013733,-0.026007,0.018581,-0.065332,0.03338,0.0033107,0.012336,-0.1994,-0.0059393,-0.025534,0.020588,0.017539,-0.35874,-0.0097079,0.020581,0.015354,0.028177,-0.018686,-0.00097489,-0.017657,-0.023067,-0.065523,-0.024806,0.007274,-0.00071054,0.0020013,0.0025581,-0.00083646,0.0089686,-0.001099,-0.017519,0.035114,0.039948,0.028027,-0.037376,0.055974,0.041452,0.0057409,0.020021,0.010383,0.035555,0.017541,0.028873,0.0040626,-0.003038,0.00029794,0.0054174,0.010566,-0.011453,0.012353,0.0021927,0.0020744,-0.0011659,-0.0076596,0.009699,-0.00088167,0.0017662,-0.0069797,0.0096865,0.0036238,-0.0047141,0.016882,0.036594,0.029284,0.042741,0.042726,0.0072555,0.007384,-0.0091359,0.01161,0.013487,-0.015625,0.0038846,0.0098727,-0.015677,0.013938,0.012863,-0.013486,-0.0027453,0.01844,0.0015883,0.0095988,-0.026452,0.0050948,0.0055093,0.0057076,0.0045913,0.02197,0.037111,0.0025575,0.0073423,-0.02247,-0.0042225,0.0028278,-0.0024759,0.0069515,-0.019733,0.012916,-0.030699,-0.013903,0.044087,0.017109,0.016565,0.0068318,0.048209,0.040017,-0.026051,-0.085459,-0.067797,0.0016379,-0.024831,-0.075671,0.17614,-0.040255,0.033961,-0.016534,0.013345,0.027698,-0.0009798,0.023096,0.018024,0.012169,-0.0032572,0.018112,0.03304,0.0013556,-0.0014325,0.0053955,0.014384,0.010225,-0.0032239,-0.096295,0.024123,-0.0077229,0.05412,-0.020424,0.039651,0.010247,-0.002395,-0.00043673,-0.024683,-0.0039063,0.13056,0.024117,-0.004609,-0.039353,0.0065394,0.0036533,-0.0021076,-0.0052388,0.072438,-0.091639,-0.023653,0.0084148,0.049739,0.012532,-0.00178,0.025246,0.0032516,0.010778,-0.026658,0.086482,-0.00085143,0.013399,0.025194,0.030707,0.037382,0.012885,0.0023592,0.0026653,0.0019712,0.0042995,-0.008496,0.0039596,0.0093806,0.048893,-0.017355,0.020906,0.0035164,0.0031032,-0.0035741,-0.0015828,-0.01092,-0.0021615,0.0037546,-0.0018569,-0.0065227,0.0012023,-0.00076577,0.0016772,0.0044277,0.0042322,-0.003533,0.0024824,-0.00077197,-0.0010371,-0.0020565,-0.0001849,0.0068502,0.022252,-0.015601,0.007871,0.038242,0.077319,0.026893,-0.0062317,-0.00090471,-0.0089192,0.0433,-0.0028566,-0.048539,0.038099,-0.064994,0.0039785,-0.050201,-0.056719,-0.011375,0.010228,0.00057173,-0.040356,0.00088663,-0.018197,-0.013661,0.0051032,0.0032475,-0.0038128,-0.002353,-0.024206,0.0032141,-0.028773,-0.0054958,-0.017949,-0.0047721,0.0069538,0.0014375,0.0040563,0.0015922,0.0028825,0.0014443,-0.011798,-0.0044127,-0.0082727,0.013753,0.002916,-0.0034921,-0.017313,-0.0045317,-0.027389,0.0010272,-0.0085557,0.0086742,0.013164,-0.00033628,-0.0025646,-0.0013965,-0.0014051,-0.0030677,0.0046309,-0.0072256,-0.076101,0.0042971,0.00027137,0.001377,-0.020285,0.0074221,-0.0067121,-0.0026368,0.00064009,0.0036053,-0.04527,-0.029898,0.018061,0.0013112,-0.063626,-0.015293,-0.0014076,-0.020533,-0.018746,-0.0097744,-0.021522,0.025613,-0.02149,-0.0783,-0.030208,-0.0067219,-0.028827,-0.0043813,-0.04521,-0.030796,-0.011006,-0.0083652,-0.01616,-0.081675,-0.035071,-0.023337,-0.026527,0.0028953,-0.016392,0.01505,-0.0040471,-0.011792,0.005789,-0.004344,-0.0057335,0.0029223,0.0054183,-0.0005968,-0.011779,-0.0037348,0.0053608,-0.0044883,-0.010873,-0.019401,-0.0032755,0.053338,-0.0024761,0.00067606,0.012189,-0.041006,0.034145,-0.041788,0.0017491,-0.0014954,-0.028675,-0.0079595,-0.0051177,0.0044067,0.0016089,0.0018577,-0.0024883,0.0074025,0.005538,-0.0056489,0.01706,-0.048098,0.002629,0.0022799,-0.0015222,0.12999,-0.0023019,-0.0090036,0.0024595,0.00042397,0.0055656,0.0079011,0.015547,0.0099201,-0.0049731,0.0070732,0.00079835,-0.0024066,-0.0042087,-0.00044663,0.028213,-0.056643,-0.063152,0.0015394,0.015877,0.0041752,-0.002947,0.00096003,0.0083555,-0.016768,0.15484,0.0039499,0.0065234,0.026987,0.021651,0.057044,0.033843,0.00043862,0.0022124,-0.00042184,0.00070179,-0.0090953,-0.018161,0.017885,0.0012656,-0.038312,-0.021742,0.025251,-0.0074435,-0.0021184,0.0043679,0.0076755,-0.005687,0.0025018,-0.0060485,0.0058492,0.0046912,0.028414,0.020109,-0.0020846,0.0012593,-0.0070977,-0.0077526,-0.00088141,-0.0055339,-0.00027708,-0.0057582,-0.0018878,0.040277,0.0037187,0.030622,-0.00051724,0.023866,0.044985,0.019409,0.0091708,0.026426,-0.0022046,-0.010007,-0.00054241,-0.03493,-0.01715,-0.0032599,-0.060274,-0.1248,-0.020564,-0.0021503,3.9912e-05,-0.025803,-0.031354,0.0279,0.063707,0.017033,0.00089334,-0.011775,-0.026226,0.0068303,-0.0024912,0.0006207,-0.0012692,0.0087613,0.004327,-0.011504,-0.016823,0.0072085,-0.0011989,0.0062607,0.0001676,0.015888,0.0058889,0.0020421,0.036449,-0.003349,-0.0080898,0.026473,-0.0022265,-0.0058511,0.020464,0.019114,0.012271,-0.0021315,0.010723,-0.0026528,-0.0023819,-0.0099237,-0.021816,-0.0063903,0.0032083,-0.0033842,-0.0079478,-0.016997,0.035479,0.004496,-0.0022211,-0.0026563,0.032391,0.0032879,-0.010429,-0.0015458,-0.0033921,0.0040829,-0.001331,0.015631,-0.060389,-0.010757,-0.026445,-0.00062357,-0.01087,0.00029419,-0.019054,0.010562,-0.011135,0.016768,0.0053379,-0.021761,-0.0081065,-0.01277,0.0027234,0.010671,0.023169,0.001126,0.0061449,0.0044952,0.022829,0.027177,0.0040418,0.025456,0.0030148,-0.029563,-0.11602,-0.017375,-0.0090225,0.00021406,0.010602,0.047809,0.012695,-0.0078881,-0.0019871,0.00081679,0.016784,-0.002703,0.049051,0.01383,-0.0011327,-0.0038977,-0.040647,-0.014446,0.0017378,-0.0037204,0.0014851,0.0040251,-0.015632,-0.048271,-8.2756e-05,-0.070788,-0.0066619,0.080492,-0.014078,-0.0075297,0.0013503,0.0053071,-0.001303,-0.0028779,0.0052378,0.0044743,0.024749,0.00089795,0.010156,0.042582,0.0045067,-0.014872,0.0094994,-0.025529,0.015881,-0.0081484,0.00094203,0.0079814,0.0053106,0.028306,0.046595,0.0069005,0.0031919,-0.019645,0.013777,0.0054854,0.0048286,0.0057555,0.011898,0.021724,-0.029413,-0.0022627,0.01506,0.0027167,0.014273,0.0030253,0.0080842,-0.0073017,-0.061501,0.035923,0.010992,0.12768,0.011727,0.013182,0.012804,0.0096669,-0.007241,0.0035427,-0.0081957,0.010651,-0.019434,-0.030324,-0.001486,-0.048516,0.015923,0.047488,-0.0026874,-0.00096832,0.0018302,0.012976,0.0037308,-0.00060178,0.00076019,-0.0036786,-0.00086835,-0.0045577,0.046722,0.0060109,-0.0046578,-0.0055314,-0.00012352,0.00078445,0.0020151,0.035102,0.022569,0.029274,0.024517,0.010062,0.0072107,0.02747,-0.0039506,0.0076718,0.089451,0.019211,0.032449,-0.019772,0.024627,0.03011,-0.026565,-0.0045771,-0.0038185,-0.029247,0.087365,0.014521,-0.0013332,0.064322,-0.0046764,0.0030546,-0.003582,0.0025906,-0.017336,0.025215,-0.012276,-0.017438,0.0087114,-0.015483,0.023554,-0.0086387,0.00099553,-0.038103,0.030107,-0.0061563,0.0048312,-0.0080689,-0.0070184,0.010752,0.0036755,0.0015655,0.001019,-0.0053478,-0.0053738,0.0084474,-0.0054733,-0.0059558,0.01093,0.0027954,0.0013839,-0.010257,0.0069144,-0.011105,0.015288,0.0027058,0.00080473,0.0011634,-0.0071675,0.010354,-0.021434,0.0077268,-0.0023225,0.0096133,0.0060557,-0.00024062,0.0020286,-0.0010355,-0.0024706,-0.0086763,0.0010735,-0.0099358,0.00019398,0.0080994,0.0070281,-0.053708,0.084245,-0.015838,-0.014743,-0.038405,0.0038927,-0.002958,-1.3136e-05,-0.015238,0.00040434,-0.01689,-0.0041384,-0.034073,-0.016281,-0.036801,0.024033,-0.094794,-0.014068,-0.00013542,-0.017206,-0.02729,-0.046724,-0.077656,-0.018294,-0.021353,-0.015157,0.04773,-0.074965,-0.027795,-0.060729,0.0048336,-0.038828,-0.0064141,-0.0010113,0.0041931,-0.0084007,-0.0036017,0.00058675,0.0069194,0.007651,-0.066634,0.008028,-0.0026603,-0.026897,-0.004616,0.010174,-0.01228,-0.0030406,0.0024706,0.005027,0.00039396,-0.0049335,-0.017328,-0.0021341,0.016642,-0.063855,0.0043615,-0.036343,-0.051956,0.01145,-0.021642,0.016789,0.0013369,-0.0042262,0.0021691,0.0058582,0.0024927,-0.0071471,-0.0016853,0.022847,-0.006956,0.0015105,-0.014558,0.0038582,-0.03197,0.018949,0.0030696,-0.0010164,0.0040172,-0.01062,0.0078808,-0.0012737,0.0054919,-0.0048442,0.020792,-0.0043666,-0.0038764,-0.0048289,0.03434,-0.041969,-0.071187,0.0058429,0.026456,0.0058759,-0.01166,0.0042807,0.0040345,0.0040528,0.025806,0.010448,0.022265,0.058784,0.026441,0.0074263,0.010284,0.014315,-0.0043073,-0.0027891,-0.011382,0.013973,-0.0016166,-0.010789,-0.0049373,-0.056861,-0.054974,0.046323,0.0041401,-0.0020909,0.0030668,-0.0043485,0.0022794,-0.0076704,0.0084589,0.0019026,0.0011844,0.0051321,0.0056834,-0.0037163,-0.0081406,-0.00035614,-0.013593,-0.0031892,-0.0014188,-0.0039416,0.00077738,0.0094759,0.0078823,0.013652,0.022933,0.04389,-0.0098318,-0.0014015,0.038958,0.012605,-0.019143,-0.016663,-0.011355,-0.0005886,-0.033453,-0.044646,0.0082592,-0.025749,-0.04682,-0.020613,0.0075722,0.047161,0.0081087,0.093755,-0.002442,0.048635,0.018737,-0.020745,0.027472,-0.041957,-0.057684,-0.047201,-0.0063671,-0.014842,0.0048439,0.001829,-0.0056814,-0.0059768,-0.0097673,0.0050892,-0.0064236,-0.004752,-0.011943,0.0042881,-0.0071696,-0.039683,-0.010144,-0.036694,-0.011064,-0.0063034,-0.0044615,-0.021156,0.013762,-0.0076478,-0.0020757,0.0039887,0.0132,-0.0031572,-0.0044155,-0.013319,-0.0028831,0.0032958,-0.01058,-0.063431,-0.0079772,0.011741,0.0050659,-0.00062784,0.0048579,0.00095017,0.0040355,-0.010941,-0.031076,0.033515,-0.0033924,-0.011009,-0.015594,-0.013182,0.013567,-0.014519,0.025999,-0.021156,-0.036589,-0.029855,0.074642,-0.017224,-0.041742,-0.019004,-0.0085311,-0.0027428,0.0031096,-0.0082954,-0.001409,-0.0047834,-0.0041991,0.010568,0.02269,0.0034906,0.0033326,-0.019001,0.052538,-0.019822,-0.029799,-0.019335,0.011444,0.01233,0.021986,0.072158,0.045931,-0.0073734,-0.002872,-0.0026566,-4.2277e-05,-0.0001875,-0.010982,-0.0046646,0.0022071,-0.018274,-0.032428,-0.016888,-0.0017221,0.008314,0.059494,-0.019094,-0.010934,0.06757,-0.0069111,5.3187e-05,-0.014808,-0.10544,-0.016991,0.076005,-0.052332,-0.064222,-0.017259,0.0017533,-0.014984,-0.0037472,0.038358,0.0075206,0.0026649,0.003708,0.0045956,-0.0052174,-0.0054802,-0.0043379,0.0009535,0.004574,0.037426,0.0021647,0.032424,0.032267,-0.032438,0.020664,-0.012489,0.043614,-0.0098625,0.0058528,-0.0010697,0.029156,3.5622e-05,0.0080062,-0.00011917,0.0041719,-0.00077826,0.0070963,-0.0014575,-0.0036124,0.0035656,0.047446,0.046691,-0.011202,-0.0055566,0.0038276,0.0027033,0.0017605,-0.00067534,0.0097067,0.0016205,-0.020412,-0.047591,0.013955,0.00010663,0.061084,-0.0086765,0.0086343,0.0058752,0.0036807,0.008326,0.011178,0.016955,-0.00025908,-0.0013993,0.035909,0.026953,-0.010481,0.0022837,0.0036946,0.0015655,0.0050499,0.022431,-9.0534e-05,0.0097148,-0.0024667,0.012122,0.0030118,-0.0218,0.0085544,0.010887,-0.0045621,0.0047017,-0.0023319,0.0045868,0.0010913,0.0089927,0.0055066,0.0082099,-0.0040502,0.00336,0.00097567,0.0082961,-0.0024141,0.01052,-0.076958,0.031611,0.022393,0.077742,0.093854,0.013537,0.011587,0.033969,0.029845,-0.0037601,0.04859,-0.0043635,0.0039524,0.0041451,0.0096328,-0.033804,-0.00096377,0.0080715,-0.06349,-0.0089267,-0.016609,0.0013763,0.022026,-0.0091213,-0.066376,-0.025165,-0.032312,-0.048609,0.011668,-0.0014192,0.002435,-0.0048168,0.0025512,0.021869,-0.043463,-0.016073,-0.013714,0.017618,-0.011206,-0.0051198,0.0076609,-0.023778,0.0003608,0.005986,-0.0040781,0.018626,0.0086271,-0.0026203,-0.0073822,-0.00025144,0.0057696,-0.0068654,-0.0076935,-0.00051855,-0.0014052,0.024238,-0.0053346,-0.013333,-0.01438,0.0050862,0.0021906,-0.011976,-0.013554,0.0091021,0.0030836,-0.0035953,-0.0059164,-0.013833,0.0016132,-0.016396,-0.00079658,-0.023577,0.0099706,0.01027,0.021051,0.040593,-0.02359,0.095848,-0.010777,-0.0060615,-0.0068068,-0.015698,-0.025961,-0.015107,0.011565,-0.019816,0.0028387,-0.033433,-0.0047489,-0.024844,0.0024007,-0.018945,0.010031,0.016474,0.022288,-0.055956,-0.00043041,-0.023553,0.0003481,0.00091097,-0.0094857,0.025219,0.055038,-0.0073492,0.018208,-0.0011109,0.039946,-0.0097362,0.013339,-0.0052763,-0.0046659,-0.028984,0.0029918,-0.017305,-0.02962,0.012227,-0.016521,0.023165,0.03429,0.051232,-0.0010159,0.0091885,0.009908,-0.028902,-0.0039137,-0.019024,-0.045993,0.12353,-0.0093194,-0.040283,-0.0038223,0.0022775,0.017561,-0.0012249,0.096356,-0.040888,-0.0046175,-0.006624,0.006824,0.0013139,0.0014603,0.00046205,0.002431,-0.0075217,0.034469,0.00024001,0.0010127,0.10202,-0.025104,0.071427,0.1055,0.096424,0.0052873,-0.0081782,-0.0045483,0.0030401,0.037832,0.0024389,0.00097747,0.00031034,-0.0027058,0.0073924,-0.0018744,0.0018217,-0.005238,0.01039,0.059027,8.106e-06,-0.0048214,0.016968,0.020122,-0.00068589,0.017697,0.0031969,0.0054332,0.023768,-0.019944,0.011405,-0.011515,-0.0074068,0.0090905,0.0077937,0.018614,0.015905,0.0034198,-0.021307,0.007214,-0.0068101,0.030679,0.012239,0.0060372,0.040796,-0.0012584,-0.0026634,-0.00075484,-0.0030842,0.0021435,-0.002096,0.0056013,-0.0014971,0.0032514,-0.0004876,0.00063393,0.010344,0.0058546,-0.0052621,0.0032261,-0.0027837,0.0035408,-0.0032244,0.0047229,-0.018154,0.0084343,0.0010158,0.01594,0.010281,-0.0045573,-0.016624,-0.00044162,0.00024653,0.023913,-0.0032488,0.055333,0.01135,-0.017138,0.012428,0.077479,0.024522,-0.016329,-0.0011015,-0.021098,0.0040832,-0.021279,-0.0046087,-0.027267,-0.0045619,0.015194,-0.0012838,-0.066166,-0.0016215,-0.02113,-0.0067095,-0.0017497,-0.24269,0.088622,0.015486,-0.045553,-0.0061523,-0.00027046,0.0050437,0.028457,-0.00043315,0.0051391,-0.00399,0.0079728,-0.0074796,0.0034178,-0.010424,-0.018899,-0.085488,-0.072512,-0.084834,-0.010488,-0.00030278,0.0061354,-0.00076009,-0.0073751,0.011152,-0.011937,0.035345,5.0905e-05,-0.0093606,0.00073719,0.0025656,-0.032315,0.0041317,-0.0083471,-0.016565,-0.039171,-0.0013281,0.0096453,0.0016399,0.0058347,0.023673,0.016798,0.013853,0.031639,-0.015008,0.028286,0.0036052,-0.037125,0.052916,0.0028331,0.017089,0.068234,0.011086,0.02054,-0.013241,-0.0036715,-0.0018036,-0.021147,0.0083994,-0.0191,0.018779,-0.002031,0.023413,-0.0028712,0.012779,-0.002005,-0.014376,-0.00046409,0.0013783,0.0042716,0.0056953,0.00096871,0.031656,-0.0045195,0.010226,0.0056957,0.0091653,0.0026271,0.0066197,-0.015938,0.0091492,0.010111,0.029311,-0.0070784,0.030322,-0.00080053,0.017283,-0.0069447,0.011288,0.018358,0.1163,0.17248,-0.036313,0.050022,0.049054,0.020834,0.038759,0.0054579,0.044816,0.0011932,-0.029143,-0.011169,-0.049348,0.0029139,-0.080247,-0.060104,-0.0501,0.020267,-0.02787,-0.043418,-0.0076319,0.004512,-0.033679,-0.0069706,0.013256,0.021743,0.00054027,-0.04177,0.011351,-0.0011281,-0.0061582,-0.006249,-0.00096498,0.00097654,-0.0329,0.00746,-0.080847,0.0018374,-0.039044,0.0013101,0.0039564,-0.021633,-0.011975,0.0029199,-0.0090506,0.028155,-0.0013489,-0.019365,-0.0043588,0.0045919,-0.0022543,0.00099527,-0.00431,-0.0014721,0.006466,0.026848,-0.038536,-0.12213,0.0038916,-0.0075267,-0.00082669,-0.014611,-0.0086878,0.00044577,0.0025333,-0.02497,-0.033776,0.027655,-0.0084846,-0.016793,-0.022805,5.1816e-06,0.0090255,-0.0061484,-0.0029398,-0.015354,-0.014106,0.052002,0.029221,0.040293,-0.034322,-0.051902,-0.033381,-0.014307,0.0037476,-0.0059432,-0.0076336,-0.0061866,0.00051358,0.0086937,0.0026746,0.010499,0.038943,-0.00049434,0.0071559,-0.0063609,-0.0060378,0.0085337,-0.0026434,-0.0056181,0.027496,-0.027816,0.00030717,-0.0094995,0.023169,0.00050235,0.011656,-0.021311,0.0043362,-0.030819,-0.0037677,-0.0058056,-0.031436,-0.0036091,0.041626,-0.00047669,-0.025903,0.013182,-0.012321,-0.065705,-0.027135,-0.00204,0.016846,0.00042776,-0.028113,-0.0034212,-0.18634,-0.066316,-0.10787,0.084547,-0.032463,-0.020328,0.0020464,-0.0057359,0.016603,-0.0081337,-0.038207,-0.010037,0.021686,-0.023087,-0.035755,0.011539,0.0043768,-0.0017369,-0.034126,0.0062515,0.018245,0.0016758,0.002508,0.0023814,0.041595,-0.013867,0.0040567,0.0018954,0.0011705,0.0023515,0.013747,-0.0019764,0.056859,0.02138,-0.00057714,-0.0104,0.0060692,0.023604,-0.024531,-0.0014778,0.014967,0.0073821,0.003081,0.0032534,-0.0029436,-0.021166,-0.001037,-0.0056081,0.0046438,-0.022433,-0.060854,0.0048367,0.00010657,0.0021807,-0.046897,0.0080203,-0.0013276,0.0010896,-0.0024386,0.011722,0.14793,-0.0044827,0.035443,0.00026956,0.0026831,-0.0048466,-0.0014781,-0.0050028,-0.0042514,0.0022438,-0.013517,-0.047451,-0.0078382,0.021374,-0.03065,-0.073706,0.0062441,-0.013532,0.0080356,0.016907,0.029222,0.0031999,-0.0015562,0.030465,-0.0009595,-0.1383,-0.012031,0.0079591,-0.032142,0.0096799,-0.0063951,0.25508,-0.003338,0.033576,0.00065355,0.036897,-0.00075269,0.0029746,0.022085,0.01111,-0.016636,0.0051889,-0.0017213,-0.046818,0.005719,0.052943,0.0075826,0.0014458,-0.097927,-0.0057902,0.038655,-2.6444e-05,-0.0090074,-0.0039981,0.0055895,0.0021335,0.010754,0.010337,0.079832,-0.0028117,0.0069784,-0.056802,0.004095,0.0027048,-0.014416,0.0030365,-0.0091796,0.026695,-0.0046733,-0.010565,-0.017281,0.0044209,-0.006961,0.019084,0.0060369,0.0048413,0.0036208,-0.00028361,-0.0261,-0.0094621,0.0020815,-0.004131,-0.0060135,-0.012198,-0.047688,0.0041851,0.002095,0.0040294,0.00097036,-0.27604,0.0042235,-0.0083385,-0.041355,-0.087693,-0.035655,0.0073591,-0.0027571,-0.00075155,-0.010249,-0.037505,0.011909,-0.0098035,0.0026007,0.015036,-0.036237,-0.00091955,-0.0046702,-0.006936,-0.0095911,-0.012549,-0.0013424,-0.010424,0.0018274,0.0067219,0.0085377,-0.012489,0.00079828,-0.015473,-0.0088637,-0.040487,0.000767,0.0046133,0.0053472,0.012753,-0.0033963,0.0048756,-0.011383,0.0023516,-0.011919,-0.012807,-0.015934,0.017693,0.015825,0.0079649,0.00075946,-0.01613,0.0070232,0.010037,-0.012046,-0.009423,-0.018297,-0.031438,-0.039397,-0.032251,-0.029437,0.0065978,0.0083254,-0.013445,-0.0095937,-0.00097666,-0.0025634,0.0031639,-0.0026921,-0.0015335,0.005795,-0.01596,-0.0072232,-7.8122e-06,-0.011296,0.0066102,-0.0079345,0.0049287,0.0098217,-0.0072229,-0.0058004,-0.0032524,-0.018657,0.0017367,-0.0054659,-0.0099042,-0.021119,-0.0066413,0.0022925,-0.017418,-0.0001547,-0.0078807,-0.0058346,0.046847,-0.0056393,0.022338,-0.033563,-0.0055313,0.0047642,-0.027319,0.019202,-0.00028603,-0.00313,-0.010405,0.0041857,-0.036578,-0.00021117,-0.019104,-0.002452,0.025106,-0.01263,0.0044254,-0.0050336,0.0024899,0.0015125,0.0028447,-0.0023461,-0.0053592,0.019587,-0.0024343,-0.0096151,0.00044053,-3.603e-05,-0.021848,-0.01996,0.0030086,-0.021611,-0.0032566,-0.0075119,-0.0009534,-0.0030721,-0.035706,-0.022741,-0.017519,-0.016005,-0.020395,0.0025151,-0.0014245,0.0027067,-0.0073556,0.0052871,0.00033692,0.0028131,0.00040639,0.018535,-0.01339,0.010758,-0.003253,-0.01131,-0.012161,0.0073004,-0.0022149,-0.0078097,0.0050587,-0.012927,-0.010249,0.027178,0.0033906,0.030141,0.012514,0.031934,0.011098,0.025481,0.099926,-0.0051971,0.006915,0.0030453,-0.022043,-0.011544,-0.0044131,0.11067,0.055079,-0.0059674,-0.035484,-0.013156,-0.0050732,-0.1108,-0.0038896,-0.0087916,0.00019085,-0.0070804,-0.0018328,0.0009675,0.0013091,-0.0034168,0.0064721,-0.0057534,-0.0030596,-0.031209,0.0013414,0.0058563,-0.0071809,0.002212,-0.013607,0.004556,0.070629,0.0067638,0.086316,-0.0043025,0.018782,0.0036675,0.016228,0.007007,0.0069461,-0.0029719,-0.16044,-0.0081994,0.0015261,-0.0095615,0.0084103,0.0047262,0.017675,0.009503,-0.010739,-0.006511,-0.0042771,0.0024789,0.0039409,-0.0034571,0.0013818,0.0061254,0.013284,-0.0080915,0.0033188,0.0026177,0.0147,-0.0023354,-0.002946,-0.0072542,-0.0041564,-0.00029611,-0.065155,-0.0019935,-0.035561,0.0025195,-0.013455,0.051442,-0.0032978,0.0065646,0.0023373,0.011518,-0.0073522,0.011374,0.0021142,0.0050626,0.0037355,0.0086309,0.0048402,0.0064155,0.0014432,-0.0019139,-0.0019765,0.0016442,0.00011035,-0.00017507,0.002422,0.00098771,-0.0031824,-0.0007859,-0.0019484,0.00081208,-0.014312,-0.030655,-0.023012,-0.030096,-0.014916,0.0084364,0.0010258,0.0028284,-0.0070146,-0.0036974,0.0040692,-0.011585,0.003538,-0.018916,-0.00408,-0.0078132,0.0035837,0.010105,0.02645,0.0056618,0.0027727,-0.042437,-0.0082303,-0.013258,-0.046655,-0.0065309,-0.056397,-0.0083719,0.0034807,-0.043282,-0.0054015,0.0094836,0.0039442,-0.011979,-0.029112,-0.0042366,0.0023419,-0.006056,-0.0144,-0.00044856,0.0052968,0.0090058,-0.0021049,-0.008293,-0.011306,-0.0019703,0.0022498,0.00035717,-0.0016119,0.0022694,0.045031,0.0046586,-0.022595,-0.0065965,0.0011059,-0.00135,0.011955,-0.0011305,0.0017534,0.012889,-0.0093564,-0.0007898,0.0065746,-0.0121,-0.012677,-0.0048596,0.0103,-0.044323,0.0020821,-0.0023905,0.004369,-0.014165,0.0036516,0.012174,-0.0031888,0.016071,0.031663,0.045009,0.098829,-0.048723,-0.0017848,0.0065003,0.01088,0.012953,-0.0069086,-0.010216,0.00014382,0.060363,-0.0020121,0.011794,-0.0007561,-0.0061102,0.014975,-0.044903,-0.023996,0.018608,-0.0063133,-0.014612,-0.0043369,-0.0007372,-0.00047695,-0.0053668,-0.0054463,0.019399,0.00036965,-0.011718,0.00039889,-0.01025,0.00014996,-0.0059567,-0.0050114,0.040654,0.0019939,0.0041486,0.00090303,-0.00046102,0.0019781,-0.016293,-0.0074392,-0.0080818,-0.032937,-0.0095334,0.01855,-0.0019136,-0.010458,-0.0011943,0.0051735,0.0043686,-0.015785,-0.014894,-0.0091319,0.00036995,-0.03555,-0.0039114,0.0065447,-0.037557,-0.00015106,-0.058392,-0.030947,-0.0031758,-0.015235,-0.016982,-0.042529,0.016723,0.010128,0.0033579,-0.041342,-0.0093417,-0.0022412,0.0054406,0.0052593,-0.0013422,-0.041922,-0.0043655,-0.0022397,-0.016349,-0.016937,-0.019457,-0.012932,3.1995e-05,0.0046598,-0.019333,-0.029892,-0.033503,-0.0039565,-0.00013741,-0.010841,-0.02649,-0.0050732,0.011199,-0.006514,-0.028077,0.0039713,0.00069838,0.0016667,0.013843,0.0011805,0.0048971,-0.011735,-0.072904,0.010563,-0.0090724,0.0064305,-0.0059075,-0.011964,-0.016069,-0.023192,-0.0046969,-0.021629,0.038257,-0.013638,-0.042777,-0.012464,-0.079416,-0.040768,0.01447,0.0031564,-0.084019,0.0019131,0.030882,-0.021189,-0.0098628,0.009007,-0.0008246,-0.019991,-0.005179,0.00014762,-0.019649,0.050449,-0.0068523,0.11647,-0.0058458,-0.04142,-0.012045,0.013399,0.013506,0.031414,-0.0032483,-0.010125,-0.0099321,-0.026179,0.012295,-0.060187,-0.02806,-0.028899,0.023767,-0.020361,-0.0055434,-0.0088743,-0.025969,0.0044824,-0.010171,-0.012083,-0.002239,0.010754,0.068605,-0.038478,0.02058,-0.0033277,-0.011705,-0.024721,-0.0063711,0.0021398,0.00091708,-0.026167,0.024628,0.0028569,0.014829,0.0062725,-0.049093,-0.064786,0.013609,-0.024382,0.013509,-0.016666,0.014449,0.0062882,0.0061948,0.019049,-0.01038,-0.011334,-0.01735,-0.0014453,-0.0042603,-0.0023536,0.0075662,-0.0020606,0.048989,0.0063838,0.052381,0.010127,0.0025102,0.00055892,-0.012596,-0.0018748,-0.016369,-0.013545,-0.0057964,-0.02902,0.014486,-0.020874,-0.028289,0.011595,-0.0015966,-6.4016e-05,-0.0055392,0.0037143,-0.029751,-0.0060567,-0.00050872,-0.0037486,-0.027191,0.00014242,0.004182,-0.014706,0.0086584,-0.12524,0.0054556,0.0041443,-0.020713,0.0026594,-0.010636,0.014169,-0.014641,0.03621,-0.0086102,0.0040692,0.01565,-0.023123,0.0061777,-0.014879,-0.0065457,-0.048919,-0.0017883,-0.0097728,0.11539,-0.027843,0.0013104,0.01952,-0.0028993,0.0028332,-8.8037e-05,4.2935e-05,-0.00054454,-0.0024503,-0.0035326,0.011363,0.0073895,0.0030342,0.0032202,0.027789,0.027616,-0.043578,-0.01904,-0.012789,-0.033601,0.0021141,0.00078175,-0.0058379,-0.047762,-0.044587,-0.021619,0.016251,-0.0036847,-0.030471,0.0041932,-0.0034156,-0.0013511,-0.011459,0.0059641,-0.0046688,-0.0019728,-0.0060869,0.0070166,0.0081054,-0.041022,0.015354,-0.00081034,-0.0078636,-0.0031719,-0.0040659,-0.0061586,0.014569,-0.038955,-0.013963,-0.0011326,-0.015088,-0.026077,-0.017593,-0.017821,0.0095814,-0.0013215,0.0026543,0.0031594,-0.017169,-0.029058,-0.00094736,0.035411,-0.00041016,-0.0046988,0.0043673,-0.027078,-0.044648,0.0070076,-0.012665,0.096314,0.0060596,-0.014722,0.0046263,-0.04187,0.0033087,0.00025257,0.0086466,0.026365,-0.025064,0.013217,-0.0043939,-0.02258,0.018381,0.0646,-0.001007,-0.0016221,-0.037276,0.0052291,0.059397,-0.0022203,0.021158,0.0025074,0.031811,0.0023932,0.007738,0.030228,0.0098166,-0.0038173,-0.070184,-0.023942,-0.017063,0.014321,0.034093,-0.010685,0.0047014,-0.0018099,-0.025188,-0.0022944,0.011592,-0.01099,-0.023906,0.01023,0.034307,0.011801,-0.012968,-0.0024867,0.036098,-0.030035,0.012336,0.026248,-0.036382,-0.0013946,-0.028328,-0.042138,0.013625,-0.0094382,0.0015742,-0.0015901,-0.055862,-0.0039796,0.019123,-0.0041702,-0.00064722,0.072979,0.02817,0.032378,0.029946,0.058791,0.032667,0.10246,0.0029205,-0.010883,-0.0077904,0.021256,0.014682,-0.0061229,0.020673,0.0014623,0.027939,-7.2807e-05,-0.003728,-0.00080516,-0.024294,0.00059432,-0.0076416,-0.0046426,-0.0021401,0.022944,-0.015523,0.010917,0.0018564,-0.043064,-0.0113,-0.030675,-0.0059743,0.0057051,0.0035047,-0.0096819,0.010926,0.0029211,0.0064703,-0.045405,-0.047174,-0.046311,-0.040799,-0.01578,-0.066914,-0.023668,-0.031892,-0.047987,0.0099269,-0.020016,0.0018136,-0.0042098,0.00073274,-0.017818,0.018679,-0.046935,-0.0081001,-0.027837,0.029475,-0.021493,0.015026,0.020449,-0.012157,0.0013705,-0.027508,0.0036516,-0.052238,-0.012004,-0.009998,-0.0066926,0.029572,0.0082682,-0.028575,0.0051249,-0.015951,0.0022891,0.0019321,0.0046779,-0.039993,-0.0034004,0.010787,0.0018544,0.0068177,0.0057813,0.01285,-0.0041869,-0.016526,0.038093,0.0097357,0.020222,0.013327,0.065545,-0.15111,-0.0033332,-0.0036897,0.010689,-0.012157,0.03101,-0.049785,0.013385,0.019948,-0.01074,0.00085144,0.0081881,0.00050355,-0.00049551,-0.00094052,-0.016168,0.0070802,0.031683,0.0021637,-0.08621,-0.014627,-0.031856,-0.0048495,-0.0093383,-0.00030128,-0.012703,-0.0029511,-0.088471,-0.0082428,-0.0030995,0.052793,0.015082,0.033023,-0.018463,0.043962,0.0058075,0.033511,-0.0018099,0.003549,0.0011648,-0.02961,0.021505,-0.0084703,-0.014294,-0.01057,-0.019778,0.0006215,-0.0030533,-0.003706,0.0045003,0.0014056,0.0028705,0.0016686,-0.0067495,0.018191,-0.023381,0.0036324,0.013349,-0.086863,0.0018927,-0.010164,-0.0054154,-0.012361,-0.0043891,-0.017816,-0.012542,-0.035875,0.0087093,-0.049398,0.0022501,-0.040021,0.010027,0.0082191,0.00086328,-0.039202,0.011052,-0.016659,0.0022276,-0.017219,-0.043195,-0.088179,0.00086617,-0.018835,-0.05257,0.011745,0.0064837,-0.0014473,-0.0013981,-0.026845,0.024963,-0.024997,-0.0033966,-0.00023913,0.0087986,0.022115,-0.01112,-0.06265,-0.0062658,-0.014056,0.00043059,-0.0012764,-0.014607,-0.00088445,0.010944,0.0023816,-0.026432,0.01129,0.020515,0.0016838,-0.0098113,0.0054427,-0.016254,0.011966,0.03233,-0.0022706,-0.045668,0.0057439,0.034031,0.015034,-0.019555,0.019636,0.01393,0.027775,-0.0064633,0.0020084,-0.0055908,0.046589,-0.009224,-0.018116,0.054751,0.0054874,5.0051e-05,0.0011741,-0.0050121,-0.0050041,-0.0072336,-0.033893,-0.022961,-0.0020937,-0.023471,0.00066591,-0.016896,0.037681,0.015369,-0.04087,-0.0044435,-5.8472e-05,0.077143,-0.0025285,-0.027106,-0.00019481,-0.013205,-0.0065959,-0.046431,0.003204,-0.015058,-0.026751,0.007826,0.020339,-0.001315,-0.0025176,-0.0058621,0.0020233,0.026334,0.00098508,-0.013769,-0.016453,-0.0133,0.0025284,0.00022715,-0.002753,0.056509,0.0012999,-0.00019693,0.0013103,-0.0046566,0.030396,-0.0051131,-0.0080783,0.011679,-0.029392,-0.0078101,-0.01352,-0.0040109,-0.0092145,-0.003417,-0.018662,-0.012676,-0.01931,-0.010507,0.0016346,0.0058179,-0.045659,-0.00621,-0.013612,0.0085595,-0.0035838,-0.024287,-0.010855,-0.006671,0.0045368,-0.012412,-0.01164,-0.0030362,0.0067867,-0.010657,-0.013457,-0.011224,-0.089684,-0.0074528,0.034411,-0.050938,-0.11991,-0.0096464,0.002314,-0.032402,0.0046546,-0.039534,0.0088281,-0.0022027,0.039856,-0.004258,0.060122,0.010237,0.0024649,0.0032434,-0.0044125,0.009128,0.0024402,-0.0091716,-0.0031091,0.015105,0.012291,0.01457,0.020284,0.016318,0.0026941,0.029808,-0.0099136,-0.010062,0.0050375,-0.055102,-0.0096831,0.07655,-0.18088,-0.057478,-0.032665,0.024755,0.032689,0.0069396,0.0062402,-0.013414,-0.0051117,0.01552,0.026178,0.019959,0.0056769,0.0036521,0.0062212,-0.00083096,0.010934,-0.0022263,0.00055574,0.0027738,0.0071622,0.0036875,-0.0031471,-0.0040123,-0.0020392,0.0034598,0.0079623,-0.0026486,0.003514,-0.0012227,0.0066135,0.00015788,-0.0042647,-0.0017834,0.0065878,0.0018091,0.011636,-0.0014301,0.0089424,-0.011898,8.2393e-06,-0.0088933,-0.00050639,-0.007703,0.0069474,-0.012728,0.026751,-0.0078012,-0.0048648,-0.0066321,-0.046948,-0.00037344,-0.013116,-0.0024201,0.0020315,0.0036238,-0.0073424,0.026027,0.04213,0.016679,-0.029866,-0.004569,0.0037632,0.016882,0.0087422,0.035304,-0.032391,-0.0052798,0.0055521,0.023923,-0.0065575,0.022584,-0.031793,-0.012152,-0.00042724,0.012807,0.014946,-0.0045428,-0.01338,0.014212,-0.013328,0.0026184,-0.010022,-0.010634,-0.023824,0.0051774,-0.0037462,-0.0039766,0.0087086,-0.0081228,0.0071264,-6.5984e-05,-0.001763,0.0058712,0.02852,0.0078384,-0.0052865,0.022946,0.00094288,-0.0051055,0.0023253,0.037416,-0.00046393,0.0022585,0.024271,-0.0035601,-0.0018503,0.0025572,0.011582,0.026763,0.0069696,0.0015166,0.0044875,-0.00059028,0.0025368,0.00623,-0.0040927,-0.0069604,0.01055,0.0058087,0.0039879,0.006083,-0.0033501,-0.023563,-0.0025245,0.0086903,0.008744,0.016174,-0.050716,-0.0024464,0.010765,-8.2644e-05,-0.015221,-0.0012331,0.016512,-0.038705,-0.13078,-0.042665,-0.0027588,-0.1421,-0.018935,0.0046593,0.0050414,0.02273,-0.0010831,0.00032353,0.0024255,-0.0062529,0.011266,0.069127,-0.0060048,0.013913,-0.008033,-0.076897,0.013677,-0.010677,0.0056785,0.0075394,0.0017626,0.0036595,-0.0038294,-0.0073591,-0.027378,0.030316,0.035456,0.0048967,0.0384,0.021704,0.0026463,-0.023036,0.010573,-0.020449,0.042751,0.10558,0.0076959,0.1116,0.03589,0.0064407,0.09118,0.0026715,0.023913,0.050439,0.016105,0.0030668,-0.017227,-0.0035938,-0.0044316,-0.0082373,-0.020139,-0.0023513,0.0066597,0.0084207,-0.0046573,0.034374,-0.0058036,0.010657,-0.026398,0.0030868,0.0016055,-0.019496,-0.0013378,0.031303,-0.017622,0.0077621,-0.004029,0.023839,0.0061627,-0.0020704,0.025023,-0.012439,-0.0034498,-0.053155,-0.00058442,-0.019224,0.0011122,0.00024583,0.0028845,-0.025005,0.00075743,0.00018205,0.0013579,0.0018811,-0.0042384,0.013101,0.0044585,0.0047886,0.0062417,0.014277,0.015888,-0.016257,0.00864,0.049511,0.0021143,-0.0090923,-0.00041283,0.034303,-0.0020887,0.0084975,-0.019516,-0.011552,0.00057405,0.0010474,-0.014605,0.0015533,-0.0033095,-0.0019707,0.004165,-0.0022708,0.0051141,-0.0014244,0.0047287,-0.17286,-0.053895,0.0095945,-0.010269,-0.0063202,-0.016866,-0.027324,0.019829,-0.0028676,0.012709,-0.018531,0.0090285,-0.042146,-0.059297,-0.029376,0.0040954,5.9429e-05,-0.011007,0.0070433,-0.010287,0.0028467,0.00060462,-0.011472,0.021866,-0.059348,0.0013367,0.0094336,-0.0042424,-0.0081535,-0.050944,-0.025996,-0.025916,-0.0021004,-0.0046643,-0.013922,-0.0099968,0.0067985,-0.02078,-0.042634,-0.013913,-0.0092816,-0.011401,-0.016706,-0.017611,-0.02601,0.012946,0.0013012,-0.0040567,-0.081027,0.019693,-0.019109,-0.033688,0.0033896,-0.0038607,0.012078,-0.016046,-0.004611,0.016584,0.01429,-0.0038805,-0.016767,0.04027,-0.070922,0.0064499,0.00055758,0.0066637,-0.043248,-0.02361,-0.034278,-0.0060956,-0.0017673,0.0019046,-0.0070218,0.0079197,-0.013041,0.0021299,-0.030766,0.0022004,0.00068128,-0.012363,0.0078153,0.005956,-0.047868,0.02279,-0.020649,-0.023984,0.0070542,0.010938,0.0041705,-0.011599,0.005737,0.0017719,0.0053936,0.016949,-0.012696,0.016881,-0.011446,-0.013642,0.00071026,-0.031475,0.025052,-0.004045,-0.064305,-0.018381,-0.013094,-0.0092305,0.022771,0.0089626,0.0014384,-0.039073,0.0095712,-0.01935,-0.012368,-0.020549,-0.0032897,-0.025982,0.0063725,-0.015246,-0.039087,-0.002585,-0.019612,-0.0068672,0.0062688,-0.011811,0.24687,-0.016867,0.0046261,0.015256,-0.010805,-0.0055332,0.0089935,0.026326,-0.0087894,-0.0017728,0.014726,-0.014875,-0.0068856,0.0083456,-0.0062861,0.010395,-0.00060088,0.0029605,0.0065234,0.050722,0.0023667,0.011142,0.0050444,0.0026548,0.007772,0.013848,0.0088398,-0.0087638,-0.0076127,-0.00085017,0.01211,0.0063674,0.0088624,-0.003369,-0.0022533,0.006634,-0.00091685,-0.006949,0.021792,0.0072417,0.0059763,-0.0070287,0.028273,-0.013717,0.01671,-0.0090514,0.036025,-0.043496,0.0083452,0.032782,0.023032,-0.072311,-0.0031706,0.018513,0.012182,0.0036912,0.011626,0.018452,0.01383,0.021758,0.0090829,0.0034725,0.082432,0.073612,0.028043,0.0015536,-0.016352,-0.0088433,0.017049,0.030422,-0.012515,-0.001303,-0.0060566,0.0098506,-0.0044574,0.0056589,0.0051694,0.046757,0.013347,0.010873,-0.0016681,0.0098547,0.03594,0.010601,0.063907,0.025463,-0.0029181,-0.018152,0.0039068,0.0023884,0.0091111,0.005378,0.0038868,-0.013216,0.0027844,0.0050478,0.011639,0.0066831,-0.00060936,0.021009,0.0019248,0.0058129,0.0389,0.025919,0.055269,0.0090375,0.035397,0.047963,0.014291,0.011694,-0.0083753,0.01293,0.022753,0.01076,0.0090519,0.0091142,0.022786,-0.0057209,0.017131,0.0011655,0.0030377,0.0018843,0.03223,0.0096207,0.0022136,0.0023012,-0.015079,0.11224,-0.010573,-0.10351,-0.034524,-0.0039427,0.0032209,-0.0085919,-0.035029,-0.014956,0.0092341,0.018932,0.011279,-0.010905,0.0076406,-0.015934,0.047165,0.036739,-0.0041512,0.0046212,0.016712,0.0043619,-0.024526,-0.00962,-0.0069871,-0.0063406,0.033698,0.011769,-0.0054438,0.0010812,-0.0012272,-0.00087178,0.0074654,0.015033,-0.071707,0.00067515,-0.0025879,0.033476,-0.039654,0.016209,-0.026416,-0.01148,-0.06428,0.029671,-0.021537,0.028423,-0.0066054,0.066734,-0.0015208,-0.030684,-0.0018559,-0.036723,0.0074666,-0.012712,0.087208,-0.0025475,0.0063547,-0.0027952,0.0018864,0.0066829,0.010814,0.010462,-0.012443,0.0034137,-0.044318,-0.012966,0.0045873,0.036576,-0.00026106,0.042675,0.0063638,0.018914,-0.0073309,-0.019467,-0.0025516,-0.0089744,-0.0087108,0.016165,-0.0025019,-0.025016,-0.014421,-0.0090154,0.013417,0.020224,0.0092717,-0.047056,0.015284,-0.015005,-0.00069677,-0.016218,-0.016464,-0.0043471,0.0053273,0.001251,-0.010516,-0.0060437,-0.00065319,-0.0068237,0.014586,0.004835,-0.0067935,-0.018595,-0.029727,0.021263,0.0098998,-0.013082,0.012627,-0.0062426,-0.015142,-0.0051401,-0.015219,0.047481,-0.0040957,0.0099485,-0.0073807,-0.012708,-0.020484,-0.0021228,0.0052233,0.0023482,-0.0079441,-0.016199,-0.031351,0.0076737,0.015568,0.010992,0.0059034,-0.036117,0.070238,-0.19407,0.004922,-0.0098996,0.015129,0.026587,0.0037779,-0.007322,-0.01267,-0.006607,0.0032361,-0.0094449,-0.011812,-0.029299,0.0024917,-0.031747,0.024622,-0.017414,-0.0068966,0.0018164,-0.0033966,0.0043197,-0.030751,0.00068045,-0.0054994,-0.0010256,0.01894,0.035178,-0.0013051,-0.029607,-0.0024497,-0.010207,0.0055827,-0.0030929,-0.00094841,-0.0058634,-0.055019,-0.0043928,-0.013877,0.0077316,-0.048806,0.020873,-0.065549,0.015963,-0.013597,-0.021251,-0.011364,0.014881,-0.0017194,-0.033746,-0.015194,-0.0073609,0.02614,0.040586,0.045942,0.0024679,0.015071,-0.0067303,-0.034811,-0.0052687,0.0077851,0.00052371,-0.0046549,-0.017695,0.0042175,-0.0018496,0.015704,-0.01267,-0.05118,-0.073193,-0.019876,0.019192,-0.01676,-0.017208,-0.0088259,-0.031576,-0.011264,-0.018492,-0.035153,-0.021127,-0.010299,-0.0011209,0.0023361,0.014831,0.0021211,-0.00019789,-0.043262,0.0025482,-0.010155,0.0047297,-0.020921,-0.014009,-0.0040948,-0.01898,0.00021396,0.00040539,-0.0044349,0.0073688,0.0043542,0.0039089,-0.026931,-0.0055609,0.00016964,0.0022195,-0.011065,0.01378,-0.016016,0.0070455,-0.00085047,0.011322,0.0081187,0.006948,0.0047472,0.014563,-0.004372,-0.0011107,-0.0050213,-0.029717,0.020546,0.0089125,0.0031968,0.003989,-0.0037309,-0.017732,0.0073476,-0.0063592,0.0075218,-0.060483,-0.0040127,-0.0081091,-0.011439,0.057209,0.00113,0.013784,0.034121,0.0017464,-0.0035185,-0.0092596,-0.0085572,-0.0052439,0.01332,-0.0013454,0.0065234,0.00061017,-0.027355,-0.037528,0.0013014,-0.0044686,-0.0095001,-0.002939,-0.0046873,-0.0001637,-0.0060819,-0.0044278,-0.00098913,0.0064794,-0.001096,0.00015412,0.0067977,0.0085763,-0.0050381,0.0044744,0.0094459,0.022246,-0.0016483,-0.014805,-0.012674,-0.017056,0.05759,-0.030759,-0.020383,0.00125,0.073165,-0.023942,-0.0029633,0.0014753,0.021339,0.019259,-0.0049827,0.041283,-0.0015615,0.0061253,0.0084701,0.035704,0.0015511,0.041493,-0.0092663,-0.021145,-0.0065763,-0.0032802,0.017963,-0.0096054,-0.029006,0.026517,-0.059423,0.0075145,0.0057255,-0.0022674,-0.002549,0.0035407,0.014448,0.00010311,-0.011534,-0.002716,-0.0073246,-0.0019628,0.0056276,0.0067618,0.020227,0.00026625,0.0033141,0.011839,0.0047415,-0.0054394,-0.0034015,-0.01082,-0.0067645,0.0013322,0.0028787,0.0025309,-0.0034129,0.007598,-0.01225,-0.0087082,-0.0017298,-0.0042841,-0.0063632,0.0037408,-0.0010711,-0.013537,-0.0020107,0.0085633,-0.0030882,-0.0037799,0.018462,-0.0039533,0.005723,-0.00094444,0.018588,-0.01329,0.0049087,0.0037149,0.016338,-0.0041594,0.004229,-0.011564,0.013844,-0.019949,0.0085982,0.0020857,-0.0072315,0.00222,-0.0068291,0.0032446,-0.003821,-0.0012064,0.0028365,0.011626,0.004162,-0.15484,-0.075519,0.093522,-0.010452,-0.00891,0.01104,0.0031558,-0.031656,0.013004,0.028846,-0.012783,0.00026454,0.0051709,0.0079661,0.00022117,0.0079819,0.0043478,0.020274,0.015655,-0.015198,-0.0026181,0.017557,-0.011374,0.018547,-0.012831,-0.0071245,0.0011323,0.027683,-0.0019062,-0.11123,0.0025591,-0.0091437,-0.0023428,0.0042173,-0.0013988,0.0018683,-0.0044627,-0.010324,0.0072139,0.0035709,-0.00092556,-0.003709,0.0066684,0.0079173,0.0026099,-0.009795,-0.010629,-0.0060413,0.0056022,-0.0013082,0.00094787,0.021024,0.0032717,-0.007144,-0.0014355,-0.0043178,0.0063331,-0.0021462,0.00033919,0.0012686,-0.095891,-0.01639,-0.053294,0.0042728,-0.049152,-0.0079225,0.0012132,0.0019893,-0.0092093,-0.0083783,-0.040512,-0.027474,-0.071038,0.0041421,-0.017073,0.054398,0.0095109,0.036501,-0.032714,0.0082224,-0.009817,-0.05306,-0.034074,-0.014689,0.068119,-0.0055931,0.0039474,-0.010965,0.00060541,-0.0074811,-0.01328,0.010733,0.0050653,0.0021642,-0.0019462,0.056813,0.049263,-0.051214,0.010041,0.014825,-0.017866,-0.0016933,-0.0036462,0.0070371,-0.0020387,-0.0059089,-0.0092033,0.0057652,-0.0037599,0.021665,-0.0053298,0.033047,0.008807,0.022625,0.014496,-0.0094054,0.039409,0.030726,0.0028499,-0.014974,-0.13232,0.033175,-0.0020146,0.028583,-0.0091006,-0.0068716,-0.050937,2.4159e-05,5.1015e-05,-0.016721,0.0027814,-0.018755,-0.011549,0.0043526,-0.014341,0.017569,0.01338,0.0048671,0.0042463,0.0028142,-0.00014839,0.0039956,-0.03154,-0.00025767,-0.0043731,0.0015495,0.00069182,-0.002114,0.008417,0.0051893,-0.035934,-0.0050372,0.007091,-0.013428,0.0034907,-0.0032826,-0.0037775,-0.0013937,0.005072,-0.0032027,-0.0025251,0.00069548,-0.005619,-0.02185,0.0014441,-0.0004066,-0.00045762,0.0048085,-0.0073356,-0.0067251,-0.00062071,-0.0095771,-0.0072472,-0.0057177,0.0069518,-0.0001148,0.013945,-0.0041057,0.018401,-0.0075652,-0.0016908,0.00074252,-0.0098986,-0.0013393,-0.004064,-0.0023712,-0.0024853,0.0021795,0.0072316,0.015683,0.039558,0.0037588,0.0050657,-0.02336,-0.0015268,-0.01258,0.0079603,-0.0054088,-0.014005,0.0014329,-0.090737,-0.014109,-0.0073729,-0.015097,-0.0079373,0.0046923,-0.021258,-0.011251,0.03039,0.017729,-0.11717,0.0062982,-0.029279,-0.016694,-0.010085,-0.072368,-0.0083481,0.011799,-0.0022926,-0.0075359,-0.004757,-0.0034529,-0.0042983,-0.004359,-0.0066789,0.0080402,-0.0021214,-0.0038876,-0.0017547,0.0051669,-0.004163,0.0042101,0.0013405,0.00057459,-0.0078342,-0.0017471,-0.0011974,-0.0032199,-0.002107,-0.0010229,-0.0077824,0.0084495,0.0045184,-0.00030771,2.6101e-05,-0.0021825,-0.00053369,-0.003505,0.0081998,0.014748,0.045978,-0.0092832,0.0071618,0.019802,0.0099945,0.0078771,0.0076012,0.0095614,0.11218,-0.0075273,0.008417,-0.005241,0.008686,0.010246,0.01964,-0.015055,-0.026442,-0.023768,-0.04924,-0.046553,0.007189,0.025177,0.0023782,0.0072065,0.008337,0.0085771,-0.0022494,-0.00057198,0.0036518,0.02901,0.01267,-0.10092,0.016697,-0.023941,0.017718,-0.035254,0.021752,-0.011857,-0.050678,0.012079,0.038843,0.012113,0.063254,0.0061324,-0.010975,0.0069877,0.014516,0.0054262,0.0047004,0.0013364,0.0037445,0.00229,0.013027,-0.022608,-0.040447,0.0015672,0.010811,-0.0010964,0.0073962,0.0034814,0.0087841,-0.00045698,0.00020041,-0.0035341,0.018057,0.022076,0.0081175,0.017888,0.0014318,0.0075689,0.006956,0.0014803,0.012275,-0.018795,0.025023,0.014421,0.037965,-0.0068816,0.0037906,0.005457,0.0045927,0.0033969,0.0019422,-0.0014753,0.0048727,-0.0211,0.0050102,-0.013706,-0.02355,-0.017443,-0.01409,-0.010124,0.013329,0.00058118,-0.047235,-0.0012257,-0.0078331,-0.033502,0.052138,0.04311,-0.0042183,-0.0075168,0.0045135,0.021855,-0.018979,0.048542,0.0028493,0.0048499,-0.055138,0.018242,-0.018344,-0.014446,0.037395,-0.033837,0.01214,-0.019521,-0.034136,0.0050666,0.0039607,-0.0050885,-0.0028887,0.0096409,-0.0046402,0.024872,0.020673,0.010375,0.0033521,0.0044995,-0.0086595,-0.047986,0.0091837,0.0049448,0.0089558,0.0057596,0.050635,0.0040875,0.074822,0.010363,0.0019931,-0.0061868,0.012376,0.0063918,-0.0012827,0.01507,-0.001467,0.0029074,0.0024921,-0.03348,0.00011024,-0.0069035,0.014029,0.031647,0.0051431,-0.03002,-0.022471,-0.0013682,0.011914,-0.020093,0.0058423,0.0041036,0.0023122,0.010351,0.0025882,0.019296,-0.0037934,-0.0072799,-0.0056393,-0.0097607,-0.018441,-0.0014958,-0.0014026,0.0020261,-0.00070945,-0.029712,-0.0025211,-0.010116,0.00020638,-0.0042568,0.011126,0.011666,-0.023335,-0.0085855,-0.011583,0.0037334,-0.0032781,0.0016577,-0.0044185,5.7271e-05,0.0082426,-0.0034319,-0.0046876,0.0055796,0.0072876,-0.0027622,-0.0016954,-0.0018394,-0.00060848,-0.075353,-0.0020032,-0.01054,-0.0035402,-0.0030929,0.0019334,-0.00089826,-0.0078764,-0.0014511,0.02904,-0.024995,-0.0069772,-0.0018239,-0.0040046,-0.015425,0.0098911,0.010449,0.0049139,-0.0051759,0.0085358,-0.14895,0.013966,-0.015986,0.010864,0.010944,-0.010406,-0.040852,-0.018957,-0.035946,-0.0035169,-0.007815,-0.011557,0.0090417,0.0054685,-0.024187,0.011787,-0.0089015,-0.001979,-0.0050998,-0.005206,-0.0025551,0.0043716,-0.0055447,0.0018705,-0.0072708,0.0057333,0.006498,0.057326,-0.0012714,0.0036454,-0.0059365,0.0054655,0.0010788,-0.0048045,0.038505,-0.0067974,-0.0027205,-0.00096867,-0.028117,0.00050482,-0.0041721,0.0012963,-0.043034,0.00022433,0.00049403,0.0043714,-0.053689,0.000584,0.011747,-0.017159,-0.057179,0.0093512,0.0015021,0.0052062,0.00035374,-0.010446,0.04661,-0.00053928,-0.01703,-0.0055523,-0.02207,-0.016315,0.0062129,-0.036708,0.037054,0.018596,-0.17113,-0.1797,-0.024314,-0.06983,-0.00054341,-0.069707,-0.060295,0.019688,-0.020316,0.013365,0.004698,-0.0021263,0.003753,-0.0035972,0.0042568,-0.0063844,0.020425,-0.12346,-0.017549,-0.22537,-0.0062752,0.013263,-0.042862,0.041152,0.029964,-0.0098408,0.0030937,0.006715,0.0061598,0.0051247,0.00065538,-0.0022588,0.007468,-0.0083039,-0.007244,0.008043,0.015451,-0.0060767,-0.059978,-0.011545,0.010188,-0.0011845,-0.0091614,0.0055813,-0.0010197,0.0027885,0.008196,0.022953,-0.021954,0.0071298,-0.16096,-0.0081837,0.00046347,0.0061514,-0.0014486,-0.0060369,0.0032256,0.029725,-0.047776,0.00012498,0.0052752,-0.087452,-0.033129,0.0078893,0.0095349,0.0037559,0.035955,0.0035751,-0.019356,0.0060981,0.0084476,0.0013183,-0.00095564,-0.048641,0.013861,0.0040075,0.030587,-0.0036743,0.053155,0.0052327,-0.00072073,-0.029283,0.031378,0.014292,-0.013804,0.0083286,0.0010153,0.0068035,-0.032317,-0.0058475,-0.030692,0.017896,0.0072702,-0.006899,-0.069442,0.0056628,-0.0096322,-0.010003,-0.021831,0.005562,-0.040684,0.010926,0.0022214,-0.015678,-0.0065648,0.13789,0.0094806,0.013518,-0.056422,-0.022406,0.0028903,-0.034258,-0.046685,-0.062737,0.038913,0.0021501,0.0022689,-0.0028451,-0.0074484,0.014604,0.0028414,0.0070604,-0.0029415,0.0074549,0.030054,0.026056,0.067369,0.046375,-0.10732,-0.027817,0.024205,0.0084062,0.033988,0.077032,0.06345,0.0026309,0.00081734,-0.0071625,0.0014835,0.015748,0.0016158,-0.014483,-0.011561,0.01508,0.0079251,-0.00033041,-0.0008209,-0.0061234,0.0024234,0.020804,-0.045212,0.0088338,-0.00025647,-0.027001,-0.018441,-0.0032819,-0.011719,-0.011339,-0.0010528,-0.053562,-0.003761,-0.0075282,0.0056766,-0.0070145,-0.0053613,0.010858,-0.0040374,-0.0011949,-0.0076355,0.0045554,-0.0068255,-0.00040791,-0.001049,-0.0021136,-0.0088111,6.1835e-05,0.0011879,-0.0050422,-0.0090723,0.0093894,0.0008671,-0.0048849,-0.0052646,0.017158,-0.001444,-0.017744,0.0045505,-0.0043541,0.0018748,0.0053201,0.011729,0.0049203,-0.05,-0.079757,-0.068134,-0.0072422,-0.025994,-0.014402,-0.012291,-0.0014728,0.0020666,0.0049029,-0.010571,0.034452,-0.0064056,0.033354,0.079193,0.065027,-0.01164,-0.012937,0.0068345,0.021772,-0.00037095,-0.081708,0.015012,-0.0089143,0.023947,-0.028591,-0.051761,-0.006831,-0.0010616,0.0059234,-0.0060896,-0.0097689,0.00425,0.0014753,0.00143,-0.0094968,-0.024509,-0.016946,-0.0059175,-0.0079593,-0.0036349,-0.0075369,-0.0058449,-0.0046967,-0.0070258,0.0057315,0.0062883,-0.003935,-0.0032266,-0.021428,0.0062932,-0.0183,-0.00070695,-0.018709,0.0033973,-0.0032579,1.1321e-05,0.0067292,0.0036137,0.020518,-0.0016071,-0.053753,-0.0022885,0.0084647,-0.054432,-0.016335,-0.019002,0.0069911,0.0024222,-0.0020026,-0.0007516,-0.0036052,-0.00166,-0.0062408,-0.040398,-0.011805,-0.0052989,-0.030774,0.026472,-0.030619,0.0046357,-0.0028272,0.0028578,-0.039473,-0.066203,-0.014521,0.015149,-0.015625,0.006622,0.0011905,-0.0040327,-0.00036347,0.0011764,0.0015264,0.0057658,0.011922,0.013964,-0.0075959,0.053541,-0.00052103,0.011547,-0.0043217,0.00020826,-0.025067,-0.0011734,0.011018,0.0060715,0.0018487,-0.0038071,0.0083793,0.037542,-0.004948,-0.00097266,0.0042361,0.00036063,0.002929,-0.0012382,-0.0083167,0.0049777,0.014739,0.0048444,0.007381,-0.0043454,0.011671,-0.00090404,-0.0046677,-0.008065,-0.013217,-0.0034378,-0.023282,0.005692,-0.005696,0.0039376,0.0051168,-0.0078285,-0.0018167,-0.0041021,-0.05873,-0.065287,-0.010253,-0.049262,-0.028181,-0.0039646,-0.0093822,0.00027465,0.052174,-0.035981,0.03339,-0.020414,-0.027248,-0.032484,-0.07887,0.011392,0.020708,-0.042348,-0.0055961,-0.0042316,0.013951,-0.026325,-0.044249,0.059126,0.0009666,-0.017178,0.006288,0.028178,0.0037205,0.026576,-0.0019293,-0.0041345,0.01146,0.0017675,0.027573,0.01544,0.01595,0.06245,-0.0045387,-0.026733,0.0073832,0.0053576,0.0073127,-0.0025202,0.03366,0.0088388,0.058032,0.0042373,-0.012204,0.0041208,0.0060994,0.023177,0.013163,0.021184,0.009346,0.050726,0.02777,-0.0073496,0.0058264,-0.07187,-0.044107,-0.0016735,-0.007057,-0.040366,0.0078624,-0.017071,0.055884,0.0052655,-0.030373,-0.0045531,0.021035,0.012757,0.013819,-0.063229,0.06569,0.018485,0.24684,0.0080919,0.025774,0.0061595,0.0076756,-0.0094774,0.0052601,0.0012064,0.0042982,-0.0064677,0.012955,-0.00015082,-0.13135,-0.012558,0.029318,-0.028951,-0.010098,0.022569,0.0065646,-0.0089091,0.02089,0.003983,0.0016087,0.015196,0.0084663,0.021713,0.053069,0.0025795,0.0097113,0.029966,0.038979,0.017492,0.0028773,0.0027373,0.0033531,0.0010713,0.0035343,-0.0033544,0.0042141,-0.12003,0.069244,0.0006337,0.0013669,0.024636,-0.020866,0.0062966,0.0069513,0.0043045,0.0086048,-0.013474,0.043556,-8.283e-05,0.089114,0.0024036,0.034105,0.016302,-0.00095217,0.0044149,0.026577,0.0082924,0.0096441,0.00087368,0.02262,0.057732,0.0021154,0.0011587,0.0017192,-0.0051731,0.0072656,0.025106,0.015369,-0.00051649,-0.0073625,0.007853,0.0097707,0.0083962,0.016459,0.0072869,0.028241,-0.0018347,0.016054,0.0057151,-0.037165,0.00050789,0.0093555,0.02002,0.031467,0.011299,0.0003895,0.0093394,0.0094584,0.0082576,0.0092185,0.0084287,0.015549,0.0042307,0.0032601,0.0065504,0.0059749,-0.0070716,-0.0050473,0.0079151,0.0036039,0.0087345,0.042485,0.0054171,0.01712,0.0046446,2.2935e-05,0.0043686,0.030951,0.0056344,0.014014,0.0053187,0.017496,-0.0036598,0.0016893,0.019057,-0.010388,0.0058212,0.0042393,0.0029593,0.0055212,0.0069459,0.0043987,0.0034367,0.0059334,0.0041927,-0.099527,0.012202,0.040954,0.040758,-0.003049,0.0065272,0.0041348,0.0011851,0.010445,0.0043935,-0.0022517,0.0060375,0.0028885,-0.034866,-0.010884,-0.0083761,0.0016935,0.0054696,-0.011271,-4.8998e-05,0.036549,-0.030175,0.034303,0.010063,0.0026007,-0.010186,0.0020852,-0.036234,0.0051332,0.0054475,-0.0078618,0.002205,0.0068654,-0.0025641,0.0020502,0.0044217,0.0013557,-0.015014,-0.0031544,-0.0039462,0.0024663,0.0049668,-0.00059655,-0.0067727,-0.011447,-0.0098083,-0.010548,-0.0036035,0.0076998,-0.0087377,-0.0098967,0.0078474,-0.017725,0.0046832,-0.0016932,-0.012045,-0.012872,-0.0044307,-0.0057063,-0.0016574,-0.0039481,0.004494,-0.00071199,-0.0089315,0.0017508,-0.0019865,0.0049266,0.012707,0.0051547,0.034411,0.02155,-0.014945,-0.0033481,-0.0021977,0.0078568,0.0066389,-0.013293,-0.037849,0.032102,-0.024861,-0.043326,-0.028927,0.0091984,0.01301,0.011034,0.015571,0.00091149,-0.0083209,-0.0096474,-0.085385,0.014137,-0.029706,0.010719,-0.014268,0.01463,-0.008337,0.013772,-0.0052517,-0.0047316,0.0066971,-0.0045002,0.0053964,-0.0013572,0.0060175,0.020183,0.013681,0.00052664,-0.0026974,0.031778,-0.00015621,-0.0015962,-0.0017466,0.026555,-0.0058119,-0.00030161,0.041848,-0.0018996,-0.0038343,0.00079871,-0.034626,0.0011868,-0.0019563,0.0011437,0.013953,-8.2749e-05,0.0012296,0.0019501,-0.0053337,-0.008479,0.0012891,0.0049103,-0.00027775,-0.0086735,-0.0094684,0.010681,0.007553,-0.0054945,0.07587,9.486e-05,0.052968,-0.012454,-0.0062055,0.024612,-0.052066,0.002331,0.04493,0.0064411,0.034134,0.021043,-3.9802e-06,0.020085,0.0064198,-0.024121,-0.0023643,0.020952,0.0051114,0.0050336,0.0040625,-0.011605,-0.01847,0.018156,0.024433,-0.0028827,0.0019908,0.0055096,-0.0067289,0.0038873,-0.005538,-0.0096904,-0.021369,0.0050059,-0.031382,0.0030762,-0.0012661,-0.0043581,-0.0025198,-0.019019,-0.0031353,-0.0037678,0.0086443,-0.0048159,-0.0088435,-0.0078329,0.00050326,-0.011637,-0.013333,-0.014339,0.0078415,-0.0012022,-0.0082816,-0.004755,0.0027633,-0.0049928,0.0090256,0.011313,0.0019405,-0.0050972,-0.00012485,0.0067546,0.0007126,-0.040292,0.0032398,-0.0019369,-0.0012957,-0.0021649,0.011203,-0.025837,0.070533,0.011326,0.0026776,-0.059701,-0.012966,-0.0018767,0.0073736,0.003785,-0.029528,-0.018187,-0.043784,-0.050474,-0.0012126,-0.03574,0.0037792,0.0029147,0.0063934,-0.045416,-0.010288,0.0083121,0.010123,-0.095339,-0.010716,0.014598,0.01514,-0.014115,-0.035869,0.0055038,0.016801,0.029378,0.014267,0.01118,-0.00025255,-0.0041666,0.0048573,0.0033877,0.0044194,0.0032074,-0.0022302,-0.006522,0.020811,-0.0025237,0.0015666,-0.0045751,-0.001014,-0.009522,-0.00025503,-0.011956,-0.0029896,-0.0083843,-0.0014737,-0.026909,-0.0041145,0.0014879,-0.00016858,0.046296,-0.0019292,-0.00049919,0.0058087,-0.0036028,0.0034345,-0.0076453,0.005522,0.0058185,0.0057949,0.0062994,-0.017341,0.0067001,-0.0055124,0.021534,-0.0030517,0.062728,0.012351,-0.0021585,-0.021823,0.0074834,-0.011449,-0.14013,-0.00018855,-0.0024285,0.026238,-0.0073666,0.012367,0.0021436,0.030941,0.0037059,-0.0018476,-0.04972,-0.010155,-0.017203,-0.0066662,-0.0068102,0.0043019,-0.027499,0.090746,0.01057,0.0011658,-0.00043714,0.0042033,-0.0059575,-0.0071841,-0.0077632,-0.0049708,-0.0071954,-0.0051358,-0.0074215,-0.00082743,-0.0055086,-0.0022195,-0.0027264,-0.0088578,0.0013077,0.0013969,-0.014945,0.0034263,-0.0053784,-0.0058,-0.0060709,-0.0012452,-0.0058875,-0.0075909,0.0025348,-0.016009,0.10274,-0.014047,-0.0038806,0.0066357,-0.0048745,0.011362,-0.0092905,-0.027343,-0.013469,0.010521,-0.019581,8.917e-06,-0.016369,0.0062147,-0.00045904,-0.0038955,-0.0015217,-0.01466,0.014215,-0.0046663,-0.0030607,-0.010636,-0.023639,-0.0079269,-0.03804,0.0071536,0.0016799,-0.00065464,-0.046457,-0.0072353,-0.025901,-0.013721,0.0017522,-0.0043873,-0.0018755,-0.043762,-0.015092,-0.014226,-0.0098063,-0.0019732,-0.028312,-0.0014107,0.0022514,-0.004669,-0.036855,0.0003337,-0.0051676,-0.011654,-0.0051183,-0.0080763,-0.0060926,-0.0028047,-0.013685,0.046979,-0.01758,-0.0014183,-0.015878,-0.0095276,-0.0026131,-0.020345,-0.0036095,-0.0086451,-0.012409,0.0060829,-0.0067099,-0.0059112,