-0.014598,0.0003696,-3.4757e-05,0.00069441,0.00045551,-0.00067911,-0.00016346,-0.00045766,-0.00046652,-0.00052671,-0.00021833,0.0010721,-0.00084639,0.002768,-0.00091567,-0.0010811,0.00081773,-0.0012963,0.0090037,-0.00098018,-0.0019981,0.0011068,0.0071706,-0.00047614,-0.00053355,-0.00036113,-7.0301e-05,0.00025696,0.00012176,0.0013925,-0.00071326,-0.00029819,3.1004e-05,-0.00056361,-0.00012977,-0.0058188,0.00031599,0.00037693,-0.00094832,0.00038272,0.0001324,0.00026999,-0.00016003,0.00033257,0.00019787,0.00076511,0.00086133,0.00023057,0.00034312,-0.00056851,0.00050279,0.0002993,0.0013066,7.4693e-05,-0.00088411,0.00071666,0.0013695,0.00035111,9.7559e-05,0.00046101,0.00046418,0.00079802,-0.000186,0.00031958,0.0080489,-0.00016674,0.00088807,0.00012117,-0.00050989,0.00039642,0.00028586,0.00017731,-0.00067698,-0.00028425,0.0026733,-0.0008106,0.00076949,-0.00055521,0.001197,1.8418e-05,-0.00010731,0.00048247,0.00031936,0.0024994,0.00034391,0.00030833,-3.7123e-05,0.0018474,0.0059136,0.0031181,0.0015068,0.00043849,0.0013408,-0.00062228,0.00043634,0.00043639,0.00036833,0.00019675,0.0017507,0.0017983,0.00095332,0.00454,0.0018422,0.014377,-0.0013086,0.00087206,0.0014316,-2.4541e-05,0.00017004,0.00049532,0.0013976,0.0053011,0.00073451,0.00084395,0.00038819,-9.5082e-05,0.00031017,0.00072248,0.00054049,-2.9779e-05,-0.00013373,0.0016484,-0.00101,-0.00011935,0.00044077,-0.00072161,-0.00037855,0.0037879,0.0028306,0.0002094,-0.005058,0.00026531,0.0004905,-0.0007756,-0.0019049,0.0011879,0.004672,0.0041703,-6.2092e-05,-0.0022936,-0.00014695,-0.0030064,0.0016989,-0.00042084,0.0017083,-0.00032949,-0.00024998,0.0014854,0.0013843,0.00098371,0.0012984,0.0023887,0.00027321,0.00035688,0.0011157,-0.0002112,0.00054359,0.0035085,-0.0038868,-0.0067095,0.0015182,0.0009565,-5.0081e-05,-0.00029571,0.00025852,-3.8245e-05,0.00074272,-0.0021301,0.00040556,0.0035212,0.00029255,0.00027409,0.013769,-0.00073498,-0.00047975,5.3037e-05,-0.0012848,-0.00038981,0.0059997,0.0016045,8.4972e-05,0.0014187,-0.00024048,0.0012057,0.00093522,0.00044887,0.0010956,-0.0018313,0.0080301,-0.00052487,0.00073792,0.0010556,-0.00010783,-0.0016863,0.00028196,-0.0044571,0.002968,-2.1995e-05,0.00015835,4.6193e-05,0.001574,0.00032848,0.00034631,0.00047629,0.00019568,0.0026316,-7.8818e-05,0.0014593,-0.0046241,0.00079778,0.00031383,0.001388,-0.00035057,-0.0031822,0.0026123,-0.0020236,-0.0027545,0.001597,0.0007413,-0.0011103,-0.0022334,-0.00011207,-0.001121,0.0039279,-0.0014235,0.0023391,0.00039901,0.00044453,0.011462,-0.0086338,0.013477,0.0019122,0.0019919,-0.00048639,-0.0019791,0.00077048,-0.0052415,0.0016174,0.0013135,0.00012685,-0.00018583,0.00074132,0.00024315,0.00057418,7.404e-05,0.00028761,0.0010648,0.00049898,0.0054182,-0.00019604,0.0018912,0.010077,0.0009392,-0.0016691,0.00070467,-2.8793e-06,0.00018718,0.0001303,-0.00018757,-3.075e-05,0.00023517,0.00025219,0.00047508,0.00030191,0.0093054,-2.7142e-05,-0.0016009,0.0008762,0.00046491,0.00040557,0.001162,0.00030872,0.00070567,0.00063108,0.00064973,0.0040703,0.0019116,0.0041101,-0.00024153,0.00047209,0.00062658,-0.002963,0.0016234,0.000418,0.001838,0.00092964,9.552e-05,-0.0018434,0.0033882,-0.00071569,-0.00079042,-0.00050852,0.0036723,0.0012317,-0.00077823,0.0014213,0.0018337,0.0038152,0.00022321,-0.00026373,-0.00047075,0.0005615,6.12e-05,0.00020293,0.00025979,1.6805e-07,0.00049293,0.00024055,0.00027796,-0.0017631,0.00042702,0.0029928,0.0005248,-0.00063471,0.00049126,0.00057823,0.00031939,-0.00121,3.0976e-05,0.00017518,0.00024902,2.035e-05,-0.0014969,-0.018382,-3.0151e-05,0.00076879,0.00093882,-0.0003103,0.00099376,-0.00045077,-0.0017975,-0.0016845,-0.00020531,-2.95e-05,0.0020599,0.0012332,0.0024778,0.0041401,0.0053416,0.0081653,0.0006338,-8.5933e-06,0.001064,-0.006699,-0.0014854,0.00091864,0.002752,0.00079606,-0.00022434,0.0032796,0.000554,0.00015877,0.00078512,-0.00041187,-0.00044253,0.00072863,-3.1711e-05,-0.00019818,-0.0015415,-1.3879e-05,-0.0020272,0.00058539,0.00014183,0.00080539,-0.00011773,0.0021792,0.0020807,0.00024534,-0.00097653,-0.0014789,-0.00010138,-0.00087411,-0.0022313,-0.00031245,-0.00072946,0.00020745,6.5473e-05,-0.00065012,0.00032692,0.00020603,-0.00029388,-0.0035136,0.00018239,-0.00031041,-0.0021477,0.00029923,0.00031249,-0.0002952,2.089e-05,0.00038994,0.00044309,0.00024398,0.00057552,-0.00090623,0.00033606,-0.0021661,-0.0010187,0.0023697,-0.0020532,-0.0055082,-0.00061683,-0.00020194,0.00045554,0.00015986,-6.39e-05,0.0025372,-0.00031241,-0.00037397,6.6853e-05,-0.00018617,0.00036161,-0.00020343,0.00016191,0.00059639,0.00049901,0.00041127,-0.00048071,0.00082655,-0.0030744,0.0010549,0.0026331,0.00072559,0.015482,-7.2661e-05,0.00060446,0.0016372,0.0002886,-0.00062314,-0.00029024,0.00035525,0.0027102,0.00037688,0.0010898,0.00019262,0.00039996,0.002926,0.0012985,-0.0003151,0.00047355,0.00032834,-0.00012588,-0.00069224,0.0004212,0.0034141,0.0010887,-0.00032724,0.00064458,0.0065547,-0.00074987,0.00048609,0.00093144,0.0027257,0.001708,0.00055318,0.0013921,-0.00011429,0.001057,0.00033047,-0.00025638,0.0054754,0.00014955,-0.00078482,0.00072979,0.00069142,0.00075313,0.00089876,0.00042492,-0.00031033,0.0016857,0.00023419,0.00016744,-0.00093032,-0.0011822,-0.0010458,0.00040974,0.00069702,-0.00069153,-0.00043838,-0.0010725,-0.0091221,0.00086363,0.0013819,0.0025098,0.0017233,-0.00092409,0.00044148,0.0036028,0.00047504,0.0010262,-0.0011046,0.00058309,0.00050542,0.00045472,0.00046511,-0.0027023,-0.0025321,0.00078913,0.00087572,-0.00017933,0.00028938,0.0003328,5.1728e-05,-7.5424e-05,-0.00020243,-9.6128e-05,0.00073049,-0.00039318,-0.00037865,-0.003257,0.00083069,0.0065099,0.0005621,-0.00049093,0.00070378,-0.00011477,0.00045905,0.0003787,0.00097506,-0.00015987,0.0001924,0.0029801,0.00038116,0.0039287,0.001619,0.00016567,-0.00089458,0.002259,-0.0014381,0.0010071,0.0023306,-8.3058e-05,2.2583e-06,0.00053206,-0.00017146,-0.00033232,0.0009708,-0.00061535,0.00018248,-0.00064278,0.00079713,-0.0069022,0.00050137,-0.00054782,0.00025074,0.0060423,0.00084775,0.0022627,-0.00051446,-0.00039075,-0.00048064,0.00038605,-0.00025321,0.00099349,0.00042504,0.0018199,0.00031148,0.00022645,-0.0077595,0.0056505,0.0019575,-0.0049316,-6.1284e-05,0.00052918,-0.00046986,-0.00010597,-0.00039415,-0.00033263,-0.00024854,-0.0015861,-0.00026847,0.00021179,-0.0010692,-7.4418e-06,0.00080109,0.00041717,-0.0001738,-0.00015771,-0.0022243,0.00010415,-0.0032604,-3.0345e-05,-0.00014201,0.00010232,8.0355e-05,0.00017634,-0.00089808,-3.1793e-05,0.0071393,-0.00074379,-0.00040263,-0.0031133,-0.001137,-0.0011421,-0.0081641,-0.0033127,0.0010207,0.001907,0.00020204,-0.0003333,-0.00020368,-0.00028382,-0.00027911,0.00083977,0.000358,0.0018164,-0.0020493,0.00086425,-0.0014512,-0.0010616,-0.0037143,-0.00010496,0.00090408,0.00016483,0.0013234,0.00055428,-0.00032904,0.0010842,-0.00027304,0.0006047,-0.00011301,0.00033867,0.00093849,0.00031215,0.00034123,-0.0069408,0.0037745,0.010476,-0.0010017,-0.0081582,-0.0045591,-0.00020054,0.00034912,-0.00035324,-0.00056204,-0.00031209,-0.00044176,-0.00095473,0.00033891,0.00034847,0.0073178,-0.00018223,0.0033018,0.00030845,0.0050321,0.00045797,-0.00017283,0.00068107,-0.00080202,-6.1191e-05,-0.00017121,-0.00034361,0.00045305,-0.00034787,0.0014892,-0.00048889,-0.00077233,0.00070694,-0.0026254,-0.00094056,0.00047645,0.00075695,0.00078237,0.00027957,-0.00033412,-0.00060735,-0.00023556,0.00048426,0.00066396,3.6536e-05,-0.0010475,3.5796e-05,-0.00011504,-0.0013094,0.00019905,0.00033103,-0.0045206,0.00062208,0.0025094,-0.00071486,0.0039952,-0.0019121,0.00098378,0.00051214,0.00038629,-3.5503e-05,0.00089814,0.0029583,-0.00043377,0.00044019,0.0025132,-0.0011257,0.00056483,-0.0021788,-0.00052716,-0.00091656,0.00024586,0.00086337,0.0038084,-0.00079213,0.00048354,-0.00030954,0.00058976,-0.018509,-0.001008,7.2106e-05,-0.0010527,-9.9445e-05,0.00023577,0.002787,-0.001223,-0.00029479,-0.00010354,0.00012246,-0.00089845,0.002294,0.00033032,0.0024226,-0.00036496,0.00025646,0.00059453,-0.00051646,-0.00018796,0.00023014,-0.00014864,-0.00061527,-0.00077848,0.00088606,0.00016867,-3.0912e-05,0.00021137,-0.00026349,-0.00067552,0.00017813,0.00082932,-1.3157e-05,-0.00034073,0.0012015,-0.00035708,0.00062329,0.0015101,-0.0064613,0.0001947,0.00089369,-0.00020122,-0.00013869,-0.00064577,1.7018e-05,-0.00019127,0.0019494,0.002732,0.00020227,0.0075499,0.0003721,0.0073704,0.0012956,0.0012973,0.00040805,0.0014385,0.00074453,0.00084363,0.00095178,0.00019139,-0.00056727,-0.00026251,0.00041429,0.00074676,0.00045991,0.0012507,0.00094278,0.00011013,0.0048869,-9.8028e-05,0.00023823,-0.0023222,0.00068889,-0.0036114,0.00027351,-0.0019372,-0.00020954,-0.00068891,0.00047513,0.00015805,-0.00053028,-0.00069008,-0.00014684,-0.0016403,-0.00076227,-0.0035456,-0.0045545,0.00050704,0.0059632,0.00071283,0.0010236,0.00049844,0.0062521,0.00033923,0.0011148,-6.7189e-05,0.00064615,0.00022711,0.00041389,0.00069991,0.0002261,0.00048533,0.001069,0.00039526,0.0017772,-0.0021185,-0.00010171,-0.001007,-0.00025535,0.0014949,0.0053772,-0.0015912,-0.00072219,-0.00049426,-4.2435e-05,-0.00061124,0.00020426,0.00051044,0.00040877,0.0008237,4.3638e-05,-3.6516e-05,9.4038e-05,0.00014806,-0.00028334,0.0035991,0.0028804,6.4837e-05,-0.0022866,0.00059323,0.00070685,-0.00044692,0.0014958,0.00063046,0.0018701,0.00044199,0.00013067,0.00063864,0.00023756,0.00092072,0.00023854,0.00018339,0.00045511,0.00019517,0.00023402,-0.0013312,0.00059053,0.0012541,0.0011119,0.0026096,-0.00054107,0.00079151,-0.00088522,0.00052987,-0.00059746,-0.00010855,-0.00040846,0.014147,-2.2142e-05,-0.00088314,0.0037122,-0.0002839,-0.0012211,-0.00017843,-0.00090365,-0.00088618,-0.0031304,-0.0033041,0.0011981,-1.4122e-05,0.00079336,0.0016681,-0.00039351,0.00053268,1.8653e-05,0.00096309,0.0010249,-0.0020861,0.00077221,-0.00052511,0.00019846,0.00012527,-0.00026652,-4.3358e-05,0.00028811,-0.00094655,-0.0017303,-0.00075391,0.0014031,-0.00014211,-0.00055499,-0.00090777,-0.00030183,-0.0018131,0.0012465,-7.419e-05,8.0812e-05,-0.00015707,0.003649,-0.0035827,0.0019959,0.00025872,0.0016503,-0.00031272,0.00078306,0.00012501,0.00013572,0.00021164,0.0019633,0.0017932,-0.00022511,-0.0019028,0.00076555,6.8203e-05,-0.00024872,0.0028491,0.0010009,0.0016249,0.0019296,-0.00023807,0.003304,0.00073596,0.002527,0.00079851,0.00045088,7.3842e-05,0.00046505,0.001372,0.00090392,0.0052035,0.0016689,0.0023067,0.0018632,0.00099242,0.0015486,-0.00050947,0.0029646,0.0011855,0.00078929,-0.0009161,0.0026261,-0.0028569,0.0018816,0.0044609,0.00067328,0.00066313,-0.00035162,0.00026733,0.00084521,0.00026293,-0.00011668,-0.001373,0.0019815,7.0025e-05,0.0012818,0.0016503,-0.00021178,0.00031148,0.0051459,0.00062719,0.0041324,0.00021321,0.00073042,0.0015601,0.00044302,-0.0011296,-0.00045352,-0.00010479,0.004483,0.00049338,0.0024377,0.00047897,0.00052429,-0.0001395,-0.00062675,0.0010461,-0.0012056,-0.0011741,-0.011361,-0.0014497,-0.0015665,-0.00056752,0.00015489,0.0045383,-0.00085875,0.0059386,-0.0028194,-0.00075033,-0.00030332,-6.9733e-05,-0.000421,-0.00049686,0.0011116,-0.00032915,-0.00077139,0.0006066,0.00017095,-0.0076386,-0.0012839,-0.000485,-0.00023582,0.00038585,-0.0003756,-0.00017442,0.00016342,-0.00041724,-2.3364e-05,0.00025723,-0.000315,-7.9531e-05,-0.000261,-0.00060426,-2.2266e-05,-0.00046306,2.4944e-05,-0.00387,-0.00076924,5.2563e-05,-1.7115e-05,9.2035e-05,-0.00025167,5.213e-05,-0.00027128,3.725e-05,-0.016732,-0.0024902,-0.0024847,-0.00045806,-0.00021597,0.0043531,-0.00072496,-0.001434,4.9343e-06,-0.00022561,-8.2805e-05,-0.00069234,-0.00032799,-0.00036237,-0.00072623,-0.0010625,0.0030351,-3.5379e-05,-0.00052973,0.00044305,0.0015815,-0.0018127,0.00090497,9.3221e-05,0.00025952,-0.00031129,-0.0024449,-0.00057133,0.00018061,-0.00086937,-0.0043821,-0.0014227,0.00013723,0.0005049,0.0014254,0.00054403,-0.0048421,-0.00045472,-0.00021777,0.00024631,-0.0001049,-0.00054754,1.7782e-05,-0.00036772,0.00019246,-0.0038514,0.0058265,0.00093337,0.00057482,-0.00059044,-0.0003455,0.0003441,-0.00094982,1.5458e-05,5.1986e-05,0.0007739,0.00079606,-0.00031356,0.0025101,6.0482e-05,-0.00024864,0.0012351,0.0016757,0.00043764,0.0014401,-0.00062834,0.0041451,0.00068766,0.0050849,0.00098296,0.00083461,0.00017202,0.007223,0.00018711,0.0024346,0.0012762,0.0004771,0.0059302,0.0032944,0.0012724,0.0010119,-3.3107e-05,-0.001708,-0.0020435,0.00070052,0.00012139,0.0023339,-0.0001663,-7.6621e-05,0.00030396,-0.00047248,-0.00085353,-0.00023513,-0.0014159,0.00027209,0.0006157,-0.00065382,-0.00053557,0.00066891,0.00037219,0.0005179,3.5541e-05,-0.0010809,-0.0029772,-0.0010131,0.0011251,0.00056123,2.3916e-05,-0.00042058,0.0017546,0.0014216,-0.0008506,0.0013382,0.00010559,-0.0023126,0.00075023,0.0038324,-0.00025259,0.00080909,0.0031828,0.0016975,0.003773,0.0018992,0.0028275,0.002241,0.0010972,-0.0028704,0.00091248,3.6152e-05,0.00051541,0.00067078,-0.0029598,0.0031894,0.00028777,-0.0013662,-0.0014274,0.0014709,0.0013492,0.0011781,-0.0012457,3.9936e-05,-0.00026834,0.00015167,0.0012142,0.00026191,0.00068638,-0.0026131,4.9489e-05,0.00020231,0.0015735,0.0040292,0.00040198,-0.00019346,-1.0269e-05,0.00014458,-0.0001206,-5.8733e-05,0.00094057,0.00025652,-0.00088208,0.0019728,0.0047211,-0.00015484,-0.0010202,-0.00036876,0.00054497,0.00036551,0.0021911,-3.0434e-05,0.00016601,0.0017451,-0.00065106,0.0036321,0.018273,-0.00092162,-0.00025616,-0.0011725,-0.0012262,-0.0016155,0.00045592,0.00031919,0.0020118,0.00093351,6.8492e-06,9.8021e-05,0.00083476,-0.004723,-0.00084005,-0.0032813,0.0004208,0.00083995,-5.054e-05,0.00016812,0.00041088,0.00010914,-0.0028485,-0.0012922,-0.0036369,0.0023708,-0.0088712,-0.00083394,-0.00047476,-0.00067231,0.00022019,-0.00204,-0.0015909,0.0010658,0.00052613,-0.001138,0.0015533,0.00087005,0.00064373,0.0018855,0.001817,0.0019652,0.00079287,0.0039857,-0.00057719,0.0037369,0.0012444,-0.0009205,0.0040549,-0.0010945,-0.0023528,-0.0010898,-0.0012342,-0.00019882,-0.0017559,0.00072485,-0.00063964,0.0021203,0.00077226,0.00079921,-3.9376e-06,0.00083353,-0.0029735,0.0073375,-0.0021384,0.00039395,0.0023894,0.00028027,-1.6485e-05,0.00077592,0.0007281,0.00057552,-0.00022533,0.003523,0.0081732,0.00234,0.0017143,0.0010977,-0.00072193,0.001227,-0.00011422,-0.000481,-0.00066355,0.00096646,0.00059966,0.00058628,0.0005376,0.0033485,0.00087026,0.0023929,-0.00061835,-0.00025202,-0.0005779,0.0032476,-0.00030608,-0.00072956,0.00014159,-0.0036501,0.00082758,0.0013718,-0.0009362,-0.00032019,0.0018438,-0.0022754,-0.001715,-0.00032523,-0.0013382,0.00047779,-0.00050277,-0.00039709,0.00019609,-0.00073323,-0.0026978,-0.0011007,-0.00266,3.6813e-05,-0.00081319,-4.3557e-05,-0.00063223,4.755e-05,0.00025309,-0.00098716,0.0043231,0.0085234,-0.00031393,0.0019904,0.014311,-0.00035781,0.00014158,-0.00063488,0.00026208,8.1134e-06,-0.0002645,-0.00045911,0.00069882,0.00070454,-0.0018964,0.0034821,0.002434,0.00082559,0.011016,0.001474,6.6262e-05,0.00064947,0.00026584,0.00043024,0.00021432,0.00020112,0.0053277,0.00022652,-0.00028958,0.00089806,0.00030545,0.0021838,-0.00088094,-0.00033936,-0.00017706,-0.00057173,-0.00067446,0.00069807,-0.00012598,0.00016503,-0.00019598,-0.0031517,-0.0053621,-0.0021839,-0.00010701,0.0028675,-0.0011926,0.00088398,5.7206e-05,0.0004897,-0.00085797,0.00081956,-0.00084154,0.0016392,-0.0011731,-0.0011671,0.0018421,0.00040393,0.00050816,-0.00014941,0.0002228,-3.005e-05,0.0013905,-0.00014222,0.0022594,0.00079704,-5.1001e-05,0.0026178,-0.00046236,-8.0172e-05,-0.0013138,-0.0010178,0.00024739,-0.00090024,0.0010198,0.00040099,0.0059638,0.00020138,0.00076313,0.00051452,5.6033e-05,0.00023258,-0.00020522,0.0005449,-0.0024312,0.00084246,0.00026722,0.00038387,0.00017518,-5.4266e-05,0.00024469,-0.00013631,-0.00018133,-0.00092432,-0.0014955,-0.00053583,0.0011982,-0.00090836,-0.0053275,9.5117e-06,0.00027286,0.00077803,-0.0028571,-0.0016968,0.00072755,0.00078173,-0.00011463,-0.0002833,0.00091235,0.002503,-0.00023109,-0.0012402,-0.00018604,-0.0002561,8.9205e-05,-0.00018464,-3.0332e-05,-0.00010465,0.0012405,-0.00080138,-0.00063918,0.00084504,-0.0011338,-0.0012327,-0.00071339,0.00061824,-0.000341,0.00046336,0.00010491,0.00034006,0.00022579,0.00015578,2.4054e-05,0.00010792,5.1023e-05,0.00042875,-0.0016029,-0.00086804,-0.00029424,-0.0011189,-0.00096673,0.00089476,0.0018725,-0.0021397,-0.00063438,-0.0016664,-2.382e-05,-0.0001114,0.00013923,-0.0017778,-0.0031983,-0.0017794,-0.00094103,-0.00022957,-0.0036789,-0.00035119,-0.00027344,0.0005043,-7.862e-05,0.00016419,0.00070663,4.1647e-05,0.00023462,-0.00018153,0.00021961,0.00048596,-0.0010638,0.0001006,-6.1212e-06,-4.5609e-05,-0.00039187,-0.00079744,0.00077187,0.00033524,-0.00068904,0.00034786,-0.00061119,-0.00044174,-0.00075647,0.00073489,-0.00042327,-8.152e-05,0.00039192,-0.0001495,0.00013102,0.0001589,0.00034276,-6.2393e-06,7.1572e-05,0.0001698,-0.00028241,2.0757e-05,0.00016128,-8.3526e-05,-0.00032879,-0.00049746,-0.00046608,-0.00095845,-0.0011111,0.00025898,-0.0005651,0.00036072,-0.0001855,-0.0014931,-0.0017543,-0.00037753,-0.0021811,0.00074921,-0.00061262,-0.00023625,-0.00035162,-0.00017407,0.00015107,-0.00046511,3.5908e-05,-0.00028096,-5.7591e-05,-0.00083545,-0.0026828,0.00032076,-9.6121e-05,0.00030192,-2.5586e-05,-0.00042765,0.00066158,-9.9496e-05,-0.0012294,-0.00047168,0.00040721,0.002374,0.00021325,-0.0008997,0.00027725,5.7357e-05,0.0010168,0.00069758,0.00042138,-0.00072178,-0.00035213,0.00045627,0.00030628,0.00046691,2.2703e-05,-0.00092884,0.00038069,0.00025295,0.00061219,0.00059651,0.00021751,0.00017095,0.0017325,-0.0011426,-0.00050103,-0.0017647,-0.00061749,-0.00014269,0.00010957,0.0002329,-0.00089182,-0.00058941,-0.00063787,-0.0010667,-0.00031619,-0.00079192,-3.1353e-05,-0.00025018,0.0001431,0.00060982,-5.2351e-05,0.00022483,-0.00010377,-0.0001018,-0.00024607,-0.0045215,0.0064657,-0.00091201,-0.00040786,-0.0017138,-0.0029682,-0.00020317,0.0012886,0.001132,-9.5961e-05,-0.00061617,-0.00030361,0.00010965,7.1601e-05,0.0001852,-7.1113e-05,-0.00036033,0.00047439,-0.00012028,-0.0023114,-0.0063075,0.00067103,-0.0017724,-0.0020227,-0.0024834,0.00018091,-0.00097564,0.00025718,-0.0044963,-3.9301e-05,0.00030552,-1.1292e-05,0.00079718,-0.00077695,0.00021098,0.0006143,8.9229e-05,0.00046945,-0.00097569,0.00043401,-0.0020617,0.00013821,-0.00073154,7.8569e-05,-0.00025707,-0.0016938,0.00011758,-0.00035197,-0.00013956,-0.00015054,-0.0059851,-3.1789e-05,-0.0030089,-0.0011209,5.8642e-05,7.338e-05,0.00036625,0.00035801,0.00043972,-0.0022403,-0.0027097,0.0005188,-0.0001439,-0.00016403,0.00060298,-0.00024404,-0.00037802,-0.00015055,-0.00019922,-0.00059692,0.00017996,-0.00027701,-0.00026525,-0.00024995,-0.00048279,-0.00014983,0.0004429,-3.5822e-05,-0.00012928,5.9041e-05,-3.4672e-05,-0.00027819,0.0003395,1.9974e-05,0.00024126,2.5162e-05,-0.00019924,-0.00022849,0.00016299,-0.00019026,-0.0016768,-0.00015413,0.00012508,-0.00038448,-0.00024171,-0.0017412,-0.0012453,-0.0030061,-0.00028909,-0.00046195,0.00020464,-0.00063298,-0.0001777,-3.8968e-05,-0.00059712,-0.00050982,0.00031431,-0.0011827,-0.00041865,-0.00093787,-0.00069415,0.0003013,-3.2893e-05,0.00013501,0.00045067,-0.00011168,0.00077756,-0.0015281,-0.0012364,-0.0036934,-0.00083993,0.0025019,-0.0023941,-0.0011079,-0.00081812,-0.00087158,-3.4407e-05,1.0522e-05,0.00017168,-0.00050293,-0.00047334,-0.001931,-0.0016111,-0.00063938,0.0033122,-0.0012576,0.00012938,-0.00063779,-0.00030395,-0.00056534,-8.1706e-05,-0.0020416,0.00022011,-0.0021667,2.687e-05,3.0209e-06,-0.00055761,-0.00052791,-0.00084609,-0.00044339,-0.00021541,-0.00027545,1.8511e-05,-0.00060498,-0.00079891,-0.0021567,-3.0233e-05,-0.00094638,-3.9886e-05,-0.00062159,-1.4719e-05,-0.00019292,-0.00029278,-0.00069331,0.00032021,-0.0013499,-0.00020092,-0.00042648,-0.0011289,7.7978e-06,-1.6637e-06,-9.5492e-05,-0.00039288,-0.00016605,0.01042,0.0064334,-0.00088653,0.00010364,-0.00040137,-0.00043612,-0.00020267,-0.0015865,0.00014656,0.00093931,0.00028711,-0.0013281,0.00042821,0.0052886,-0.00029228,0.00025414,0.00057325,2.762e-05,-0.00018039,0.000699,-0.00058961,0.00072939,-0.00031324,-0.001953,-0.00021612,0.0012564,0.00094985,0.0068459,0.00022163,-0.00023959,-0.00045656,0.00054923,-0.00013288,0.00051241,-0.00037806,0.00013753,-0.00035744,-0.00032673,0.00096881,0.0050278,-0.0045299,0.00030158,0.00020989,0.00015868,-0.00022495,0.00060631,0.00042414,-0.00037231,0.014465,-0.0018555,-8.2422e-06,0.004718,0.00022034,0.016983,0.00038147,-0.00038539,0.00025926,0.00018994,0.00013794,0.00060643,-0.00032693,0.00053833,-0.0015082,-0.00033512,-0.0007495,0.002197,-0.00024003,-0.001286,-6.7398e-05,7.4449e-05,-0.00013027,-3.2193e-05,0.00020995,0.0011264,-0.00027246,0.00030427,0.00010654,-0.00098451,5.6234e-05,0.0036296,-0.00068461,0.0051831,0.0027703,-0.0003313,0.0013735,0.00012116,0.00041817,0.0020278,0.00070755,2.6299e-05,-9.5215e-05,-0.00030593,-0.00059961,0.00029858,0.00018113,0.00010983,-0.00031062,-0.00014161,-0.0010512,0.0018736,-0.0013268,8.9413e-05,-0.00045911,0.00016867,6.4532e-05,2.2376e-05,7.7446e-05,-0.00032745,0.00011161,-0.00097708,0.00077426,-0.00039488,-0.0027203,-0.00041183,0.0004676,0.00032695,0.00051009,0.00037025,7.2589e-05,0.0033911,-0.0020993,-0.00042992,-0.001306,-0.0022206,0.0012572,3.9762e-05,-0.0011465,-8.8211e-05,-0.0029767,-0.0016714,-9.6037e-05,-0.0003499,-0.00080145,0.00023482,0.0011822,-0.0006488,0.00092778,-0.00054494,-0.00064485,-0.00032355,-4.6279e-05,-0.00036748,0.0012918,-0.00021281,-0.00048152,-0.00016238,0.00018531,0.00028554,0.00045768,6.8557e-05,-8.1172e-05,0.00028198,-0.0001907,0.00063477,-0.00012429,-0.00034829,-0.0001308,-0.00027577,-0.00042449,-0.00022804,0.0010155,0.0058448,0.00010727,-0.00036636,0.00018084,-0.00055289,4.058e-05,-0.00014848,-0.00025352,0.00076215,0.0007533,-0.00040985,0.0012214,-0.0080467,-0.00070265,0.00096665,0.00049156,0.00062942,0.00027376,0.00048369,-0.0019769,0.00048895,-0.0010772,-0.004543,0.0040272,-0.00083871,0.0023293,-0.00052229,0.0002615,0.00040531,-3.609e-05,0.00032619,-0.0033895,-0.0045316,-1.7896e-05,0.0034101,-1.4017e-05,-0.00052309,0.0020456,0.0018958,0.00047142,-0.0024254,-0.00021173,9.0904e-05,-0.00037234,0.00022132,0.0002299,0.00048822,0.00054772,0.0024946,0.00040945,0.0015963,0.00089758,0.00029264,-0.0022319,-0.004001,-0.0053647,0.00071515,-0.0068062,-0.0017417,0.0019251,0.00096561,-0.00048345,0.00085405,-0.00049126,0.0013938,0.001929,-0.0067387,-0.0011144,-0.00056176,0.0023548,-5.8529e-05,1.7994e-05,0.0032531,5.3152e-05,-0.0022003,-0.00061336,0.0008868,0.00043048,-0.00092993,-0.00035072,0.00018207,0.00038093,2.9399e-05,-0.00093842,0.0010403,-0.00014837,-0.0016661,-0.0013072,0.0043975,0.00077386,-0.00090677,0.0002486,-0.00035728,-0.00015967,-0.0011576,-0.00715,0.00022025,0.0017541,5.6504e-05,0.0047117,0.00057063,0.0017399,-0.00044531,0.0020005,0.0002471,-9.3274e-06,0.001718,3.4454e-05,9.9521e-05,4.7548e-05,0.00026117,-0.00056863,0.00028933,0.00050774,-0.0014749,-0.00029602,0.0022686,0.000473,-0.00086445,0.0034029,0.0023933,0.00030649,0.0010951,0.00097201,0.00060754,-0.0016689,0.0025914,-0.0017642,0.0014099,0.00045896,0.00018779,0.0010968,-0.00060519,0.00087982,0.00035881,-0.0022343,1.0529e-05,-6.8017e-05,-0.0010676,0.00024988,0.00094134,2.4036e-05,-0.00027739,-0.00016225,-0.00037196,-3.7111e-05,-0.00025904,0.00028709,-0.00071951,-0.00048038,-0.0029514,0.0001765,0.00073138,-0.00041849,0.00044199,0.0025711,0.00043817,0.00016671,-0.0010298,-0.00082206,-0.0001271,-0.00023128,0.0003738,-0.00043135,2.8769e-05,-0.00095653,0.00078657,-7.9119e-05,0.00041048,0.00049277,-5.9594e-05,0.00044869,0.00028846,0.00037564,6.5224e-05,0.00038596,0.00025384,-0.00029007,0.00024025,0.00032114,0.00046327,-0.0012642,-0.0008653,-0.00048964,-0.0001076,0.0016222,-0.0008921,-0.00018838,-0.0001676,0.00021887,-0.00049571,-0.0039572,-0.00040925,-0.0018834,-0.00016417,-0.001427,-0.00020165,-0.00016036,0.00021117,0.0014946,0.00020059,0.00023396,-0.00011347,0.00027589,-2.3754e-05,-0.00096251,0.00042934,0.00032813,0.00016876,-0.00072665,-3.93e-05,1.8068e-05,-0.00018025,-0.00035954,0.00017074,-0.00042108,0.00049655,0.00042852,0.0012079,0.0003225,0.00049125,-0.00024794,7.1434e-05,-0.0017938,-0.00026618,-0.00034987,0.00029028,4.4201e-05,-0.00060462,0.0003373,-0.00058572,0.00069349,0.0013997,-0.00037411,0.00027802,-0.00015386,-0.00049698,0.00018013,0.00041124,-2.0006e-05,0.002695,0.00014772,-0.00075455,0.00014597,1.4295e-05,0.0022787,0.0014684,-0.0026189,0.00031425,0.00065526,0.00012884,0.00023503,-0.00028443,0.00038935,0.00071555,0.00059502,-0.00069993,0.00068742,-0.0014679,-0.00035844,-2.31e-05,-0.00011239,0.00014801,0.0002848,0.00045587,0.00015085,0.00032315,-7.6775e-05,0.00031108,0.00011214,0.0019469,-0.003153,0.00086788,0.00095217,-0.0017568,0.0011529,0.00045631,0.00077688,0.00021165,-6.2193e-05,-0.0023757,0.00085319,-0.00014828,0.00042232,0.0011175,0.0007827,0.004054,0.00082869,0.00055086,-0.001419,-0.0006329,-0.0010188,-0.0003897,0.00043634,-0.0004361,0.0001245,0.00098822,0.0011706,0.00076153,0.0003619,2.2204e-05,-0.00070016,0.00058338,0.00031081,0.00020754,-4.0991e-05,0.0024548,0.00012905,0.00065637,-0.00030828,0.00032288,-0.00010869,-0.00084506,0.0012543,0.00080275,0.0011226,-0.0012119,-0.00048539,-0.00027963,-0.00030523,0.00020976,0.0011854,-0.0017287,-0.00082499,-0.0018334,-0.00029656,-0.00058082,-0.00062844,-0.00028333,0.00016048,0.0010638,-9.685e-05,0.00025769,7.0127e-06,0.00026634,-8.0888e-05,-0.0037673,-0.00029752,0.0018734,0.00026375,-0.00055703,9.5028e-05,-1.5588e-05,9.9684e-05,0.0004004,2.5437e-05,-0.0012519,-0.0023723,-0.0023681,0.00014975,0.00011207,-0.00018201,0.00029976,4.0149e-05,0.0010291,0.00014399,-0.0019644,-0.001487,0.00024292,-0.0003042,-0.00066931,-0.00051152,0.00031792,0.00075382,0.00021094,4.2829e-05,0.00039995,-0.0011661,0.00030276,0.00033765,5.2663e-05,-0.00019315,0.00025712,0.00054904,0.00019462,-0.00023822,-0.00043782,0.00018383,0.00040977,0.0015983,-0.00095319,-3.5341e-06,-4.6509e-05,-0.00037785,-0.00027565,6.253e-06,0.0003275,9.6714e-05,-0.00076453,-0.00062144,-0.00014396,-0.00013634,-0.00043217,-0.00035053,6.8861e-05,0.00022127,7.9485e-05,0.0022677,0.00029969,0.00051567,-0.00023712,0.00029938,0.00018535,0.0010682,-0.0012936,-0.00045135,0.0018984,0.0020167,0.0017323,0.00037379,0.00040754,0.00075725,4.6661e-05,-0.00064848,-0.00022278,-0.0034226,-0.00079771,0.00073936,0.00034537,0.00091817,0.0016574,0.0037785,-0.000306,-0.00031101,-0.00045748,0.00023352,0.0024775,5.5734e-05,0.00072218,0.00048298,0.0020949,0.0011141,0.0018117,0.0018496,-0.00037843,-9.139e-05,0.00061444,6.9101e-05,0.00018678,0.00086902,-0.00045476,0.0011779,0.00025286,-0.00014047,0.0010225,-0.00021929,0.0010588,0.00062221,0.0009184,0.00093272,0.00044606,0.0016983,0.00050857,-0.00019859,0.00059197,0.00018876,0.00046354,-0.00091381,-0.00020492,-0.0028404,-0.0010851,0.00010902,0.00011013,4.9689e-05,0.0002869,0.0014869,0.00028202,0.00058069,0.00037967,5.6569e-05,7.1053e-05,-0.003101,-0.0062243,7.9751e-05,-0.00016013,0.00035242,0.00035694,0.00029241,-0.00032978,0.00034445,-0.0010835,-0.00056715,0.0012703,0.0010653,0.0015452,0.00011127,0.00038337,0.00033901,0.0027859,-0.00044208,0.00090402,0.0013435,0.00045171,-0.00079254,7.6721e-05,0.0002388,5.462e-05,0.00012031,-0.00019701,1.8459e-05,-0.00013786,-0.00016668,0.0016503,0.00061301,0.0010866,0.0004164,0.00052991,-0.00022074,-0.00040967,0.00020517,-0.00041122,0.00028056,0.00016662,6.5863e-05,-0.00027019,0.0006384,-0.00033837,-0.00021966,-0.0003736,0.0003631,-0.00020395,0.00067256,-8.645e-06,0.00014062,0.00034077,-0.0006605,-0.00034192,0.00019778,0.00044995,7.238e-05,-0.00028413,-0.00075686,0.00014679,0.00025433,0.00046183,0.00018468,5.7518e-05,-5.3391e-05,8.2843e-05,5.8988e-05,0.00021264,-0.00060638,0.0020324,0.00098404,0.00065548,0.00092412,0.00029659,0.00031899,0.00063295,-0.00021479,-0.00069345,0.00028774,0.0018394,0.00061401,-0.0007181,0.0027957,0.00023937,-0.0001641,-8.9498e-05,-0.00039675,0.00011556,0.0016374,0.00073855,-0.00089372,-0.00022696,0.00034218,-0.00031223,0.00054532,0.0014264,-0.00060515,0.0020867,0.0019668,0.0012039,0.00059376,0.0008462,0.00016358,0.00093102,0.00050269,-0.00039493,0.00012866,-0.0013279,0.00021973,0.00056276,0.00022321,-0.00014593,0.0023678,0.0019868,0.00024969,0.0013698,0.00074353,-0.00047747,0.0025342,7.4409e-06,0.00025494,0.00037353,0.00079202,0.00029527,-0.00041552,-0.0036334,-0.00058479,-0.00047512,-0.00038503,1.8534e-05,1.0399e-05,0.00088523,0.00011449,0.00037223,0.00019321,-6.8219e-05,3.4145e-05,-0.00099717,-0.0017446,0.0018631,-2.3085e-05,0.00017761,0.00020057,0.00022028,-0.0006015,-0.00039475,0.0006028,0.00028775,-0.0015938,-0.0010606,-0.00059683,0.00042961,-0.01322,0.0019401,0.00023091,0.00024153,-0.0007933,-0.00058193,0.0010115,-3.3288e-05,-0.00028695,-0.0013735,0.0004687,9.2448e-06,-0.00018779,0.00044525,-0.00041279,-0.00010753,-0.00017739,0.00071075,0.0016951,0.00016554,0.00014975,-0.00013642,-0.00043147,0.00044914,-0.00021934,1e-05,-0.00081387,0.00018967,-0.00040053,-0.00014501,0.00025829,0.00064764,0.0012225,0.00027884,-9.9529e-05,-3.5024e-05,-0.00047379,0.0023151,-0.00029715,-0.00045686,0.00028066,-0.0011087,-0.00011327,-0.00031256,-0.00087914,-0.00057432,-0.0011158,-0.00015085,-0.00014329,-2.1905e-05,0.0002431,-7.3736e-05,0.00020116,-0.00019634,-0.00022955,-9.7518e-05,0.0038762,-0.0021823,0.00010109,0.00086292,3.8076e-05,-0.0011619,-0.00013703,0.00014988,-0.00043546,0.00023355,-0.00056602,-0.0012672,-0.001209,-0.0016924,-0.00067999,-0.0038661,0.0066777,-0.012351,9.7926e-05,0.0026174,-0.0023875,-0.00073133,-0.00052694,0.0012523,-0.00011674,-0.0020985,-0.0012224,0.00013375,0.00036727,0.0002733,-0.00037757,0.00018224,8.5899e-05,0.0057043,0.00017369,0.00048049,-0.00082263,0.0012378,-0.00044665,5.4353e-05,-0.0009586,-2.9578e-05,0.00018442,0.00036679,0.00013406,-0.00066709,0.00063982,8.7431e-05,0.0011573,-0.00030739,-0.00021548,3.345e-05,-0.00089631,-6.9819e-06,-0.0011815,-0.00044722,-0.00042089,0.00057397,0.00086099,0.00043737,0.00066417,0.0018032,0.00039104,2.8238e-05,-0.0017229,-0.00030921,0.0021686,-0.00032436,-0.00020166,-0.00067216,-0.00011107,3.1553e-05,-0.0010151,0.006201,0.0045057,0.00048746,-0.00020932,0.00027653,-0.00010029,-0.00019023,0.0002074,-0.00055969,3.9845e-05,-0.00012463,0.00065609,-0.00071362,-0.00063596,0.0007278,0.00055115,0.0006678,-0.00027095,0.0012608,0.0014056,-0.0042558,-0.00069804,0.00053165,-0.00015768,-0.00012453,-0.0011541,-0.0019138,-8.6835e-05,-0.00050541,0.0003071,-0.00037974,-0.00068589,-0.0016509,0.0015554,0.00057423,0.00013202,-0.00036915,-0.00017591,0.00014335,0.00029448,0.00020089,-0.00015472,-0.00039346,0.00029111,3.9815e-05,-0.00095983,-0.00022535,-1.0623e-05,0.00011261,-0.00087954,-0.00065754,-6.2857e-05,-0.0016621,-9.3979e-05,-0.0021645,-0.0001791,-0.00060399,-0.00051351,-0.0015272,-0.00027048,-0.00097571,0.00085116,-0.0013882,-0.00075238,-0.00085833,-0.00031172,0.00083932,-0.0003271,-3.7159e-05,-0.00063202,-0.00027435,-0.00027699,-0.0015118,0.0079962,0.0006274,0.0001935,0.00034385,-0.0010381,-7.6818e-05,-0.00044714,0.00074431,-0.00070184,-0.00024391,-0.0014721,-6.1257e-05,0.00069432,-0.0012235,0.00014893,-3.9436e-05,-0.00017675,-0.000762,-0.0092889,0.00016141,0.00042158,-0.00039699,-0.00042936,0.00038707,0.0029233,-0.00023826,0.0004909,0.0015863,-0.00035799,-1.5156e-05,0.00053991,-0.00052764,0.00071363,-0.00056177,0.00072656,0.0018521,7.7266e-05,0.00049813,0.000268,0.00033734,0.00039603,0.00052368,3.0817e-05,4.9952e-05,0.00037755,6.442e-05,0.00023537,0.00028044,0.0002572,-4.7473e-06,-0.00027091,0.00045311,-0.0004506,-0.0010093,0.0010366,-0.00024834,0.00044799,-1.2033e-05,-0.0014845,-0.00041283,-0.00054556,-0.00017828,0.00026459,-0.001962,-0.00021492,-9.6204e-05,0.00011474,-0.0002711,-3.4493e-05,0.00023859,1.0773e-05,-1.3139e-05,9.7227e-05,0.0010198,-0.0012607,-0.00072553,0.00064176,1.1145e-05,-0.00010276,0.00023211,0.00019473,0.00061155,-0.001035,0.0065421,3.9458e-05,0.0045016,0.0020231,0.0021163,0.00045831,0.00071521,-0.0033863,0.00262,0.0015352,0.00048327,-0.00026887,-0.0013421,0.00046207,-0.00018553,-0.00027945,0.00018565,-0.00059471,2.9419e-06,0.00041601,0.00015282,0.00016202,0.00050424,-0.00020906,0.00018313,3.1724e-05,-0.00044406,-0.00022122,0.00056417,-2.2131e-05,0.00044473,0.00011994,0.00039092,-0.00047231,-1.0557e-06,0.00048755,0.00019417,2.6031e-05,0.00033209,0.00021009,0.00095207,-4.5154e-05,-0.00032762,-0.00049602,0.00022577,-0.0003448,0.0004559,-0.0005736,0.00063013,0.00040124,-0.00048284,-0.0003799,7.1372e-05,-7.2633e-05,0.00026368,0.000601,-0.00034835,5.3021e-05,0.00026465,4.8704e-06,0.00013432,-6.3685e-05,-2.63e-05,0.00021727,9.4001e-06,0.00066511,0.00012869,0.0012583,0.001008,0.025558,0.0023712,0.00031841,0.00044659,0.0011556,-0.00064784,0.00038791,0.00054595,0.0095661,-0.0012011,-0.0021819,0.0004249,0.0009197,-6.5351e-05,0.00091608,2.0135e-05,0.00028281,0.0013137,-3.3063e-05,-0.00042795,-0.00029172,0.00085607,0.0012349,0.00061249,0.00027547,-0.00093271,0.00054149,7.2863e-05,0.00036826,-0.00012079,0.00039489,0.00022687,0.0024922,0.00024154,0.00055375,0.0004291,0.0008179,0.00042895,0.00038071,0.00038389,0.00041947,0.00015448,0.0012406,0.00023835,7.7023e-05,-0.0008026,6.6996e-06,0.0012578,0.0012598,0.00014209,0.0025235,0.00090192,0.0019571,0.00075133,-0.00062806,-0.00016912,-2.421e-05,0.00015985,-0.003048,-3.4907e-05,-0.00093552,0.00015655,-0.00057263,-0.00017764,-0.0003876,0.00018884,0.003462,0.00020613,0.00062563,2.3988e-05,0.00050771,-3.4581e-05,-0.0018959,-0.0028713,-0.0069987,0.00019808,0.00017595,-9.7344e-05,-3.2138e-05,1.4769e-05,-0.00042324,-0.00052585,-0.00097666,0.004393,0.0022975,-0.0011403,0.0014544,0.0014569,0.0029726,0.0005896,0.0029379,-0.0015796,-0.0018093,0.00016261,0.0010626,0.00049532,-0.00030617,0.0027585,0.00020193,-0.00071833,0.0061285,-7.2112e-05,-0.00054738,-0.00019596,0.00017501,8.0633e-05,0.00048942,0.00021052,-1.4722e-05,-0.0011987,-0.0013153,0.00043862,0.00032158,0.00061017,0.0001203,-0.00028567,0.00024682,2.8564e-05,6.549e-05,-0.00039258,0.00023581,-0.0012973,0.0002619,0.00024068,-0.00045333,0.00043773,-0.00020181,0.00029634,0.00034784,-0.00032393,-5.54e-05,-0.0002128,7.1097e-05,6.3001e-05,-0.00041404,-0.00033199,-0.00018095,-0.00025318,-0.00010113,0.00025849,-0.00011299,-5.4131e-05,4.5238e-05,0.00011184,2.3635e-05,-2.0987e-05,-0.00020167,5.6606e-05,0.00012437,0.00029083,0.0010484,0.00055379,-0.0009633,0.0069504,0.0098058,0.00011758,-0.0031343,0.00061443,-0.00039126,6.6053e-05,9.3222e-05,0.0057043,0.00010334,0.01096,0.0011759,0.0020165,0.00021567,0.0013141,-0.00010905,0.0005846,0.0023697,-0.0019444,0.00023232,-6.8762e-05,-0.00031835,-0.00040532,0.00036149,0.0020778,0.00028493,0.00027047,-0.00061054,-0.00032169,4.5733e-05,-0.00065542,0.00031217,0.00082275,-6.7474e-05,-0.00026119,0.00029778,0.0011925,4.4734e-05,0.0011029,6.6641e-06,0.0002245,0.00035178,0.00033307,-2.3232e-05,0.0005884,0.00012199,6.4206e-05,-0.00018614,-4.6877e-05,0.00053774,0.001043,-0.00030642,0.0011108,2.5378e-06,-0.0010526,-7.0805e-05,0.0017315,-0.00025756,0.00014114,-0.0012724,-0.0023196,-0.00089923,-0.0012109,-0.0016093,-0.00047227,-0.00052248,-0.00028306,-0.00019762,-0.00059587,-0.00020589,-3.2746e-05,-0.00018784,0.0001063,2.0782e-05,-0.002174,-0.0042126,-0.0054159,0.00014122,-0.00035433,-0.00035979,-2.4038e-05,-0.00018491,-0.00012004,-0.00061704,-1.4104e-06,0.0029844,-0.0004752,0.0031421,-0.0010111,0.0041957,0.00026678,-0.0017807,-0.0037203,5.5753e-05,0.0017435,0.001517,-0.00047454,0.0052953,-0.00045986,0.00076819,0.00042773,-0.00036705,-0.0010805,-0.019554,0.0028487,0.00044764,-3.368e-05,0.00022213,0.00038096,-0.00057264,-0.00027627,-0.0005261,0.00018497,-0.00087313,0.0015187,0.0015627,0.0003931,0.0015897,0.00011075,0.00065906,-0.00050798,-0.00030641,7.852e-05,7.9241e-05,0.00030227,0.00073972,0.0011063,-0.00036322,0.00068385,0.001154,-0.00011553,0.0005765,0.00020083,-0.00029678,0.0012662,0.00038739,6.9711e-05,0.00034996,-0.00050674,-0.0005677,-9.3014e-05,-0.0013123,0.00034578,-0.00096737,-0.00022263,-0.00011339,0.00022906,0.0016857,0.00012133,0.00038706,0.00013443,0.00018354,0.0002154,-0.0012217,-0.0030581,-0.0012673,6.3293e-05,0.00014523,-0.00077339,8.2068e-05,0.00011997,0.00046755,0.0010644,2.1302e-05,-0.00096741,0.0010888,0.0058416,0.00031807,0.0097479,-0.000252,6.3952e-05,0.00093781,0.00036434,0.00046788,-0.0023226,-8.7035e-05,0.00077467,-0.00017689,0.0050437,-9.7075e-05,-0.00080614,0.00068464,0.00084901,0.0041131,0.0019219,0.00034342,-0.0011457,0.00013252,0.0004407,3.6274e-06,-3.8513e-05,-0.00042353,0.00018262,-0.0016073,0.00059595,8.5167e-05,0.0002216,0.00087015,-0.00012547,0.00043687,0.0006022,0.00033031,0.00014443,0.00062035,0.00022869,2.3307e-06,0.00021311,0.00010442,0.00074353,0.0011414,-0.000356,-0.0002373,-0.00029825,-0.00036612,0.00064189,-4.8743e-05,0.00034128,0.00046928,-0.00057166,-0.00072973,3.5961e-05,-0.00021158,9.098e-05,-0.00030736,2.5258e-05,-2.3781e-06,7.2167e-05,-0.00051155,5.7971e-05,-2.1287e-06,-0.00086206,-3.0012e-05,0.00010851,-4.1951e-05,0.00024992,8.4785e-05,0.00028217,0.0044642,0.011693,0.00020606,-0.00012559,-0.0014076,2.9078e-05,-0.00017367,0.00019491,0.0095989,-0.00078508,0.0085642,0.00056822,-0.0055836,-0.00080796,-0.0025082,-5.1633e-05,-0.0009636,-0.0020878,0.0057116,0.00034765,0.027391,-0.0016208,-0.00017969,-0.00088515,3.4773e-05,-0.00078555,0.003497,0.0012946,0.0070889,0.0021705,-0.00056739,0.00029734,-9.6383e-05,0.00045229,0.00074189,-0.00054169,0.00058351,-0.0011059,0.00051579,-0.00024026,-0.00063717,-0.0010979,0.00017131,-0.0003031,0.00044451,0.00042255,-0.00024801,-0.00038699,0.00075996,-0.00046952,0.00020303,-0.00069132,0.00060286,0.00077077,0.0013009,0.00020312,2.6318e-05,-0.00067024,0.00022872,-0.0006973,-0.00034776,2.2016e-05,-0.00042823,-0.00061578,0.00031826,0.0001175,8.7921e-05,-0.0011411,-0.00079341,-0.00019125,0.00038641,0.0024313,-0.00026641,0.00013564,-0.00040073,-0.00030035,-0.0002222,0.0032978,-0.0013981,0.0017924,-0.0012629,-0.00016042,-0.0052269,-0.00073594,-0.0022296,-0.00016076,-1.7594e-05,0.00026394,0.0014736,-9.5978e-06,-0.0011895,0.0019631,0.001846,-0.00012059,-0.000651,-0.0018962,0.001646,0.0013773,-0.0010668,0.0010052,-0.00064373,-0.00068867,0.00088897,-0.0014705,-0.00091699,-0.00091262,-0.0011986,0.00032225,0.0014226,0.00037308,0.0043087,0.00030491,-0.0012761,0.00044303,0.00034698,0.00013944,0.00060153,-0.00042382,0.0009759,-0.00089318,7.7214e-05,0.00033562,-0.00038044,0.00067741,-6.4967e-05,0.00038928,3.3362e-05,0.00024049,0.00015632,0.00032801,0.00022136,7.4435e-05,0.00011333,-1.2431e-05,0.00029587,0.00018288,-0.00024868,0.00034009,0.00029291,-0.00048787,0.00064741,-4.2223e-06,0.00059765,0.00081887,-0.00055303,-0.0002499,0.00054101,-0.00043268,-0.00020886,-0.00080992,0.00011341,4.4966e-05,0.000153,-0.0011403,0.00010815,-0.00084487,-0.0010846,0.00025657,-0.00015554,0.0025808,0.00016888,0.00049813,0.0011235,-0.00027291,-0.00025468,5.9849e-05,-0.00018664,0.00051929,-0.00011373,-9.0969e-05,0.0002199,0.0035713,0.0019155,0.00037352,1.1414e-05,0.0064885,-0.00057057,0.0052969,0.00086847,0.0016319,-0.00021154,1.5856e-05,0.0013921,0.0013225,-0.00059019,0.00010009,-0.0053671,-0.0035753,0.000269,0.001421,-9.4674e-05,-0.0012229,-5.4241e-05,-0.0010032,-0.0013915,-0.0025222,-0.0024981,-0.00014591,0.0010558,0.00025458,0.00049526,0.00022659,0.00012963,0.0011029,-0.0029261,0.0025666,-0.0019665,0.0007334,0.00012267,0.0035332,0.00090429,0.00018181,-4.5947e-05,5.7645e-05,-0.00026766,-0.016212,0.00051371,-0.00014136,0.00017577,0.00012695,-0.00010894,4.5852e-05,-0.00056049,-0.00085082,-3.5145e-05,-0.0012394,0.00032322,0.00046948,-0.00052058,-0.0036013,-0.0011794,-0.00023083,0.00072554,2.0462e-05,-0.0032188,-0.00039387,0.00064245,-0.00010775,0.00017984,-5.2354e-05,-0.00090635,0.0035093,-0.00056009,-0.00084161,-0.00058442,-0.00030133,-0.00022189,-0.00012096,0.00019864,-0.00034312,-0.00064934,-0.00068836,-0.0014695,-0.00055004,-0.00033263,-0.00087157,-0.00038511,-0.0006042,-0.001325,-0.00025039,-0.0017775,-0.0017712,-0.00031087,-0.00031222,0.00036607,-0.00044832,-1.9469e-05,-0.0011578,-0.00010743,-0.00042368,0.00017854,-0.00052059,0.00016622,0.003114,-0.00035819,-0.00013735,0.0026038,0.00070655,-6.952e-05,0.0010465,-0.0012944,-0.00058318,0.0012811,0.00059589,-0.00089362,8.3346e-05,0.0015748,0.0013612,0.00049493,0.0022069,0.0039676,0.0013398,0.0016427,0.00082893,0.00086888,-3.2814e-06,0.0016033,0.00018346,-0.00063797,7.2495e-05,-0.00018331,-0.00015499,-0.00047142,0.00020863,-0.0014962,0.00048485,-0.0011689,-0.00015963,-0.00083989,-0.00024199,8.1025e-05,-0.00070732,-0.0024506,-0.00039191,-0.00186,2.8702e-05,-0.0023083,-0.0010741,-0.00074249,3.4162e-06,0.002547,-0.00027062,0.00058272,-0.00038899,-0.00013205,-0.00049468,-0.007602,-0.00095595,-0.0012779,0.00045768,-0.00049642,-0.00027246,6.5839e-05,0.00028166,0.0004308,0.00024337,9.8041e-05,0.0019091,-5.2812e-05,-0.0021028,0.00021627,0.0013594,0.0011252,-0.00066165,-0.0010102,-0.0012893,-0.0057571,-0.001175,-0.00023088,0.0034846,0.00029692,0.0017432,-0.00056048,0.00046608,0.0013547,0.00038091,-0.00014985,0.00073468,-6.1438e-05,0.00010512,-0.00047141,-0.0001216,-0.00052408,0.00057406,0.002472,-0.0014707,-0.00039272,0.0015531,0.00048745,-0.0010052,0.00019811,0.00085056,0.0018081,-0.00058069,-0.00079782,-0.0023671,-0.00063554,-0.00032588,0.0032875,2.4426e-06,0.00020411,0.0013024,0.00013496,0.00036232,-0.0041057,-0.00048615,0.00070619,0.00066497,0.00020723,0.00066634,0.00068567,7.4271e-06,0.00027727,-0.00036737,0.00048517,0.0002589,0.0015109,-7.4816e-05,-0.0010558,0.0014625,0.0014159,0.0014736,-0.00021315,-0.0024769,0.00012705,0.0013197,-8.3515e-05,0.00086508,-0.0015641,-8.1072e-05,0.01092,-0.00012652,-8.9361e-05,1.0512e-05,-0.00022516,0.00017016,-9.7358e-05,0.00053136,-0.00033819,-8.1345e-05,0.0013059,0.00085075,-5.9595e-05,-0.00091546,-0.00026685,-0.00017803,7.6621e-05,-0.00027331,0.00019896,-0.00076694,-0.0013148,0.00043432,0.00023645,0.00020559,-0.00035588,4.8252e-05,-0.000278,4.6137e-05,-0.00025942,-0.00020258,-0.00055926,0.012118,0.00090307,0.0011875,0.0032995,-0.0014103,-0.0010271,-0.00079938,-0.00050033,-0.0023991,-0.00088949,-0.00035867,-0.00015477,0.00060684,0.00040649,0.00072641,0.00025235,0.00018849,0.0042427,-0.0022628,0.0038782,-0.0057692,0.0046905,-0.003067,0.0017424,-0.0022015,-6.4057e-05,0.00035423,-0.00026349,-0.0010459,0.0010125,0.0045651,0.00030488,-0.00050815,0.0004138,4.7102e-05,9.9239e-05,-0.00030313,0.0008106,-0.00084318,-0.00010873,-9.13e-05,0.0003483,-0.0011458,4.8456e-05,-0.0014658,0.0048447,0.00019305,-0.00061321,-0.0027424,-0.00019869,0.0018597,-0.00038625,-4.5048e-05,-0.001076,-0.00029998,-0.0022148,-0.0012775,-0.00037575,0.0017348,-0.00018298,-1.9621e-05,-0.00039564,2.4673e-05,0.00047477,0.00060162,-0.00011276,-0.00018236,0.00059734,0.00028614,0.00023839,-0.00029353,0.00062803,0.00073988,-0.00067199,0.00042175,0.0051807,-0.0025751,0.0010014,-0.00052608,0.00035966,-0.00034205,0.00047424,-8.755e-05,0.00017961,0.00053427,-4.679e-05,0.00076132,0.0014886,-0.0011629,0.0012963,0.00041075,-0.00047311,0.00032923,0.00031158,-0.0010244,0.00060621,-0.00011183,0.0023176,-0.00044558,0.00093848,0.00066049,-0.00056337,0.00036979,0.0011205,0.0023702,-0.00025877,0.004116,-0.0032433,0.002764,0.0019221,0.0033207,0.001119,0.000433,0.0013191,0.00018803,0.00049746,0.0089945,-0.00027746,0.00046711,0.0011333,0.0011092,0.00059766,0.00058985,0.00022446,0.00033544,-0.00056348,0.00014474,8.6539e-05,0.00050436,6.251e-05,0.001199,0.0032316,0.004975,-1.9273e-05,-0.00043439,-0.0030061,0.00010318,0.001856,-0.00036368,0.0016599,-0.00081216,4.3525e-05,0.0018994,0.00010415,0.00034312,0.00030529,-6.9906e-05,0.00013456,-0.00023247,0.00019403,0.00076321,0.00046319,0.0010964,0.0021003,0.00040673,0.00040581,0.00050792,0.00035753,0.00077471,8.9809e-05,-9.9338e-05,0.00042837,-0.00019782,4.1291e-05,0.00097371,0.00012625,0.00034761,-0.00020654,0.00020061,-0.0001673,0.00030991,-2.0635e-05,9.0435e-05,0.001712,0.0045896,-0.0073838,0.0049886,0.0013869,0.0052766,-0.00026425,0.00032895,8.7403e-05,-0.00064046,0.00084357,0.0022037,9.2224e-05,-0.00021191,0.0013684,0.00057704,0.0008752,0.00012075,0.001604,0.001813,0.0002698,0.0063549,0.0010211,0.0059902,0.0025659,0.0037058,0.00027659,0.00035636,0.00044094,0.00010814,-0.0010375,0.0015202,-0.0011944,0.00025166,0.00071193,-0.00040131,0.00038834,-0.00053553,-0.0002571,-0.00073013,-0.00039224,0.00011666,0.00010423,-3.1446e-07,-0.00029486,7.1565e-05,-0.001786,0.004186,0.00058453,-0.00060346,-0.00087433,0.00036719,0.0028191,0.00015012,0.0034814,-0.00072003,0.00012226,0.0005204,-0.00011359,-9.0285e-05,-1.2942e-05,9.3633e-05,-1.8971e-05,9.3452e-06,0.00034156,0.00047138,0.00049547,-0.0011023,0.00022216,0.00078027,5.3146e-05,0.00041454,-2.7963e-05,0.00084856,-3.1944e-05,0.00050438,0.00028497,0.0014083,-0.00044373,0.00040055,1.7956e-05,0.0004154,0.00021665,0.00024609,0.00080748,0.00029883,-3.3571e-05,-0.00050518,6.7781e-05,0.0038079,-0.00035561,0.0011569,0.0070669,-0.00013426,0.00098246,-0.00012998,-0.0017536,-0.00021262,0.00013967,-0.00098445,0.0017641,0.00071132,-0.00034511,0.0010343,0.00047257,0.00073243,0.00035911,0.00064565,0.0053567,0.00057683,0.0010306,0.00017106,0.00090309,0.0011026,-0.0037729,0.003553,9.6031e-06,6.0536e-05,-2.4672e-05,0.00025525,-0.00038165,0.0069876,-0.00018845,9.155e-05,0.0011752,0.00041964,0.00027401,2.0401e-05,0.00015354,-0.0010237,-0.00057961,-0.0006272,0.00053202,-0.00032624,0.00072546,0.0005615,0.0044852,0.00097316,-0.00096221,-0.0023292,0.00024385,0.00045911,-0.0022243,-0.0011153,-0.00080254,-0.0011159,0.0021157,-9.0805e-05,3.8686e-06,0.00027392,0.00020709,-0.00012843,-2.5499e-05,-5.295e-05,-0.00010454,3.3813e-05,0.00067837,-0.00047418,0.00010929,4.0153e-05,0.0001296,-0.00040045,0.00042759,-0.00036928,0.00013941,4.6048e-05,0.0014597,-0.00064755,1.5993e-05,-0.0005236,-4.2388e-05,-0.00015382,-0.00027925,0.00023418,-0.00051457,-0.0004012,-0.00032776,0.0053214,0.0010345,-4.0707e-05,0.00077658,0.014916,0.0022845,0.00026353,0.00047476,-0.0004466,-0.00049105,-0.00042165,-0.00032455,-0.00060324,2.3422e-05,-0.00024714,-0.0022445,0.00029969,0.00043707,-9.0754e-05,0.00069035,6.9195e-05,3.1709e-05,-4.7033e-05,-0.00071338,-0.00015114,6.6111e-05,-0.00022527,0.00080931,-0.00070443,-0.00072009,0.0004168,0.00057959,0.00042998,-0.0018741,-0.0028513,-1.8104e-05,0.00029561,0.00039681,-7.8074e-05,0.00010522,-0.000169,0.00015767,-0.0021717,0.0061985,-0.00064259,4.3721e-06,-0.0003661,-0.00029003,0.00010942,-0.00094705,-2.7542e-05,0.0013501,0.0071383,-0.00042856,0.00037384,-0.0016262,0.0012856,9.1583e-05,0.00060024,-0.00052324,-0.00022792,-0.000492,-0.00057087,8.6224e-05,-0.00082028,-0.00021273,0.0062822,0.00051656,0.00086463,2.8828e-05,0.00031478,-0.00043139,-3.2119e-05,-0.0015087,0.0017273,-0.00031875,2.9967e-05,0.00053412,-0.00012831,-0.00083628,-0.00033024,-0.00012832,-0.00027374,-0.001419,3.6864e-05,-0.0006388,-0.00025638,0.00015313,-0.000325,-6.4394e-05,-0.0013181,-0.00071125,-0.00085577,-0.00041431,-0.00040664,-0.0007379,-0.0003743,-0.00062762,0.00037399,0.0019349,-0.0013491,0.0022339,0.0040697,0.00065956,0.00013482,-0.00028828,-0.0002791,-0.00049954,-4.8091e-05,9.7907e-05,-0.001138,-0.0016244,-0.0064166,8.2944e-05,-0.00043188,-0.0018638,-0.00019093,-0.00077266,7.563e-05,-7.3025e-05,0.00016265,-0.0023336,-0.00026316,-0.0047608,0.00037343,0.00052224,2.1942e-05,0.0012556,0.00036434,0.0002621,0.00046964,0.00017284,0.0003982,-0.00043729,0.00055441,-0.00047028,-0.00012163,-0.0010694,0.00017711,-0.00015408,0.00049406,0.0002049,-0.00014329,-0.0001687,-2.9975e-05,-0.0019037,-5.4879e-05,-0.00088401,-0.00047088,5.1009e-05,7.4145e-05,0.00029511,-0.00048879,0.00037907,0.002005,0.0027259,0.0036699,-0.00032242,-0.00031836,-0.0034644,-3.5648e-05,0.00048441,0.00067838,0.0018191,0.00035011,0.0010919,0.00098932,0.0018174,0.000672,0.00052358,0.002574,0.00028322,0.00049237,0.004294,0.00034349,0.0017594,0.00041338,8.0031e-05,0.0032446,-0.0014097,-0.0013007,-0.00015155,0.00062427,-0.0001109,-0.0001622,-0.0005049,0.00036547,0.00029995,8.7582e-05,-0.00044808,0.001207,-0.00040591,-0.0016346,-0.00025229,-0.0052627,0.0032601,0.00027121,8.9582e-05,0.000276,0.00044827,0.00038751,0.00044869,0.00056603,0.00016465,-0.0015525,-6.8806e-05,0.0011166,-0.0017031,0.001551,-0.0012122,0.00030828,0.00025399,0.0010642,-0.00049453,0.00054851,0.00038502,0.00017634,0.00055179,0.00024216,0.00088201,0.00071623,0.0003681,-0.00026125,7.4528e-05,0.00052144,0.0002651,0.0042256,0.00076552,3.1932e-05,0.00012071,0.00018323,-0.00037847,0.00018025,-0.0009029,-8.1574e-05,0.00055448,0.0013654,0.00042698,0.00079999,0.0016976,0.00025724,0.00067272,0.00025675,-0.00068263,-0.0004474,0.00028235,-0.0016439,-0.00099808,0.0016823,0.00035139,0.0031683,0.0071956,-9.2115e-06,-0.00031212,-0.00029218,0.0005663,0.0002318,0.00043465,-0.00044483,0.00048891,0.00026649,-4.189e-06,-0.00075683,-3.0081e-05,0.00022186,0.00047034,0.00023473,0.00027257,0.0001055,0.00035623,-0.00027726,-0.0014798,-0.001211,3.0269e-05,0.00062298,0.00055235,0.00023649,0.001171,0.0018947,0.00075324,0.00065296,-0.0050212,-0.00026368,0.00027572,-0.001071,-0.0046693,0.00079537,0.0023883,-0.0012371,0.00034848,0.00035622,-0.00035288,-0.00029014,0.00031104,-0.00060017,0.00035135,0.0004379,-0.00011226,-0.00012541,0.00045024,-0.00030079,0.00070022,-0.0040369,-0.00024743,-0.0054222,-0.00032503,-6.2201e-06,0.00018799,0.0021094,2.8862e-05,-0.00074948,-2.4135e-05,-0.0011826,0.0004764,0.0003963,0.00052807,-0.00057337,2.7717e-05,-0.00071174,-3.0164e-05,5.3729e-05,-0.00021508,-0.00092282,7.1683e-05,-0.00052838,-0.00057402,-0.00076045,-0.00031645,-0.00093246,-0.00032478,-0.00021083,-0.0010604,-0.00018395,0.0012168,0.00058813,4.4998e-05,0.00039788,-6.0729e-05,0.001641,-0.00097708,-0.00017969,-0.00067723,-0.0013307,-0.00031222,-2.3882e-05,-9.3643e-05,0.00025686,0.00035519,0.00062347,0.0013239,-1.6422e-05,0.0013797,0.0015289,-0.00088423,-0.00021377,0.00016612,-0.0019678,0.0006022,3.978e-06,-0.00083067,-0.00025823,-0.00033454,0.00080859,0.0026303,0.0062315,0.0015821,-4.5158e-05,-0.001106,-0.00028149,-0.002105,-0.0015177,-0.003116,-0.00077032,-0.00088211,0.00092132,0.00089559,-0.00020725,0.0013756,-0.0021352,-0.0040729,0.0037648,0.00010072,0.00030605,-0.00053152,-0.00023078,-5.9214e-05,0.00072779,0.00066039,0.00025284,0.0006789,0.00039064,-0.0011619,0.001744,0.00082508,-0.0031682,0.00015074,0.0010212,-0.00011559,-0.0030566,8.8618e-05,-0.00098357,0.00034244,0.0012207,-0.00019503,0.00033206,0.00053683,0.00096168,0.00044645,0.00050701,0.0012628,5.25e-05,0.0010122,-0.00048241,0.0007578,0.00049521,0.00039349,-0.000396,0.00018089,-0.00025892,0.00035211,0.00053603,-0.00026647,0.00037138,0.00037799,-0.00081302,0.00017268,-0.00013228,0.0017527,0.00014583,0.0001537,0.00063115,0.00076312,0.0012155,-0.010817,-0.0013257,-0.00082981,0.00029663,-0.0033505,-0.0061943,0.00029403,0.00044961,0.00063424,0.00047182,0.00082649,0.00055807,0.0018938,0.00066435,0.0024553,0.0008018,0.00043725,0.00051428,0.00086044,0.000126,0.00068423,0.0016906,0.00078762,0.00014343,-2.1021e-05,9.2027e-05,0.0013093,-0.00030748,0.00096622,0.00010888,0.00010799,-0.000543,-0.00032997,0.00034528,-0.00010782,0.0015517,-0.0039511,-4.0849e-05,0.00063667,0.00065935,-6.377e-06,-0.0069213,0.00027341,-0.00064879,-0.00018637,2.8636e-05,-0.00015493,0.00016135,0.00023696,-0.00032365,0.00015184,0.00047794,-0.00013641,-0.00052749,-1.6561e-05,-0.0021239,-0.00090327,-0.00061283,-0.002404,-0.0015295,-0.0082776,0.0040417,0.0010699,-0.00011133,0.0012915,-0.00011634,-0.00025607,6.2784e-05,0.0017874,-0.00045005,-0.00020913,0.00037572,-0.0001776,-0.00016787,-0.0001721,0.0030336,0.00043342,0.00011444,-0.00067821,0.00020613,-0.00034096,3.7515e-05,0.00025578,-0.00029775,-0.00039616,0.00068094,0.0012752,0.00061815,-0.0029829,-0.0010085,0.00059176,0.00020487,5.1562e-05,0.00029683,0.00011623,0.00016583,-0.0012394,0.00016201,-0.0078659,-0.0019186,-0.0040367,0.00061686,-0.0005803,-9.6765e-05,0.00058083,0.00019009,0.00055041,0.00044633,0.00055882,0.00046177,0.00031477,0.00013182,1.0403e-05,0.0003059,0.00026935,-0.00055995,-9.6863e-06,-7.5418e-05,0.00010436,0.0005298,-0.00015298,0.00058515,-8.1206e-05,0.00015067,0.00024141,0.00014149,7.7739e-05,0.00038943,-0.00022723,0.0015017,-0.0028492,0.033613,-0.00096529,-0.0015002,0.00059636,-0.00045142,-0.00050048,-0.0058366,0.00048742,-0.0035784,-0.0039054,-0.00070207,-0.0011077,-0.00080392,0.00010818,0.0003617,-0.0011122,0.0001233,-0.0012527,-0.00032897,-0.0011577,-0.0029567,-0.0033346,-0.0012654,-0.0015044,-0.0039449,-0.003976,-0.0010984,0.00025483,0.00012961,0.00011413,-0.0007737,-0.002615,-0.00060181,-0.00057546,0.00027904,-0.0010046,-0.0002736,-0.0007191,-0.00064324,-0.0011301,-0.0014111,-0.00153,0.00024624,-0.0011001,0.00011444,-0.0020102,-0.00010962,-0.00063615,-0.00050382,-0.0023287,0.001705,-0.00046587,0.0010142,-0.0010304,-0.00038345,-0.00025868,-0.00024307,0.0010162,-0.00037247,0.00085163,-0.00074556,0.0009806,5.9074e-05,0.0013529,0.0006953,0.0010595,0.00054102,-0.00039525,0.00052997,-6.2581e-05,0.00087443,0.00039036,0.00026121,0.00096123,-0.0003367,0.00080052,-0.0050886,-0.003053,0.00041331,0.00035825,0.0010538,-0.00024705,0.00043409,0.0007511,-0.00039161,0.00068625,0.0016105,-0.0017479,-7.9778e-05,-0.00052667,-0.001536,-0.0027766,-0.001783,-0.0032832,-0.0010935,0.00042371,0.00020438,0.0071434,-0.0017338,-0.0022775,0.0012858,-0.00046643,-0.0011825,-0.0053103,-0.00041185,-0.00032181,-0.00079159,0.00046864,-0.0039597,-0.00023328,2.607e-06,0.00039955,-8.6861e-05,0.00011074,0.00096217,0.0014482,-0.00040149,0.0023885,-0.0037407,0.00083104,-0.0011183,-0.0035219,-0.00081287,0.00043679,0.00083032,-2.8462e-05,0.0015843,-0.0028168,-0.0016958,-0.00071641,0.0026397,-5.435e-05,0.00013431,-0.00038462,8.915e-05,0.0020751,-0.00051641,-0.0001689,-0.00040526,-0.00027106,-0.0010531,-0.00022343,-0.0018237,0.00018517,-0.0012773,-0.00030803,-0.0020167,0.00053015,0.0025876,1.6082e-05,-0.00091786,0.0024658,-8.4633e-05,-6.8696e-05,0.00022032,-6.9613e-05,0.00015499,0.0031133,-0.00027085,0.00030443,-0.0010787,0.00024292,0.00049189,0.00039766,0.0003759,0.00019677,9.3326e-05,0.00040755,-0.00021957,0.00071502,0.00033558,0.00029106,0.0001176,-0.0008226,-0.0017823,5.0214e-05,-0.00039608,0.00016994,0.00036822,-0.00028823,9.6562e-05,0.00076154,-0.00096291,-0.00036838,-0.0025999,-0.00044048,0.0007375,-0.0068183,-0.00080204,-0.0056541,-0.0025176,-0.001196,0.0025319,0.01111,-0.0025345,-0.002925,0.010181,0.00076042,0.00026856,-0.00056133,-0.0048399,-0.0013562,-0.0021657,0.00022625,-0.001418,0.00053731,4.5817e-05,-3.9855e-05,0.00019174,0.00047679,-6.9483e-05,5.5323e-05,0.0012388,-0.000348,-0.00028013,-0.00052159,-0.00040624,0.00081439,0.00052705,-1.4922e-06,5.2453e-05,0.00019065,0.0004294,8.3502e-05,-0.00022399,0.00014333,-0.00017206,0.0010259,-0.00010947,0.00021806,6.6676e-05,-0.00055746,0.0010431,0.00063696,-0.00017608,-0.00053105,0.00029724,0.00015008,-0.0011753,0.00022234,-0.00010351,0.00053026,-0.00021053,-0.00022327,-0.00042741,0.0002765,-0.00057812,0.00011894,0.00034916,-6.6839e-05,-0.00029708,4.2762e-05,0.0012428,0.001739,0.0015815,0.00060552,0.0018093,-0.00057786,0.00010949,6.8662e-05,0.001476,5.7733e-06,-0.00016463,0.0012386,0.00078948,0.0012861,0.0013157,0.0040499,0.00068888,0.0012115,0.00038304,-0.0017672,-0.00054747,0.0016935,-0.00036788,0.00098169,0.00013999,0.0013919,0.0013341,0.0016287,0.00088359,-0.00079811,-2.5256e-05,-0.00054168,2.6454e-05,-0.0013698,0.00096821,-0.00045736,-0.00061717,-0.00025743,0.0019127,-0.00014169,-0.0015868,-0.00029296,0.00041314,0.010938,0.0017226,-0.0033308,-0.0014472,-0.0018741,-0.0008336,0.00072079,-0.0021175,-0.003383,0.0034713,-0.00022004,-0.00040601,0.00032141,0.00011759,0.00028455,0.00027584,0.0005478,-0.00089138,0.00029289,-0.0029339,-0.0018745,-0.00025777,-0.00035465,-0.0013468,-0.0020041,-0.0027682,0.00026401,-0.00034024,-0.00066693,-0.00066523,-0.0021236,-0.00082106,0.00063285,0.0022478,1.062e-05,-0.00080006,0.00025954,0.0011717,-0.0015492,0.0011436,-0.0017837,5.6252e-05,-0.00099706,9.3161e-05,-0.0004777,0.00037215,-0.00034332,-0.00051884,-0.0028159,0.00038863,-0.0011544,-0.0002231,-0.0035747,-0.0014276,-0.00029644,0.000108,-0.00016637,0.00034759,0.00080123,-0.0015982,8.8497e-05,-0.00033254,0.0019233,0.0021077,-0.0028588,0.00076017,0.00077036,0.00098437,-7.4792e-06,0.0012563,0.00079024,-4.3677e-06,0.0016613,-0.00086394,-0.00070396,-0.0023748,-0.0028281,0.0013129,-0.00032982,0.00012015,-0.00092327,0.00099777,0.00097219,0.00083461,0.0007989,0.00043786,-0.0005322,0.0021995,-0.0002921,-0.002941,-0.0023064,-0.00025905,-0.0024547,-0.0019046,0.0015338,9.5793e-06,0.0015343,0.0041181,-0.00027062,-0.00018241,-0.002845,0.0069335,-0.0018641,0.00076874,-0.0014349,-0.00046297,4.3719e-05,-0.00092976,-0.0020606,0.0001231,-0.00090594,-0.00078292,0.00081635,0.00025462,-0.00024657,0.00033408,-0.00036456,0.00057702,-0.00022432,0.0067919,-0.00098998,-0.001822,-0.0015697,-0.00051373,-0.0032669,-2.2513e-05,0.00017105,8.6655e-06,0.0011254,0.0011567,-0.0025351,-0.00098558,9.6676e-05,-0.00061437,-0.00022358,-0.00031623,-5.007e-05,-0.00029934,-0.0027568,0.0022187,0.00016355,-0.00035312,-0.0016605,-0.00034025,-0.0014056,-0.00040789,-0.00010257,-0.00099014,-0.00515,-0.0033896,0.0001245,0.00064464,-0.0030665,-0.0025723,-0.00075457,0.0019045,-0.00028246,-0.00010148,4.4452e-05,-0.00033121,-0.00028459,-0.00060066,-0.00089534,0.0010011,0.00014056,-8.1526e-05,0.00018392,-0.00029663,0.00017145,0.00010514,0.00020007,1.7333e-05,-0.00017824,1.7122e-05,3.6023e-06,-0.00021954,0.00029729,-3.0467e-05,-0.00033885,-0.00070897,-5.565e-05,-0.00025986,6.3613e-05,0.00011636,-0.00014546,9.4664e-05,0.00082542,-3.722e-05,-0.00027308,0.00045101,-0.00077147,-0.0014904,0.0019874,-0.00072095,0.00037736,0.0013002,-0.0011474,-1.5693e-05,-0.0013885,-0.0024679,0.0027787,-0.0015019,-0.0027659,-0.0019436,-0.0007618,-0.0010171,0.00035637,0.00014045,0.00056088,0.0010898,-0.00011873,-0.00043019,-6.7162e-05,-6.6598e-05,0.00035166,0.00032189,0.00019256,0.00042301,0.00088902,0.00106,0.00046423,0.00041198,1.5077e-05,0.00026821,0.00041093,-0.00028096,4.9682e-05,0.00022757,0.00027763,0.00027662,0.00018623,2.2503e-05,0.00051386,0.002859,-2.4214e-05,-6.1157e-05,9.3024e-05,-0.00072202,-0.00027197,-0.00075354,0.00033515,0.00084656,-0.00066966,-0.00047447,0.00016153,-0.0002258,0.00010667,-0.0019553,-0.00064093,-0.00049381,0.00012101,0.0007685,-8.5225e-05,1.2893e-05,0.00034691,0.00043806,5.978e-05,-0.00032687,0.002806,0.00038902,8.9322e-05,-0.0041147,0.00012773,0.00016777,-0.00032333,0.00040265,0.00058187,0.00041756,0.005648,-0.00098211,0.0021425,-0.0012173,0.00089415,0.00064093,0.00012994,-0.00086629,0.0015454,0.0049182,-0.0018609,-0.0021251,0.0032536,-0.001948,-0.0045628,0.0007299,-0.0010812,0.00066871,0.0015014,-0.00022651,2.6216e-05,-0.00010121,0.00091595,0.00061136,0.00017695,-0.00022354,-7.4921e-05,0.00033286,0.00019429,-0.00026092,0.00091185,-1.2004e-05,0.00069418,-9.2256e-06,0.0024357,0.0004522,-0.00013081,-0.0010524,0.0023881,-0.00029371,-2.8467e-05,9.8663e-05,-0.00073737,-0.0009337,0.00061404,-0.00029743,-0.00049925,0.00025863,0.0003537,1.1047e-06,0.00027492,-9.4337e-05,0.00062534,0.00087362,-0.0032183,-0.00039755,0.001959,-0.00051274,-0.0014622,-0.00083828,0.00077565,0.00022043,-0.0002881,-9.2087e-06,-0.00035804,-0.00061919,-0.00059726,-0.00014742,0.0007986,8.8904e-06,-0.00033651,0.00028304,0.00017924,-0.0019891,-0.0015727,-0.00036046,7.4518e-05,-0.00070566,0.00024913,0.00025071,0.0021469,-0.00062319,-0.00025832,-0.0089074,-0.00012982,0.00021109,-0.0013456,-0.0026737,-0.0048774,-6.284e-05,0.00040524,-0.00078328,6.0515e-05,9.2634e-05,0.00011302,5.3998e-05,-0.0018774,-0.0008385,0.0021855,-0.0015348,0.0003342,0.0008017,-9.3512e-05,-0.00092869,-9.8253e-05,0.00067476,4.8675e-05,0.00044113,-0.00037251,-0.00014851,-0.001771,-0.0014285,0.00020775,0.00011262,-1.0188e-05,-1.5546e-05,-8.0736e-05,0.00027915,0.00030184,-9.3008e-06,0.00033969,0.00028001,0.0003863,0.00072041,0.00015711,-0.00011206,-0.00020536,-0.00070686,-0.0045077,-3.0482e-05,-0.0010889,-0.0011924,2.4987e-05,-0.0013566,-0.0042169,0.00074119,-0.0014976,-0.0088509,-0.0028174,0.0001001,-0.00034914,-0.00031881,-0.00093476,0.00010327,-0.0070064,-0.0013837,-0.0022385,-9.2979e-06,-0.00041421,-0.00010445,-0.00034248,0.00020855,-0.00018016,0.0001679,-0.00079893,0.00040034,0.00068038,0.00053717,0.0011952,-0.00074504,0.00010091,0.00061716,-0.00045738,8.3822e-05,-0.0010337,0.00031394,-0.0010818,-0.00040892,6.3385e-05,0.00022143,-0.00012625,0.00012618,-0.00015751,0.00027425,-0.0010348,0.00013759,-0.00031983,-0.00032665,0.0025705,-0.00038505,-0.00076339,1.6109e-05,-0.00048955,-0.00021424,-0.0012597,-0.00077154,-0.00017009,0.0001941,0.00064983,4.9918e-05,0.00040468,0.0001262,0.00012994,5.8118e-05,-0.00083368,-0.001244,-0.0015783,0.00050796,-0.0012139,-0.00059929,0.00019307,-0.00047327,0.0002047,-0.00036534,0.00032792,-0.00055217,-0.00065605,0.00030251,-0.00024452,0.0039671,0.00011234,-0.0012434,-0.0022415,-0.00029825,-0.00081733,-0.0008535,-0.0014243,-0.0030399,-0.00086737,0.0079467,-0.0023631,0.0017175,-0.0013693,-0.0014674,-0.00017509,0.00064482,-0.00046865,-0.00068676,-0.00067827,0.00072609,0.00021256,-0.00022188,-0.0026994,0.0001696,-0.0058548,0.0015271,0.000637,-0.00073622,-0.00067263,0.006328,0.00059935,6.36e-05,-0.00076801,3.5017e-05,1.9737e-05,-0.00079114,5.1201e-05,-0.00082201,0.00020316,-0.0015246,-0.0023652,0.00029678,-0.00023767,-0.00050863,0.0001816,0.00034376,1.8406e-05,0.00050848,-8.4288e-05,0.0005517,0.00015491,0.00021516,-0.00061294,0.00093339,-0.00033077,-0.00039862,-0.0014825,-0.00035431,0.00034629,-0.00042643,0.00016475,-0.002212,-0.0026515,-0.00025297,0.00016154,0.0028831,-0.00016001,-0.00044589,-7.9574e-05,0.0001626,-0.0027838,-0.0057098,-0.00057236,7.9476e-05,-0.00070051,7.5135e-06,-0.00059615,0.00030392,-0.00042466,-0.00086813,-0.0091304,-0.010055,0.00034996,-0.0082779,-0.0023178,-0.0012136,-0.0001336,-4.7376e-05,0.00090022,-8.1351e-05,0.00052233,0.0012392,-0.00027792,-0.0011389,-0.0019789,5.2834e-05,-0.00088039,-0.00038362,0.00010488,0.00011594,0.00025487,3.8349e-05,-0.00038365,0.00048441,0.00039424,0.00034874,9.8116e-05,-0.0027065,-0.0022002,0.00011024,0.00015446,0.00017782,-0.00031416,4.1674e-06,0.00021469,0.00017424,-0.00069826,3.2277e-05,-0.00017652,0.00037261,-0.00022369,-0.0023925,-0.00037665,-0.00012544,-0.0036069,-0.0030829,-0.00033987,-0.00083966,0.00026947,2.6909e-06,-0.0010628,0.004288,0.0018195,0.0010448,-0.011883,-0.0047772,0.00030068,0.003256,0.00066933,1.1677e-05,-0.000158,0.00031053,0.00057784,0.00095528,0.00027666,0.00015637,-0.00053313,0.00042465,0.00024398,0.00032933,0.00014793,-0.00034642,0.00075732,0.00030935,-4.4378e-05,0.0012677,0.00033327,-0.00053762,-0.00064623,-0.00014452,0.00028015,0.00030864,-0.00031828,-0.00013691,0.00037883,0.00034559,0.00012987,-0.00026301,0.00021716,0.00094162,6.9925e-05,0.00027775,0.0019795,-0.00040478,0.00099601,-0.00041763,0.00013621,0.00091123,-0.00072948,-0.00026724,0.00023266,-0.00045216,-0.00018436,-0.00030413,-0.00040551,-0.00014342,3.5325e-05,0.0002553,-7.6411e-05,7.7317e-05,-0.0001624,-5.5558e-05,-0.00032575,0.0029661,0.0025664,-0.0016345,0.00055232,-0.00029477,-0.00011565,0.00014139,-0.00015771,0.00091547,9.5616e-05,0.00061811,0.00034852,-0.00086456,-0.001918,-0.00070941,0.00076119,0.0034214,-0.0010585,-0.0013375,0.00049414,0.00026261,0.0024846,0.0064462,0.00063707,0.0010951,0.0030405,0.0030482,-0.0011103,0.0011874,0.0036059,-0.00043795,-0.001149,0.00010852,0.00042387,-0.00010268,0.00016765,3.7107e-05,-0.00031727,-0.00043129,-0.00044204,0.0011068,3.7061e-05,0.00022961,-0.0003366,-9.643e-05,0.00030644,0.0003452,-0.00010938,0.00098908,-0.000148,0.0014627,0.00012444,0.0025135,0.0015004,-0.0047066,-0.0016101,9.0543e-05,-0.00072213,-0.0010433,-0.00054344,-0.00022256,-0.00083693,0.00022441,-3.3568e-05,4.6048e-05,4.6077e-05,0.00020393,3.3179e-05,-0.00047329,-0.0031934,-0.00036065,-0.00075798,-0.00039359,-0.00077882,-0.0031125,-0.00087893,0.00012487,-0.00077458,3.5662e-05,0.00026094,-0.00053143,0.00011723,-0.00054691,0.00059016,-0.00072554,0.00013593,-3.9322e-06,0.00027273,-0.002453,-0.0023642,0.0037776,0.0004394,-0.001202,-0.00016324,0.00039112,0.00031417,4.1795e-05,-0.00049659,-0.0033289,0.00072927,-0.00057274,-0.0021411,-0.0014766,-0.0029076,0.00019691,0.00015337,0.0005784,0.0002656,0.00020371,0.0011351,-0.00039596,-0.0018896,-0.00048291,0.0057757,0.00281,-0.00053984,-0.0002091,2.1862e-05,-0.00091308,0.00017534,0.0010275,0.00059031,-3.6448e-05,-0.00026314,-0.00025412,-0.0029463,-0.0014611,0.00069006,0.00036277,-6.837e-05,-0.00036705,0.00011701,0.00034415,0.00020531,0.00027268,-0.00062093,-0.0002122,0.00034179,-5.8028e-06,-0.0010274,-5.3769e-06,0.00030675,-0.0026397,-0.0020953,0.00046937,-0.00085249,-0.001648,0.00047687,-0.0015687,-0.0056357,-0.00034374,0.00070676,-0.0014698,-0.0015062,-0.0001558,0.0040963,-0.0002733,0.0017502,0.00027018,-0.00072247,-0.00087867,-0.0026189,6.1536e-05,0.0020685,-0.0011219,-0.0069403,0.00015232,0.00013651,-7.3205e-06,6.6969e-05,0.00058843,0.00042574,-0.00028424,0.00055802,-0.00011082,0.0007119,-0.001761,0.00089346,0.00013845,0.00037956,0.00065873,0.00029972,0.00053925,0.00032241,0.0011111,-0.00022232,0.00035885,0.00015813,0.00040017,0.00068194,0.00080741,0.00054304,0.00054359,-0.00022735,0.00053132,-0.00075018,-0.0014624,-0.0054234,-9.5402e-06,0.00098269,0.00034671,-0.00050599,-0.00017282,0.0012414,-0.00042712,-0.00038593,0.00061881,-0.00047659,6.5837e-05,0.00034091,-2.492e-05,-0.00012743,-0.00021852,0.0015609,0.00053904,0.00037801,-0.00035832,-0.0046239,-0.0051532,-0.0011623,-0.0010555,0.0029701,0.0010855,0.00049361,0.00097436,-2.121e-05,0.0033136,0.00013534,-0.00022411,0.00031916,0.0010213,0.0003797,-0.00095421,0.0019238,0.00023612,-0.00072704,0.00034292,-0.0022179,-0.00062225,0.001281,-0.00042058,0.0024106,-0.001185,-9.4045e-05,0.005903,0.00035303,0.00078867,0.00092285,0.001759,-4.5392e-06,-0.00060405,0.0018839,-0.00080872,0.0051612,9.0206e-05,0.00041386,0.0055953,-0.0016482,0.0040758,-0.003956,-0.00040668,-0.0014353,-0.00046829,0.0028998,0.00058748,0.00025889,0.00038287,-0.0025652,-0.00056685,-0.00021369,0.0061683,0.00071443,0.00035774,2.0782e-06,0.00037207,5.4149e-05,-0.00018689,0.00067625,0.0006414,0.001239,0.0011108,0.0020375,0.0027473,0.00069991,0.00015407,0.00046071,-7.3321e-05,0.00085104,-0.0010887,0.0031129,0.00042886,-0.00077813,-0.00095738,0.001412,0.0011597,-0.0016306,0.00074758,-0.00018057,0.0019091,-0.0013043,0.00070827,0.00096032,-0.00038994,-0.00055893,-0.0015293,-0.0012212,0.00051504,-0.00012411,0.00025606,5.6422e-05,0.00079548,0.0011528,-0.00040833,0.0014093,-0.00032628,-0.00071174,-0.003986,-0.0082444,-0.0044175,0.00012002,3.2027e-05,-0.0010352,0.00041833,0.00072713,-0.0041877,-0.00024495,0.0017574,-0.0030279,-0.004149,-0.0015576,0.00068425,3.4926e-05,0.0010732,-8.5855e-05,0.0010094,0.00036272,0.001521,0.001492,0.00056746,0.0007565,-0.00040086,8.1864e-05,0.0008069,0.0002799,0.00078488,0.00010865,0.00063773,0.001068,0.0004729,0.0017086,0.0001108,0.00075044,0.0022738,-4.303e-06,0.00059426,0.0018879,0.002693,0.0028529,0.00022704,-0.00048538,0.0043399,0.0044454,0.0013002,-0.0013063,-0.0024719,7.1908e-05,0.00041952,0.0011129,0.00025336,0.0010308,0.0010972,0.0013346,-0.0094452,0.00084902,-0.0053104,0.0058209,1.6082e-05,-0.00038395,-0.0060288,-0.00032679,0.0022345,0.0010027,-0.0021097,-0.0011866,-0.0016803,0.00021007,0.00076723,-0.00011185,-7.3362e-05,0.00041863,-0.00042803,-0.00075761,0.00032438,-6.6429e-05,-0.0002651,0.00014673,-0.0001799,0.00021203,-0.00020388,0.00042075,0.00019445,0.00043504,-0.00025598,8.2956e-05,3.6807e-05,2.6876e-06,0.0002094,-3.0676e-05,-6.4072e-05,0.00023979,-0.00042284,0.00010446,-0.00031513,-0.00012526,0.0048399,-8.5349e-05,-0.00045769,0.00022356,-0.00081037,0.00024004,-0.00058818,-0.00035939,-0.00047633,0.00042661,-0.00028702,-7.1561e-05,0.00050043,-0.00012382,1.2428e-05,-0.00010833,0.0016523,-0.00013286,0.0022404,-0.00047581,-0.01027,-0.0073211,-0.00022162,-0.0020574,0.0026424,0.00039912,0.00014137,0.00019663,0.00036676,0.00035563,0.00016196,0.0016828,0.0002378,-0.00023887,-0.0010233,-0.0017787,-0.00039715,0.00073632,-0.0029662,0.00023588,-0.00086248,0.00019121,0.0012232,1.0508e-05,0.0087114,0.000611,-7.7509e-05,0.00079651,0.00028779,0.0003518,0.00065521,0.00060065,0.00012679,-0.0023917,0.0015765,-0.00033268,0.0033594,0.0042067,-0.0002345,0.0009792,-0.00058373,-0.0022094,-0.00033174,4.4903e-05,-0.00027033,-0.00045645,0.002711,0.000161,0.0021765,0.0027675,-0.0054668,0.00189,-0.0012984,-0.00051269,-0.00050132,0.0075373,0.00045827,-0.000243,-0.0020615,0.00058842,0.00022031,-0.00040426,0.00049542,0.00035374,0.00040793,0.00031498,0.0024175,-0.00041541,0.00033471,-0.0041478,-0.0018531,-0.00043172,-0.0001898,-0.00069136,-0.0036618,-0.0005912,0.00042728,0.0001402,0.00087388,-0.0014204,-0.001095,0.00033882,0.00040083,0.00037729,0.00057016,0.00032841,0.00015203,0.00062634,-0.0018836,-0.0018115,-0.0030611,0.00019889,-0.0009534,0.000263,-0.00029001,0.001715,0.00022991,-0.00087109,-0.0016679,0.0026961,-0.0018657,-0.001924,-0.002117,-0.0047801,0.0001617,0.00021477,0.00075648,0.00048414,0.0013978,-0.002784,-0.00040262,-0.0016554,-0.0016077,-0.0018469,-0.0013905,0.0004717,0.00010456,0.00058166,0.0001696,0.00076186,2.1691e-05,0.0013183,0.00058218,0.00074322,0.00055666,-0.00046026,-0.00039666,0.0009052,0.00012083,0.00040134,0.00014836,0.0003886,0.0012173,0.0006054,0.00094993,0.00090744,-0.00039876,0.0007274,0.00026071,0.0035124,0.0022029,0.0029587,0.0039668,-0.0010614,-0.00063493,-0.00065707,0.00083454,0.0032704,-0.00075429,-0.0072984,-0.0022725,0.00019258,-0.0087306,-0.00011513,-1.5158e-05,0.00040268,0.0014972,-0.012465,0.00079225,-0.0014989,0.0022494,0.0026668,0.00057477,-0.00045445,0.00038482,-0.00027353,0.00092545,0.0020638,0.0015571,-0.0085162,0.00049423,0.00059876,2.1138e-05,0.0013537,0.00038102,0.00043274,-0.00021216,0.00064001,-0.0019336,0.00040996,-0.00046569,0.00010083,0.00063367,0.0012888,0.00091874,-0.0035379,-0.0001329,0.00068881,0.00033944,4.9128e-05,0.00067343,-0.00035522,0.0013996,0.00081974,0.0006028,0.00036114,0.00049379,-0.00019928,0.00055599,-0.0019454,-0.0030817,-0.0023072,3.1636e-05,-0.00033503,-8.9731e-06,4.6053e-05,0.00097449,0.00045228,-0.00089981,-0.003184,0.0003005,-0.00015216,-0.00078821,-0.0016932,-0.0028102,-4.2091e-05,0.000143,2.9491e-05,0.00078658,0.00076991,-0.0025066,-7.9861e-05,-0.00074706,-0.0024996,-0.0016578,-0.0012206,0.0015439,0.00012989,0.0011593,0.00036215,0.0014615,0.00042476,-0.0012409,0.00099622,-0.0007437,-0.00073942,-0.00016717,-2.2002e-05,0.00076791,0.00016761,0.00048574,-0.00040986,0.0011436,-0.0013034,0.00046709,0.0015599,0.0013981,-0.0015222,0.0018897,0.00010183,0.0031615,0.0010739,0.0039335,0.001234,-0.0009309,-0.0011358,-0.0032874,-0.0025633,-0.00094846,-0.0048602,-0.0023997,-0.0011345,0.0019792,0.00171,-0.0040302,-7.3063e-05,-0.0020954,0.00075924,0.0032443,0.0011561,-0.0031982,0.0073472,0.0062935,0.00080729,0.0088668,0.00073466,0.00083824,-0.0035163,0.0078338,0.0015978,-0.00084078,0.0017803,-0.00071917,-0.0015448,-0.00030731,0.00050066,0.00071461,0.00033564,0.00055485,0.0004274,-0.0032528,0.00087899,-0.00090503,-0.0011238,0.00039476,-0.00089722,-0.00093714,-0.0013223,0.00044208,0.00050813,0.00028605,0.0001465,0.00013838,-1.0869e-06,0.00028931,-0.00019295,0.00045218,0.00021258,0.00024904,-4.7389e-05,-0.00017869,-7.1308e-05,0.00028779,-0.0024715,-0.00021775,-0.00072579,0.00027815,-0.0024758,0.00046522,0.00019323,-0.0003732,-0.00097232,0.0002875,0.00021671,0.00067649,-0.0013,-0.002311,0.00035783,9.5361e-05,0.001227,-0.00035813,2.7062e-05,0.0020183,-0.0024589,-0.0015385,-0.0010263,0.0010962,0.0027907,0.00036495,-0.00038044,9.6167e-06,0.00060265,0.00087216,0.00073359,0.0010755,-0.00056276,0.00089706,0.00036415,-0.0015874,0.00041649,0.0012869,-2.5029e-05,0.00049185,-0.00090779,0.00063658,0.0012156,0.001417,0.0021757,-0.00053964,-0.00041712,-2.563e-05,-0.00022516,-0.00053588,-0.00019397,0.0010359,-0.00055732,-0.000509,-0.00069819,-0.0022758,0.0043366,0.00086543,-0.00084636,0.0017774,-0.0046329,-0.0021644,-0.003028,-0.00085664,0.00015981,-0.00027507,-0.00014575,0.0024864,0.0032057,0.0039008,0.0060791,0.0094296,0.0040982,-0.00086596,-0.00044917,-0.00013588,0.00022075,-0.00090957,0.0010925,0.003479,0.0004486,0.00077032,-6.359e-05,0.00017049,-7.2413e-05,2.0175e-05,0.00048928,-0.00035586,-7.7529e-05,-0.0017706,0.0010187,0.00060305,0.00084045,0.0024417,0.0002138,0.0010947,0.00104,-0.00028567,4.6627e-05,0.0029378,0.00025671,-0.00014018,0.0010226,0.00088225,-0.0010178,-0.00058368,-0.0012037,-0.0025422,-0.00012625,-0.00087502,-0.00064538,-0.00027562,-0.00049903,-0.00017926,-0.00030364,0.00043657,-0.00014227,-0.00094882,0.00025018,-0.0027873,-0.00047289,-0.00026191,-7.6371e-05,0.00039837,-0.00014508,0.00021917,-0.00032355,-2.0214e-06,-0.00018549,-0.0050431,-0.0018881,-0.0046304,4.5476e-05,-0.00060107,-0.00022315,-0.00011856,-0.0003113,-8.8021e-05,-0.00071997,-0.00010853,-0.004149,-0.00056032,-0.0061513,-0.0011324,0.00019931,-0.00017282,-0.00086242,-0.0004268,-0.00019281,-0.00073542,-0.0012226,-0.00071314,-0.0029305,-0.00011908,0.0049394,0.001088,-0.00031077,0.00077504,-0.00017121,-8.4765e-05,0.0030144,0.00026664,0.00085615,0.00090619,0.00073007,0.00049016,-0.00044371,0.0004154,-1.7596e-05,0.00033327,0.00023504,3.596e-05,0.0021389,0.00015839,0.0012122,0.001177,-0.00017882,-0.0021481,-1.4131e-05,-0.00065291,0.00016567,-0.0010416,0.00010512,0.00039143,0.0010885,-0.00020877,0.00065598,-0.0017272,0.00044041,-7.8722e-05,0.00026251,-0.00031677,-0.00021596,0.00026973,-0.00042254,-0.00021236,-0.0042334,-0.001725,-0.00049402,0.00029604,-0.00027072,-0.0012572,-0.00069166,0.0012376,0.00012636,0.0035211,0.00028097,0.0003046,0.0013817,-0.00020407,0.00095949,0.00024162,-0.00080243,0.00184,-0.00021208,-0.00019011,-0.00053319,8.4644e-05,-2.4677e-05,-0.00054047,-0.001323,-0.00040576,-0.0026062,-0.0039867,-0.0046586,-0.0002057,-4.4582e-05,0.00022065,-0.00059078,-0.0020324,0.00056449,-0.0052118,-0.001025,0.0020973,-7.9353e-05,-0.00029711,0.00018036,0.00096254,-0.0011031,7.9298e-05,0.00028092,0.00022003,0.00015388,-0.0017943,-0.00014898,-0.00073155,-0.00019597,0.00020346,-0.00056872,-2.4347e-05,-0.00026665,-0.00026577,2.4865e-06,-0.0016946,-0.00036336,0.00040855,-0.0009784,-0.00044773,-7.6835e-05,0.00072801,-2.25e-06,0.0003281,-0.00072441,-0.00083699,-0.00043447,-0.00019327,-0.00030111,5.1672e-06,-0.0002271,0.00026225,0.00026442,-0.00052672,0.00073397,-0.0028703,-0.0004369,-0.00062358,-0.00011078,-5.6456e-05,-0.00031384,-1.7326e-05,-0.0003445,-0.00029281,-3.2425e-05,-8.1296e-05,-0.00011447,-5.3446e-05,-0.00064986,-0.0010102,0.00014654,-0.00031822,-0.00072796,0.00078231,-0.00037956,-1.5417e-05,-0.00030399,-0.00029329,-0.00046733,0.00013433,0.00040913,-0.0012213,0.00013708,0.00028922,-0.00034522,-0.00036555,0.00064356,0.00098372,-0.0015744,-0.00083793,0.0011219,0.00053935,0.0010223,-0.00059779,0.00042912,-1.6809e-05,-9.7777e-05,0.00055939,2.4443e-05,0.0014553,0.0015355,0.00019814,0.0016671,0.00084513,0.0015503,0.00056149,-0.00020502,0.0010306,0.00028138,0.00010404,0.0006107,0.00023224,0.001754,2.3058e-05,0.00088055,-0.0002661,-0.002706,-6.9321e-05,-0.00035067,0.0014069,-0.0016045,0.00026127,-0.00018389,-2.3871e-05,0.00021194,-0.00034785,-0.00087939,0.00071771,-0.0012693,0.00018253,-0.00090389,-0.00063474,-0.00022654,7.3959e-05,0.002556,2.114e-05,0.00035631,-0.00021526,-0.00016742,0.00052687,-0.00030072,-0.0035186,0.00062265,0.00067201,8.7819e-05,-0.00031904,6.1678e-05,0.00016563,7.1763e-05,1.5126e-05,0.00014828,0.0055237,-0.0012474,-0.0022769,-0.00065249,-0.0010163,0.00055696,-0.0080894,-0.0044604,0.0005095,-3.1057e-05,-0.002799,-0.0012845,-0.00038593,0.00068631,0.00010062,-0.0016722,0.0013645,0.0012399,0.0020883,-0.0003494,-3.6223e-05,0.00031985,0.00078164,0.0006416,0.00095272,0.00040454,-0.00052764,0.00087184,0.00047178,-0.0002844,0.0010987,0.00043291,0.00089717,0.00041114,0.0023614,0.0010103,-0.00013453,0.00029359,-0.000165,-0.001125,-0.00031404,-0.0024069,0.00031596,0.001432,0.0011514,0.00084541,0.00098253,0.0017249,0.00092188,-0.0019993,-0.00033219,-0.00018417,0.0007965,0.00058799,0.00031539,0.0012864,0.00043372,-9.3988e-06,0.00074869,0.00093116,0.00020771,0.00011858,0.00050371,0.00039676,-9.497e-05,-0.00032172,0.0010959,0.0028298,-0.00052614,0.0010991,0.00037042,0.0014913,0.00087091,0.00072718,0.0001572,-0.00094658,0.00019992,-0.00047265,-0.00035339,0.0026342,-0.00052311,0.00043031,0.00025661,1.25e-06,-0.00032749,-0.00028347,0.00040638,-0.00028349,0.00022792,-8.9348e-05,2.9891e-05,0.00013149,0.00044595,0.00021326,0.00063634,0.00087171,-0.00024817,-2.5002e-05,0.0001709,0.00072226,7.9456e-05,-0.00024476,0.0015234,0.00021951,-8.2494e-05,0.00044915,0.001016,0.00051256,0.0020924,0.00064246,-0.001881,-7.8876e-05,-0.0001025,0.00032457,0.00021031,0.000218,0.00076922,0.00032547,0.0010983,0.00064839,0.0013068,-0.00063743,4.6603e-05,0.00066207,-0.0011213,0.0025982,-0.00078764,0.00069011,0.0011378,0.0022446,-0.00071426,-0.00032151,0.00069528,-0.0016088,-0.00069288,0.00043438,0.00015616,-0.00046426,0.0038827,0.0024494,0.0011353,-0.00063563,0.00010357,0.0041186,0.00061796,0.0013747,0.0035473,0.00046554,0.00070885,0.00054733,0.0014012,0.00041986,0.00018368,0.0011565,9.8459e-05,-0.0029322,-2.1644e-05,-5.915e-05,0.00070936,0.00045192,0.00083662,0.00082467,0.00067145,0.00083084,0.0011194,0.00072382,0.0014505,0.00093907,0.00045554,0.0010461,0.00016668,3.64e-05,-0.009103,-0.002009,-0.00081423,-3.6999e-05,3.1141e-05,0.00016701,-0.00022177,0.00055076,-0.00033975,-0.0012849,-0.0036237,0.0030564,0.001675,0.0011935,-0.00030657,-0.00029639,0.0018715,0.0007231,0.0003402,0.00018713,-0.0011652,0.00023599,-0.0011174,-0.00052211,-0.00089631,-0.00090617,0.0029591,-3.9154e-05,-0.0013915,7.1419e-05,-0.00085165,3.9087e-05,-0.00031285,0.00021827,0.00019933,2.1988e-06,-0.0004811,0.00042877,-0.00060789,0.00031652,-0.0003841,-0.00030713,-7.6107e-05,-0.00022091,0.0026498,-0.00013734,-0.00017162,0.00016136,2.3087e-05,-0.0002667,-0.00058721,2.6439e-05,0.00034398,0.00021262,6.5676e-05,-0.0027636,-0.00011348,-7.724e-05,7.0272e-05,-0.00076617,0.00054302,0.00030748,0.00079083,0.0028001,-0.00051214,0.0029988,-0.00035156,0.00026786,-0.0012921,0.00027109,0.0017725,0.0014179,1.0423e-05,5.8855e-05,-0.0020973,0.00035709,0.00013471,-0.0021144,-0.0041318,-0.0015641,0.00052555,-0.00052996,0.0025358,-9.1566e-05,-0.0047749,0.0056673,0.00067143,1.0755e-05,7.3914e-05,-0.0018232,-0.00093557,-0.0040321,0.00097983,0.00020811,0.00010314,0.00093747,0.00032611,0.00023004,0.00016667,0.00040659,-0.0031529,0.000304,-0.00081353,0.00028878,-0.0013299,0.001055,-0.001238,0.0008289,0.00082316,0.0002389,-9.5356e-05,8.7322e-05,0.0027873,0.010008,0.00042703,-0.00028647,0.0004517,-0.00038526,-8.9907e-05,-0.0011654,-0.00047414,-0.0025391,0.0042804,0.0014335,-0.0026129,0.00072479,-0.0061073,-0.001339,0.00066792,0.00015632,0.0077941,-0.00035786,-0.00022116,0.00021528,-0.00095546,0.0008074,7.5225e-05,-0.00049236,0.0015982,-0.00011696,-0.00024573,-0.002606,5.6789e-05,0.0023221,0.00073849,-0.0037932,-0.0033362,0.0017131,-0.00023797,-0.0029022,-0.00010632,-0.00025708,7.2564e-05,0.0015642,-0.00012562,0.00040758,-0.0017222,0.00093037,-0.000932,-0.00069989,-0.00038833,5.2151e-05,0.0014156,-0.00059667,0.00014939,-0.00017846,-0.00032549,-0.00015354,-0.0048433,-0.0007732,-0.0010043,-0.00053202,0.00053974,-0.00047059,-1.1375e-05,-0.00031814,-0.00022532,-0.0006857,-0.0008338,-0.0010553,-0.00064819,-0.000639,0.00042842,0.0015313,0.00030336,1.6506e-05,-0.0013619,-0.00090983,-0.0011878,-0.001295,-6.7858e-05,-0.00039792,-0.00021241,-0.00021265,-3.2765e-05,-0.0021752,4.5569e-05,0.00018532,-0.0011274,-0.00084835,-0.00059061,-0.0009237,-0.0010674,-0.0010252,6.4544e-05,-0.00026834,-0.00065752,-3.5791e-06,-0.00059938,-0.00039453,-0.00043397,-0.00083155,-0.0011473,-0.0011043,-0.00075874,-0.00020422,0.00046265,-0.00049134,5.0647e-05,-0.00029858,0.00038905,-0.0003647,-3.3913e-05,0.00036901,0.00013794,-2.0829e-05,-7.6073e-05,-0.00016674,-0.0019542,0.0054255,5.2428e-05,-2.6984e-05,-0.0021056,0.0002869,0.00088831,-0.00069364,0.00097081,-0.0011515,0.00036367,0.0011167,-0.00017615,0.0019275,1.7183e-05,-0.00046056,0.00083395,-0.000129,-0.00058295,-0.0027645,-0.0013515,0.0018217,-0.00043275,0.00099862,0.00047943,0.0032226,0.0015352,-8.831e-05,0.00019454,-0.0027091,0.00039991,-0.00025044,-0.00052974,-0.00089282,-0.00013487,-0.00045235,5.7317e-05,-0.0013814,0.00065064,-0.0040393,0.0034029,6.3434e-05,-0.00017175,0.00019341,-0.00045718,-0.0012475,-0.00020047,-0.00079411,-2.9691e-05,-0.0029344,-0.00045675,-5.3906e-06,0.00012474,0.0022212,8.5261e-06,0.00060662,-0.00035103,-4.8077e-05,0.00013801,-0.00051899,-0.0011397,-0.0015128,0.00027154,-0.00038213,-0.00037366,0.00012599,-3.6604e-05,-0.00062817,0.00048131,0.0009884,-0.0021358,0.00034497,-0.0030367,-0.00031705,-0.0015525,8.8128e-05,0.0048782,0.003961,5.2887e-05,-0.00039232,-0.00090347,-0.00033212,-0.0027294,0.00018414,-0.0019905,3.9573e-05,0.0004626,0.00037163,0.00034576,0.00025292,-0.0062633,-0.00037937,0.0012781,0.00017926,0.0022236,-0.00080119,-0.00018073,-0.00038309,0.00010376,-0.00080922,0.0008126,0.00078484,-0.00037951,0.0001351,-0.0029136,0.00012958,1.582e-05,-0.001218,-0.00042023,-0.0058696,0.00032039,-0.00090304,5.4705e-05,0.00063874,-0.00067377,0.00015399,0.00028154,-0.00022311,0.00065843,-0.0013739,-0.00054578,-0.005838,-0.00061812,-0.0010656,-0.00044912,0.00037013,0.0022917,0.00027155,-0.0018176,0.00021388,-0.00158,-0.000637,0.0046584,0.0065688,0.00016643,0.00014393,0.00060508,0.00015731,-0.0008097,-0.0023195,0.00047301,0.0076588,-0.0012505,2.8789e-05,0.002583,-0.0013403,0.0019254,0.00071564,0.00031755,0.0033678,0.00034892,-0.00060368,0.00023102,0.0016851,-0.0014687,0.00079811,-0.001528,0.00131,0.0032021,-0.004856,0.0011865,7.4518e-05,0.00018868,0.00039671,0.00087421,-0.0014515,0.0011162,-0.0010417,0.0011199,-0.00075965,5.4e-05,4.6581e-05,0.00029921,0.0016245,0.0003832,0.00049698,0.00042574,0.00027344,0.00033347,-0.00060599,-0.000872,0.00043007,-0.00089678,0.00050559,-0.0014224,0.0002934,-0.00044582,-0.00019653,0.0023522,0.0031662,0.0013157,0.00048407,-0.00058103,0.0016251,0.00063587,7.76e-05,0.001542,-0.0011267,0.0017522,-8.2491e-05,-0.0013039,-0.00086175,0.0021433,-0.00052042,0.0012393,0.0019919,-0.00083572,-0.0023949,0.00049281,0.00040067,-0.00045409,9.5368e-05,-0.0016361,0.00014187,-0.00070283,0.0018336,3.6759e-05,-0.0016887,-3.5176e-05,-0.00081995,-0.00024683,0.00014282,-0.0013409,-0.00070727,-0.0012606,6.468e-05,-0.00013366,0.0007074,0.00025572,-0.00056607,-2.0474e-05,0.00071135,1.0526e-05,0.00036267,0.00044506,-0.00014724,0.00017894,7.8196e-05,4.0709e-05,0.004116,-0.0025914,0.00016477,0.00081367,0.0022653,-0.0066856,0.0098512,0.00028689,0.00090951,-0.00060768,0.00063319,-0.0023121,-0.0040985,-3.3601e-05,-0.00023813,0.0010791,0.00016659,-0.0012905,5.7492e-05,-0.0017519,-0.00041352,-0.003611,0.0073433,0.0021308,0.00043265,0.014288,0.00034468,-0.0010817,0.0011878,-0.00020677,0.0003262,6.7623e-05,0.00027352,9.9455e-05,0.00051294,0.0016749,-0.00096413,-0.0026896,-0.0010958,-0.002083,0.00051555,-0.0023563,-0.00042806,-8.6236e-05,-0.00013133,-1.3717e-05,-0.00057724,-0.00097585,-7.7146e-05,-0.00078261,0.000228,-0.0018059,-0.00023765,-0.00010626,4.6471e-05,0.0025795,7.6769e-05,-0.00016196,1.0766e-05,-0.00034155,-0.00013601,-0.00073515,-0.00010468,-0.00030795,-0.0017474,1.6364e-05,-0.00090803,-0.00010919,-0.00014188,-7.5364e-05,0.00015512,0.00030989,0.00057852,-0.00050443,-0.00088273,1.6753e-05,-0.00025394,-0.00054751,-0.0016348,0.00082956,0.0013921,0.00061375,0.00058717,0.00017893,1.5012e-06,0.0010699,-0.0007004,0.0004253,0.0016847,-0.001265,0.00016158,-0.00027048,-0.00065757,0.00048785,0.00034978,0.00092747,-0.0016511,0.0010292,-7.4402e-05,-0.0026571,1.8655e-05,0.00031247,-0.002613,-3.4745e-05,0.00027221,-0.00016691,-0.0019846,-0.00019438,-9.7344e-05,0.00061804,4.8755e-05,-0.00039131,5.8683e-05,-0.00095022,3.1969e-05,0.00058916,0.00095415,0.0001899,0.0006654,0.00062017,0.0003028,0.00086158,-0.00022317,-0.0015741,0.0014488,0.0055753,4.5434e-05,-0.0015959,-0.00022982,0.00074736,0.00086128,0.00043864,-0.0023354,0.00066974,0.0003006,-0.00062167,0.00023531,-1.2179e-05,0.00012487,0.00028435,0.00047085,-0.00030874,0.00036608,-0.0006158,0.0057329,-0.0021432,-2.6494e-05,0.010719,0.00027313,-0.0012571,0.0056671,-1.5302e-05,0.00018117,-0.0047016,0.00021755,-0.00023174,-0.00027403,0.0015157,-0.00042392,-0.0024334,-0.00037576,-0.00097112,3.2692e-05,-0.0032039,-0.000171,0.00012043,3.146e-05,0.00023758,5.1529e-06,-0.0022431,0.00039649,-0.0013106,0.00098487,0.00015064,-0.00021045,-0.00015527,0.00015833,-0.00025753,7.5239e-05,-0.0003908,-0.00010997,-3.2058e-05,0.00071066,-0.00098193,-0.0010969,-0.00064564,0.00062301,0.00017892,0.00018411,9.7258e-05,0.0002373,0.00010389,0.0014731,0.000412,0.00035551,0.00053828,-0.0011939,-0.00038677,0.00025561,0.00089681,0.0017512,-0.0014124,0.0005807,0.00049151,0.00042391,0.00026982,-0.0019812,0.0007148,0.0014748,0.0030225,-3.3313e-05,0.00043993,0.00097934,0.00040874,-0.00089915,0.00069007,-0.0017123,0.0026238,-0.0071502,0.0013095,-0.00011527,0.0059311,0.0005447,-0.0025169,-0.00064009,0.00028832,-0.0016006,0.00073243,-0.0012984,0.00098521,-8.2186e-06,0.00044523,0.0002314,-0.0017876,0.00029467,0.00092342,0.00041896,0.00078106,0.0013095,0.00082413,0.00061642,-0.00054849,0.00079903,0.0097728,-0.00036272,0.0013312,0.00035582,-0.0005453,-0.0017361,-0.0031096,0.0036719,0.0030355,0.00044281,0.0028036,0.00089117,-0.00054312,-0.00010457,0.00018411,0.00018728,-0.0052687,-0.00053501,-0.00098983,0.0013767,-0.00048566,-0.0015485,0.00076388,0.001363,0.00073471,0.0014079,0.00048284,0.00015314,-0.00076653,0.00046806,0.00061385,0.00061831,0.00026264,-0.00079507,0.00026145,0.00033349,0.00026213,-0.00081239,0.0023716,0.0010677,6.9717e-05,0.00056231,0.0015441,-0.0012734,0.002175,-0.00067971,0.00021375,0.00039288,-0.00080448,-0.0025807,0.00032883,-0.0012928,0.00068345,0.00022955,-0.00020498,7.7798e-05,0.00076612,0.00090888,0.00055169,0.00041111,0.00041645,3.5628e-05,0.0008623,-0.00098411,0.0029798,-0.00064519,0.00098476,-0.0003884,0.00064898,0.00011085,-0.0025489,-0.002317,-0.00046064,0.003904,0.00086096,0.00012759,0.0032747,-0.00032993,0.00018933,0.00041732,0.0016239,0.0023355,-0.00019998,0.0012774,0.0028193,-0.0015266,0.00045369,0.00046185,3.0189e-05,0.00097605,0.00067954,-0.00083784,0.0013907,0.00055032,0.00074443,-0.001135,0.0011452,-9.9546e-05,0.00040881,0.00062685,-8.7446e-06,0.0011518,-0.00045069,0.00034155,0.00073218,-0.00052468,0.00026734,0.00015143,0.00015172,0.00031587,0.00019451,-0.0010379,0.00077997,-2.628e-05,0.00025205,-0.00048322,0.00090763,9.3035e-05,0.00037227,0.00067551,0.00021421,0.00030599,0.00072249,-0.00028417,0.0009133,0.00054302,-0.00014227,0.00063619,0.0011351,0.00031774,0.0013593,0.00087289,3.4459e-05,6.2866e-05,0.00054843,-0.0011415,-0.00049409,-0.0002502,-0.00028308,-0.0016474,0.0014031,0.001361,0.004002,-0.0045778,0.001862,-0.0001031,-0.00038938,0.00070025,-5.0328e-05,-0.00010539,0.00017158,-0.00036961,0.00019526,-3.3892e-05,-0.00023836,-5.5025e-05,-0.0016631,0.00084318,-0.00020563,0.00060155,-0.0022963,-0.00096113,0.00114,-0.00073665,-0.00056494,-4.4038e-05,8.1981e-05,-0.00043953,0.00081727,-0.0059093,-0.0019891,-0.0027339,-0.0014335,-0.00107,-0.0035291,8.9286e-05,0.0019244,-0.00093783,-0.0082196,0.00078561,0.00015003,0.0010875,0.0012712,-0.00024546,-0.0004694,-0.003733,-0.00025233,-0.00080782,2.5148e-05,-0.00026251,-0.00039452,0.00033643,-0.00039716,0.00021524,-7.2083e-05,0.00067052,0.0014936,2.8201e-05,1.862e-05,-0.00012068,-0.0014474,0.00014315,0.00041701,6.6466e-05,0.00020403,-0.00015836,-0.00040969,-0.0011888,-0.00037429,-0.0015154,-0.00029502,-0.00010531,-0.00090898,-0.00041906,-1.5705e-05,0.00022536,-0.00021464,-7.7619e-05,-0.0012376,-0.00013285,-0.00053227,-0.00020832,-0.00026349,-0.00061849,-0.0013631,-0.00022632,0.00024507,-0.00024388,-0.0002522,0.00019573,-0.0010092,-0.00017071,-0.00056646,-0.00041733,-0.00047618,-0.00012332,0.00078072,-0.00044186,-0.001143,0.00022896,0.00026727,-0.00043119,-0.00042967,0.00056868,-0.00095151,-0.0015823,0.00046032,-0.00096924,-0.00025921,-0.00085654,-0.00010014,-0.00022014,5.0368e-05,-0.00040416,0.00030896,-0.00015365,-4.3344e-06,0.00043116,0.0097202,-0.00010092,0.0023833,0.00010822,7.7258e-05,0.00021203,0.00036899,-0.0036304,0.0051269,-0.0014603,0.00029017,-0.00091514,0.0011624,-0.00070735,0.00017512,4.2365e-05,-0.00048563,0.00051805,-0.00047154,0.0019311,-0.00029304,-1.6283e-05,0.0013098,-0.00070736,0.0027017,0.00055292,-0.00072403,0.00010194,0.0003499,0.0036887,0.0005471,-0.0013906,0.00025589,0.00028887,0.00042103,-7.655e-05,-0.00099962,0.00010234,-8.2989e-05,0.00054119,-0.0010069,0.00034319,0.0013599,0.00077588,0.0013217,0.00042255,-0.00059208,0.00049299,-0.0032857,-0.00084435,-0.0016428,-0.001466,-8.8692e-05,-0.00029526,-0.00054458,-0.00051062,-0.0010439,0.00037234,-0.0038023,-0.0022369,0.00054353,-0.0023276,0.0045723,-7.4459e-05,0.0033077,-0.0011814,-0.0015546,-0.00064876,-0.0012028,0.00042325,-0.00018317,0.00065491,0.00025868,-0.00039328,0.0011639,-0.00040247,-0.0014903,-8.8853e-05,-0.0017681,-0.00061803,-0.00016563,-0.0015052,0.00068089,-0.0026441,0.00031415,0.00098465,-0.0011854,-0.0010548,-0.00011609,-0.00028726,-0.00077162,-7.5097e-05,-0.0012101,0.00087734,0.00016628,0.00014695,0.00065257,0.00052141,0.00046896,-6.4114e-05,-0.0019608,0.00042146,-9.5748e-05,0.00046224,6.9246e-05,-7.6169e-06,-0.002912,0.0018437,0.00060798,-0.000583,0.0039591,3.5814e-05,0.0001551,0.001803,-0.00084209,0.00091215,-0.00028901,0.00051271,0.0008416,0.0009581,4.4081e-05,0.001678,-7.8e-05,0.00052272,-0.012524,-0.0018158,-0.00099559,-0.0005059,-0.0014709,0.0003488,-0.00031573,-0.00019214,7.1051e-05,0.0011531,0.00021662,0.0023373,-0.0011371,0.0047752,3.7992e-05,1.973e-05,0.00039372,-0.00038707,-6.8556e-05,-0.00074303,7.4324e-05,-0.00038775,5.8992e-05,-0.00020048,0.00085578,0.00073465,-0.0011344,0.0023739,0.00070317,-0.0011269,-0.00079165,-0.00016563,-0.0010822,0.0013217,0.00032589,-0.00097167,-0.00080209,0.001154,-0.0025932,-0.0013404,-0.0033801,-0.0022902,-0.0012909,-0.00098051,0.00065673,0.0011079,-0.0014465,-0.0076831,0.0053138,0.006076,-0.002608,-0.0094941,0.00062462,0.001797,-0.0040769,0.00016397,-7.9719e-05,-0.002683,-0.00032621,-0.00053357,0.00018283,-0.0010593,-0.00056758,0.00012868,0.0025515,0.00066959,0.0028612,0.0013327,0.00011034,-0.0009309,0.00041205,-0.00052773,-0.0001124,3.9809e-05,-0.00039952,0.00018408,-0.00055671,-0.0010607,-0.0006362,-0.00035287,-0.00022022,-0.0011149,-0.0010043,-0.00045735,-0.00041411,-0.001723,-7.3213e-05,-0.00062705,0.00010212,-0.00035956,-0.00015693,-0.00034887,-0.00038902,0.00016768,-0.00013054,0.0010253,-0.0004269,-2.7928e-06,0.00021366,-0.00067687,0.00026372,0.00030436,0.0010396,-0.00044903,-0.0017683,-0.00076652,-0.0018144,-0.00054646,-0.0021392,6.182e-05,-0.0015914,-0.0011103,0.0014301,-0.0011441,-0.00055846,0.00071475,-0.001122,8.9931e-05,-0.00064947,-0.00042313,-0.00046678,-0.00041836,-0.00097806,-0.0010628,-0.00027527,-0.00019875,0.00070769,0.018426,-0.00069252,-0.0009147,0.0025414,0.0018531,-0.00023017,0.00030285,-0.00053082,-1.8985e-05,0.00052194,0.0008067,0.00042667,0.00013256,-0.00071656,0.00019394,0.00035689,-0.00035808,0.00029032,-0.00013636,-0.00054026,-9.4048e-05,0.00087301,0.00027718,0.00028478,0.00046808,-0.0007803,-0.00011963,0.0004404,-0.00013063,-0.0007123,-0.00028618,-0.00022249,0.0024927,0.008424,-0.00045628,-0.00072229,-0.0014079,0.0039181,-0.0005643,0.00071058,0.0032998,-0.00047942,-0.0044139,-0.00012002,-0.0028429,-0.00068015,-0.0023553,-0.00084721,0.0033858,0.0032149,0.00126,0.00012612,0.00085456,-0.0078971,0.0011674,0.00046787,-0.0002206,-0.0015394,-5.562e-05,-0.00034498,-0.0026524,-0.0016334,0.0014893,1.7416e-05,-0.0030363,0.0031205,-0.0014636,-0.00011435,0.00060932,0.00038746,0.0040285,0.00097505,0.00028572,0.00051175,-0.00029308,8.534e-05,0.00026824,-0.00079624,-3.2259e-05,0.0003689,-0.00027288,-0.00064269,0.00062236,-0.0011869,-0.001373,-0.00054361,-0.00049802,-0.00019565,0.00096576,-0.00063096,0.00047577,-0.00025414,-0.00066413,-0.00021767,-8.7514e-05,0.00095715,9.6565e-05,-0.00057044,-0.00016758,6.8372e-05,0.00015197,0.0024527,-0.002312,-0.00086876,-0.0002449,-0.0021197,-0.00011816,-0.00025136,-0.0006937,-0.001019,-0.0021494,-0.0018114,-0.00016702,-0.00010926,-0.00023973,0.0012131,-0.00045697,-0.00012416,0.00042753,0.0003875,0.00025456,0.0012754,-0.0005517,-0.00069345,-0.00043385,-0.00013541,0.0049339,-0.0011047,0.0086899,-0.0036778,-0.0052011,0.00017711,-0.00028706,-0.0005822,-6.1389e-05,-0.00043323,-0.00047692,0.0013193,0.0022099,-0.00033848,-0.00075414,-0.00054498,-0.0017872,-0.0014676,-0.0012212,0.00037998,0.0022605,0.00044369,-5.1089e-05,0.0010724,-0.00021216,0.00013443,6.6788e-05,-0.00047509,-0.0036968,0.00050607,-0.00056791,-6.8876e-05,0.00015131,0.0012289,0.0012377,0.00073736,0.0012762,0.0028029,-0.0018887,0.0034991,-0.0007965,-0.001142,0.00035652,0.0013071,-0.0019801,-5.4494e-05,0.0017888,0.00094265,-0.0017818,-0.0013544,-0.00033995,-0.00024392,-0.0013222,-0.0015241,-0.0028353,-0.003667,8.1538e-05,0.0001848,0.0020088,-0.00056602,-0.00011383,0.0021427,-0.0017909,-0.00041535,0.00011597,-0.00072876,-0.0036556,-0.0026502,0.003858,-0.00010391,0.0054658,0.0033878,0.0014267,0.00010536,0.00073242,0.00088254,0.00178,0.0016071,0.00097696,-0.0028887,0.00095334,0.00037167,0.00011571,-0.0005524,-0.0007633,0.00049951,-0.00085218,0.00084198,-0.00036472,-0.00027603,-0.00014554,0.00029913,0.00099149,-5.2032e-05,0.00025933,-5.8398e-05,0.00026949,0.00071818,-0.00068434,0.00014848,-0.00012858,-0.00088319,-6.9019e-05,0.00016728,0.00040644,0.00025688,5.3888e-05,0.0034933,-0.00057765,-9.9797e-05,-0.0016934,-0.001378,-0.0020671,-0.00019156,-0.002051,-0.00043501,-3.5553e-05,0.00011319,8.8251e-05,-0.0005023,-0.00033741,-0.00012728,0.00020427,0.00010523,-0.00014943,0.00029797,0.00021446,-0.00046019,0.0032763,0.00014989,-0.0028833,-0.0015018,-0.009777,-0.001214,-0.0027446,-0.00085344,-0.0007529,0.00033055,6.4942e-06,-5.5432e-05,0.0012908,0.00089161,1.2181e-05,-0.0013137,-0.00092814,-0.00038731,-0.0012555,-0.00076488,0.00031392,0.0011675,0.00091681,0.00049206,-0.00095048,0.00022564,0.00047835,0.00050178,0.0012604,0.003951,0.0015774,-0.0013987,-0.00039296,0.00016865,0.00080652,-0.00077739,0.0015966,0.00015479,0.0011523,-0.0012719,0.00071265,-0.00011758,0.0028133,0.0028327,-0.00043226,-0.0015074,-0.0011413,0.00088494,0.00035252,-0.00065508,-0.0026144,0.00031934,0.0028492,0.00098276,-0.0022039,0.0056597,0.0018041,-0.0015162,-0.00023533,0.00051982,-0.0017121,0.0019328,0.00084254,-0.0046387,-0.0016055,0.0013832,-0.00031623,0.0024579,-0.0017675,-0.0011425,6.1754e-05,0.0024039,-0.00014972,-0.00024876,8.6189e-05,5.4357e-05,0.00014695,6.7125e-05,0.00020568,0.00035147,-0.0005713,0.0004676,0.00058679,-0.00017926,-0.00039539,-0.00021043,0.00022483,-0.00056081,-0.00068127,0.00034455,-0.00050276,-0.00010601,-0.00045537,0.0010766,0.00023188,0.00053837,0.00016191,0.00012269,0.0010677,-8.1957e-05,0.0002695,0.0005558,-9.5593e-05,0.00044206,0.00037372,0.00031014,4.0826e-05,6.164e-05,0.00066316,-0.00035998,-0.00011469,-0.0025289,0.00095824,-0.00082599,7.4508e-05,-0.00054055,-0.00012494,1.0977e-05,0.00050977,-0.00035043,2.0952e-05,-0.00023674,-0.00031318,5.3202e-05,0.00071081,-0.00010871,0.00080218,3.6292e-05,4.1051e-06,0.0031775,0.0021132,-0.00026108,0.0086718,0.0074142,0.0027333,1.3346e-05,0.00046669,3.5571e-05,-0.0018655,0.00047806,-0.0022694,-0.0020879,0.00041347,0.00050633,3.803e-05,-2.8477e-05,0.00066045,0.00025072,-0.00033666,-0.00071509,-0.0052584,0.001508,0.00051061,-8.0413e-07,7.2178e-05,-0.0023991,0.0013342,0.001004,0.00013483,-0.0038516,0.0004556,0.0025965,-0.00065573,0.0023474,0.00012562,8.1073e-05,3.1948e-05,0.00016461,0.00041419,-0.00026532,0.00035166,-0.00045159,3.2216e-05,2.2403e-05,-0.0002985,0.00010842,0.000164,-0.00074379,0.0007981,0.0002475,-0.00037162,-0.00054487,0.00012221,-0.00062482,-5.4173e-05,-0.0018559,0.0021183,0.0019249,-0.0006194,0.00077776,0.00072085,0.0013811,0.0015712,0.0006368,0.00048577,-0.0012252,-0.00097396,-0.00065295,-7.9094e-05,-0.0001832,0.0018015,0.00080539,0.0035592,-0.00023591,0.0087466,0.0014747,-0.0050044,0.0021051,0.00016298,-0.0016679,7.0244e-05,1.4646e-05,0.0012188,0.0040151,0.0017356,0.0025898,0.0020764,-0.0029559,0.0008226,0.0003874,0.0019582,0.00094128,0.0011702,-0.00090245,-0.00066306,0.00050268,-0.00012496,0.00061274,-0.0030657,0.0012524,-0.0010367,-0.00024503,0.00028584,-5.0411e-05,0.0017531,-0.00068503,0.00017043,0.0013349,0.00041522,-0.0017541,0.0001432,-0.00044125,0.00019362,0.00024725,0.00078102,-0.00073093,0.00011021,-0.00078625,-0.0020879,0.0017865,0.00036275,0.0065436,0.0075112,0.0012031,0.00040501,-8.4478e-05,0.00073221,-0.003298,0.0026369,0.00041607,2.363e-05,0.00072468,-0.00043851,0.00041797,0.00025025,-0.00052458,-0.00024562,-0.00091662,-0.00012744,-0.00029937,-0.0002114,-0.0001112,-0.0001159,-0.00095844,0.0039469,-0.00058973,0.00045213,0.00034142,0.00046169,0.00066795,0.00078079,-0.00012391,0.0030242,7.3316e-05,-0.00028353,2.6045e-05,-2.7644e-05,0.00022773,0.00022222,0.00012811,0.00029009,8.8124e-05,0.0003796,0.00014949,0.0001269,0.0018452,0.00087821,0.0003185,0.00098078,0.0011939,-0.00032156,0.0018095,-0.00027082,7.1723e-05,0.00045199,0.00033367,-0.0013983,0.00041994,0.00017603,0.00062126,0.0012752,-0.00047247,-0.00012336,0.00010431,0.00045683,0.00022662,2.0939e-05,-6.3986e-05,0.00030755,0.00032255,0.00028449,0.0012694,-0.0014341,0.00040795,-0.00053271,0.00068808,0.00016688,-0.00034347,-0.00067787,0.00041722,-0.00050349,-0.0011447,0.0091153,-0.0022837,0.0013193,-0.00044469,0.0020205,-0.00087414,1.2838e-05,-0.00013716,-0.00067426,-0.00022089,0.0084596,0.00010381,0.0020966,-0.0015735,-0.00017517,0.0058656,0.00048898,0.0028081,-0.00016481,-0.00072292,9.8649e-05,0.00014711,0.00032602,6.9576e-05,0.00027567,-0.0004241,0.00087307,0.00033843,7.7874e-05,0.00028091,0.00029333,-0.00030446,-0.00016493,0.00039571,0.00022448,-5.5734e-05,-0.0027094,0.00033321,-0.00031359,6.7493e-05,-0.00036035,0.00072391,-0.00026831,0.00019719,-0.00071367,0.00010561,0.00020673,0.00036315,-7.9797e-05,-0.0016184,-0.0012497,0.00086896,-0.00013507,-0.0013288,-0.00043274,0.00048353,0.00035561,-0.00044212,-0.0070628,0.00069859,-0.0023672,0.00052743,-0.00079641,0.0034421,-3.9687e-05,0.00062124,0.00096299,0.00029266,-0.0019958,-0.0014589,0.00088168,-0.0012148,-0.0030545,-0.00019982,-9.4401e-05,-3.4582e-05,-0.00024977,0.00042478,0.00032743,-0.00036254,-0.0005064,-0.00062608,-0.0010651,-0.00064931,0.00040953,-0.00047693,0.0013085,0.00097957,-0.00086344,-0.0003464,0.0042903,0.00056429,-1.1356e-05,0.00064449,0.0011243,-0.00012474,0.00083233,0.00035815,0.00039772,0.00042513,-0.00027198,0.00030262,-0.00065054,0.00026444,0.00015079,-0.00034471,0.00031251,-0.00024998,-0.00019565,-1.5409e-05,0.00039049,-0.00023872,-0.00016401,-0.00020169,0.00092892,0.00013567,-0.0010811,-0.00018948,-0.00036386,0.00015408,0.00043114,0.00021516,0.00081267,0.0012585,-0.0024783,-0.0024073,-0.001894,-0.0015606,-0.0013273,-0.00077596,-0.00028697,0.0002412,0.00034466,0.00067872,0.00049886,0.001724,0.0017169,0.0024859,0.00060003,2.0169e-05,0.0011282,0.0016654,-0.00098293,0.00034926,-0.0053136,0.00092091,0.0017119,0.0045352,0.0007318,0.00095625,0.00038712,0.00094208,0.00013521,-7.1151e-05,0.0010042,0.00048679,0.00046775,-0.00025111,-0.00079064,-0.0023119,-0.0005594,-0.0030526,-0.002265,6.4087e-05,-0.00087885,-0.0016451,0.0018865,0.00041665,0.00060773,0.00021224,0.0051999,0.00013089,0.00099251,-0.0018683,-0.00037228,0.0014048,-0.0010537,-0.00074376,-0.0014025,-0.0029063,0.0025856,-5.2174e-05,0.00086079,-0.00094857,-0.00048315,-0.0001804,-0.0015839,-0.00040182,-6.33e-05,-0.00046622,0.00019825,-0.00053595,0.001623,2.7643e-05,0.00021794,-0.00013419,-9.5001e-05,-0.0087967,7.5784e-05,0.00083927,0.0012978,0.0014598,-0.00041015,-0.00034772,-7.957e-05,-0.00022574,-0.00052679,0.00083728,-0.00010019,-0.00015798,-0.00051898,-0.00056367,0.00010529,0.00056476,0.00012639,-9.4446e-05,0.00023435,0.00095063,0.00038876,0.00018509,0.00044935,-0.00024957,-0.00029025,0.0050686,0.00010022,0.0037381,0.00029332,0.00038693,-0.00064513,0.0017627,0.00047308,0.0009587,0.001069,-0.00011385,0.00068199,-0.00019766,0.00018991,0.00050195,-0.00042171,-0.00020254,0.00034808,-0.00047158,-0.00027064,0.00073754,-0.00010439,0.00011565,6.4293e-05,0.0081589,-0.00037193,0.00064111,0.00015008,0.00027372,0.0002454,0.00074471,0.00029653,0.0008492,0.00098313,0.0018503,-0.0005626,0.00020518,0.00014093,0.0013004,-0.00054616,-0.00032015,0.00024658,0.0027251,-0.00041608,0.0028246,-0.00051761,0.0018218,-0.00075536,-0.001779,0.00055713,0.00083305,0.00030205,0.00029653,0.00079034,-0.0039945,-0.00088704,-0.00043909,0.00063726,-0.0013112,-0.00061162,0.00013448,0.00053533,0.0004765,0.00021588,0.00057055,-2.1099e-05,0.00036366,-0.00011505,0.00048288,-0.00047147,-0.00064261,5.0013e-05,0.00062185,-0.00053692,0.00035288,-0.00039597,0.00018394,-0.00017525,-0.0018461,0.00010012,-0.00089911,-0.00028693,-0.0035461,0.00039265,-0.0018705,0.00016179,-0.0036163,4.3027e-05,0.00020411,-7.2494e-06,-0.0020875,0.00040935,-0.0015084,0.00083552,-0.0010648,0.00028472,0.00068484,-0.0014018,0.00032341,0.0010153,0.0015942,0.00023345,